1024 94 26
0.030378323 -0.10409181 0.07495171 0.09396307 -0.19519673 -0.13031118 0.01269068 -0.031717602 -0.0017734842 -0.085397795 0.0878464 0.07768579 0.0065097036 0.11263071 0.04665749 -0.086022645 0.036781635 -0.09598166 0.08775163 -0.00508596 -0.01857958 -0.06818636 0.12216078 -0.015546318 -0.04292622 -0.035306793 0.053137477 0.036450963 0.041179825 0.04298866 0.21407156 -0.040734943 -0.05131771 -0.08147068 0.0615045 0.11280383 -0.011488115 -0.08410905 -0.082541525 0.064965874 0.07423201 0.054221984 -0.06664437 0.023122802 0.011575211 0.021775529 0.08704947 0.022266224 0.06779796 0.0066645434 0.028818615 0.06303541 -0.1458088 -0.0320605 -0.047130708 -0.063981175 -0.027607556 0.1494009 -0.08667652 0.096734434 -0.16838019 -0.033581953 0.016181976 0.058528792 0.07102926 0.07924132 -0.034965944 -0.046328615 0.08570418 -0.019223765 -0.12766184 -0.113422126 -0.09203863 0.049622636 0.014149219 0.06895514 -0.042818706 0.015760638 0.06246567 -0.031027984 0.045584086 -0.066286 -0.036398824 -0.03826723 -0.119677365 0.048603807 -0.04703367 0.0011560408 0.04798123 0.044559676 0.06644511 -0.009941917 -0.042423274 -0.008065185 -0.16882665 -0.14480446 -0.13236319 -0.09981808 0.039883982 -0.090641305 -0.037909698 0.12982963 -0.035719838 0.07365815 -0.093455166 -0.020637088 -0.095095605 -0.03399672 0.08393741 -0.17282526 0.043348927 0.023680229 -0.05950843 -0.14469899 0.0071195792 -0.053042714 0.02317429 0.0020918502 0.16008468 -0.024028894 -0.10244316 0.017834231 0.021906339 0.13582553 0.08341771 0.03559367 0.14623706 -0.11896971 -0.06406854 -0.092751 -0.039074417 -0.13776182 0.0634217 -0.022315599 -0.14717384 -0.10165131 0.031257946 0.08371925 0.19957988 0.29129142 0.041347507 -0.099047214 -0.21329783 0.026677817 -0.08138752 -0.04162917 -0.06130312 -0.014172459 0.10650462 0.01561153 -0.015956858 -0.10365878 -0.16756152 -0.04872423 -0.0054716254 0.17669977 0.012934081 0.09818055 -0.050023 -0.11858778 -0.09660508 -0.07261601 0.21275376 -0.08223207 0.08375552 -0.09038612 0.09306389 0.03840166 -0.015757157 -0.0041696243 -0.06557216 0.04451378 -0.04559179 -0.122653976 -0.12788703 0.01716546 0.15781592 0.015905831 -0.011957202 0.028489284 0.13050695 0.02184492 -0.041186165 0.11053547 0.042782206 0.15348239 0.018230114 -0.12254031 -0.13690914 0.16499959 0.17227335 -0.01804525 -0.038412172 0.14605121 -0.11079797 -0.08956611 0.06423928 -0.03955395 -0.0006055526 -0.016437639 0.033664014 0.14065497 0.00896512 0.06430048 -0.20511042 -0.0049652085 -0.084416434 -0.12197471 -0.08790864 -0.033505794 0.091496855 -0.1327325 0.0029697847 -0.048510384 -0.03286073 0.100182384 0.0537181 0.13364659 -0.015543938 -0.069687665 -0.022479214 0.024156347 0.017564006 -0.108532205 0.008955607 0.022729501 0.2516526 0.18759124 -0.08541773 -0.028831668 -0.14643742 -0.05916414 0.03146706 0.12049195 -0.07300179 -0.06550801 -0.21482213 -0.016359944 -0.10633485 -0.05303738 -0.08777948 -0.009519631 -0.17586605 -0.14679773 0.21283148 -0.12883548 -0.10977197 0.18359815 0.2904119 -0.11725007 -0.03691834 0.034062114 0.17277656 -0.09877911 -0.024621114 0.077640355 0.04338317 -0.037709046 -0.013475666 -0.1375828 -0.023910705 -0.02673208 0.02312366 -0.055626165 0.04706041 0.101178184 0.015449608 0.035082202 0.12281394 0.1180764 0.045912307 0.09612653 0.09688034 0.31592596 0.14772052 0.039200746 -0.074461736 -0.10939715 0.119020894 0.026181594 0.0479209 -0.1745518 0.09265044 0.045348596 -0.111136466 -0.047245923 0.026278391 0.005153318 -0.02931045 -0.010442197 -0.025291067 0.015162915 0.14705597 -0.25676066 -0.023778357 0.017557912 0.029506058 -0.0372849 -0.089935094 0.118536696 0.22120705 -0.2309568 -0.05956954 -0.23326166 -0.16944222 -0.15846957 -0.24332164 -0.22046575 -0.1371449 0.06284064 0.11764778 0.11860937 0.20733766 0.04380588 0.08270541 -0.029750425 0.006561216 -0.06983578 0.09886499 -0.11792377 0.07814163 -0.019158438 0.117031306 0.07499349 0.18197142 0.07298407 -0.15729724 -0.006788687 -0.11729412 -0.051921424 0.32033306 0.3678366 -0.044999216 -0.14224058 -0.19037403 -0.13604037 0.2425325 0.072969824 0.39152122 -0.046555135 -0.53736454 0.008350193 0.14198251 0.15362477 0.19456519 -0.20641704 -0.059203785 0.058997188 -0.15825264 0.14750169 0.03674222 0.084565 -0.057187807 0.08128296 0.10675375 0.023194473 0.02334676 0.026940994 -0.08642793 -0.014846237 -0.015345624 0.03824595 0.18336251 0.12784494 0.025414638 0.06710611 -0.27169892 -0.33022702 0.06752202 0.34103388 0.37698966 0.30476618 0.21292762 0.27540874 0.13460968 0.26570958 -0.020609498 -0.20044546 0.16033222 -0.045863386 0.010694675 0.13086186 -0.16031916 -0.12525782 -0.160221 -0.07950704 0.04387022 0.05232534 0.027534086 -0.1413698 -0.23110355 0.005342 -0.04727104 0.04584514 0.15357551 0.20542936 0.12048405 -0.057039265 -0.21699014 -0.37872013 0.07517826 0.32294855 0.17793705 0.066210024 0.27938828 0.37688014 0.12823327 0.11589614 -0.19939925 -0.12974046 -0.14831175 -0.23345484 -0.06791985 0.07484999 -0.028581738 0.019685678 0.10882835 0.1326754 -0.007007164 0.13526537 0.009119296 -0.08383323 -0.059533473 -0.14814685 -0.088906795 -0.035895105 0.080265105 0.27785155 -0.09199269 -0.1104772 -0.044252653 -0.031781536 -0.41541108 -0.38077062 0.12727253 -0.13274075 0.14205964 0.26315093 0.07455907 0.042695608 -0.019017763 0.03277276 0.036098745 0.13197295 -0.034372043 -0.147779 0.106628835 -0.033242244 0.11136584 0.038244274 -0.013207123 0.03478415 0.19500805 0.20760484 0.006844748 0.015925728 0.10753061 -0.0846595 0.033213597 0.10318844 0.11933311 -0.26613417 -0.2670278 -0.29356197 -0.27803233 -0.17668818 -0.09586131 0.23776388 0.36534774 0.33479702 0.174758 -0.04080126 -0.028529715 0.018439233 0.0618237 -0.034019273 0.106291756 -0.11428723 0.0005405377 0.25967258 0.022214644 0.14322825 0.009058647 0.057984266 -0.005771689 -0.017134104 -0.07804164 0.042936694 -0.08524713 0.066465124 0.1084353 0.058954433 0.021782523 -0.16367704 -0.1365566 -0.0016860345 -0.14024982 -0.107703224 -0.2882966 -0.08202279 0.25848514 0.52052456 0.06803935 -0.15034355 -0.2965477 -0.05444299 0.24194829 0.043394987 -0.05605067 0.04641458 -0.15618904 -0.029825665 0.009854376 -0.008703439 0.07898721 0.03437108 0.0667392 -0.068930626 0.08968814 0.16280048 -0.09710835 -0.08886297 0.13348521 0.08490194 0.13520837 -0.05018352 -0.02309884 0.056236427 0.31958225 0.3302951 -0.24272873 -0.35309884 -0.23883452 0.32261667 -0.09587998 0.06365369 -0.05397057 0.11468786 -0.23951925 -0.078749985 -0.16874002 -0.082716346 0.02467326 -0.018015992 -0.02543109 -0.016011855 0.020245492 -0.10094701 0.070591554 0.066173196 0.038410354 0.055559907 0.029548459 0.20341413 -0.00880279 0.07332798 -0.08056397 -0.1884479 -0.2846602 -0.2741063 -0.07253619 0.073588476 -0.3386497 -0.3802255 0.0033345039 0.3513242 0.044730928 -0.06538497 0.05474935 0.018704027 -0.14490594 -0.006891395 0.02611025 -0.09006289 0.01889101 -0.14557545 0.13352539 0.1247015 -0.025345065 0.036251996 -0.24108543 -0.11572817 -0.029471222 -0.107306704 0.07134624 0.19963644 -0.11775488 0.011382998 0.08026564 0.21198602 -0.43455064 -0.24472734 0.2165994 -0.09925407 -0.22404324 -0.31387678 -0.54122764 0.20955317 0.08138786 -0.17758943 0.051447604 -0.057847325 0.12735151 -0.062852256 -0.06375493 0.054019723 0.07619925 0.044716496 -0.16865294 0.053710002 -0.10352421 0.023434281 -0.14246665 0.044538777 -0.0807533 -0.12835665 0.071288615 0.02407112 -0.06149112 0.24024698 -0.15362364 -0.25912267 -0.47683 -0.41767237 0.24610105 0.18752435 0.018313967 -0.022070432 -0.5538176 -0.32133853 0.2898655 0.254838 -0.040620368 -0.19377701 -0.031141728 -0.028715625 -0.019085716 -0.11143221 0.057862673 0.052357297 -0.14953376 0.069826275 0.2051753 0.017102703 -0.03382593 -0.014293691 0.061432254 -0.17316039 0.01634574 -0.039139833 0.1846893 -0.017510604 -0.020450257 -0.2554449 0.21823044 0.053456087 -0.044838157 0.051824853 -0.040342744 -0.32172215 -0.2979729 0.023869596 -0.052220486 0.003787716 -0.008252144 -0.17065842 -0.16165905 0.048113246 -0.052365307 -0.25656927 0.078391 0.027143646 -0.071480885 -0.13177623 0.08348739 0.034841623 0.238167 0.04192542 0.038676877 -0.016786147 0.081584185 0.062415164 0.12507929 -0.052225735 -0.1104646 -0.038710378 0.11294713 0.19032419 0.115825765 0.1192324 0.15607873 -0.02103766 0.046855845 -0.16950661 -0.026999619 -0.0287555 -0.23212881 -0.09645724 -0.091609016 -0.020203795 0.11120318 -0.024599396 -0.103174776 -0.0057888236 0.10482396 -0.097689286 -0.091150895 0.055761453 -0.022246942 0.064655066 -0.0014580473 0.070072964 -0.10360122 -0.0013018326 -0.021162331 -0.121682495 -0.15644102 0.068481505 -0.03518868 -0.10232143 -0.009711269 0.11270848 -0.22816701 -0.14975707 -0.05820402 0.18020234 0.06762281 0.08810277 -0.1141095 -0.11204699 0.04468793 0.00573407 0.054780442 -0.01886043 0.027721044 0.01571858 0.07768333 0.08060743 -0.16208042 -0.22482006 0.10008113 0.118679106 -0.1021557 -0.18607675 0.009810112 0.09299041 0.17966624 0.051536318 -0.03726511 -0.08940646 0.001051756 -0.030019801 -0.1016002 0.20478235 0.17842363 0.11351146 -0.09217845 0.08540852 0.06386924 0.044161122 0.12487302 0.063443705 0.073908016 0.06359722 0.0339857 -0.17845432 0.008268738 -0.055712637 -0.12807731 0.16808845 0.17280631 0.13582884 0.025428012 0.13496931 0.0011119473 0.020186398 -0.109440535 0.03960569 0.00594523 -0.13035841 -0.005213082 -0.008066319 0.1796629 0.08932793 0.001051172 0.0247854 0.0043278662 -0.020384729 -0.10833612 -0.015198559 -0.07470323 -0.12512468 0.05102874 0.03903303 -0.17876397 -0.012361834 0.09947674 0.10582897 0.102490276 0.0037979535 -0.08459793 -0.10846329 0.03436705 0.037834566 0.12863989 0.10990456 -0.013316236 -0.124514 -0.032004025 0.021629788 -0.020301655 -0.05788285 0.025195152 -0.050489213 -0.06290012 0.031051861 -0.0402927 0.024317108 0.02722707 -0.11403631 -0.048217554 0.14368449 -0.11630136 -0.21175866 -0.18627773 0.0028176298 0.0029983632 -0.011854455 0.12132558 -0.26737827 0.03949995 0.15605061 -0.11287148 -0.038074087 -0.07538259 -0.08952801 -0.03271961 0.14265533 0.18364544 -0.03368737 0.1904128 0.0034642825 0.17527588 -0.009423241 0.013012417 0.03645401 0.31779057 0.08503516 -0.070819855 0.09680638 -0.036276694 -0.049068455 0.09076673 0.003015194 0.02776426 0.0013051479 0.033564877 0.04240315 -0.19378991 0.06656386 -0.098295346 -0.14432313 -0.0059344945 0.00830473 -0.069444016 0.08300978 -0.13431074 -0.040787812 -0.058580857 -0.004752095 0.027793098 -0.100882694 0.07233487 0.006206871 -0.18928783 -0.19595237 -0.0013252968 -0.022190064 -0.010435382 -0.0028916071 0.022462655 0.09467156 -0.111203894 -0.11729056 -0.10942578 0.028798334 0.12440124 -0.043227386 -0.2502645 -0.17049251 -0.083397076 -0.055866327 -0.0409323 0.0037647465 -0.03126798 0.10484056 -0.06769514 -0.0863252 0.047794115 -0.15365742 0.038875733 0.010161947 -0.014837619 0.1587344 -0.062314186 0.2059366 -0.022636477 -0.12779485 0.0068985894 -0.10771793 -0.075268984 0.03960989 0.05546477 -0.062310208 0.09864712 0.115657374 0.14353697 0.052847903 0.13624965 -0.18817307 -0.03188399 -0.08679393 0.011829216 -0.05723836 -0.016709134 0.18812428 -0.017065324 0.041285794 -0.023320265 0.007477956 0.00050829904 0.044738967 0.116437346 0.1646462 0.030868605 0.058861252 -0.11517985 -0.008881051 0.09393555 0.08650346 0.021067642 0.08854599 0.048983235 0.119937226 0.02884259 -0.035663273 0.033490684 -0.29315424 0.038195137 -0.3649361 -0.17243956 0.045083422 0.047659498 -0.116336286 -0.071303606 0.13696088 -0.04849645 0.2241988 -0.00028535348 0.040710177 0.16159423 0.013009347 -0.100327805 -0.011066116 -0.0036544362 -0.13656737 -0.025676537 -0.07431261 0.09234238 0.003367823 -0.028372906 -0.01071156 0.022218872 0.06158798 -0.10006462 -0.104252174 0.11037451 -0.04132713 -0.14177741 0.044287834 0.046243545 -0.15316473 0.022854842 0.0734649 0.037345205 0.06310475 -0.14052011 0.033010576 -0.030355308 -0.04837246 0.08696216 0.14783423 0.1793438 0.13138758 -0.011066791 0.035178576 0.076588884 0.012024425 0.012983054 0.0822819 -0.0060216356 -0.0730221 -0.041540746 0.06329763 0.00020596212 0.033927556 0.06691451 -0.037577588 0.07553141 0.037790824 -0.12357472 0.14413728 -0.050167914 -0.16560276 -0.10459778 -0.102197915 0.0051239682 -0.027478382 -0.03377663 0.0618768 0.033894096 0.031511348 0.04088941 0.06152003 -0.21076836 -0.036414344 -0.21799403 0.003635124 -0.00043416803 0.10458271 0.11879292 0.0203065 -0.050006624 0.04854559 -0.05276228 -0.00011013555 0.09864312 -0.055747654 0.08059735 0.06776962 -0.0954497 0.0974189 0.06988612 0.010221765 -0.07620286 -0.08589112 -0.053736776 0.054288927 -0.095533036 0.043780707 -0.124146074 -0.020377865 0.010993952 0.24453999 -0.1377046 0.14722843 0.015013418 0.041146673 0.011863967 0.044502165 -0.015339334 0.145432 -0.045617633 0.11325294 -0.06440723 -0.0059960666 -0.107166775 0.045531854 0.14453956 -0.0077065 -0.019659575 -0.11143222 -0.022900272 -0.15925245 -0.09125832 0.022707598 0.1319283 0.2809539 -0.058629025 0.14355698 0.024404243 -0.015095588 0.043288928 0.0062207663 0.011068749 -0.040803835 -0.139784 -0.15433554 0.06535397 -0.027641015 -0.05957941 0.0008796928 0.07952271 0.018065387 -0.06557601 0.122658774 0.15794553 0.049485147 0.09739583 0.12422548 0.11303941 0.0614394 0.059864186 0.05199554 -0.109704286 0.0701018 -0.13555443 -0.07943046 0.13038348 0.0840515 0.1487668 -0.027138444 -0.1151954 -0.024014726 0.010232306 0.007928048 0.11339753 -0.03609756 0.035232928 -0.09883323 0.04506121 0.0003399842 -0.07495185 -0.023553941 -0.01838858 -0.026986519 0.1771611 -0.009815424 -0.024360618 -0.20971812 -0.089391254 -0.026278349 -0.06855579 0.13819773 -0.016464783 0.1288714 0.006199581 0.003751915 -0.008850468 0.00040875433 0.17190647 -0.2319341 -0.2001276 -0.0542876 0.0014819162 0.069039926 0.047338203 -0.03839511 0.10193385 0.103049025 0.018434778 0.09629524 0.02729352 -0.05611882 0.069811165 0.011090489 0.00016311405 0.14732233 -0.24506024 -0.14174144 -0.118677564 -0.036296584 -0.025431823 -0.15070559 -0.09848632 -0.08605468 0.24576938 0.18020117 -0.04114546 -0.03632885 -0.11489092 -0.19078606 -0.011658842 -0.09975572 -0.008455876 -0.15999362 -0.07616796 0.014891886 0.03665044 0.04177668 -0.13202193 0.08549806 -0.07999169 0.06331527 -0.0010347398 -0.13761178 -0.03159029 0.036565855 0.06132602 -0.014069613 0.15320486 0.10078056 -0.025636418 0.07504167 0.19340631 0.19607542 -0.1227705 -0.09262383 0.14851885 -0.105798624 -0.13222714 -0.04858993 0.042052153 -0.0102104945 -0.06502688 -0.06739176 -0.07120422 -0.08792148 0.22819026 0.029780101 0.08870539 -0.048878264 -0.018566674 -0.07132591 -0.265138 -0.13777396 -0.1810349 -0.2249514 -0.11950642 0.13252254 -0.004414499 0.12908335 0.04112774 0.07828537 -0.09006022 0.052424576 0.072900906 -0.057635248 0.055983517 0.056648258 -0.05492578 -0.11224736 -0.11838335 0.008679731 0.032730468 -0.079223104 0.0026876654 0.057083186 0.061848555 0.15521498 0.12772505 -0.10009966 0.1683856 -0.05306817 0.10451676 0.0068277805 -0.041185457 -0.18074271 -0.017127458 -0.15591136 0.09675941 0.15170623 -0.079661615 0.030226069 -0.07250967 -0.06281899 0.07747895 -0.0038246948 0.17399177 -0.048193768 0.09996311 0.009770518 0.079607286 -0.044686284 -0.004926766 -0.011520712 -0.08357623 0.066237636 0.06505438 0.059384953 0.15372354 0.14496145 -0.037464987 0.037334714 -0.06233059 0.002364663 -0.059945464 0.162034 0.036399297 -0.02177392 0.11939134 -0.21703456 -0.2013833 0.07961335 0.0060759624 0.025073623 -0.13261265 -0.0022942398 0.20037791 0.08244944 0.016999649 -0.04387591 -0.039582465 -0.21287091 0.025814429 0.084532455 -0.15751584 -0.06609851 -0.11569165 -0.0966331 0.0054087043 -0.2083801 0.061456528 0.075414985 -0.025081266 -0.24804388 -0.09961238 0.12331968 -0.2777666 -0.03472286 -0.11797059 0.08048651 -0.06748191 0.040424883 0.056575526 0.18364955 -0.020265201 0.03763392 -0.14847858 0.119070835 -0.0760214 -0.056045935 -0.0021239086 -0.15618862 0.022700606 0.09670069 0.028958159 -0.15912536 -0.012504224 0.07425793 -0.18770091 -0.107657865 0.08767735 0.02704097 0.04122664 0.18605101 0.046933714 0.06581828 0.2711074 -0.021351462 -0.07975879 0.04280912 0.043928586 -0.05264206 -0.10321022 0.23101142 0.03271383 -0.073199056 0.09162251 -0.010885338 -0.02525915 0.056256767 -0.12916125 0.0352922 0.19142379 0.046870224 -0.03764112 -0.05108117 -0.041685186 -0.025612889 -0.03765512 0.091708995 -0.17333438 0.085984804 -0.038238782 0.037582476 -0.11254563 0.13299328 0.12464321 0.095988534 -0.1514485 0.08294159 0.04051499 -0.16050015 -0.002400607 0.03648293 0.05563701 0.01775513 0.029152136 0.14738812 0.122632876 -0.28667265 -0.031714372 -0.01643611 -0.17518288 0.009447482 0.124931954 -0.108425505 0.033811953 -0.091832794 -0.0677759 0.14758319 -0.05397507 0.04646964 -0.18688181 0.18647045 0.05978629 -0.018311247 0.05763574 -0.14090212 0.11828256 -0.032368995 -0.020377958 -0.04913608 -0.058035657 0.06949654 0.025619678 0.06520429 -0.0008503388 0.051349465 -0.04185539 0.22300015 -0.15676607 0.1261207 0.13681772 -0.0851864 0.22295433 0.09957851 0.09717008 0.0029851657 -0.021447707 -0.021053417 0.038488183 0.1397958 0.018632587 -0.090666525 0.08252375 0.09217603 0.0651048 0.07485119 -0.026934868 -0.09281921 -0.08678986 -0.16351935 0.023723856 -0.008315702 -0.04396929 -0.29552904 -0.12470227 0.11211355 -0.06643312 0.03608865 -0.13904157 0.14389752 -0.014373589 0.029033033 0.23260495 0.15167098 -0.030627567 -0.059292536 -0.032525018 0.051101044 -0.010225807 -0.03948547 0.14651366 -0.011731522 0.22934677 0.009057553 0.17876445 0.035894394 0.09632183 -0.07223298 -0.08521782 0.04600008 0.098884806 0.004054768 -0.12861237 -0.13599886 -0.14268667 -0.17673524 0.010977712 0.112533875 -0.0013124507 -0.22601451 -0.019047052 -0.016250907 0.20962685 -0.14568682 -0.03903828 0.17061225 0.045027316 0.05636079 0.01148762 0.03310557 0.078062624 -0.080958925 0.08752748 -0.1375395 0.03232146 0.017420694 -0.061616775 -0.0020901407 -0.06223702 -0.10712106 -0.03520362 -0.110369384 0.032309227 -0.114979066 0.071227185 -0.11811843 -0.05660001 -0.06243086 0.13254164 0.033058476 -0.021144386 0.049901426 -0.21069226 -0.0042842412 0.1997784 0.013263827 0.0068204347 0.05484232 0.089590006 -0.1997197 -0.16820568 0.02111277 -0.071215004 0.13136229 -0.031559747 -0.19376227 -0.12708053 -0.27518958 -0.023105366 -0.018419622 -0.042393576 0.10793698 0.120010085 -0.017009849 -0.2134424 0.06175764 0.055565506 0.03096815 0.098177455 -0.11645333 0.2009025 -0.09591329 0.074951775 -0.1687078 -0.092996985 0.15166384 -0.02606099 0.08402174 0.023724534 -0.010466639 0.13641201 -0.023636889 -0.17804684 -0.08022379 0.055319488 0.039921492 -0.15656142 -0.07252527 -0.057970107 -0.03618036 -0.13767307 -0.06272569 -0.073034726 0.07725417 0.08101826 -0.01455187 -0.039174497 0.014021608 -0.08162803 -0.11465373 -0.093992636 -0.063451834 -0.1163179 0.01623495 0.07300105 -0.15868285 0.0025420024 -0.021964585 0.03418035 -0.0012647489 -0.14533296 -0.12621196 0.0029714887 0.102907576 -0.22139177 0.034673084 0.11912058 -0.014983431 0.05520797 -0.070422545 -0.011848108 -0.16170752 -0.23480493 0.093983665 -0.09869039 -0.04545165 -0.13853885 -0.14097 -0.017354775 -0.072928235 0.037826583 0.045283325 0.032114446 0.023889072 0.15780379 -0.106729895 -0.005464369 0.11329846 0.12648095 -0.14214939 -0.03120655 0.13583907 0.050837394 0.019555297 -0.021739475 -0.038350612 0.0288509 -0.02516729 -0.004058733 0.008158761 -0.06782696 0.05297235 0.29133317 -0.17763914 0.032159075 -0.07632271 0.057502143 0.0046670055 0.076273486 0.11758014 0.019271106 0.11323471 -0.23440282 0.1590722 0.037535697 0.10781382 -0.12195809 -0.08304751 0.014623006 -0.001674661 0.028335853 0.108481 -0.17649506 0.09741139 0.00085732114 -0.020349192 -0.14708455 0.05033435 -0.24138382 0.064909175 -0.14911966 0.0055077686 -0.012123055 0.116798215 -0.017736694 -0.06931074 -0.050729435 0.12742454 0.053504787 -0.038537357 -0.023488991 -0.15669073 0.038876902 -0.1759546 0.075209126 0.012891335 0.23872215 -0.10998407 -0.010237033 0.17985573 0.119168445 -0.06959172 0.022425737 0.00022906502 0.02822458 -0.06983856 -0.008902864 -0.15977827 0.0135415215 0.045031548 -0.022712948 -0.16147812 0.09890006 0.03653515 -0.072397366 -0.027827961 -0.14998375 -0.102454245 -0.053690802 0.122783385 -0.06384096 0.063940324 -0.05378217 0.024843823 -0.014110373 0.08733514 -0.053451654 -0.15722585 -0.13816793 -0.05315827 -0.124876514 0.041050684 -0.046547335 0.23748763 -0.17374448 0.020392312 -0.11276582 -0.04931065 0.0141711235 -0.23251016 0.023711605 0.19031772 -0.04531435 0.02600978 0.102530725 -0.016382845 -0.058074854 -0.22754504 0.06411304 -0.011302751 -0.10125707 0.012767246 -0.058223963 -0.05276506 0.060706668 -0.13377795 0.10476101 -0.13974164 -0.06624066 0.19232158 0.112764955 0.009789576 -0.09402354 -0.052897748 0.0073566493 0.0037814546 -0.009057917 -0.00305412 -0.021408517 -0.1441709 -0.051621594 0.091491885 -0.13680646 -0.018926557 -0.08194591 0.011164219 -0.038833838 0.14776634 0.050687797 -0.13115335 0.067152284 -0.0774357 -0.057670154 0.031411383 -0.049108524 0.08935222 -0.07739464 -0.06185607 -0.06560761 -0.056534395 0.109948635 0.06290911 0.17102137 0.2267914 -0.10304222 0.0070710303 -0.11759055 -0.07773111 -0.06297877 -0.10568601 -0.105159245 -0.014399261 -0.12164236 0.08424218 -0.09174587 0.28098974 -0.045108963 0.007230882 -0.12950715 0.17063615 0.11197955 0.02972058 -0.13465329 0.021095682 -0.112113625 0.1462625 0.08094896 0.009573081 -0.24361059 -0.09831212 0.0688056 0.12131785 0.11094646 -0.15917432 0.030184224 0.10158101 -0.16580659 -0.0007613214 0.027413234 -0.030047465 -0.18518922 -0.03254033 -0.03270106 -0.014778064 -0.05631766 -0.044271734 -0.0039415103 0.04427494 -0.030413682 -0.040935412 0.00926458 -0.19206463 0.047732994 -2.7180216e-05 0.0039984705 0.096102916 -0.19525458 -0.19735642 0.027409378 -0.0006825554 0.017046688 -0.046183225 0.06646485 0.09329337 0.048427712 -0.026053851 -0.21074197 0.076953106 0.12220235 0.06448533 -0.08793476 0.06740892 0.08608245 0.1559086 -0.08758151 -0.022616465 0.07475669 0.005770125 -0.11170328 0.04149111 0.057895645 0.008825466 0.021987487 -0.025841596 0.14785486 -0.09003974 -0.058702596 0.0011276793 0.08792488 -0.14971034 -0.13100271 -0.20374589 0.0032986538 -0.1118011 -0.038425528 0.0661673 -0.06412479 0.023157196 -0.029904798 0.067240916 0.04754229 -0.06916389 -0.016836181 0.10440382 0.03936717 -0.13966924 0.06559129 -0.10843158 0.14127828 0.10243937 0.029017542 0.015752278 -0.020874232 0.067881875 -0.037048336 0.02358598 0.08722292 -0.056151174 -0.061589792 -0.119407065 -0.10641779 -0.18281256 0.07301236 0.18091843 0.14255987 -0.16258147 0.07251495 0.1422376 -0.045651518 0.01017392 -0.20076233 0.02670261 -0.10632649 0.019992495 -0.15609331 0.054315306 0.10248075 -0.0782885 -0.11366278 -0.21557534 -0.02661236 -0.05812991 -0.15507497 0.04533136 -0.044967555 -0.10754412 -0.05542776 0.107159935 0.060323175 -0.01297343 0.061939985 -0.11606172 0.0032661413 0.01476141 -0.04695417 0.043575317 -0.07801387 0.05101155 0.05521536 -0.29168314 0.119060054 -0.30473042 -0.06157542 0.10256428 -0.03169919 -0.14659163 -0.10934422 0.10272006 -0.19212349 0.11292859 -0.0054810923 -0.11921005 -0.058282025 -0.10169295 0.086652 0.073272265 -0.17188914 -0.04032973 -0.086289085 0.12937796 -0.13498294 0.16044988 -0.0033003427 -0.11616396 -0.067697935 -0.0801324 -0.12743486 0.009511863 -0.12276208 -0.21800965 -0.037938166 -0.18025865 -0.0751866 -0.090880804 -0.087092124 0.20012328 0.0056702746 0.024566095 -0.17761286 -0.065366834 0.021559257 -0.10242341 0.090835765 -0.120240174 -0.02860762 -0.058575682 0.01646106 -0.06401952 -0.027060369 -0.023584016 -0.0734093 0.048538867 0.02386783 -0.008832218 -0.04301635 0.079683885 -0.023554431 -0.030640734 0.010498179 0.16968563 -0.13400865 0.07701517 -0.18929015 0.02175631 0.15753525 0.048896335 0.017091502 -0.056015465 0.0031338513 -0.025177287 -0.078568175 -0.028958568 0.01986711 -0.07669222 -0.0805987 -0.13599737 0.039101984 0.05456181 0.023195038 0.09654653 0.0088159405 0.039230574 0.030412737 -0.009124826 -0.0530527 0.22144224 -0.045165617 -0.06655829 0.043430462 0.025214436 -0.14045218 0.112297304 -0.0093902815 -0.11106363 0.11890789 0.06259704 -0.12642723 0.17774525 0.06590922 -0.0009904837 0.15904886 0.015958773 -0.0027791762 -0.06600053 0.058214527 0.047689777 0.0014971419 -0.07896915 0.013022162 -0.0069507607 -0.13332047 -0.14715426 0.056544818 -0.26015598 0.020570047 -0.047778822 0.13085163 -0.049317338 0.0659779 -0.039661903 0.011403992 0.07371314 -0.046226088 0.09968497 -0.099340305 0.029488279 0.092293456 0.06603323 0.19167146 -0.07631445 -0.13788795 -0.09940403 0.06607374 0.049821775 0.00512425 -0.117397144 0.07158528 -0.1275718 0.110793516 0.28064197 0.03154375 0.05320945 -0.054387342 -0.18612276 -0.065373406 -0.11439097 -0.14980187 0.16713457 0.022184798 0.03286739 -0.036003586 -0.02238856 0.091353625 -0.008335127 0.047968026 -0.024701884 -0.039316658 -0.14579283 -0.20287631 -0.03125764 0.0005482492 -0.13371442 -0.008548902 0.00027383614 -0.22070222 -0.096613914 0.035625022 0.033604506 -0.120468944 0.01074338 0.09713927 0.07260585 -0.014630001 -0.051898997 -0.06803587 0.041680615 0.014408963 0.057839062 0.008085959 0.076774955 0.0043578376 0.07336743 0.081980824 -0.08555411 -0.18591581 0.14924787 0.02056442 -0.17655002 -0.0764834 0.07208598 -0.033069033 -0.056307506 0.13498677 -0.109830156 -0.084916785 0.016037194 0.033944126 0.044532936 0.08602236 0.01475643 0.04383703 -0.03102238 0.0011684081 0.0056520007 0.01640836 0.07215254 0.050413202 -0.0006797204 -0.08601405 0.0016657024 -0.0079032015 0.014216734 0.21555112 -0.05747864 0.037127536 0.101744756 0.0046987752 0.2286831 -0.042905297 0.02730746 -0.08498202 -0.040253837 0.01979194 0.07952896 0.026808018 0.12080993 -0.014597954 -0.03831822 0.26529664 0.0343224 -0.0770496 -0.074527815 -0.09936944 0.088555485 -0.04153909 0.00763483 -0.011452295 0.06804779 -0.08977586 -0.11265868 0.01732828 0.054994565 0.028151771 -0.086046815 0.062647045 -0.07948753 -0.057255227 -0.0994968 0.12501441 0.058240797 0.05539797 0.11961968 0.27616304 -0.17602403 -0.07893911 -0.06671895 -0.09018341 -0.11285977 -0.03506666 -0.12676169 0.028402781 6.841179e-05 0.0430015 0.04567148 0.05519932 -0.04244226 0.2070129 0.018341659 -0.19134991 -0.10533902 -0.17915173 -0.0033679544 -0.017281974 -0.05194394 0.1959912 0.04979692 0.067508385 -0.0982088 -0.10501593 -0.0014208729 0.012199286 -0.19073258 -0.023132155 -0.0036942088 -0.02661637 -0.08644049 -0.059054885 -0.022787372 0.0039785854 0.055377793 0.102984175 -0.034536127 -0.050716985 0.038664203 0.055983122 -0.04852141 0.07393791 0.09285709 0.12406698 0.17273067 -0.09174307 -0.0037115961 -0.0039736503 -0.014908779 -0.07002774 -0.15365763 0.004166529 -0.081937015 0.003497932 -0.0845058 -0.11506727 0.018328382 0.009990737 0.052826833 0.21348496 0.0226275 0.04340681 -0.11285758 -0.13379218 0.15318154 -0.09744942 -0.10949585 -0.009011311 -0.014120664 -0.0953521 -0.03559867 0.11783613 -0.08570081 -0.14446868 0.08915791 0.044128325 -0.067153335 -0.16331811 -0.07956378 -0.010571871 0.11146577 -0.10875964 -0.013553409 0.06241298 -0.24322815 0.09827717 -0.12334651 0.028098086 0.019566862 0.103357196 0.049991075 -0.24283047 -0.08357938 0.00871909 -0.024599442 0.042659704 0.07383521 0.05574381 -0.026528945 -0.18973513 -0.05064949 0.036535446 -0.11414617 0.058026124 0.085737884 0.0075852764 -0.31147987 -0.13291027 0.1835175 -0.059755143 -0.20351575 0.1184233 -0.0037658578 0.105392605 0.022594417 0.040754545 0.03119956 0.06464739 0.22264163 0.09199919 -0.16313536 0.039564785 0.10904664 0.11516863 -0.04776186 0.111393005 0.0876728 0.25214988 -0.080101624 -0.055841427 -0.03571326 -0.054123584 -0.094103515 -0.28136945 -0.048571315 0.031834442 -0.054423552 0.1884367 -0.0037638359 0.12400122 0.02104059 0.07753928 0.022822702 0.13177703 0.0004925154 0.044510704 0.031531926 -0.02279227 0.009223012 0.19216299 -0.05508291 -0.014823256 0.06900785 0.094332606 0.048399948 -0.23253682 0.057472087 -0.22704886 0.1418923 0.011845959 0.09486596 -0.095312566 -0.16035216 0.020973986 -0.008461762 -0.054255452 0.0033647101 0.27164173 0.07835111 0.09984842 0.07929224 0.14284478 -0.02410862 -0.21057756 -0.023960067 0.07607213 -0.10208149 0.00095232396 -0.05058812 0.18594342 -0.02730638 0.039511036 0.023140376 0.062413435 0.07522925 -0.10181252 -0.12227493 0.05972901 0.10953444 0.11582501 0.19359103 0.18452583 -0.1049038 -0.040327873 0.042932067 0.2480893 0.1429085 0.10683827 -0.04388016 -0.093421414 0.07378934 -0.11516757 -0.028945087 -0.016579228 0.15418978 -0.040571097 -0.24902637 0.045343097 -0.075003624 0.057090197 0.07563961 0.023962906 0.10234076 -0.23040739 0.11649574 0.12176203 -0.021209205 0.041964564 0.24913587 0.43024635 0.14803639 -0.16970293 0.11713346 -0.1384628 0.025778463 -0.093847826 -0.121085376 -0.049292367 -0.02343121 -0.06952228 0.05376896 -0.049708303 0.092917636 0.023015862 -0.07485716 -0.09169543 -0.16985105 0.023971865 -0.040560123 -0.24232097 -0.058672857 -0.060966484 0.24076505 -0.14729944 -0.04394822 0.14706218 0.19297487 -0.20902869 -0.19643326 -0.04767826 -0.24283548 -0.1966914 -0.0038283945 0.16889793 -0.016046701 0.004992263 0.108277485 0.20558704 -0.06278628 -0.0067850924 0.1771041 -0.15732135 0.09765667 -0.106933 0.0051458213 -0.029363358 -0.1009026 -0.103411645 0.022539983 0.094452485 -0.01807507 0.0019098915 0.05201604 -0.06802492 0.112662725 0.17339812 0.46522018 -0.041372843 0.079673365 0.02884738 -0.009949381 -0.13495037 -0.19323447 -0.037591774 -0.079885356 -0.02592597 0.036485553 0.09449242 -0.065561324 -0.18933986 -0.19676118 -0.13104273 -0.13641818 -0.020562528 -0.12398946 -0.07537694 -0.08251004 -0.049152154 0.127149 0.061093424 -0.0034884764 -0.051203992 -0.048424635 0.02767318 0.05331554 -0.09586319 0.018651253 -0.14729075 0.24426326 0.027606325 0.109522045 0.20709576 -0.15528172 -0.0068631917 -0.13262886 -0.11734539 -0.061374858 0.025837919 0.079694435 0.1326722 -0.0053264457 0.07643016 -0.07527815 0.0714941 -0.0813006 0.10396455 0.21596266 -0.017309839 -0.22435577 -0.059908662 0.11808607 0.050206315 0.019789906 0.0957654 0.04334398 0.11667107 0.08684093 0.14706863 0.050882824 0.17170438 0.15975119 -0.11326134 0.12962586 0.18695845 0.35775054 0.085253425 -0.061102428 -0.1507715 0.03292637 0.07065157 -0.17624874 -0.0266259 0.17312796 -0.026481139 -0.1851493 0.18420346 0.0631378 -0.012102714 -0.04224314 0.10313375 -0.059299704 0.109724194 0.049118165 0.01936674 0.009450063 -0.022598257 0.09946257 -0.091635734 -0.16729392 0.05634265 0.043888777 0.11912322 0.15332054 -0.12798749 0.045993827 0.22405857 0.2039891 0.14162153 0.21165018 -0.32490197 -0.060694184 -0.15278372 -0.015924765 -0.048464116 -0.21360426 0.033802394 -0.043105174 -0.21502204 0.078855366 0.1383992 0.14391102 0.030794242 -0.0004956071 0.12771423 0.16313694 0.10825543 -0.099255204 0.015033042 0.03885025 -0.18606313 0.0418347 0.22219776 0.075498596 0.20596805 0.035723235 -0.03632935 0.0360551 0.044512205 -0.03604452 0.30173928 0.17840527 -0.22099197 0.0248727 -0.012578867 0.028879395 0.0409205 0.094333604 0.0031704046 0.13591479 0.025839811 0.05731709 -0.08842771 0.21076448 0.041881125 0.06619829 -0.16592 -0.08737165 0.1186869 0.02358766 -0.1964794 0.098727554 -0.05947965 0.13603027 -0.013884988 0.03197563 0.18546416 -0.0913277 -0.2834149 -0.13250884 -0.022128807 -0.2731976 -0.18939847 0.02448853 -0.12670812 -0.1111497 -0.18956402 -0.07299937 -0.005858151 0.08793634 -0.08222446 0.1606362 -0.07355705 -0.07341063 0.14863433 0.016044563 -0.06030384 -0.020614764 0.13020594 0.14151888 -0.08678076 -0.009344803 0.0039142654 -0.10372546 -0.010669934 -0.004569134 0.1089195 0.11435019 -0.043860413 -0.0852595 -0.16588615 -0.20374262 -0.21575241 -0.13856842 -0.2567947 -0.14069462 0.11874513 -0.09427675 0.14882746 -0.05646499 0.024019068 0.23416625 -0.11084013 -0.19488288 0.12355742 -0.08778235 -0.007172059 -0.063693345 0.021714827 -0.10015507 -0.02309546 0.039880168 -0.10593234 -0.075109854 -0.03983965 -0.14798297 -0.047357466 0.006778234 -0.045056257 -0.033529915 -0.09135929 -0.06474167 -0.11279468 0.124249235 -0.22262192 -0.036655933 0.07668806 0.021098655 0.19913878 -0.0074149487 -0.19721179 0.040298197 0.118184924 -0.027261069 0.09446204 -0.074113 -0.15365534 0.00901548 -0.1807491 -0.029078552 0.12358262 -0.19607772 -0.13305111 -0.108304664 -0.011433413 -0.041673046 0.13481222 0.09033339 0.04442593 0.009461615 0.03422161 -0.09129968 0.027653297 -0.20445439 0.03520514 0.13619883 0.042272557 -0.015668295 0.055391174 -0.34646848 -0.071238436 0.005104601 0.014741132 0.09045712 -0.012578318 -0.11912213 -0.019241715 0.0016541252 0.0063919746 0.011090513 0.09883545 -0.113704905 0.012468614 0.12389138 -0.17856257 0.012863241 -0.06363939 -0.042172406 -0.0955822 -0.022056533 0.17902415 -0.13154446 -0.122062445 -0.13529487 0.14336985 0.011460595 0.0032338663 -0.004338257 -0.062450137 0.008477013 0.34479883 0.27113813 -0.019532926 0.11235246 -0.03555719 -0.13763252 0.09684965 0.11090784 0.099503785 -0.05208789 -0.021779032 0.069875106 0.03404824 -0.044465113 -0.1670086 0.006286103 0.10279952 -0.12486027 0.05877458 0.028052708 0.06991339 0.0820961 -0.074547976 -0.16679735 -0.058453318 0.08381128 -0.059301753 -0.074505776 -0.18723644 0.17016335 0.077469915 0.07188815 0.091671094 0.052569468 0.0007328891 0.008789399 -0.004980666 0.27857447 0.05048984 -0.051481407 0.041448314 -0.10618834 0.14534925 -0.07120836 0.04500718 0.101496324 0.03337549 0.0043455833 -0.004021211 -0.010745537 -0.06277128 -0.05004971 0.14285763 -0.015955096 -0.08368108 -0.056731123 0.104935616 0.06245918 0.050931554 -0.030853571 0.052234884 -0.06945756 -0.031062854 0.091878995 0.08232632 -0.103292435 -0.09065409 0.0057687988 0.1675118 -0.19665794 0.022731842 -0.14270575 -0.06853455 -0.04154421 -0.047152203 -0.05848096 -0.0043807155 -0.058626924 -0.15134715 0.07288551 0.070185766 0.07921599 -0.15917487 0.024790356 0.062496446 -0.10822165 -0.004184093 -0.016728116 0.17911364 0.18734817 -0.17153706 0.24429141 -0.09662402 0.092965886 0.091948345 -0.104670465 0.044225413 -0.015854804 0.050331634 0.017965777 0.1145325 0.0024385327 -0.021888865 0.10450497 0.052938234 0.06807989 -0.071560115 -0.10962772 -0.06187358 -0.0671836 0.073518485 0.09249696 -0.02061448 0.13799049 0.13174553 0.01923844 -0.08729063 0.15243624 -0.011203162 0.0075150956 -0.03906187 -0.09408048 -0.15196536 0.058185484 -0.083441556 0.30085123 -0.11370881 -0.13083969 0.045912508 0.14782993 0.0013575439 0.05212288 -0.18945615 -0.0728526 -0.11246301 -0.19460599 0.006596603 -0.22938417 -0.13732101 -0.058820743 -0.08823003 0.034539487 0.025456565 0.084278435 0.070136935 0.108979836 -0.005293261 0.025245221 0.04605 0.009064248 -0.044820797 -0.038345616 -0.08685729 0.037060317 -0.014502939 -0.07141882 -0.07132593 -0.12614118 0.09278269 0.0027603484 -0.091381446 0.07575333 -0.061146248 -0.14575149 0.09702079 -0.058811065 -0.045991275 -0.0009834188 0.10915747 -0.0030976897 -0.12501323 0.049286332 -0.053600337 0.18369098 -0.0052133934 -0.22860496 0.030635087 0.18935837 0.1524906 0.177994 -0.107077464 0.086113796 -0.077300906 0.017327486 -0.13239665 -0.06954703 -0.072726116 0.08475408 0.07497047 0.022580521 -0.14014356 -0.036265302 -0.07971309 0.08186613 0.11271703 0.10053711 -0.08062339 -0.27905518 -0.18179761 0.13706128 -0.04522686 -0.08017391 0.15916462 0.12141442 -0.002656544 -0.03444167 -0.01831157 0.017614828 0.15490331 0.03714538 0.067501456 0.11182557 -0.122069046 0.07038474 -0.034558233 -0.25671142 -0.21791838 -0.10691321 0.048020955 0.0062785395 0.013335245 0.18999292 -0.13201039 -0.007844759 0.025342079 -0.07872875 -0.002268745 -0.16509636 0.13588919 -0.0732629 0.1980386 -0.008348852 0.097703904 -0.010431714 -0.008175796 -0.06350441 0.006810972 0.026698405 -0.0835273 -0.017605891 -0.066111356 0.22486497 -0.014074499 0.1494218 -0.024663685 0.02082731 -0.13723783 -0.049808625 0.015952015 0.15349896 0.017096827 0.1332706 0.058971565 0.15763871 -0.011005649 0.23392086 -0.053640988 -0.081747636 -0.12610655 0.22800104 0.07684331 -0.03851344 0.11980075 0.063667774 0.19151132 -0.1598847 -0.031637426 -0.051353503 -0.20246969 0.10093127 -0.032141086 0.06886168 0.23087578 -0.040425736 -0.047216665 0.006764999 0.093623295 -0.06177267 -0.06819759 0.10061748 0.03276257 -0.20957424 -0.1276405 0.14502217 0.035091463 -0.081321046 -0.02214242 -0.0037777503 0.06847189 -0.14092775 -0.089196354 0.022194123 -0.0150848795 0.052084554 -0.12805204 0.030611457 0.10405691 0.04358049 0.008809751 -0.014689783 -0.088586554 -0.012301287 0.12086901 -0.017004298 -0.09408185 -0.054326076 0.014983578 -0.042452764 0.04342896 0.04718301 0.08379687 0.13725452 0.09448443 -0.098525345 -0.09545489 -0.012678575 -0.0502189 -0.118934125 -0.049270544 -0.05255266 -0.07228622 -0.036680292 0.112743646 0.014822366 0.24207948 0.011949392 -0.034107942 -0.004688133 0.020547746 0.038424026 0.20256971 -0.089633495 0.080803156 0.015673606 -0.15983114 0.07434833 0.124040976 -0.0884392 -0.0036149435 -0.17525679 -0.12860212 0.1020814 -0.049363207 -0.11360185 0.020224474 -0.054962795 -0.049803723 0.071211055 -0.11889489 -0.09325807 0.012686446 0.09421943 0.12109457 -0.069227725 0.09101614 -0.08113578 0.17989954 -0.11609866 0.1301265 -0.06837016 0.19860327 0.056410518 -0.10432321 -0.054945398 0.07539657 0.10254289 -0.009793142 0.0017442633 0.073113754 0.010458272 -0.13207185 -0.08401896 0.020790432 0.11882669 0.15887687 0.07523139 0.02600751 0.07215984 -0.06939663 -0.018044654 -0.085134625 -0.12759593 0.030633356 0.015829768 0.06604369 0.051889632 0.021542862 0.05294011 -0.0069898716 0.038567584 -0.075335994 0.03424904 0.06412022 -0.06968969 0.0024616453 -0.06508173 -0.055372227 -0.11521448 0.123856075 0.10384697 0.051021833 0.19449821 -0.021646135 0.30045468 -0.025474504 0.02279777 -0.042499345 0.034511004 0.08083995 -0.01411321 0.1749506 0.021193363 0.024326976 -0.09362133 0.039128352 -0.016124284 -0.0635455 -0.080368996 0.26445478 -0.02906929 -0.14841992 -0.072543696 -0.007878348 0.051945146 0.0527581 0.0649399 -0.067207575 0.03132249 -0.0903275 -0.06468578 -0.09449245 -0.12156044 0.1036994 0.06613962 0.09494498 0.0012097463 0.07495922 -0.17885032 0.0835872 0.014990408 0.059989348 0.035280775 -0.10142706 -0.15252537 -0.07392697 0.053770173 0.06628759 -0.13951561 -0.100831494 -0.07504512 -0.038452063 -0.13892645 -0.14492655 -0.08490509 0.005903822 -0.12078099 -0.01430192 0.10313372 -0.13289934 -0.023366138 0.099754125 -0.044548396 -0.060088526 0.11362803 -0.033341784 0.107727945 0.040174987 -0.037006017 0.0452475 0.029323384 0.099366724 -0.057556104 0.0013990426 -0.00887314 0.06769326 -0.105239466 0.09897615 0.043911327 -0.1344139 0.118104726 0.22068793 0.09746185 0.1399771 0.0058155763 -0.16887188 -0.18713343 0.02278664 -0.061919432 -0.09417918 -0.008996243 0.058836903 -0.14799714 -0.047609318 0.14826569 -0.11025038 0.08425456 -0.051194627 0.051857825 0.1070112 0.07140662 0.088194415 -0.11788091 0.108644426 -0.087990865 0.023232613 0.023103055 0.045790706 0.030974112 -0.08710255 -0.13770813 0.08451332 0.015861895 0.11221613 -0.0071948557 -0.1432378 0.09389141 -0.03975861 0.03147879 -0.06746748 0.1617088 -0.09037803 -0.03646453 0.008023301 -0.11193979 0.030330408 0.15846968 -0.05176777 0.03679273 -0.27766508 -0.006614477 -0.034025803 -0.08457132 0.105423495 -0.035345886 -0.02046932 -0.04044084 -0.19440296 -0.1159202 0.0933878 -0.21371645 -0.079353094 -0.04269356 0.17164081 0.07413882 -0.058438603 0.12772998 -0.07677314 0.09818843 -0.13860911 0.10460423 -0.04333492 -0.10557197 -0.024435926 0.025012854 -0.052196395 0.052673798 -0.061020944 0.059315626 0.041500654 -0.008813877 -0.046859782 0.012432525 0.052303817 0.20345855 0.09122048 0.09487744 0.30612963 0.048874293 0.0457428 0.06767996 -0.103618145 -0.047111716 -0.05333848 0.062039796 -0.020139027 0.011100769 0.10602391 0.08359352 -0.01889367 -0.06972106 0.11080593 0.07466757 -0.16334707 -0.034036964 0.013829982 0.07516143 0.08828859 0.025669035 0.0558032 0.0036921229 -0.070106715 -0.028848004 -0.00082244916 -0.006189482 -0.19127867 -0.042469885 0.002899005 -0.030858561 -0.027403943 0.046077583 -0.110617265 -0.16552559 0.041939244 0.2753788 0.3677231 0.2801757 0.043533605 0.16712315 0.015992617 -0.0835937 0.052867107 -0.092768244 0.0037727514 0.039310727 0.07984555 -0.08329336 -0.03723724 -0.27310336 -0.064867675 -0.055163044 -0.10468 0.013839653 -0.008316109 -0.22864276 0.018829234 -0.095553964 0.045847345 -0.13090649 0.0002790921 -0.031037897 0.02758862 0.009748157 0.027683092 -0.100427546 -0.013425533 -0.0323155 -0.006462977 0.10898534 0.26474613 0.07323754 -0.20703721 -0.14480805 0.0804002 0.18313293 0.18511653 0.023645379 0.066602774 0.039890844 -0.0050638574 -0.052783366 -0.1576471 -0.053805012 -0.11009179 -0.17538205 -0.08228944 -0.10743073 0.0556571 0.05738763 -0.09310947 -0.028744426 -0.18854564 -0.05215555 0.037176635 0.079772234 0.07620865 0.33198273 -0.29943326 -0.15999182 0.5121589 0.55133986 0.59545296 0.23613977 -0.21286592 0.23939808 -0.12616085 0.20221184 -0.03402169 0.11179078 0.08546374 0.09172003 0.010938661 0.12011786 -0.0019221532 -0.014255069 0.10370967 -0.10056564 0.27872318 0.03480419 0.03536137 0.049788047 0.18499228 0.07652919 -0.16322696 0.13762566 -0.036811214 0.007993937 -0.036333114 0.23842533 -0.059512794 -0.18687223 -0.26236153 0.13830721 0.47825685 -0.03426806 0.22460003 0.27042687 0.1651941 -0.0077839475 -0.013568303 0.17181006 -0.05655146 -0.0064970595 -0.16085246 0.06769748 0.19136533 0.06940098 0.14345855 -0.08733177 0.020910863 -0.09703754 -0.025498118 0.07449959 0.0074604927 -0.14398548 -0.1342243 -0.14083776 0.046423707 0.20366809 0.22783822 -0.125104 0.15180986 0.0069038603 -0.45509985 -0.1036725 0.37514514 0.12283044 0.3317631 0.103260875 -0.2593481 0.125461 0.19966206 0.07579004 -0.05261531 0.08621307 0.09475362 0.1282826 0.084712684 0.105415925 0.07056931 0.0238313 0.0062293406 -0.026447535 -0.12395838 -0.0982527 -0.030923013 0.021423653 0.1413599 -0.0069012833 0.097626075 0.10521002 -0.025866244 0.068042435 -0.07741938 0.05899593 -0.20078383 -0.4332875 0.094577596 0.72364485 0.42498893 0.33405402 0.037974264 -0.095868066 0.13693728 -0.1421049 -0.065283895 0.10485074 0.03295408 -0.03316932 0.041924547 -0.0087307915 -0.0014637101 0.0629603 -0.07545833 0.0013120793 -0.033948388 -0.1612817 -0.09476712 0.15409926 0.03575078 -0.13508022 -0.15675682 -0.013937959 0.15339726 -0.010102394 0.15536158 -0.11469684 -0.21992171 -0.3738962 0.2110721 -0.086075455 0.16361868 -0.27193785 -0.17931563 -0.02116408 0.07046335 0.037732963 -0.02936127 -0.067627534 0.15782696 0.10217373 -0.078808025 0.054122876 -0.07698944 -0.12119001 0.100659385 -0.17313135 0.08996403 -0.027993795 -0.023876224 0.03825357 0.055398326 -0.08535586 0.06905101 0.008615484 -0.12832707 -0.10272784 0.1480882 0.35882798 -0.059828606 -0.49329025 0.07940373 0.28873223 -0.09869811 -0.18171668 -0.18247221 -0.06360573 0.02502991 -0.19251493 0.03124262 0.015883721 0.05303603 -0.13647574 0.061780073 0.20273313 0.00512345 -0.008888105 0.028178662 0.20051232 -0.10508633 0.017599128 -0.08268729 -0.057422023 -0.0076805926 0.13201094 0.17737767 0.042092662 -0.040381026 0.18289183 -0.08079173 0.12879144 -0.049125098 0.037923217 0.2223415 0.26306352 -0.36975715 -0.14722916 -0.13903716 0.06254333 -0.1101981 0.14408681 0.07593012 -0.0066125602 0.061789684 -0.07927108 -0.06066556 -0.04906602 -0.18799415 0.083454296 0.11643781 -0.072855964 0.03209875 -0.029275611 0.030105846 -0.06547919 -0.091064066 0.10248594 -0.009108631 0.1994895 0.0019094315 -0.15898994 0.07908884 0.2176978 0.39261043 0.099763036 0.036073737 -0.19496796 -0.22808674 -0.3448494 -0.21585125 0.11557102 0.07831342 -0.13732752 -0.15830532 0.16375622 -0.011753475 -0.06746256 -0.030120742 -0.15045217 0.13958815 -0.042026844 0.13401878 0.002443607 0.14023182 0.022947885 0.08260171 0.069187745 0.059607502 0.032071892 -0.026006635 0.18882209 -0.093415245 -0.05624671 0.10125547 0.34874347 0.44367623 -0.116641894 -0.08162681 -0.27485678 -0.054122183 -0.08142666 -0.4120446 -0.08651063 5.622881e-05 0.04994825 0.053995516 -0.19598028 -0.13882306 0.19463077 -0.10744242 0.058362525 -0.07141532 0.0052457084 -0.06604692 0.053432565 0.010955846 -0.047550533 -0.10773876 0.024055857 -0.12399343 0.04002655 0.25992692 0.13229564 0.06911324 -0.06523826 -0.2430155 0.18136665 0.45877895 -0.36112854 -0.37867028 -0.61367875 -0.45091736 0.21467327 0.104545 -0.061549615 -0.13410275 -0.08084065 0.04951447 -0.025934134 -0.02057876 0.056973036 -0.016925512 -0.03054694 0.044323485 0.06409824 -0.017428905 0.005339213 -0.08090058 -0.08878985 0.074193195 0.041772652 0.04280829 0.02536387 0.001898764 0.06691964 0.09078932 0.08840124 -0.067263976 0.13633616 0.08527164 0.16606292 -0.12074204 -0.05946691 -0.044591468 0.13786846 0.5773094 -0.032100685 0.027807562 -0.023912491 -0.05152354 0.15172356 -0.07001865 -0.050129604 -0.16147065 -0.07848272 -0.17356136 0.060458835 0.27724814 -0.039389435 -0.16939718 0.08727841 -0.07541405 0.12721333 -0.03092447 -0.06590305 -0.020517323 0.07305613 -0.025463626 -0.05239402 -0.019885328 -0.15124688 -0.0883598 -0.3403172 -0.2349349 -0.114584506 -0.010174797 0.15219575 0.077192426 0.27232075 0.2478162 0.15199544 0.090033025 0.072320804 -0.046667907 -0.13711128 0.03931466 0.051887367 0.10632564 -0.09635368 -0.093364656 0.043268476 -0.009838281 -0.19129753 0.03478926 -0.18796366 -0.09724721 0.13244677 0.17976654 -0.12428719 -0.035660688 0.0015406866 0.17540133 -0.052008446 -0.050409954 0.15215117 -0.04020047 0.06949861 -0.15043569 -0.019844837 -0.09756179 -0.037145577 0.19102666 0.07896116 -0.034632135 -0.077596515 -0.024787173 0.027389735 0.09557007 -0.26523626 -0.08589767 0.013188064 -0.01260788 0.03761607 0.024032466 -0.033208333 -0.055406872 -0.027271714 0.11215268 -0.07592234 -0.009002244 0.015612657 0.15331373 -0.032752384 0.09315911 0.12047638 -0.009096999 -0.023793463 -0.035626892 -0.028303877 0.08270243 0.020379435 0.020807408 -0.1152439 -0.099470556 0.21162331 -0.02050414 -0.08019875 0.14038855 0.02545929 0.05509394 -0.016526258 -0.034588862 -0.019680206 -0.1409952 -0.011514306 0.026881747 0.18232495 0.0058783446 -0.23613909 -0.0121201165 0.27122885 0.08391507 -0.08381045 0.056389097 -0.07692289 -0.13810211 -0.037558492 0.0064310804 -0.18993694 -0.117637485 -0.0016880014 -0.043538872 0.036759574 -0.12418838 0.06868982 -0.12109746 0.16155204 -0.17429721 -0.11197698 0.039015528 0.16370195 0.028782733 0.05356424 -0.0009678765 -0.1053614 -0.05173539 -0.12391253 -0.13059238 0.037453335 -0.11503935 0.02923384 -0.13290367 0.026916727 -0.051589813 0.13794017 0.02965033 0.1208567 -0.07828623 0.0028927745 -0.10083027 -0.04408208 -0.028931987 -0.07530737 -0.12427184 -0.1440731 -0.23669618 -0.10835619 0.060027774 -0.16257122 -0.13953367 0.17636847 -0.06637111 0.02938303 0.061510142 0.063531056 -0.1549528 -0.02582753 -0.1645441 0.2419104 -0.16220891 -0.107505575 -0.10678163 -0.15238741 0.13253802 0.23952341 -0.050296467 -0.13476369 -0.22641394 -0.027132437 -0.034358088 -0.06785117 0.01941596 0.03679576 0.029586755 -0.034334037 -0.11288373 0.06386176 -0.0014701845 0.0861142 0.076286 -0.14489758 -0.14614359 -0.07827562 -0.10834809 0.07280363 0.03240941 0.10719685 0.03692713 0.018143393 0.117251426 0.044251177 0.00408853 0.14532393 0.008796519 -0.033155598 -0.08650388 0.067581 0.12098347 -0.007780303 0.12807018 -0.19972289 -0.0082669 -0.0067310478 -0.07542099 0.23566473 -0.009340843 -0.04349463 -0.00012535586 -0.20300275 -0.07870835 0.09560244 -0.06561601 -0.08560906 0.1282312 0.13130406 0.04897749 -0.04823329 -0.026668672 -0.08313654 -0.10219887 -0.107163206 -0.064526916 -0.10619365 -0.15909189 0.019218702 0.020737994 0.16735789 -0.06955539 0.026888497 0.028549682 -0.028105319 0.07171181 0.07480137 0.030019568 -0.028285533 -0.038474564 -0.13949677 -0.08331333 -0.06492221 -0.11511873 0.04127084 0.11694123 -0.093527794 0.02562258 -0.10613267 -0.033213757 -0.071754515 0.05746801 -0.070600376 0.09844449 -0.027293641 -0.06768192 -0.12805212 0.022598889 0.08680029 0.02461056 0.22116178 0.14025736 -0.033474345 -0.03452431 0.044248115 -0.08652347 0.11390728 0.0334385 0.022924326 0.06597382 0.16956162 0.014373962 -0.014025606 0.1481506 0.094033495 -0.03481954 -0.002202913 0.016816527 0.03345974 -0.13838136 -0.15696985 -0.091460556 -0.09919539 -0.06710394 0.06074947 -0.019614488 0.016917896 -0.12515189 -0.048885774 0.056004215 0.05677369 -0.075178936 0.013444671 0.21716341 -0.0044813557 -0.072040245 -0.0200978 0.006496147 -0.017838396 -0.0058570313 -0.14706606 -0.0989846 -0.017655075 -0.019248363 -0.05934048 -0.020422935 0.0033799233 0.08621979 -0.012642741 0.037188765 -0.05688158 0.054488022 0.034851473 0.083860144 0.0686245 0.056152012 -0.012563309 0.021772359 0.103629336 -0.067929015 -0.06556223 0.0154215675 0.038806412 -0.0851322 -0.010197831 -0.012121454 -0.2242494 -0.024680965 -0.018453348 -0.018750869 0.13887006 -0.12430139 -0.085183814 -0.26394117 -0.050813217 -0.042285908 -0.05371927 0.10804619 0.0833402 0.00506411 -0.039782856 0.099897414 -0.004697346 -0.08454856 -0.17434624 -0.046853002 0.072742805 0.22493249 0.003439473 -0.0792571 -0.12121807 0.052473936 -0.17918298 0.06356936 0.09030603 0.0521626 -0.013431506 0.06502893 0.02562848 -0.06927751 0.19357635 -0.02663329 0.0861101 -0.23332632 0.1361822 0.1554115 0.011518046 0.06441195 0.06438637 -0.0557437 0.063247085 -0.07232817 -0.052341036 0.12122919 0.10600064 -0.062102932 -0.06482276 -0.056025006 0.08179883 -0.09146361 0.04420592 0.08321955 -0.00028987598 0.10954124 -0.021896375 -0.0128509 -0.08918975 0.110252604 -0.06811717 0.043511838 0.0014030625 -0.096743435 -0.05237566 0.14682235 0.028700396 -0.092380166 0.039067484 -0.0060767354 0.35393718 0.037047036 -0.029527832 0.15053791 -0.1755685 0.017966667 0.20797797 -0.0030852575 -0.16479498 -0.03105716 0.15398692 0.046141613 -0.07535074 -0.059989616 -0.047435373 0.044654444 0.14235473 0.113777176 0.054135874 -0.12462946 -0.12425838 0.061859857 -0.126012 -0.014022037 0.0389497 -0.10522453 -0.09389136 -0.0008774373 0.058899682 0.11468675 0.06924022 0.01590031 -0.0660846 -0.098555826 -0.042553052 0.049528215 0.042197026 -0.20145509 -0.070032835 0.12898588 0.016456166 -0.13316578 0.24411723 0.0056404946 0.04696805 0.04848713 -0.028224902 -0.0642225 0.22070262 0.108855456 0.09072859 0.066163786 -0.09179687 0.13628814 -0.075778395 0.03686333 -0.15540387 -0.19555077 0.040363774 -0.07237506 -0.19038165 0.06259581 0.22054319 0.14749114 -0.017197147 0.0094192 0.0973055 0.12074767 -0.025818927 0.01195244 0.038596135 0.06392247 -0.004772975 -0.0034738556 0.14651835 0.12948719 0.05627571 0.18044603 -0.030109935 0.17083246 0.06278643 0.33563513 -0.11071332 -0.060399856 0.05041444 0.04825806 0.20354901 -0.05830282 0.099026725 0.12478117 0.07899965 -0.08756477 0.14931099 0.13146761 0.06849332 0.02896941 0.031145442 0.00066108926 0.07261338 0.011648154 -0.07631762 -0.096324295 -0.06666876 0.030747866 0.0058390833 0.030069022 0.058615968 -0.054197438 0.15510114 -0.018236442 -0.034808043 0.05677328 -0.1751159 -0.070518576 0.10664215 -0.16520707 0.12029229 0.15964878 -0.028410884 0.03771593 0.12044358 -0.038144264 0.095312424 -0.05858023 -0.039225575 -0.07139877 0.042799376 0.12433178 -0.009876626 -0.11859005 -0.09973581 0.0479946 0.19294676 0.047907155 -0.030155016 0.08515327 -0.01541521 -0.029293874 -0.08731104 0.14938 -0.24538566 0.08832079 -0.037839837 -0.032499418 0.17776664 -0.062878236 -0.059472248 -0.004504755 0.049919393 -0.035650924 -0.14885077 -0.078034945 0.1366685 0.016012343 0.053643383 -0.017607478 -0.05741512 0.17629206 -0.010284518 -0.035802335 0.11814911 -0.06370117 -0.05093808 0.009559338 0.008561674 0.034495786 0.21770203 0.04215948 -0.22927028 0.04116455 0.012322668 0.012879671 0.03312938 0.005666838 0.003273462 0.06983929 -0.045673426 -0.086233765 0.31091067 -0.06305087 0.018548943 -0.14103091 0.020181486 -0.08478768 -0.03571264 0.11304134 0.05573561 0.065375805 -0.16858536 0.19222464 -0.11065326 0.1613912 0.11068926 0.066268146 -0.0769636 0.023693627 -0.038557485 0.011438625 -0.016452584 -0.19532594 0.120713286 0.0004239511 -0.039945386 -0.04749807 0.044380613 -0.08084077 -0.21698244 0.049247634 0.060444955 -0.011428516 -0.10625542 0.0174282 -0.13791811 -0.09418819 -0.06653492 0.092928775 -0.027726453 -0.036251985 0.20400436 0.043780904 0.042434108 -0.028435424 -0.05110251 -0.20817564 0.10649089 0.054447904 -0.0085824365 -0.0038043084 0.08353276 -0.14468925 -0.046163402 -0.10314942 0.18763198 0.09610043 -0.21173415 -0.14284104 -0.004699898 -0.038709365 -0.12390335 0.20301133 0.039788645 0.05601629 -0.060666822 0.08076229 -0.029508624 -0.019799676 0.06963507 -0.15436465 0.16823791 0.026773563 0.13662954 -0.09900711 -0.083781645 -0.1073305 0.033889133 0.017217899 -0.036100943 -0.089883715 -0.11846111 0.0058023715 -0.034786526 -0.05762474 0.16639163 0.003636597 0.13645281 -0.044790562 0.033613183 0.0033423179 -0.1612271 0.15136895 -0.004980691 0.083176695 -0.066668004 -0.007949769 -0.07815036 0.13213496 0.03967559 0.045240007 0.14435354 0.124169 0.08506913 -0.13363762 -0.06103323 -0.09185394 0.08128824 0.026744979 -0.12856914 -0.009455748 -0.14087662 -0.0056213867 -0.15879753 0.060463108 0.045463566 0.19906743 0.09213841 -0.02861677 0.09920177 -0.13042945 -0.086838976 0.042204145 -0.20728984 0.0048185913 -0.09349146 0.018665355 -0.09923877 0.050959468 0.010467409 0.14857171 0.009208122 -0.06832941 -0.016153943 -0.12588853 0.04914838 0.0675199 0.25545213 -0.053648945 -0.018244816 -0.048220683 0.03210033 0.045376666 0.00010283308 0.10840751 -0.06063786 0.10317118 0.06200344 0.005449685 -0.039433572 0.24779616 -0.070451126 0.03884625 -0.0661321 0.18709719 0.0972175 -0.059300326 0.059794154 0.034304224 -0.04312782 0.084351294 0.047465194 0.030104514 0.0043426994 0.051640105 0.03147342 0.014444002 -0.055566937 0.17791174 -0.096507125 0.051298276 -0.023489432 0.1853098 -0.07939846 -0.06528671 -0.09303078 0.027969029 -0.13606103 -0.04469611 -0.20471033 0.02413934 -0.05801605 -0.14572637 0.11547762 -0.120741785 0.08858418 -0.061569415 0.16869226 0.083489925 -0.09226991 -0.08317339 0.06908739 -0.017703172 -0.0083995825 0.135759 -0.06633402 0.01766403 0.10399765 0.08944662 -0.007426588 -0.020355945 -0.16534643 -0.097089626 0.040370576 -0.0052535487 0.018117955 0.11268332 -0.11538904 -0.030248 0.020306947 -0.06831269 0.14524741 0.09082221 0.020011378 0.1761214 -0.14467572 0.009252187 0.04516835 -0.08292063 0.038606107 -0.10212338 0.0775906 0.11431835 0.03576799 -0.17674467 -0.08814448 0.06500586 0.010654531 -0.26086774 0.13281815 0.022200294 -0.073372595 0.10803043 -0.059219334 -0.060310543 0.04436992 0.18663897 0.17298386 0.045303594 0.0492266 0.07140022 -0.13115893 0.065908395 -0.06438503 0.03903343 -0.022198927 0.049742863 0.015273649 -0.297279 0.026423814 0.072750166 0.05312749 -0.0017239234 0.1727513 0.03967197 0.052301984 0.11298406 0.044793956 -0.0812669 -0.23529862 -0.039177436 0.084629424 -0.026774986 0.08865271 0.02340746 0.13734172 -0.020987028 0.055296138 0.059123162 0.1599643 -0.16160406 -0.04327298 0.0785624 0.1591923 0.028278489 -0.02355068 0.082591645 0.09090381 -0.03405465 0.036494076 0.12807769 0.19758102 0.08279537 0.012948559 0.0031271544 0.06427451 -0.0030326135 0.027498692 -0.09725276 0.13824083 -0.1054836 -0.034676522 0.018293979 0.20763381 -0.033733644 -0.05806693 -0.046547037 0.17442483 -0.2727022 -0.09173893 0.2816614 0.06589063 -0.1018223 -0.003993866 0.001623116 0.08563828 0.18467504 0.042609062 -0.0446239 0.085305065 -0.06723177 -0.098230794 -0.16648477 -0.14797772 -0.08110964 -0.10924411 0.039858308 -0.11140531 -0.3058341 -0.09585631 -0.03865131 -0.052010294 0.16048759 -0.052819602 0.09662722 0.006636407 0.0043041985 -0.075003155 0.0026564063 -0.06797474 0.025537074 -0.015090321 -0.08592792 0.105991855 0.0488836 -0.04512651 0.007414444 -0.009582188 -0.0852249 0.013066211 -0.05343035 -0.08950682 -0.15900856 -0.030757794 0.06620368 -0.06093126 0.2606034 0.09710344 0.13896812 0.08805917 0.19382161 -0.07016533 -0.24753863 -0.036077905 0.06435671 0.02368634 0.036081914 0.14062612 0.046740413 0.088426165 -0.085421406 -0.101004496 0.1699465 0.018624805 -0.053788263 -0.056262452 -0.059756164 -0.07151632 -0.13080826 -0.1535721 -0.017691521 -0.04571926 0.119645834 0.032493908 0.02742994 -0.072980836 -0.0066914735 0.044634767 0.08015444 -0.0008545143 0.11644725 0.009333599 0.08781958 -0.040450566 -0.17272373 0.035370547 0.08106728 0.066069596 0.05075332 -0.02632405 -0.072139755 0.063707665 0.051179398 -0.047555253 0.11947729 -0.07975168 -0.04981768 0.1695195 0.08897064 -0.03790141 0.023929847 0.018575951 -0.27122322 -0.075460166 0.0077885115 -0.031324953 0.020781893 0.11080275 -0.029635638 -0.097230606 0.04101982 -0.02412769 -0.0070716767 -0.02064273 0.2327189 -0.21553531 -0.03029875 0.008165757 -0.06957938 0.098517455 0.08986064 0.0037592095 -0.018532734 -0.0026610126 -0.0019439921 0.0006973655 -0.010265243 0.033779573 0.083856076 -0.11449114 -0.097580545 -0.16935815 0.088268735 0.030514104 0.060588147 -0.13263793 0.19017856 -0.0551869 0.020561852 0.0948636 -0.08958446 -0.04551874 0.026451819 0.29427984 0.03864713 0.16917123 0.12910244 0.045335658 -0.09038471 0.11451023 -0.14127591 0.16862263 0.028535172 -0.25648984 -0.025515966 0.07392965 -0.015167741 0.080035456 -0.076467544 -0.12206338 0.001390129 0.011691235 -0.026546359 0.13229536 -0.07708215 0.03995512 0.016610654 -0.14585656 -0.12006586 0.014017338 0.20788525 0.06788053 -0.16261005 -0.30144203 0.08184023 -0.0010866773 0.12266147 -0.07953692 0.043555904 0.09315222 -0.03621171 -0.0340739 0.01106095 0.06280254 0.0071012666 0.10593451 -0.037658863 -0.12430466 0.20623265 -0.051928718 -0.048309553 0.0019543367 0.015252779 -0.030133722 0.006791278 0.0045584487 0.026016574 -0.22721364 0.19662274 -0.006194164 0.06659714 -0.12927502 -0.037180148 -0.057311714 0.15703684 -0.04955487 0.08434287 -0.056507397 -0.03672724 -0.016020374 0.13691963 -0.18045016 -0.12303151 -0.1861954 -0.10021534 -0.07262513 -0.152913 -0.0648799 -0.19293633 -0.093264 0.12857716 0.048893463 0.02728141 -0.091742985 -0.14507338 -0.10538074 0.004213686 0.095352545 0.09877161 0.07159611 -0.06522082 0.010989651 -0.023599612 -0.01158431 0.21224791 -0.1676649 -0.01493303 0.12971 -0.13805403 -0.05584009 -0.044369195 -0.013794309 -0.1510606 0.06806348 0.0751636 0.059372187 -0.0785025 0.017185727 -0.08140916 -0.024725026 0.22388192 0.01810419 -0.11021779 0.026568176 -0.12664448 -0.11136617 -0.09557744 -0.03589629 0.10223177 0.06637469 0.060834188 -0.10135759 -0.045596782 0.03573476 -0.054297343 -0.019302001 0.052670524 -0.026342621 0.031140601 0.16780797 -0.008651211 0.1264689 0.064471856 -0.13818908 -0.10167883 -0.07482472 -0.07694862 -0.00049430475 0.06999928 0.13405097 0.039352164 -0.0360333 -0.199689 0.015593627 0.011111687 0.026827518 0.21915914 0.13259476 0.08704096 -0.087672845 -0.04276482 -0.00094979035 -0.06900584 0.058581106 0.04422554 -0.10029591 0.1282168 0.018765682 -0.164372 0.003400385 0.036655296 0.10581411 -0.025212996 0.091328695 0.02724884 -0.122970626 -0.13298155 0.12079086 0.12813355 0.04082558 0.15810579 0.11419585 0.07689774 -0.08259628 0.181678 0.0621648 -0.030049233 -0.05829235 0.034213025 -0.1585708 0.0785022 -0.08682221 0.045595467 -0.043627378 -0.01790723 -0.06715611 -0.0075882636 0.19747306 0.14704108 0.04398255 0.0060052406 0.09295499 0.12153191 -0.07444697 0.00079078233 -0.17366071 0.12084508 0.21503754 0.01654292 -0.2039659 0.06942392 -0.08187404 -0.057800293 0.07119251 0.03399006 -0.040276222 -0.05642591 0.02111825 -0.0324119 -0.102388844 -0.024721676 0.042493917 -0.009275678 -0.13281575 0.107441336 -0.2653486 -0.03610186 -0.05348519 0.02335253 0.064701036 0.12121135 -0.06270561 0.06719311 0.028116481 -0.16261882 0.19858915 -0.13534239 0.05048438 0.04753065 0.03609833 -0.040923033 0.091260135 -0.14750163 0.0019517898 -0.047852814 -0.059195127 0.051409435 0.116282724 -0.025790932 0.08660298 0.013508735 -0.08073835 -0.017260568 -0.021413947 -0.061131306 0.051382948 0.031999275 -0.15052985 -0.15661748 0.0510031 -0.07299377 0.03873877 0.08662803 -0.11856041 -0.1326186 0.17597829 0.043691732 -0.033389412 -0.08485918 -0.04250943 -0.11052236 0.096876085 -0.06914025 0.11788833 -0.03152824 -0.09580015 -0.034095503 -0.25388417 -0.0035421886 -0.008477251 0.09100915 -0.18009537 0.124721505 0.0905948 0.13373947 0.0032625338 0.109924555 -0.1385893 0.079839624 -0.0685814 -0.15660506 -0.10387918 0.009087783 -0.07389505 0.04614201 -0.17228864 -0.20417464 0.14577386 0.098914884 -0.096394815 0.008234694 0.110485576 0.050454717 0.023356952 0.11805028 -0.06453638 0.011652513 0.006749803 -0.018741563 -0.030445904 0.015821476 0.011975418 -0.096307896 0.088714465 -0.08910365 -0.013288686 -0.020993406 0.044345018 -0.20337528 0.09762585 -0.05916437 0.13053145 -0.039281838 0.0036503123 0.19991373 -0.01919918 0.13242011 0.012439177 0.050076537 0.015530528 0.093320034 -0.0600185 -0.08986998 -0.055322967 0.018505689 -0.013547218 0.07956236 0.13900828 -0.08904896 -0.06486001 -0.13508883 0.21157241 0.039001603 0.056514885 -0.12548572 0.0084176585 0.05945945 -0.016741127 0.11610543 0.23971823 -0.08617141 -0.093673855 -0.07924073 0.16915503 0.1127704 -0.0050181122 0.012190635 -0.07311949 0.097537585 -0.029455535 -0.017473012 0.06941385 -0.010264826 -0.014961951 0.00959219 0.088070415 0.17318442 0.0670835 0.08886629 -0.01145074 -0.062245123 0.0739335 0.018625647 -0.14076114 -0.031305447 -0.0067881243 -0.04954427 0.14967528 0.04948542 0.13881922 0.02784409 0.009640368 -0.092158146 0.0026945248 0.0028069636 -0.13520966 -0.05245123 -0.030826697 0.04284947 0.047636528 -0.056630332 0.048388477 -0.016706329 -0.28546086 -0.046968687 0.109400496 -0.16667885 0.012770705 0.16002785 -0.07455966 0.0017164823 -0.1288999 0.16422483 -0.006831683 0.0061642574 0.13693178 0.067649476 -0.08606124 -0.063226156 0.050994646 -0.06091059 -0.2102226 -0.0038225055 -0.14651954 0.1631299 0.019180328 -0.08901587 -0.06836161 -0.18743804 -0.10844456 0.103133954 0.22468033 0.07414129 -0.007702668 -0.04169442 -0.09414794 0.20747831 -0.017373307 0.2130647 0.14085367 -0.17257792 -0.06509361 -0.06540288 -0.006483062 -0.004529852 0.30112505 -0.106221154 0.024398558 0.0631524 0.0013443715 0.012519642 -0.10297926 0.012150204 0.052641414 0.034261573 0.058521606 0.14276251 0.09519829 0.008631038 -0.1156742 -0.058499012 -0.020461552 0.026736148 -0.04633176 -0.09207168 -0.117318235 -0.16361605 -0.021993507 -0.14546482 -0.09855093 -0.037888672 -0.13209 0.039476734 0.07552394 -0.053441186 -0.042201214 0.055244494 -0.069897875 -0.07677176 0.121151485 0.08992041 0.061656516 0.0940661 -0.19622615 0.13688529 0.040707726 0.10257977 0.040217694 0.0063940557 -0.026029358 0.038215954 -0.029673226 0.088289246 -0.15714394 -0.05265607 0.20598406 -0.061106533 -0.022366809 -0.08675646 0.035086084 -0.072124854 -0.01705953 0.08638829 -0.06837471 0.080362745 0.083724566 0.106997244 0.0155556835 0.32562706 0.10695501 0.033989277 -0.0860908 -0.008204328 0.14413442 0.17245519 0.14933464 0.08002087 -0.12406435 0.050217696 -0.122638606 -0.14724539 0.025417432 0.05382146 0.09183934 0.05121514 0.054660115 -0.09696362 -0.008996084 -0.14920996 -0.1988352 0.075565904 -0.07381081 0.08875149 0.11233639 -0.060430218 0.060532626 -0.064614035 -0.18308616 0.013832524 -0.04558587 -0.042507384 0.19903603 -0.15108398 0.03978863 -0.09797909 0.09232777 0.03134468 0.03943595 -0.09298733 -0.07505716 0.09422669 0.17858149 0.049532298 -0.08824044 0.03539537 0.24424893 0.011743866 0.14768581 -0.072531305 -0.0027070341 0.06345814 0.041234348 -0.075137235 -0.07945011 0.10033008 0.120656714 0.15271609 0.18189478 0.014963528 -0.02961836 0.13660082 0.07280856 -0.09674389 -0.10186193 0.050694536 -0.016225902 -0.0011414204 0.10875497 0.07740535 0.13448904 -0.19165188 0.026841355 0.07097049 -0.15115686 -0.06398793 -0.08254688 0.003671389 0.16428712 0.20376067 -0.079927124 0.054157242 0.057381302 0.040264092 0.04139948 0.031875767 0.17025873 0.111748286 -0.10451376 0.081073746 0.090738975 0.032998245 0.11464407 0.020308968 0.021548336 0.013625639 -0.20032269 -0.006538266 -0.06532342 -0.11714316 0.14490356 0.05192227 -0.0014815355 -0.05497882 0.031118523 0.100645244 -0.08119495 0.0010187356 0.08830828 -0.1920984 -0.004255403 -0.04142762 -0.011881402 -0.04866134 0.0152640445 0.19386445 -0.030890692 0.030672666 0.20097637 -0.05350004 0.18296926 0.0020338758 0.17969134 0.07652175 0.032212395 -0.005061495 -0.06090263 0.009080739 0.09123778 0.00019042945 -0.030160733 -0.02357669 0.1007493 0.12401778 -0.06521342 -0.06535715 0.039437406 0.15425493 0.11610067 -0.12368359 -0.024906034 -0.091956876 -0.025189074 0.16200316 -0.14039788 -0.16006489 -0.081033535 0.03040432 0.06310832 0.045158487 0.1189821 -0.17480683 0.12033529 -0.029707968 0.07465106 -0.13084082 0.0019972455 0.02512864 0.11707674 -0.15702374 0.0045768335 -0.1070219 0.05205112 0.07922329 0.13021874 -0.05200143 0.09422428 0.13759188 -0.16282298 0.06273609 0.09735276 -0.024475714 -0.119680434 0.09647937 -0.11685388 -0.015053819 -0.0010093232 0.07492501 -0.06088284 -0.066828616 0.011438652 0.10135366 0.229916 -0.1492464 0.03285351 -0.107252374 0.10338276 -0.09235282 -0.06596319 -0.05742557 -0.0061183204 0.033821274 0.049871653 0.0009248181 -0.13148738 0.07428025 -0.0037942934 0.11767511 -0.06927224 -0.15872575 -0.001901029 0.13109699 0.017595777 -0.018694142 -0.086014494 0.1777789 -0.10136848 -0.070426255 0.058349956 -0.18441454 0.12785602 0.06185475 0.09072711 0.055812515 -0.015410129 -0.10506617 -0.01279408 -0.0961225 0.050117046 0.08217962 0.14918259 0.03867828 0.09395917 -0.02821291 -0.046326198 0.048868705 -0.03714577 0.028420143 -0.10461758 -0.08666113 0.06504256 0.090170644 -0.09706398 0.06856307 -0.05177205 0.0030279774 0.14261995 0.08225095 0.08106112 0.1918704 -0.06996215 -0.09795051 -0.07060043 -0.024464894 -0.2343853 -0.020462656 -0.053758886 0.079689845 0.036642976 -0.058568146 0.0604976 0.07382794 -0.075352944 -0.04780091 -0.2210346 -0.10756436 -0.07274532 0.008918199 -0.09303664 -0.049843684 -0.12103143 0.018612953 0.044072974 0.041738052 0.002737685 -0.15260558 -0.06049385 -0.039353188 -0.0394781 0.009603293 0.14419729 0.08322129 -0.09717786 0.07008536 0.06603399 -0.078411885 0.08576893 -0.017149167 -0.1406213 0.04668459 0.023097262 -0.0212662 -0.0022437368 -0.070406914 0.062514566 -0.0028434938 0.018146448 0.03721571 -0.11395693 -0.08792667 -0.21949272 0.057975743 -0.11971937 0.014758555 0.038600337 0.0617368 -0.11890005 -0.0050145886 0.16852976 0.17293319 0.09968836 0.035705984 -0.0988959 0.07307402 -0.014962942 0.056691255 -0.06181791 -0.016148971 0.017422922 0.024617253 0.05007015 -0.05675518 -0.13282672 0.16398023 0.25042695 0.046243586 -0.13089749 -0.075817876 0.052413274 0.13561329 -0.11978743 -0.010931698 0.021094771 0.08795948 -0.032858595 -0.15487975 0.0636214 0.11398123 -0.0067575662 0.042025525 -0.045947608 -0.08307564 0.10359862 0.04066391 0.05075188 0.15290879 -0.10276341 -0.054449666 0.017243654 -0.056265257 0.07858876 -0.018817691 -0.09825846 0.007741508 0.01853544 0.09496984 0.040815607 0.047616154 0.033530682 -0.017320689 -0.070120275 0.0303854 -0.03181096 0.17048399 0.13571995 0.06478555 0.03934821 -0.0072943214 -0.12461063 -0.020115659 0.011641588 0.024447212 0.048455153 0.09363466 -0.06813519 -0.06628731 0.14700866 0.07915956 -0.037764084 -0.011338918 -0.008593948 0.0057744673 0.047906235 0.25365868 0.019970395 0.06742417 -0.16714595 -0.046988484 0.12438314 0.041733056 -0.43741032 0.06890395 0.19331816 -0.19808903 0.15344049 -0.27569443 0.09530153 0.00063671015 -0.2334954 0.046115298 0.11658561 0.037890214 0.059984278 -0.039666094 -0.18463725 0.07068804 0.17602839 0.115043454 -0.19745524 -0.14884003 -0.083198786 -0.15880296 0.0053235004 0.041803353 -0.1414714 0.07793836 0.060827408 -0.053463917 -0.015750635 -0.19347839 -0.0317247 0.0022400706 0.018376324 0.039389208 0.025925739 -0.024932805 0.030121058 0.101704836 -0.008048223 0.033261005 -0.017115543 -0.063174255 0.05378948 -0.05402108 0.040116206 0.004327113 -0.028891904 -0.031312767 -0.04975933 -0.16261695 0.039808348 0.025131965 0.08626536 -0.05324559 0.19046833 -0.036883734 -0.08619269 -0.09872161 -0.17267519 0.15461458 0.13860847 0.06157603 -0.08810724 0.1826285 -0.0336704 -0.025401019 0.14522763 0.06739269 0.22161204 0.02637379 -0.038201563 -0.05967897 -0.1831979 -0.026358014 0.11596097 0.06138493 0.0035323724 -0.09799181 0.024188865 0.102783 0.044406593 0.01837658 -0.07851785 0.08937321 -0.31163797 0.04004969 0.2583374 -0.14917037 -0.023259846 0.00028540412 -0.045607414 0.10505879 0.048746616 0.016731596 0.08122889 0.0031766428 0.3194876 0.016636254 0.021029774 -0.16954508 -0.05284352 0.116239406 -0.13204396 -0.21425399 0.0047331247 0.13857618 0.0057396963 -0.032110944 -0.18434706 0.046726927 0.06762914 -0.17667152 0.11478806 0.07855578 0.11486619 0.061086368 0.0673332 0.052122444 0.08510025 -0.18161014 -0.14926083 -0.07235809 -0.012024417 0.039975177 0.03396968 0.11321221 0.116351165 -0.08573688 0.025359174 -0.08328152 -0.01732314 0.03368065 -0.33937007 0.24262613 0.058142383 -0.058068812 0.19423869 -0.0332416 0.014753523 -0.047210064 0.16670091 -0.008996886 0.01644998 0.12187985 0.060015462 -0.0039836923 0.112615265 0.25585112 0.033059295 0.011146238 0.01719139 0.13163249 -0.059224147 -0.02654339 -0.15229316 -0.11692056 -0.050313883 -0.004092126 0.17841005 0.055100795 -0.08970622 -0.071296416 0.13897659 0.11416267 0.0043165665 -0.04275113 0.11399492 -0.09783108 0.040704556 0.22876762 0.022037132 -0.07605931 0.042538386 -0.045499355 -0.13790986 0.071605235 0.11328507 -0.029662877 -0.03586177 -0.09472056 -0.013641986 -0.05522742 -0.10009398 0.18980728 0.046825685 0.057664506 0.08896642 0.07773009 -0.040036116 0.028756827 -0.025401484 0.045347877 0.035670605 -0.03676451 -0.13142815 0.01612529 -0.018925386 -0.1875355 0.052267693 0.09803585 0.2543368 -0.037618235 -0.052369673 -0.10944047 0.022365754 0.021733383 -0.079628 -0.015991425 -0.19636485 0.09413931 -0.07556629 -0.0019640634 -0.14116761 -0.056733843 -0.026457552 0.00037248805 0.04947477 0.14435522 0.073718734 0.09712092 0.14592105 0.0584723 -0.0021691476 0.10241283 0.108802564 0.066358216 -0.14396104 -0.08264438 -0.025983846 0.079463735 -0.00063306675 0.1151885 0.1330254 0.121418685 0.122055694 -0.10219776 0.049765065 -0.05925139 -0.16340491 -0.02724555 0.13397542 0.047575716 0.20328265 0.019224579 0.246282 0.019253686 0.0037496015 -0.12643729 0.11255791 -0.048711 -0.063203126 0.12962478 0.117323905 0.11470677 -0.034717597 -0.003596017 -0.0044838665 0.07975345 0.15685819 0.03831617 0.19899084 0.09122108 -0.021978375 0.084372774 0.17209575 0.20133062 0.12019077 0.0040690186 -0.02016776 0.059108466 0.16889918 0.044878427 0.046954703 0.0066413586 -0.031287592 -0.014711851 0.015044183 0.17331173 -0.022469813 0.0067627807 -0.08503613 0.07316474 0.13816965 0.16395152 0.021838017 0.058936942 -0.0138534475 0.054303385 0.03289803 0.007328012 0.015276954 0.046693742 -0.02791368 -0.022748115 0.17223793 0.27255583 -0.11893506 -0.124445416 -0.09421365 -0.008827257 0.09107968 0.06062681 0.018704677 0.05439507 -0.06770698 -0.022910714 -0.00050788064 -0.15691991 -0.11462939 -0.11065497 0.07791246 0.02603706 0.06260764 -0.18246378 -0.14685494 0.06782318 -0.27636582 0.12396457 -0.18082999 0.08583613 -0.08735683 0.106392 0.32231724 -0.22581604 0.07103935 -0.17931455 0.044178408 -0.019175652 0.014479817 -0.08966699 0.07955574 -0.14333406 0.1256654 -0.039423514 -0.13876735 0.16099541 -0.005232692 0.19226532 0.123637244 -0.07831293 -0.006997398 0.013605379 0.15413204 0.045253288 0.019130826 -0.018486395 -0.0035541342 0.13196093 0.0018721087 -0.03799821 -0.0549492 -0.053875 -0.13870788 -0.0735359 0.15134375 -0.019158361 0.0719428 -0.24637392 0.058332648 -0.014633679 -0.046642486 0.01959756 -0.04808101 -0.21088576 0.09372643 0.02580332 -0.02989268 -0.095116906 -0.14548403 0.023890834 0.16284582 0.021818211 -0.13677444 0.024013236 -0.0038327218 0.087905996 0.062174834 -0.2970811 0.056025736 -0.09884631 -0.14067115 -0.017345777 0.042598628 -0.16257174 0.07195928 0.07783552 0.0061991927 -0.08526073 -0.096436165 0.10409485 -0.14962055 0.10794868 -0.015018348 -0.0080818655 -0.16930705 -0.013170078 0.062860124 -0.13213928 0.051365104 0.01040281 -0.06287393 0.08696894 -0.21872395 0.03616959 0.16344523 0.14549604 0.040482186 -0.028666513 -0.06207868 -0.028791016 0.05588224 -0.079222746 0.07724401 0.21481778 -0.0046867505 -0.13293776 -0.13297275 0.07915819 -0.0044730445 0.089184724 -0.05186191 0.08456399 -0.014328333 -0.07174877 -0.038598333 -0.118203804 0.20043768 -0.0081365965 0.065953046 -0.052185398 -0.103691146 -0.021886487 0.11162089 -0.050571665 -0.08555156 0.01704799 0.051403776 0.16578653 0.036876563 0.0659009 0.07342916 -0.1137999 -0.09483157 -0.106887996 -0.13171285 0.081047624 0.030506574 0.009451191 -0.2577705 0.20704941 -0.08792557 0.206683 -0.14342242 -0.07973848 -0.21878321 0.037714012 -0.10862405 -0.10579838 -0.1357497 0.07923714 0.072647996 0.18270512 -0.067069024 0.023383502 -0.1274318 -0.032002386 -0.050383016 0.047946513 0.10320382 0.100608304 -0.082779594 0.10134842 -0.0029069448 -0.030958144 -0.06934951 -0.054492064 0.1757331 0.03224262 0.018962748 -0.024723122 0.24609959 0.13200277 -0.07060458 -0.02585994 -0.01992289 0.016088791 -0.068620965 0.045383167 0.14671053 -0.12986109 -0.11131304 -0.04681434 -0.042178042 0.2013483 0.10167256 0.09593387 -0.024935005 -0.027129777 -0.14366882 0.07967566 0.050606977 0.13010146 -0.019581407 -0.01267633 0.018506117 0.090691395 -0.14551984 0.07510725 -0.0005479816 -0.10436209 -0.20695885 -0.012145787 0.14627302 0.1689702 0.03703914 0.19770229 -0.0027925384 0.09087109 -0.04958239 -0.05591918 -0.072210185 -0.21051167 0.12425011 -0.06862252 -0.08460315 -0.12245644 -0.024895208 0.17189045 0.20491911 -0.17054547 -0.0399041 -0.107895054 0.0943745 0.024200091 -0.06811621 0.0027980437 -0.052201163 0.15696584 0.050236654 0.062523074 -0.2711517 -0.011138111 0.20386232 0.12815414 -0.18916772 -0.035801884 -0.12461122 0.16665138 0.019968564 -0.08123883 -0.0010434658 -0.26519647 -0.1129554 -0.0008148884 0.08010826 -0.1985902 -0.042574827 0.0965093 -0.1496041 0.01845902 0.0021381872 0.16697927 -0.027472885 -0.021619326 0.08103671 -0.13709365 -0.026547587 -0.0500318 -0.018350443 0.08038137 0.05095685 -0.0793275 0.00921068 0.14458539 -0.08759584 0.010057438 -0.023775334 -0.010759747 -0.16752453 0.1366175 -0.081894465 0.09814792 -0.06659692 -0.067009725 0.11685305 0.09492918 0.016407324 0.07165579 -0.03331459 -0.005296019 -0.07062171 0.08594722 -0.0738006 0.14405687 -0.03604271 -0.002408403 0.071413524 -0.0020728176 -0.03425012 -0.007461602 0.08492256 -0.07074449 -0.017082965 -0.0034305868 0.08199925 -0.0144437775 0.17637114 -0.020113124 -0.02822763 -0.021562478 -0.13612293 -0.10813195 -0.05752599 0.109123714 -0.0077718636 -0.052923713 0.1181942 0.15065895 0.12107899 -0.08976827 -0.05398416 0.17691483 0.019654704 -0.031221973 0.06737552 0.09627063 -0.061604258 0.01748473 0.08819673 -0.12048798 -0.0032247137 -0.115898244 -0.10281732 -0.06076931 0.043252658 -0.03666156 -0.06930109 0.00069619226 -0.11915555 0.038421024 0.10867941 -0.012379644 -0.024724165 0.032884736 -0.20730571 0.04922245 0.30572864 -0.016726857 -0.016371747 0.06990143 0.16007449 0.09303751 -0.22001947 0.051880587 0.25273308 0.0577848 -0.11991947 0.023723697 -0.13252752 0.11882109 -0.100047536 0.0029650982 -0.09023727 -0.059104104 0.14415629 0.005886472 -0.060379546 -0.11898207 -0.19162892 -0.12958689 0.0067366865 0.0935641 -0.06049445 0.1525956 -0.076209314 -0.028260438 -0.112416945 0.0946169 0.20529227 -0.18064047 -0.039075505 0.12201873 -0.14915334 0.05220909 0.11768795 0.003363619 0.050567012 0.17163147 0.19038387 -0.010655962 -0.057697084 -0.09645728 0.09323714 -0.14163633 -0.029716669 0.0058097327 -0.05475955 0.023522763 0.25199142 -0.0166191 -0.047999863 0.097073905 0.019499099 0.1394748 0.012009526 -0.029301586 -0.18283127 -0.16643225 -0.18802865 0.03347462 -0.14068373 0.12109848 -0.0014346021 -0.028877957 -0.08884478 0.057766568 -0.08490906 -0.10299707 0.11437572 0.031002833 -0.027952207 0.059683997 -0.0035660737 0.033842016 -0.08614407 0.2025811 -0.062421296 0.15114285 -0.02334615 0.07625044 0.06896307 0.11022591 -0.08852164 0.10310427 0.18018521 -0.030328562 -0.0009886542 -0.05680396 -0.039102923 0.16668351 -0.104882725 -0.09867116 0.1566313 0.05799553 0.20757826 -0.04950316 0.008168874 -0.070526965 0.0098708775 -0.18186845 0.06403618 0.027888132 -0.010214711 -0.043495733 -0.09393468 0.06831201 -0.12156827 0.04673029 0.20298637 0.14409338 -0.15497158 -0.058133107 0.037685778 -0.011487436 -0.14439936 0.0340723 -0.005460944 0.18697377 -0.029782133 0.11234107 -0.1311676 -0.107260205 0.06770692 0.10391381 -0.100198545 -0.0020515195 -0.1426167 -0.022581248 0.079233 -0.047955144 -0.029362736 -0.117438816 -0.069295116 0.17135231 0.0028332244 -0.1737947 -0.040325828 -0.16859166 -0.0379456 0.28483012 0.13454814 0.32968628 -0.11847762 -0.02062951 0.04705775 -0.2717187 0.016034668 -0.009357894 0.14414512 0.09200867 -0.117828436 0.11975459 -0.030690717 -0.094904594 0.015251071 -0.024736201 0.14938776 0.029602958 0.016106626 0.085605435 0.10482789 0.07390124 0.13748758 0.056408945 0.01230591 0.104130864 -0.028875915 0.01893748 0.2601828 0.25632617 0.22492914 0.25897196 0.3454899 0.24429795 0.056932762 -0.08611701 -0.0124065 -0.0066301003 -0.11223829 -0.017763345 0.022083139 -0.041998807 0.08592329 0.12442433 0.0925305 -0.032084085 0.07112288 0.003336879 -0.12803338 0.06281366 0.010153923 0.25489488 0.1412683 0.06665575 0.020457784 0.01191299 -0.104828216 -0.20771645 -0.16992544 -0.17306486 -0.32161787 0.21794713 0.45627013 0.39438403 0.40786517 0.16944695 0.39660606 -0.010271465 -0.13898273 -0.060145643 -0.06807639 -0.10746328 -0.0813723 0.096593134 -0.046437737 -0.11392891 -0.008773295 0.0073417355 -0.2017292 -0.008533895 0.08233871 0.04066364 0.21852075 0.120651715 0.14043464 0.27554867 0.07135635 0.011847785 0.09291475 -0.07441415 -0.020553721 -0.06323672 0.16033837 0.12699737 0.22006464 0.101682745 -0.06316261 -0.14184996 0.08030477 -0.26243028 -0.20445609 0.0024055464 -0.008773715 0.10206867 0.070820905 0.10273103 0.05638032 0.016508667 0.105475895 0.08748201 0.033150237 0.122647904 -0.23903759 -0.033505622 -0.03503834 0.11080902 0.15268071 -0.14947672 0.13665794 -0.121603794 -0.118580796 -0.041919142 -0.0013026632 -0.13102655 0.17128168 -0.061336547 0.16720764 -0.22566369 -0.3018844 -0.15281576 0.2341636 -0.3611579 -0.17486645 -0.048080135 -0.13922463 -0.030291302 -0.01706682 -0.070227884 0.0019876296 0.05835561 -0.028085908 -0.04977877 -0.021035755 -0.0052028885 -0.17849074 0.041696098 -0.049559418 0.121694274 0.05464605 0.11254736 -0.105559655 -0.04159796 -0.12870465 -0.07497839 0.17105569 0.23472333 -0.003782856 -0.0873459 -0.052053552 -0.3247249 -0.50690055 -0.548553 -0.06695786 -0.42513004 -0.10533184 -0.032425046 0.0371073 -0.018631076 -0.04103497 0.079997815 0.024061328 -0.06916093 -0.0006869703 0.033857603 0.16736494 0.0741731 0.116996415 -0.06552001 -0.056877587 -0.027997265 -0.018816533 -0.105261765 0.12213413 0.08387589 -0.035027076 0.059711765 0.068134725 0.15906271 0.0028081015 0.0029545398 0.1568236 -0.27568918 -0.37776354 -0.26766822 -0.15307476 -0.182381 -0.036426388 0.11974061 0.053815346 0.003693769 -0.007698385 0.105959065 -0.06347036 -0.018487645 -0.11338509 0.13743182 0.034790594 -0.07521161 -0.015904734 0.046505783 -0.029531157 -0.057906363 -0.06988665 0.029436944 -0.040264722 -0.049835067 -0.13806497 0.003304795 0.04175397 0.074355595 0.28277344 -0.15390143 0.066532046 -0.18391328 -0.49861324 -0.22915617 -0.38675928 -0.16835527 -0.040849824 -0.12726294 0.005146457 -0.101004936 -0.17055796 0.07748134 -0.051900756 -0.08816264 -0.113843985 0.037844297 0.13303198 -0.044766683 -0.026015604 0.10270391 -0.18550335 0.1922281 0.23995124 -0.2750937 -0.014209563 -0.076353975 -0.03093644 -0.046297807 0.034650933 0.1095376 0.08016446 -0.17394927 0.12331886 -0.3985756 -0.60800976 -0.22612728 -0.12957549 0.004836537 -0.07644708 0.040752 0.17282023 0.053534087 -0.15629528 -0.14287113 -0.044355776 -0.031282574 -0.1766539 0.077474825 -0.11309133 0.14487137 0.17760448 -0.029284617 0.03943797 -0.12765355 0.057908323 -0.05427854 -0.113182805 -0.033392806 -0.051034097 -0.03697524 0.048443016 -0.05053653 0.37933514 -0.2529989 0.3191321 -0.57383054 -0.55749315 -0.5431327 -0.11614309 0.015290272 0.11331519 0.10499574 -0.04494493 0.013966281 -0.08266706 -0.10361431 -0.11908936 -0.04821663 0.020501299 -0.19564028 -0.009094615 0.14714374 0.10773183 -0.06297777 -0.14414607 0.041523736 -0.2362016 0.10655614 -0.02581801 0.17867126 -0.17715533 0.08735535 -0.07334516 -0.023955958 0.111121245 0.11125644 0.18025905 0.25270838 0.059852567 -0.11641036 -0.19773334 -0.32566586 0.021569034 -0.09872769 0.14356421 0.048047904 0.028531032 -0.03514612 0.061608087 -0.0060063303 -0.041380625 0.06514121 -0.018856479 -0.08429275 0.055523377 -0.010857809 0.044431705 -0.049845282 -0.12537125 0.16904862 0.15020235 0.08391922 -0.043240365 -0.03449109 0.07493855 -0.108434044 0.08724328 0.4327667 0.54292625 0.66495 0.17210414 0.3865127 0.36763707 -0.16431257 -0.30493605 -0.15770526 0.10377503 -0.08147208 -0.013940096 -0.12790902 0.15123068 0.11102926 -0.0076177316 -0.11987417 0.14913194 -0.04105247 -0.11497975 -0.18067057 -0.06905579 -0.1499226 -0.06674134 0.0699816 -0.041999314 0.031110046 -0.07679274 0.0020576431 0.1876313 -0.14878486 -0.004624581 -0.14416532 0.5063128 0.41328084 0.43931726 0.25247893 0.34017873 -0.016138814 -0.07131474 0.105271146 -0.07981798 0.07333415 -0.043479826 0.030496499 -0.050658595 0.0005383331 -0.11192865 0.020296434 -4.0475825e-05 -0.058474656 -0.009962043 0.008941207 -0.06609496 -0.017335115 -0.105014466 0.23011453 0.1014526 0.022850147 0.11275201 -0.20238404 -0.2602279 -0.11457281 -0.04656343 0.00788439 0.18853809 0.30849874 0.1026304 0.31354192 0.17572398 0.08874864 -0.058736295 0.13155451 -0.018298995 0.17295943 -0.08349814 0.069823466 -0.010426087 -0.037233543 0.058772217 -0.03437664 -0.27065644 -0.31074676 0.12278297 0.11856658 0.18427531 -0.006212079 -0.13372226 -0.04641768 -0.0033168085 -0.10516309 0.1603987 0.2194915 0.043368775 -0.0055456283 -0.13395546 0.15018462 0.0031714132 -0.03337575 0.04365811 -0.063030496 0.010228278 -0.1446981 0.10825747 -0.016109975 0.10739214 -0.024572881 -0.018079227 -0.12569074 0.07151642 -0.09204327 -0.053101536 -0.004354537 0.0076631815 -0.17506848 -0.027539851 0.07506374 -0.042293098 -0.026932439 0.011781368 -0.017055308 -0.10751083 -0.008093876 0.094948046 -0.10957687 -0.041907486 -0.14262192 0.08967892 -0.013695061 -0.08947923 0.004767305 -0.1248193 -0.10780882 -0.15047212 -0.111137204 0.13127498 -0.077771105 0.04216321 -0.088089414 0.071494095 -0.10706747 -0.0005364659 0.0008258675 0.22832175 0.05858321 -0.06374968 0.06404563 0.20935868 -0.1674224 -0.088707484 -0.028149022 -0.046168122 -0.037734967 -0.13488202 0.13593684 -0.14671965 -0.024480546 0.100123785 -0.0074777426 -0.102398686 -0.13932635 -0.027459184 -0.080162235 0.016063845 -0.1446039 0.0768443 0.007095716 0.014524395 0.1396489 -0.048238847 -0.07704095 -0.05923566 -0.023711922 -0.01355573 -0.08752904 -0.2067673 -0.0605522 0.03152327 0.009166591 0.11549618 0.19108988 0.0714741 0.13379328 0.07221816 0.16653116 0.18062659 0.09065724 0.06617875 -0.02498248 -0.008592989 -0.03824303 0.05766586 -0.076494075 -0.023569888 -0.23997577 0.16785021 -0.026506724 0.041098747 0.14131989 0.025570078 0.13997559 -0.12863259 0.23527889 0.10425175 0.016460983 0.13804917 -0.12132276 -0.033320796 0.13996626 -0.1911648 0.051586483 0.048758317 0.1924638 -0.16275431 0.15650432 -0.06040637 -0.049160246 -0.12665926 -0.11324448 0.035892937 -0.11569246 0.06956916 -0.07075588 -0.12576233 -0.057240214 0.02921149 -0.032194577 -0.0010382488 0.065161474 0.10378287 -0.03546882 -0.10888148 0.00315018 0.042605665 -0.1505313 -0.0935201 -0.076377966 -0.025241485 -0.08056266 0.0662448 -0.16497211 -0.16243066 -0.03784818 -0.022024544 -0.14992316 -0.06513413 -0.044563677 -0.043789092 0.010728909 -0.07061716 0.14332487 0.04436117 -0.08517062 0.0049918965 0.007942291 0.11701288 -0.06449745 0.0722746 -0.0002738141 0.14469786 0.12463023 0.015238673 -0.030687528 0.046201292 -0.022504268 0.16357194 0.0033877473 -0.045023564 -0.05042081 -0.1257625 0.051196616 -0.08646039 0.10535555 -0.13375227 0.008264905 0.11056311 -0.21968348 0.19736777 -0.04698782 0.009650297 0.052685622 0.06815363 0.02292913 0.09527918 0.047447775 0.17162932 0.047773454 0.19200478 0.085648604 -0.18503378 0.25665036 -0.061893705 0.14509563 -0.0017799165 0.101649754 -0.073307164 0.058115143 -0.029778318 0.15344153 0.039407518 0.08913498 -0.22086646 -0.013016509 0.03659587 0.017902227 0.091656454 -0.041049723 0.00041944828 0.1136634 -0.23232768 0.05447575 -0.037847783 -0.09569109 0.029195188 0.11828586 0.09945511 -0.01797056 0.083114825 0.08234752 -0.013196368 -0.07376733 -0.06798268 0.079326056 -0.008673944 -0.10907749 -0.17294507 0.07872387 -0.05913714 0.02857952 0.11951142 -0.13535123 -0.0089729875 -0.021528678 0.033514988 0.11945673 -0.13740395 0.052520495 0.09869311 -0.02309697 -0.018203957 0.03738564 0.030022437 0.053775962 0.051668752 -0.102656506 0.09456738 0.11221904 0.014149059 -0.15387432 -0.015933806 0.014981338 -0.11891929 -0.040473107 -0.14539571 0.056269925 0.012136295 -0.16903709 0.030687222 -0.010110142 0.04718213 -0.043612543 -0.08460721 -0.081543736 -0.05827632 -0.0025767502 0.010336606 -0.023531253 -0.04679125 -0.039599624 0.24631362 -0.081531785 -0.0602565 0.32492545 0.037642036 -0.14245684 0.07980945 -0.095463164 0.086446874 -0.025555493 -0.04843888 0.1564577 0.052180838 0.092839666 0.03903267 -0.048903752 0.056676146 0.11646227 0.009014564 0.17570548 0.08058945 0.01673899 0.020689389 0.009264473 -0.12958269 -0.013466459 0.017659383 -0.046067808 0.029308463 -0.0023285095 0.072909914 0.061852016 0.012256093 -0.12015082 0.19564268 0.0023813641 0.008481819 -0.017681593 -0.032270614 0.17097619 0.15517482 0.061009895 0.005820452 0.07848215 0.023950184 -0.0024518005 0.05038115 -0.027545257 0.041796986 0.036992613 0.076863974 -0.045343142 0.087583974 -0.07406081 -0.040686112 -0.03632195 -0.09063484 0.11813657 -0.0803349 -0.053321127 0.14211118 -0.040487718 -0.002243777 -0.08463256 0.09986547 0.10124396 0.090464935 0.07032342 0.0239294 -0.035867114 -0.064926594 0.14556095 0.09305076 -0.05275994 0.020553654 -0.013440983 -0.09625073 0.03433567 -0.024978729 -0.07868333 -0.13134286 -0.13980997 -0.020572113 0.008060962 -0.07095975 0.08164428 0.01001583 0.07425888 -0.0017205961 -0.062141366 0.027982248 -0.10969707 0.07051431 -0.07714458 0.108393595 -0.017275074 0.122823685 -0.09569198 -0.051206436 0.05466405 0.13362008 0.1832313 0.020707091 0.20034495 -0.012395926 0.12644725 -0.07764776 0.058590602 -0.21759892 -0.09558876 0.063238166 -0.11467348 0.059265513 0.10721615 -0.033561464 -0.08032495 -0.03084811 -0.08001089 0.006449112 0.026779545 -0.014030488 0.18400633 -0.055369925 0.1557137 -0.087553576 0.023848245 0.13488087 0.129706 -0.025455238 0.072077364 0.058688466 -0.03742336 0.07816537 0.20281962 0.06374051 0.07320604 0.08378583 -0.12952727 0.06259299 -0.08510561 -0.04241814 0.23276457 -0.008755658 -0.05744702 0.13182876 -0.07819736 -0.0281714 0.14147562 0.020847233 -0.13958931 0.0709694 -0.023076063 0.17055553 -0.04404814 0.12169294 0.1941402 -0.06852399 -0.002750821 0.055433083 -0.06916423 0.043600064 -0.0059215357 -0.007936267 0.021464327 0.023696965 0.03295863 -0.043312076 -0.038946617 0.0047117085 0.012094721 -0.027314411 0.04896452 -0.16490579 -0.05647615 -0.011422265 -0.06904118 0.17949021 0.018456655 0.0342475 -0.031752516 0.014992593 -0.104955 -0.00041122222 -0.0771305 -0.011169851 -0.23942143 -0.096229985 0.16296303 0.09961012 0.14847434 0.15534252 0.083869085 -0.028716361 -0.08715476 0.13124484 0.023027292 0.26597273 -0.019939298 0.21385998 0.0008912888 0.15017524 0.18623957 -0.08572465 -0.03192925 -0.086727574 -0.10642411 0.08327703 -0.0030923565 0.021807129 0.07219429 -0.1691683 0.14524698 -0.018338924 0.0698106 0.07864164 0.15365005 0.0060847295 -0.19579336 0.022283247 0.036641207 -0.08685574 0.03131958 -0.019531352 -0.11770502 0.08371884 -0.03980196 -0.024067389 -0.029687375 0.14011821 0.012478869 0.024480471 -0.027493102 0.06285718 0.15150219 0.08135642 0.08525704 0.07719341 -0.12145385 -0.07104154 -0.0039282455 -0.05601592 -0.08988336 -0.17064717 -0.11808263 -0.009082047 0.009627838 -0.062735036 0.024463011 -0.02681282 0.12562768 0.00040789688 0.086203426 0.036891896 -0.12363678 0.007504647 -0.106992066 0.0057583847 -0.057942692 0.05476686 -0.11766505 0.018040659 0.07381193 0.107329905 -0.059846308 0.018345566 0.034985226 0.17128304 -0.13156262 -0.074539915 0.29701668 -0.010739215 -0.17252898 -0.04168446 -0.2603169 0.040662598 0.09754881 -0.0745959 -0.030501874 0.10893576 -0.15845114 -0.11558671 -0.006241023 -0.058662985 -0.012816168 -0.10980466 0.03800189 0.0016471534 0.07148948 0.036610465 0.037239525 -0.12806034 0.065829605 -0.016516136 -8.934936e-05 0.12139678 -0.0553731 0.15168884 0.16101792 0.09184879 -0.08149174 -0.20205894 0.123079196 0.038236003 -0.04742232 0.0815906 -0.15243512 -0.10869464 -0.069718346 -0.21020025 -0.039778788 0.080082916 0.037681606 0.14131305 0.1299305 0.01734432 -0.21710375 -0.094006896 0.09290375 -0.13845474 -0.016098754 0.05041862 0.16352746 -0.040931415 -0.047778253 0.011325905 0.051661853 0.0011457795 0.12149717 -0.06334405 0.028586583 0.06109183 -0.056601238 0.06739311 -0.02833116 -0.10586379 -0.34781897 -0.40323344 -0.48301864 -0.3173137 -0.12092696 -0.16973987 -0.2675815 -0.08850891 -0.2208072 -0.07711665 0.09295663 0.0040559103 0.028361754 -0.28506768 -0.022654848 0.05039778 0.06309949 0.11280592 -0.004455281 4.9018727e-06 -0.11664139 -0.003881663 -0.10958713 -0.16821662 -0.0919476 0.1674389 -0.010485608 0.038558263 -0.09820984 -0.29121843 -0.19163397 -0.46611962 -0.113448426 -0.29109463 -0.2126223 -0.12081243 -0.39921775 -0.26118347 -0.21877159 -0.286331 0.048272856 -0.16137199 0.026951792 0.032400228 0.11261585 0.0032572744 0.09568344 -0.0006515324 0.06000981 -0.1337237 -0.24725746 0.05432524 0.05968887 0.064120635 -0.035922695 0.16554263 -0.029417275 0.058658455 0.07603398 0.1884444 -0.045414567 -0.15977857 -0.3264547 0.061028406 0.16226472 0.089269124 0.3804192 -0.2516865 -0.2997811 -0.31397116 -0.18542334 -0.18730663 -0.06055385 -0.06184865 -0.12275789 0.17582056 0.046455365 -0.0059767063 0.09233412 0.06367719 0.044139642 0.08507015 0.029963968 0.08359249 0.09188157 0.032842427 -0.005468966 0.16961017 -0.031219607 0.055701915 0.057961393 -0.04438523 -0.09449407 -0.10550778 -0.233857 -0.46009997 -0.18095364 0.1370225 0.3791779 0.05723222 -0.29401112 -0.18579444 -0.27272794 -0.14119363 -0.108206905 -0.022414898 0.0063468968 0.014328053 0.1510109 0.014604462 0.12512393 0.110560924 0.0832749 -0.1620915 0.1282337 -0.02921961 0.088143066 -0.08068295 -0.10193707 0.21420926 -0.07912797 0.13118103 0.028412523 -0.025441455 0.012087595 -0.16708404 -0.19830048 -0.27443847 -0.056971844 -0.23996834 0.21093352 -0.10911286 0.08899786 -0.2687714 -0.24139635 -0.103018835 -0.12351412 -0.09999579 0.20135137 0.014841737 0.008431943 -0.02393998 0.13456693 -0.035917293 -0.13792759 -0.05129723 0.14924785 0.099783555 -0.0089310575 0.15389591 0.09136456 -0.010088421 -2.0507141e-05 0.04950233 -0.06661835 0.017020991 0.04742189 -0.20567122 -0.229563 -0.17675343 -0.0066176066 -0.53127736 -0.028791912 -0.023251725 0.1490444 -0.35147187 -0.025622949 -0.21863092 -0.14781536 0.0405364 -0.018836385 0.102509946 -0.11664942 -0.06579925 0.062139545 0.13914603 -0.20362645 0.15401751 0.002556952 -0.1718171 -0.28360236 -0.13636822 0.014599996 0.00998068 0.079890385 -0.03837816 -0.09423371 -0.024738105 0.019931508 0.016385261 -0.2692583 0.15932028 -0.01355442 -0.26317248 -0.33778885 -0.19287178 -0.19135623 -0.357519 -0.0084844595 -0.070577264 -0.085825175 0.1399546 0.12017813 -0.043993417 0.019233895 -0.111684084 -0.0039237323 -0.04604848 -0.023718057 -0.058419045 -0.012139156 0.06979373 0.0046212734 -0.16986692 -0.058041673 -0.13536954 0.040976558 0.06690222 0.04222538 -0.062170047 0.041255947 -0.066485554 -0.27572593 0.041778293 0.106304154 0.13218276 -0.108914465 0.05759425 -0.2538663 -0.13787568 -0.24325915 -0.19975396 -0.3120453 -0.013620796 0.025679478 -0.024434434 0.19218922 -0.09967627 -0.039787572 -0.07391693 -0.039807145 0.11971165 0.16437358 -0.05350874 -0.055730294 -0.09914252 0.14719895 0.12867087 0.005972289 -0.12303966 -0.11409585 0.033633504 0.07150422 -0.22608845 -0.1634687 0.16628018 0.15444301 0.5250987 0.43540826 -0.16408285 0.036197517 -0.04894681 -0.5116124 -0.27434257 0.08074902 -0.081165716 0.12441395 -0.027077908 0.014006551 0.07275483 -0.043285314 0.073360816 -0.18807256 0.06054129 -0.2302826 -0.006114175 0.10199463 0.07879989 -0.11327061 -0.1003961 -0.05229671 0.03519212 -0.18662292 0.015248125 0.047713492 -0.028616609 0.047008704 0.032608733 0.3200538 0.120871395 0.15045124 -0.2602434 -0.1609827 0.06531652 0.022931598 0.0117968945 0.045509018 -0.12787753 0.041122902 0.010579893 0.13949314 -0.03747529 -0.007593267 0.12245178 0.0073670843 -0.0943138 0.27173376 -0.09128894 0.010100475 0.051239368 0.04333232 -0.0024038807 -0.0019055505 -0.0069226935 -0.09502305 0.23159233 -0.005428611 0.059380285 -0.027008008 0.12715839 0.52449614 0.05548981 0.2265392 -0.009450296 -0.04014831 -0.094810024 0.14475398 0.11475014 0.12190845 -0.07037051 0.07280037 0.113586485 0.0019581723 -0.12111072 -0.11984494 0.10254675 -0.10948902 0.055773217 0.0280054 0.0542838 0.06372892 -0.07679674 -0.08098248 0.08806306 -0.046363916 -0.25844443 0.08144587 -0.08705579 0.06328406 0.15585259 0.050845265 0.2097546 0.13871905 0.18206407 -0.19408849 -0.1156615 0.029536078 -0.1896253 0.20185219 -0.0034650567 0.16648799 0.17177063 0.04477777 0.07183051 0.13573745 -0.1021494 -0.11462958 0.1422123 0.04396941 -0.006080027 0.017682804 -0.22203374 -0.0024857412 -0.058734182 0.1083775 0.116073415 0.07423839 0.05611642 -0.13316429 0.07563466 0.07951014 0.14108965 0.25799224 -0.16351928 -0.08526451 -0.10569653 0.02363628 0.0077257752 -0.17790379 0.018313475 -0.16568917 -0.1763163 -0.17462666 -0.09904056 -0.10628869 0.011713333 2.1463055e-05 -0.062081136 0.10394697 0.010620434 0.12283507 -0.0029345008 0.014150994 -0.039707687 0.01586584 0.08779347 -0.024562893 0.06841162 -0.06470436 0.0924754 -0.04142003 0.10173833 0.022668144 0.16866577 -0.09883644 -0.13104728 -0.04505117 -0.121890694 -0.12170307 0.07872543 0.016152622 -0.03139754 -0.11513748 -0.13616516 0.07523344 -0.07953887 -0.115642965 0.0961754 -0.005005074 0.22044778 -0.03605001 0.10116875 0.12479007 -0.035563026 -0.057721686 0.09070699 0.07405956 -0.124490626 -0.09627323 -0.23707253 0.07610905 -0.009612219 0.00035543478 -0.152574 -0.09323989 -0.031225342 -0.050662007 0.028354095 0.07491714 0.24353164 0.01456878 0.12811077 -0.06642693 -0.15092424 -0.018659672 -0.14320177 0.018037794 -0.06147498 -0.17885673 0.19017291 -0.037185613 -0.14719152 0.106387526 -0.05629095 0.12558696 -0.05676898 -0.037519213 0.05105373 0.075892285 0.09341872 0.0075963507 0.069432095 0.09113321 0.03662743 0.0023046515 -0.1279591 0.07648778 0.020787844 -0.024791045 0.14434704 -0.12621295 0.18097404 0.014343156 0.048322376 -0.022933898 -0.15013689 0.0026094748 0.050045047 0.08419289 -0.003232837 -0.2026836 -0.13759574 0.22177237 -0.092683256 0.15927535 -0.07683833 -0.001675109 0.07909116 -0.0654491 0.17579192 0.024143321 0.06265561 -0.010190189 0.08244237 0.17444968 0.0034418728 0.18954167 -0.044589024 0.09297994 0.065481886 -0.090287864 0.03795151 0.017307078 -0.06874888 0.052370798 0.03119945 0.00931178 0.0097127315 0.0075694374 -0.02019946 0.030553902 -0.0478209 0.28225136 -0.124362886 -0.041903052 -0.034003656 0.22061974 -0.11544308 0.059162784 0.041409966 0.049930785 0.14020467 0.13815331 -0.028525172 0.035972264 -0.1698398 0.026479786 -0.0628286 -0.0020677557 -0.15196678 0.057057787 -0.15308648 0.031398974 -0.10608022 -0.06839377 0.13204369 0.075362146 0.1314907 0.17254311 -0.060713347 0.16646758 -0.12998018 0.09118037 -0.032763217 -0.076459676 0.078017354 0.11106549 0.10809718 0.038056526 0.029766222 0.06925708 0.04694696 0.070706025 0.036970463 0.10084872 -0.14615038 0.0034431189 -0.121814236 0.04424077 0.18076342 -0.030837923 0.029295692 0.09221901 -0.19020191 -0.035640497 0.05302212 -0.27312905 -0.08111051 0.1266563 0.11687003 0.054002378 0.10479011 0.038080964 0.07210988 -0.014994869 0.02815176 -0.046666507 0.14291874 0.16872633 0.15456167 -0.024240347 -0.078807056 0.14426777 0.07096116 0.04942899 -0.046792682 0.05913694 -0.091957465 0.07997657 0.15445906 0.17967495 0.08742274 -0.12163174 0.03630353 0.23053858 -0.07029082 0.010652328 0.15792283 0.07828376 0.26458603 -0.05671647 -0.08240524 0.13898292 -0.103017524 -0.0031063175 0.01000583 0.12016928 0.07799716 0.062277045 -0.023672545 0.13807079 0.41915286 0.085698545 0.026537703 -0.11321588 -0.047177624 -0.004800538 -0.036889467 0.014962701 0.194372 0.14128709 0.00068719464 -0.10425766 0.15030715 0.011665054 -0.15607965 0.08781335 0.119139016 -0.22602046 -0.06588513 0.005525064 0.09002143 -0.035004105 -0.06664385 0.089287266 -0.0302617 0.0707759 -0.09458123 -0.11866294 0.09209725 0.04182255 0.10881591 -0.03668875 -0.062940195 0.15264228 -0.13572547 0.14171648 0.14862087 0.102579296 -0.052210253 -0.06508204 -0.0044350824 -0.11293359 -0.07959905 0.081043765 0.081505254 -0.08838715 0.08418253 0.06200089 0.16755903 0.07348403 0.12242845 0.06427815 0.11456326 -0.11214134 0.004396021 0.012672208 -0.007804508 0.060959216 0.08000831 0.055796262 -0.0011239045 -0.057002556 0.12628907 0.051543836 -0.08529104 -0.0027982767 -0.15775958 0.02010754 -0.0032675108 -0.04087614 0.17503041 -0.09904507 0.08720964 0.2352412 0.12429713 0.013416607 -0.09683652 -0.119635835 -0.024584642 -0.052129578 -0.055384215 -0.016060842 0.0063457605 0.065091625 -0.10720928 -0.051653873 0.0006032584 -0.0029780339 0.20021278 0.03979518 -0.1447886 0.05838869 0.07113682 0.004057665 -0.10476932 0.19237587 -0.090418056 0.08264756 0.036575567 0.076651424 0.18725619 0.045376416 -0.066654354 0.0998113 -0.07389787 0.005568407 -0.14009555 -0.11411605 -0.0056487275 0.026021278 -0.18102625 0.038941264 -0.09273083 0.11718088 -0.045983914 -0.123150155 -0.0032069508 -0.10241143 0.11610659 -0.010734367 -0.025955055 0.04839263 -0.11128267 -0.13970256 0.030047765 -0.120754994 -0.12078894 0.072887674 0.041718937 -0.13617015 -0.072701536 -0.101161085 0.16684474 0.079813115 -0.052871957 0.046831995 -0.1464058 -0.07805254 -0.00030107435 0.034435604 -0.020533307 0.014013963 -0.002953761 -0.027145134 -0.040402032 -0.05341396 0.012406362 0.030294167 0.009048529 -0.1286469 -0.110680714 0.029100789 0.13638014 0.004454152 -0.051954314 0.011646656 -0.12447007 0.12010639 0.007872026 -0.07773365 -0.02746694 -0.06349155 0.12037907 -0.0310114 0.0047491803 0.046585172 -0.08486459 0.008583559 0.016656162 -0.16619506 0.01448226 -0.015363595 0.0022092222 -0.0072244233 0.0151296 0.12294639 -0.12873794 -0.045002706 0.055874392 0.037305113 0.035153084 0.2645665 0.05062608 0.10230585 -0.04149468 -0.11007916 -0.042219214 0.060408548 0.029895393 0.029537747 -0.032221913 -0.048167735 -0.028773116 0.061660074 0.07328482 -0.11141209 0.06544633 -0.07586005 0.036104694 -0.029983966 0.14579166 -0.052594934 0.0070737894 0.049871843 -0.09818381 -0.018073099 -0.037445962 -0.06216882 -0.05475977 0.10041353 -0.070643 0.045853317 0.020672107 -0.1504852 0.04112947 -0.15213852 0.052021712 -0.061506636 -0.009950663 -0.14021519 0.0014508329 0.081907116 -0.09148447 -0.07150464 0.03467463 0.03717436 -0.25420913 0.19075345 0.042067878 0.058904395 -0.025141438 -0.19632255 0.056684732 -0.067306735 0.043605696 -0.03266758 0.01301655 -0.08828756 0.07565097 -0.1296251 0.21376975 0.21300767 0.15248276 0.11675998 -0.019242229 0.105866745 -0.020405043 -0.16613895 0.13953295 0.102094516 -0.013921299 -0.13330562 -0.069408 -0.19290175 0.083720155 -0.17111808 0.017895693 -0.09515726 -0.15345754 0.013048122 -0.04416741 0.073030986 -0.13754772 -0.08651939 -0.24955142 -0.22922185 0.16903205 0.19757263 -0.0015147794 -0.09317081 -0.040632367 0.07656949 -0.062226374 0.012975998 -0.012062994 -0.0676692 -0.063407205 0.018544694 -0.10847674 0.03438546 -0.057945367 0.0019493308 0.12760907 -0.027606597 0.08119251 -0.18999048 -0.057823773 -0.008018526 0.18154588 -0.2067824 -0.020408379 0.13488169 -0.08928997 -0.032071356 0.022386508 0.007663462 0.14578986 0.03405991 0.12198936 -0.04678831 -0.08484047 -0.033359792 -0.1266975 0.037563697 -0.049375284 -0.07796682 0.03907837 -0.12515877 0.0662623 -0.058621213 0.10512172 -0.05006123 0.052403495 0.007168844 0.06360226 0.0002072881 -0.17712693 0.09009143 -0.019555686 0.06816368 0.058237173 -0.08811758 -0.10226747 0.054748036 