1024 94 26
0.03471545 -0.09975468 0.07928884 0.098300196 -0.19085966 -0.12597409 0.017027836 -0.027380457 0.0025636477 -0.08106067 0.09218352 0.08202292 0.010846833 0.11696784 0.050994676 -0.08168552 0.04111882 -0.09164453 0.09208875 -0.00074882305 -0.014242472 -0.06384923 0.12649791 -0.011209189 -0.038589038 -0.030969607 0.05747466 0.040788148 0.045517005 0.047325842 0.21840863 -0.03639776 -0.04698053 -0.07713355 0.065841645 0.117140956 -0.0071509792 -0.07977192 -0.0782044 0.069303006 0.078569144 0.058559168 -0.062307224 0.027459932 0.015912335 0.026112663 0.0913866 0.026603358 0.07213508 0.011001671 0.033155702 0.067372546 -0.14147171 -0.027723322 -0.042793524 -0.05964401 -0.023270423 0.15373799 -0.08233939 0.10107156 -0.16404311 -0.029244727 0.02051911 0.062866 0.075366385 0.083578445 -0.030628724 -0.041991435 0.09004131 -0.034949288 -0.11346538 -0.078025356 -0.02350311 0.16757604 0.15528406 0.12517354 -0.022708468 -0.0011027841 0.054764166 -0.09428616 -0.017673872 -0.13396534 -0.12143556 0.003926484 -0.059262797 0.15937619 0.07717676 -0.019737571 0.020172112 0.020960996 0.07078224 -0.005604778 -0.03808609 -0.0037280566 -0.16448958 -0.14046738 -0.1280261 -0.095480956 0.042935416 -0.091282085 -0.038550675 0.10105994 0.0002718245 0.097131126 -0.08827763 0.077576265 -0.019376019 -0.05567751 0.012750985 -0.23223063 -0.016056448 -0.037011016 -0.12019969 -0.20410436 -0.0713108 -0.059662297 0.04840076 -0.019730927 0.20149662 -0.058013424 -0.096309096 -0.019227426 0.026243469 0.13518417 0.08277694 0.034952685 0.15057415 -0.114632584 -0.059731394 -0.08841387 -0.0397154 -0.13840319 0.06278092 -0.05606331 -0.11118246 -0.07817834 0.036435604 0.18193269 0.2752996 0.26961225 -0.029838905 -0.15845248 -0.27398953 -0.037705716 -0.14577118 -0.1010346 -0.1397335 -0.020792149 0.13173132 -0.006211278 0.025455255 -0.13764352 -0.16142756 -0.08578569 -0.0061126007 0.17605841 0.012293121 0.09753977 -0.045685817 -0.11425065 -0.09226795 -0.06827888 0.2121124 -0.082872845 0.08311474 -0.09724798 0.17591344 0.13658419 0.05455252 0.040683225 -0.11312177 -0.0311812 -0.10466382 -0.16311757 -0.16501679 0.024915824 0.14525135 -0.038478144 -0.068961985 0.017211914 0.10399201 -0.049295045 -0.08965819 0.028549513 0.023921592 0.14649822 0.017589107 -0.12318108 -0.1375505 0.16435821 0.17661044 -0.013708161 -0.03407499 0.1503883 -0.10774648 -0.090206884 0.0635985 -0.06986475 0.02121975 0.024565073 0.032490414 0.1129756 -0.045421306 0.011548999 -0.2338182 0.016583795 -0.07855566 -0.108423986 -0.056889486 -0.039042164 0.097741574 -0.110937156 0.010258731 -0.0699611 -0.05067753 0.04856785 0.006334457 0.106331974 -0.016184902 -0.070328444 -0.02312022 0.02351534 0.021901136 -0.10419508 0.013292736 0.027066635 0.2547059 0.18694988 -0.08605851 -0.06781101 -0.10693092 0.011961876 0.04008253 0.11763935 -0.081064194 -0.15816414 -0.30929357 -0.03986904 -0.11791557 -0.028035961 -0.041573368 -0.0025035965 -0.17198978 -0.13559268 0.24436253 -0.1529672 -0.14313337 0.20332757 0.31842738 -0.13243529 -0.037559316 0.033421136 0.17213519 -0.09444198 -0.020283984 0.08197748 0.04772035 -0.033371866 -0.010424325 -0.13822417 -0.024551712 -0.07517988 0.067495696 0.015016111 0.081333295 0.12896252 0.022139542 -0.07552606 -0.08978104 -0.082401365 -0.088216 0.07766373 0.058196988 0.21253328 0.0972513 0.060454443 -0.01565338 -0.09986356 0.10067951 0.06292943 0.080264084 -0.1880404 0.08744388 0.04470761 -0.111777246 -0.04290874 0.030615522 0.009490442 -0.024973316 -0.0061050565 -0.020953937 0.014521919 0.14641461 -0.3052069 0.020593584 0.04217343 0.06377878 -0.009500443 -0.19825433 -0.067564815 0.12237905 -0.20139259 0.10601173 0.013161809 0.061793204 -0.10207365 -0.089114666 0.17532316 0.08322829 0.14891918 0.09489147 0.08056321 0.20535767 0.029031588 0.077498846 -0.030391432 0.0059202416 -0.06549866 0.10320212 -0.11358664 0.08247876 -0.014821326 0.12136843 0.07804499 0.18502235 0.008529726 -0.13962398 0.00043263324 -0.045016002 0.013519902 0.1360169 -0.034292705 -0.102595404 -0.1201799 0.06894503 -0.052518975 -0.03246005 0.0701065 0.09426571 0.05860878 -0.2211001 0.06908894 0.022010403 0.0545946 0.1925852 -0.2435416 -0.08335877 0.058356218 -0.15889402 0.15183876 0.041079406 0.08890212 -0.052850623 0.08562009 0.111090876 0.026245771 0.0029489666 -0.037513375 -0.06875461 -0.011317212 0.053240173 0.10368715 0.08487639 -0.20389962 -0.043766063 0.106455036 -0.04494388 -0.037407573 0.030564813 0.09902453 -0.044442654 0.11424736 0.0937077 0.12283429 0.07021882 0.24597095 0.023137141 -0.23757 0.13617712 -0.042811953 0.013746016 0.13519894 -0.15598209 -0.12092099 -0.15588392 -0.075169906 0.04545751 0.052626792 0.01584908 -0.19198146 -0.23566584 -0.05100619 0.05617326 0.120215945 0.16342922 0.005808038 0.1402783 0.005650575 -0.0036667022 -0.08151388 -0.050516065 -0.04563369 0.0041368976 -0.09978736 0.105011374 -0.06434987 -0.067507714 0.026149519 -0.12316624 -0.15214714 -0.17521681 -0.23186803 -0.06358272 0.07918712 -0.024244605 0.024022808 0.113165475 0.13701248 -0.002670028 0.13685217 0.0041411878 -0.12902404 -0.006724236 -0.16881469 -0.0018007655 0.018675027 0.23342697 0.09557778 -0.21132626 -0.0050913207 -0.16179752 0.01184699 -0.03613596 -0.22171749 0.04646832 -0.033371378 -0.08592189 -0.17892092 -0.05597705 0.06305797 0.044564627 0.010366643 0.009193887 0.13355975 -0.030034838 -0.14344192 0.11096597 -0.028905047 0.11570297 0.042581454 -0.0088699935 0.03637144 0.19002973 0.16335642 0.059653856 0.0634667 0.22426316 -0.03916596 0.050667446 -0.17257725 -0.09746433 -0.15769203 -0.18499179 -0.20752081 -0.09936586 -0.060188033 0.032575514 0.15252765 0.050101515 -0.17610012 -0.11166351 -0.017192058 0.033328615 -0.005691096 0.03491882 -0.029682066 0.11062888 -0.109950095 0.0048776823 0.26401132 0.026551774 0.14756532 0.013395776 0.059571557 0.0126992725 -0.061382506 -0.025232434 0.09497382 -0.024137307 0.084642045 0.13347134 -0.02995853 -0.06675122 0.06989025 -0.029053831 0.15965036 -0.117045134 0.034302536 -0.13495487 -0.18134354 0.19730097 -0.052273132 -0.111569926 -0.23344344 -0.23510651 -0.078991845 0.23422214 0.06699581 -0.049752373 0.050751764 -0.15185197 -0.025488535 0.0141915055 -0.0043662894 0.083324336 0.038708266 0.08521021 -0.11317911 0.13366081 0.18466 -0.006659453 -0.08501972 0.18869875 -0.050939374 0.15138422 -0.04189742 0.16475672 0.07826731 0.12292112 0.21036193 -0.016326962 -0.12890737 -0.05400814 0.045334715 -0.22101228 -0.018684974 0.0047191167 0.09013896 -0.24724534 -0.055149112 -0.1624421 -0.07837922 0.02901039 -0.013678902 -0.021093955 -0.011674729 0.024582626 -0.09660988 0.08906257 0.021924905 0.082382984 0.01335541 0.036798757 0.26655352 0.15027484 -0.04331304 -0.12831916 -0.16001353 -0.115070075 0.05026366 0.13358985 0.029878316 -0.022329299 -0.18526928 0.14292419 0.17284274 -0.11384444 -0.12427456 0.019141661 -0.023313344 -0.15123492 0.016709428 0.032408413 -0.085725754 0.02322814 -0.14123838 0.13786247 0.12903887 -0.02100793 0.040589176 -0.2226145 -0.15869068 -0.0037318154 -0.14951156 0.07273889 0.22081444 0.038640257 -0.025526462 -0.01577797 0.10661974 -0.14084508 0.13547798 0.22096476 -0.2900918 -0.19134916 -0.10501391 0.06493835 0.11109174 0.0010757974 -0.16342191 0.015839914 -0.09986461 0.12505835 -0.03925135 -0.057456683 0.058356903 0.08053637 0.04905368 -0.16431586 0.058047187 -0.09918708 0.03401928 -0.11774782 0.0015762913 -0.050034102 -0.17391916 0.06520645 0.06132857 0.14455302 0.18893756 -0.05119343 -0.12804396 -0.0001439261 -0.016549323 0.033355158 -0.19326098 -0.05546846 0.2081251 -0.0061440025 -0.26762655 0.13581853 0.2557323 -0.028607812 -0.23579445 -0.03343478 0.0011330169 -0.006539642 -0.10709508 0.062199857 0.05669448 -0.14519669 0.0741634 0.20951237 0.04153024 -0.0043959734 -0.05725628 0.052469425 -0.27558628 0.010263426 0.02265351 0.3342702 -0.047510646 0.111518726 -0.32512245 -0.06605777 0.0017205423 -0.21131052 -0.1774893 0.04501849 0.0018902227 -0.078343324 -0.014025777 -0.08200567 -0.061510667 -0.0020468554 -0.17698644 -0.16395229 0.07796192 -0.039819077 -0.2522305 0.082728125 0.031480774 -0.06714376 -0.12743916 0.087824516 0.05926928 0.26759666 0.02682701 0.053163096 -0.119211376 0.07550202 0.10981822 0.2655628 -0.03718131 -0.047345243 -0.15359136 -0.10054585 0.1697977 -0.10097585 -0.1260778 0.112258404 0.08020838 0.17019987 -0.22426032 -0.07636164 -0.105518095 -0.22592369 -0.09909284 -0.07956837 0.009644835 0.12374949 -0.020262266 -0.09883765 -0.001451687 0.10916109 -0.093352154 -0.08681376 0.08561012 0.007601697 0.08127952 0.07987524 -0.010367541 -0.14032058 0.0022186295 0.009775705 -0.079498865 -0.07983197 -0.013648978 -0.098859936 -0.1003685 0.033384286 0.12218402 -0.08830037 0.002627628 0.035264928 0.14023387 0.057274837 0.004955008 -0.13601919 -0.086913906 0.07411793 0.035582747 0.0673268 -0.014523322 0.032058135 0.02005571 0.08202046 0.08494455 -0.15774333 -0.19497131 0.12992953 0.1353036 -0.020822313 -0.16755442 0.0009548639 0.100237764 0.20535375 0.023118146 -0.120638035 -0.21835949 -0.15202497 -0.064332224 -0.08906065 0.19881967 0.28244328 0.25283104 0.0019418317 0.067475796 0.06339326 -0.027522141 0.10296324 0.088576764 0.10333799 0.093445845 0.04653193 -0.17411725 0.012605867 -0.051375452 -0.12374023 0.17242552 0.1771434 0.1656776 0.055276692 0.15434378 0.1462935 0.049485918 -0.11485956 0.037760515 0.055393316 -0.16483487 -0.064809 -0.056113932 0.04199612 0.1088093 0.07235551 0.072866045 0.16910744 0.100026086 -0.020975525 -0.057129662 -0.11453278 -0.24499674 -0.003548431 0.064166084 -0.14933406 0.017486839 0.12932527 0.11212731 0.10682741 0.008135093 -0.080260806 -0.104126155 0.017597852 0.046576943 0.13738213 0.10474529 0.037149433 -0.1740053 -0.059296854 -0.042724438 -0.004450924 -0.18254389 -0.025567695 -0.11197958 -0.098085806 0.037072606 -0.013831945 0.011168331 0.13388672 -0.034339838 -0.024714852 0.0026902528 -0.35171592 -0.4250167 -0.2910904 -0.028511394 0.011321941 -0.0031121313 0.13006805 -0.28218457 0.04383713 0.16038768 -0.10853435 -0.033736907 -0.071045466 -0.059679337 -0.0028709054 0.15860246 0.2835959 0.024406826 0.2365103 -0.0133997975 0.18058604 -0.062422823 -0.07547395 0.043674078 0.26478305 0.10657057 0.00046226048 0.14669763 0.028242655 0.028401434 0.10446214 -0.115980476 -0.2514464 -0.22155696 -0.074415855 0.022223104 -0.1878094 0.09641249 -0.068446726 -0.13802521 -0.0015973581 0.012641859 -0.06510689 0.08734691 -0.123725705 -0.0109390775 -0.02873211 -0.019441986 0.12232226 -0.024460675 0.15006736 0.0040797396 -0.09648986 -0.17547435 0.015953427 0.038865328 0.00027749396 0.010664323 0.145999 0.1539357 -0.080512986 -0.09760396 -0.12139245 -0.12628506 -0.027478248 -0.21178396 -0.26577413 -0.16108388 -0.07741609 -0.026017565 -0.011083565 0.016310845 -0.026930833 0.109177686 -0.06335801 -0.081988074 0.058379132 -0.12380859 0.06872461 -0.00452792 0.0824414 0.23888324 0.028746305 0.20739032 0.06772049 -0.16451342 0.038213458 -0.0466624 -0.06455607 0.0921172 0.17900155 0.021273868 0.14572391 0.13534373 0.1508719 -0.105410665 -0.010652062 -0.35919824 -0.04739508 -0.077385396 0.017810078 -0.027389614 0.013139523 0.20067002 -0.0127282115 0.045622975 -0.018983131 0.011815089 0.008189201 0.07458776 0.14628622 0.1421024 0.12238805 0.12728599 -0.0352622 0.008745951 0.21154474 0.21362157 0.12700431 0.18790883 0.021690108 0.14129329 0.140819 0.028675977 0.18454367 -0.27655393 -0.01405982 -0.47075006 -0.3625416 -0.01796645 0.032609753 -0.12375111 -0.07173025 0.16680965 -0.01864771 0.23187952 0.0040517873 0.04504736 0.1659313 0.017346507 -0.09599067 -0.006728973 0.0006826933 -0.1322303 0.017611962 -0.070223555 0.10976745 -0.006713509 0.042393185 0.07337495 0.09113337 0.112040415 -0.07830597 -0.043105047 0.2397304 0.0032676784 -0.097182594 0.060644012 0.043463763 -0.29497313 -0.07436774 0.06829198 0.07669798 0.043122143 -0.13618304 0.037347756 -0.026018174 -0.044035275 0.09129929 0.15217131 0.18368088 0.13572465 -0.006729647 0.03951576 0.08092601 0.016361574 0.01982198 0.08912081 0.011403309 -0.08310338 0.025107956 0.15557209 0.0814258 0.10284215 0.112993084 0.047889374 0.22920698 0.10670543 -0.10721873 0.08978106 -0.03421664 -0.23435393 -0.15296459 -0.12322737 0.048203517 -0.0027574103 -0.029439421 0.06621392 0.03823128 0.03584853 0.04522659 0.06585717 -0.20178847 -0.027437158 -0.20901415 0.012612753 0.008543454 0.11355982 0.12777019 0.02928426 -0.041029356 0.05752286 -0.043785013 0.008867487 0.107620224 -0.046770386 0.089574456 0.076746725 -0.08647259 0.106396005 0.078863226 0.019199342 -0.067225754 -0.07691401 -0.04475951 0.06326611 -0.08655593 0.052757975 -0.11516897 -0.011400085 0.019971525 0.25351954 -0.12872471 0.15620832 0.023990983 0.05012394 0.020841543 0.053479433 -0.0063617392 0.15441188 -0.036640365 0.122230045 -0.055429976 0.0029815645 -0.09818967 0.054509122 0.15351945 0.0012711316 -0.010681799 -0.10245511 -0.013922496 -0.15027256 -0.08228121 0.031685412 0.14090818 0.28992772 -0.049651757 0.15253687 0.033382084 -0.0061179935 0.052266195 0.015198417 0.020046322 -0.031826567 -0.1308041 -0.14535566 0.074331075 -0.018663255 -0.05060214 0.0098573165 0.088499814 0.02445587 -0.07019831 0.122321695 0.15842593 0.059128832 0.1065162 0.130401 0.118633576 0.06619752 0.06684303 0.06039581 -0.101304 0.07793885 -0.12881702 -0.07125963 0.14082381 0.090716615 0.15578675 -0.028959285 -0.116951495 -0.025189929 0.019209882 0.016905632 0.12237464 -0.027120369 0.044210196 -0.089856125 0.054038476 0.009317606 -0.065850675 -0.013923092 -0.008757699 -0.020201193 0.17296962 -0.011954433 -0.02546526 -0.20412935 -0.08505208 -0.018474689 -0.062257502 0.14430921 -0.010355649 0.13510683 0.01243255 0.0098608965 -0.0036593492 0.012262922 0.18171103 -0.22774853 -0.19887857 -0.053427268 8.9819594e-05 0.06838948 0.05631547 -0.028764704 0.11156436 0.11267953 0.027412536 0.105272345 0.036271356 -0.047141552 0.079441674 0.020721188 0.009793851 0.15476298 -0.24925171 -0.14387839 -0.11978267 -0.030710595 -0.021092273 -0.14290018 -0.092188105 -0.07994632 0.25200456 0.1869654 -0.034383755 -0.030220224 -0.1097002 -0.17892987 -0.001856386 -0.09557274 -0.007209109 -0.15913104 -0.07756039 0.014241819 0.046280812 0.05140705 -0.122389056 0.095128566 -0.07101458 0.07229238 0.0079428805 -0.12863189 -0.02195991 0.046196226 0.07095648 -0.0060033402 0.1543484 0.10137673 -0.027844017 0.07355653 0.1923925 0.20160554 -0.118299395 -0.08221485 0.15856038 -0.09741897 -0.12501971 -0.04284931 0.048315417 -0.0041763126 -0.058090325 -0.06288037 -0.0674399 -0.08559933 0.2298574 0.031906284 0.0983359 -0.039247893 -0.008935796 -0.061695427 -0.2561642 -0.12879407 -0.172055 -0.21597151 -0.110405244 0.14215544 0.005216254 0.13722074 0.04375181 0.08017093 -0.090914614 0.052510433 0.07277052 -0.053286493 0.061251946 0.06739283 -0.044488445 -0.10228014 -0.10997127 0.014618714 0.038360886 -0.07399316 0.009204571 0.060971525 0.06505401 0.15703958 0.13017355 -0.09751895 0.1780185 -0.043437798 0.11414727 0.016458575 -0.03220819 -0.17176282 -0.008149656 -0.14693147 0.10586058 0.16133913 -0.07003111 0.039063707 -0.06942243 -0.062195227 0.07911465 -0.0037895166 0.17346983 -0.050703857 0.098349534 0.017281367 0.08824153 -0.034118813 0.0073601417 -0.0013681272 -0.0758375 0.07242864 0.075363025 0.06341349 0.15634264 0.148504 -0.03190284 0.041446667 -0.052700218 0.011995402 -0.050315093 0.17101389 0.045376565 -0.012796142 0.12836863 -0.20805468 -0.19227964 0.08924386 0.015706727 0.03495621 -0.128789 0.0016274006 0.20410126 0.08480451 0.016033895 -0.045459747 -0.041397806 -0.21470357 0.033266082 0.09521628 -0.14589001 -0.0542674 -0.1063033 -0.08652492 0.013954973 -0.20508893 0.06303257 0.07726224 -0.019478103 -0.2415706 -0.088883124 0.13295002 -0.26813978 -0.025745679 -0.108993486 0.08946362 -0.058504667 0.04940215 0.06555265 0.19328246 -0.010634337 0.04751597 -0.14465493 0.12362318 -0.07230009 -0.053690773 -0.0025133411 -0.15918545 0.020429676 0.09579856 0.037507117 -0.14822164 -0.0007091896 0.086077176 -0.17836066 -0.09753564 0.095549375 0.029649122 0.04280734 0.1878264 0.0526114 0.07241299 0.2818332 -0.011720604 -0.070128284 0.05178639 0.052905854 -0.04366479 -0.09423311 0.2399913 0.0416911 -0.06409788 0.100723684 -0.0004240175 -0.019967118 0.057984862 -0.12544239 0.039894924 0.19236696 0.04307828 -0.038638644 -0.053211663 -0.030856166 -0.010638805 -0.025060587 0.10421708 -0.16304725 0.09399823 -0.035398256 0.03780619 -0.10884099 0.13480876 0.1303194 0.10303455 -0.1399387 0.0925721 0.05014536 -0.15152027 0.0065770093 0.045460198 0.0646142 0.02673289 0.03812999 0.15649177 0.13180317 -0.27621448 -0.026422795 -0.014178338 -0.17093448 0.0140505545 0.1259474 -0.11219615 0.0317801 -0.094780505 -0.05824506 0.16264215 -0.04139035 0.058952704 -0.17670274 0.19629268 0.0628356 -0.018138612 0.06141243 -0.13903628 0.12227593 -0.025323158 -0.008870072 -0.040034875 -0.048934452 0.07847365 0.03459752 0.0741814 0.008127281 0.060326733 -0.029903071 0.23507883 -0.14400098 0.13732387 0.14206123 -0.08387726 0.21618195 0.09760049 0.095469505 0.0003862654 -0.023187138 -0.024871012 0.041613825 0.14623097 0.030257156 -0.08318189 0.09016299 0.10207322 0.06798583 0.06624421 -0.033615757 -0.099592835 -0.08094574 -0.15505135 0.038206715 0.0036368833 -0.03499202 -0.28655523 -0.11572516 0.12109066 -0.057455864 0.045065917 -0.13006169 0.15585214 -0.0015570284 0.040412135 0.23950912 0.15362723 -0.035397194 -0.06278832 -0.033792526 0.052999213 -0.005690495 -0.040631726 0.14491567 -0.013011283 0.23051006 0.008323365 0.18360376 0.04325787 0.10347418 -0.076938115 -0.09292811 0.047124878 0.10618268 0.012520807 -0.11412748 -0.12404413 -0.13370678 -0.16775535 0.019955287 0.12151098 0.0076651704 -0.21703462 -0.0100692585 -0.0042981682 0.22244543 -0.13185953 -0.032136943 0.1724998 0.044347014 0.05352348 0.011961071 0.03267385 0.0798334 -0.07820188 0.08822457 -0.13719858 0.03508012 0.020889504 -0.055198003 0.005171448 -0.05414624 -0.11038577 -0.03450975 -0.10671853 0.04020216 -0.10591833 0.08570969 -0.10914132 -0.04762274 -0.053453583 0.14152153 0.042035744 -0.012166607 0.058878694 -0.20171237 0.0076683974 0.21252814 0.027088597 0.013722047 0.06025969 0.08821003 -0.19882348 -0.16701426 0.024501868 -0.06681977 0.14001687 -0.030780848 -0.1930759 -0.12642413 -0.27046686 -0.019670842 -0.012330919 -0.036146488 0.105784476 0.119728036 -0.017825343 -0.20541656 0.07094888 0.07055231 0.040863577 0.10740778 -0.10747622 0.2098824 -0.08693618 0.08392888 -0.15972792 -0.08401988 0.16064373 -0.0133132385 0.097846106 0.030067934 -0.0029399055 0.13611312 -0.022431862 -0.17896439 -0.07779886 0.06360653 0.0415254 -0.15511806 -0.07595124 -0.058799144 -0.033600695 -0.13367568 -0.053930145 -0.0652281 0.07462297 0.08273357 -0.014984464 -0.028176043 0.023213143 -0.0666411 -0.10475894 -0.08476231 -0.054474574 -0.10734079 0.025212707 0.08197816 -0.14970297 0.011519633 -0.012986805 0.046927597 0.012560058 -0.13898736 -0.11661984 0.0019322879 0.10458553 -0.22105476 0.036526598 0.13088998 -0.008992007 0.05570361 -0.064985596 -0.0051810667 -0.15984131 -0.23142058 0.10272519 -0.08940117 -0.04799896 -0.13702057 -0.14146926 -0.010602575 -0.06218188 0.052574877 0.055178247 0.041344862 0.032866914 0.16678368 -0.09775279 0.0035132593 0.12227557 0.13546084 -0.1331695 -0.018458793 0.14954217 0.060859133 0.029145434 -0.020814953 -0.03700123 0.02954838 -0.011429093 0.0075455806 0.0138799185 -0.072665766 0.058267873 0.29338238 -0.17613839 0.038074557 -0.06757153 0.06782185 0.0053322595 0.077990726 0.11690199 0.026023317 0.123981066 -0.22275113 0.16896944 0.046766113 0.11679093 -0.112980984 -0.0740704 0.023600565 0.0073029604 0.037313696 0.118515715 -0.16268803 0.111111864 0.011114167 -0.010944162 -0.14529113 0.050524898 -0.24208343 0.07298973 -0.13276687 0.0064942488 -0.011289474 0.116052136 -0.016991097 -0.06614902 -0.04373591 0.1306063 0.053137753 -0.044521105 -0.025984496 -0.16126245 0.045229323 -0.16520572 0.0868583 0.02384376 0.24901228 -0.10100696 -0.0012594509 0.18883562 0.12814572 -0.06061451 0.03140353 0.011003601 0.039307687 -0.05613806 0.0023356439 -0.15427984 0.015332125 0.044386685 -0.02255457 -0.14847927 0.11647117 0.036096178 -0.073696546 -0.026533306 -0.14815725 -0.09373104 -0.0443777 0.12794144 -0.059511647 0.060207378 -0.059306473 0.024389813 -0.007727792 0.09879341 -0.041802313 -0.14627138 -0.1278778 -0.044181 -0.11589941 0.05002795 -0.037570067 0.24646752 -0.1647646 0.03116701 -0.101683244 -0.035684098 0.025340587 -0.22701174 0.025502393 0.1926948 -0.044339977 0.035836052 0.11642454 -0.0125912875 -0.06231542 -0.2296085 0.060656045 -0.0027805567 -0.09613942 0.018187871 -0.056799468 -0.055755284 0.05341591 -0.13424312 0.11114342 -0.12881017 -0.054902468 0.20327605 0.123052716 0.018767154 -0.08504643 -0.04392048 0.0163343 0.012759086 -8.034009e-05 0.007898354 -0.010455913 -0.13110855 -0.040592335 0.09977002 -0.13733402 -0.021207977 -0.0810375 0.021939915 -0.028206157 0.1541404 0.055696912 -0.13240926 0.06556559 -0.077541456 -0.049061105 0.03316747 -0.047331613 0.08937266 -0.08305362 -0.06370705 -0.0592479 -0.048832312 0.12103121 0.073861375 0.1813115 0.23577128 -0.094065115 0.016048672 -0.10861344 -0.068754 -0.05400148 -0.094733745 -0.09420698 -0.0013390234 -0.11061313 0.09254364 -0.09234997 0.27962288 -0.039076976 0.019340169 -0.1184194 0.18075679 0.1225954 0.03990516 -0.13369435 0.019954894 -0.107298985 0.1503373 0.078965396 0.004781733 -0.25045297 -0.10015392 0.07516522 0.12902032 0.12202904 -0.14821985 0.040472344 0.110558115 -0.1568267 0.008216299 0.036391072 -0.021069707 -0.17620933 -0.021588214 -0.021748953 -0.0046928236 -0.04666179 -0.03346588 -0.0020421399 0.045386035 -0.022825198 -0.02804134 0.017380029 -0.1836346 0.05445726 0.009751933 0.0020800382 0.09236675 -0.19958042 -0.19950686 0.020671304 -0.009757569 0.012174258 -0.04471249 0.07326333 0.10099551 0.05951031 -0.015101237 -0.1997875 0.08618343 0.13117972 0.073462434 -0.078957655 0.07638603 0.09498866 0.16679211 -0.076700486 -0.012449631 0.081519544 0.0063945022 -0.113291994 0.041909914 0.06126954 0.017199935 0.029517181 -0.020071615 0.15878986 -0.08090774 -0.04942429 -0.0030405961 0.08525861 -0.154516 -0.12878671 -0.21221411 0.000815425 -0.11119938 -0.034341965 0.074196845 -0.053113267 0.034038685 -0.019023294 0.07640028 0.056519557 -0.060186695 -0.007858373 0.11338093 0.048344437 -0.12871477 0.076543555 -0.098194145 0.14792196 0.10193468 0.024956197 0.013351882 -0.020376617 0.07836169 -0.032749098 0.033021305 0.097671255 -0.04640083 -0.053725682 -0.11558357 -0.10732174 -0.18427801 0.06853365 0.17403005 0.13945132 -0.16212468 0.07576394 0.14905508 -0.03449978 0.021126369 -0.18980786 0.035933506 -0.09734938 0.028970255 -0.14711343 0.06329248 0.112515464 -0.06733624 -0.102710515 -0.20765564 -0.020148467 -0.058532815 -0.1551022 0.04216763 -0.040208112 -0.09671904 -0.050732765 0.11427318 0.068089634 -0.0038261644 0.07012599 -0.107971124 0.0038156596 0.020432636 -0.047153737 0.042003136 -0.07680031 0.055232935 0.06029072 -0.28378153 0.13021162 -0.2937814 -0.050623294 0.112852044 -0.022721948 -0.13761175 -0.100367114 0.11169717 -0.18208656 0.123880856 0.005471398 -0.11129309 -0.054793634 -0.10117683 0.08588642 0.06969402 -0.16817033 -0.031467874 -0.07351581 0.13649377 -0.12721393 0.17064747 0.004886014 -0.10821849 -0.05551916 -0.07446154 -0.1322692 0.0058059073 -0.122201696 -0.21544477 -0.03286281 -0.1723518 -0.064035125 -0.07992854 -0.07613986 0.21041341 0.014647929 0.033543937 -0.16863297 -0.056389593 0.031113436 -0.09147114 0.10178803 -0.11166454 -0.026942518 -0.052849397 0.012594136 -0.06638581 -0.023213672 -0.013323143 -0.0634972 0.05429489 0.03289545 0.001277799 -0.028910127 0.09333493 -0.015393398 -0.023187509 0.008633462 0.16928026 -0.12650368 0.08151489 -0.18516585 0.02548297 0.16757165 0.05984846 0.028044108 -0.04646173 0.012111478 -0.016199527 -0.06959107 -0.019980809 0.028844869 -0.067715116 -0.07162159 -0.12701748 0.049126897 0.06430456 0.028854342 0.098872945 0.016836826 0.047873877 0.040422037 -0.0009340011 -0.043825682 0.23099151 -0.03568676 -0.056404214 0.053584523 0.032771427 -0.14154758 0.12129031 -0.0018473506 -0.10510417 0.12682338 0.071719654 -0.11744758 0.18672514 0.07488633 0.007987138 0.16802874 0.024936533 0.0061984397 -0.057023287 0.06719165 0.056667045 0.010474772 -0.06999204 0.019790245 -0.00018261859 -0.1276586 -0.14482494 0.06561669 -0.25285652 0.02818741 -0.03777 0.13993599 -0.039915837 0.075311534 -0.029653111 0.018960828 0.08586331 -0.03127702 0.108501606 -0.09277858 0.031126477 0.101128094 0.07275578 0.20065135 -0.06733734 -0.12890807 -0.09042692 0.075050846 0.058799043 0.0086463485 -0.11387516 0.07510728 -0.124049835 0.1143155 0.28416494 0.035065673 0.056731373 -0.05086542 -0.18259946 -0.061851427 -0.11086898 -0.14627858 0.17065787 0.02570695 0.036389317 -0.032481696 -0.018866409 0.09487561 -0.004813019 0.051489953 -0.021179732 -0.03579473 -0.14226954 -0.19935302 -0.027735494 0.004070357 -0.13019113 -0.005026794 0.0037959446 -0.21717893 -0.09309192 0.03914695 0.037126433 -0.11694695 0.014265468 0.10066126 0.07612784 -0.011107901 -0.048377074 -0.06451392 0.04520254 0.017931096 0.06136099 0.01160806 0.08029694 0.007879937 0.07688942 0.08550282 -0.08203212 -0.18239252 0.15277116 0.024086572 -0.17302671 -0.072961405 0.07560797 -0.029546984 -0.052785583 0.13851006 -0.10630817 -0.08139479 0.019559346 0.037466053 0.048054863 0.08954435 0.018278562 0.047358952 -0.027500227 0.00469052 -0.018072113 -0.00424115 0.020072712 0.02201503 -0.011291513 -0.09100363 -0.029182307 -0.037894726 -0.0315738 0.20281453 -0.0955052 -0.00089893653 0.056872588 -0.027136147 0.24835995 -0.0027866566 0.065117694 -0.04456708 -0.053945236 0.007242665 0.07757764 0.030330196 0.12433196 -0.011075854 -0.034796294 0.2688196 0.037844323 -0.07352761 -0.07100583 -0.074989066 0.13032748 0.00023275249 -0.022656938 -0.033806417 0.0069432575 -0.1422905 -0.14471106 -0.010312143 0.030894479 -0.004716745 -0.12989935 0.018794328 -0.10248183 -0.08024968 -0.14334953 0.09140034 0.060474705 0.059604477 0.111776516 0.3061564 -0.15253581 -0.064964 -0.069414556 -0.08666142 -0.071087815 0.0067051942 -0.08498986 0.031924773 0.0035905214 0.046523426 0.049193405 0.09697119 -0.0006704125 0.24878499 0.026299693 -0.21370389 -0.16644335 -0.23166633 -0.03542019 -0.04492242 -0.07604409 0.16312262 0.0059441514 0.04451409 -0.103811726 -0.11061887 -0.04527361 -0.021414764 -0.18849845 -0.018925518 -0.011537434 0.0033767663 -0.06295242 -0.045079634 -0.025482785 0.045750506 0.097149655 0.14475612 0.0072357245 -0.047195062 0.042186126 0.05950504 -0.044999484 0.11570986 0.13462904 0.1658393 0.19930437 -0.11652686 -0.013032689 -0.034762852 -0.04892136 -0.086439624 -0.1624884 -0.01419922 -0.09200748 0.021839548 -0.05420312 -0.09648259 -0.036089018 -0.031539604 0.028720744 0.16322814 -0.0075714365 0.035078175 -0.102411166 -0.13944292 0.16463146 -0.0556775 -0.06772389 0.032760613 0.027651248 -0.091830105 -0.032076776 0.12135812 -0.082178816 -0.12008842 0.13092996 0.0859002 -0.03170341 -0.20215787 -0.10920823 -0.03685932 0.08584556 -0.114870474 -0.010136347 0.057309918 -0.24690157 0.103684254 -0.09689578 0.039074358 -0.012328204 0.06364049 0.029747114 -0.28597444 -0.12242519 -0.004868175 -0.039763954 0.012384225 0.076587826 0.09751568 0.015243014 -0.14796305 -0.0088776415 0.040057372 -0.11062418 0.06154806 0.08925987 0.03196574 -0.26970768 -0.09113833 0.21510391 -0.055899482 -0.21038017 0.085197836 -0.049428314 0.10434713 0.03198585 0.024354326 0.012565573 0.06390974 0.26074803 0.12421198 -0.17064841 0.0010821489 0.077799216 0.09911736 -0.08901537 0.09602139 0.07989826 0.22200389 -0.10398881 -0.014069599 0.006058587 -0.012351738 -0.09058153 -0.27784646 -0.045049388 0.035356365 -0.050901625 0.21281706 0.03800805 0.16577356 0.04762929 0.08151724 0.008955313 0.09046521 -0.050812546 0.04276169 -0.011637069 -0.09711175 0.030271677 0.24796012 0.011934329 0.08623424 0.122172356 0.05903942 -0.03209615 -0.2184157 0.034670856 -0.25241947 0.13042773 -0.017522069 0.07770901 -0.061283965 -0.11858016 0.06274591 -0.004939651 -0.050733525 0.006886826 0.2751647 0.0818731 0.103370406 0.1210642 0.18461686 0.0024800429 -0.20659944 -0.030102361 0.034760326 -0.1533866 -0.026607059 -0.13013962 0.09505311 0.090544365 0.094642475 0.10113419 0.04056285 0.016149981 -0.17899229 -0.26078808 0.029964028 0.010432419 0.09594316 0.14056759 0.1433885 -0.10120249 -0.006299495 0.08470394 0.28986079 0.1464318 0.11036026 -0.040358238 -0.08989942 0.07731133 -0.11164558 -0.0045645945 0.007801243 0.16744487 -0.0313276 -0.2534452 0.007635407 -0.10241014 -0.016966797 -0.08217642 -0.07657336 0.09924452 -0.12697403 -0.019709267 0.08489351 -0.060047038 -0.1955286 0.044667393 0.13038892 0.014566886 -0.19716929 0.06290734 -0.17960013 0.016650112 -0.06987028 -0.07931341 -0.0075205127 -0.019909058 -0.06600029 0.057290886 -0.04618638 0.09643963 0.026538014 -0.0504767 -0.058438696 -0.15659598 0.03321545 -0.027587667 -0.26263705 -0.08607945 -0.11133337 0.08406189 -0.20816019 -0.093906015 0.15526617 0.1863663 -0.03931062 -0.043148987 0.04567314 -0.23303813 -0.16804026 -0.009006948 0.15390433 -0.051262636 -0.007986096 0.09914922 0.22956465 -0.038405836 0.017595377 0.1806274 -0.15379804 0.10117865 -0.10341101 0.00866792 0.004856541 -0.04582438 -0.033232115 0.03673358 0.099190734 0.0066335914 -0.024181606 0.0060681356 -0.18150689 -0.018119007 0.017560445 0.22383563 -0.04258318 0.0072256024 0.09057632 0.086976066 -0.0063667125 0.07424801 0.17522088 -0.04177504 0.0010129854 0.0041524703 0.07292286 -0.059466273 -0.13466436 -0.16254137 -0.1275194 -0.13289489 -0.017040363 -0.12046747 -0.07185495 -0.078988045 -0.045630228 0.1613688 0.10956405 0.009854726 -0.040663622 -0.040494554 0.0054100524 0.03628393 -0.1479267 -0.07021838 -0.24690105 -0.020937933 0.020788519 -0.06040682 0.1537123 -0.10023161 0.066616446 0.08544827 0.06762981 0.07489521 0.099653415 0.11907872 0.11620772 0.00076857687 0.13110568 -0.041058246 0.07501609 -0.07777861 0.10748654 0.21948597 -0.013787711 -0.22083247 -0.056386735 0.1523059 0.098677024 0.046439487 0.10630578 0.08075425 0.082817204 0.08792554 0.10345258 0.037255242 0.028689753 -0.045343257 -0.10149903 0.13495857 -0.009638198 0.033786785 -0.047913305 -0.060747307 0.010739367 0.14652956 0.10462739 -0.15551466 -0.03483778 0.18747579 0.028194215 -0.18162599 0.18772677 0.06665979 -0.008580614 -0.038721215 0.10665574 -0.05577778 0.11324619 0.08333785 0.058961373 0.036099646 -0.012057848 0.13231379 -0.13261625 -0.18035647 0.04191746 0.0617025 -0.07081954 0.030110696 -0.04408564 0.057671357 -0.025632706 -0.07480383 0.023382831 0.22244777 -0.17382196 -0.0003076391 -0.15453042 0.08596712 -0.050852474 -0.19343275 0.08355206 -0.039495025 -0.2109632 0.08237735 0.14192249 0.14743431 0.034316204 0.0030265027 0.13123754 0.16666023 0.14784974 -0.072605744 0.024215778 0.06916516 -0.17339319 0.023652198 0.21030892 0.029264588 0.07050835 -0.001889362 0.032693323 0.044348847 -0.106504776 -0.12727566 0.14257598 0.17914863 -0.07757159 0.078567944 -0.0011440001 0.114328295 0.069229834 0.11450487 0.05292005 0.13952485 0.029898867 0.060839 -0.084905714 0.21428777 0.045403052 0.06972028 -0.1623967 -0.08384966 0.15828124 0.05023723 -0.18729661 0.14557074 -0.06132024 0.1128634 -0.04702861 0.03966575 0.053394556 -0.0789641 -0.10162647 -0.022590483 0.07031752 -0.15538186 -0.21538426 0.13521971 0.023298707 -0.06404213 -0.22762418 0.0035732058 0.029727053 0.12358212 -0.039565943 0.16424626 -0.06949805 -0.06988864 0.15215763 0.019566711 -0.056781914 -0.0170926 0.13372923 0.14504217 -0.04718621 -0.0035536473 0.06385037 -0.056882177 -0.033744685 -0.011325819 0.10372538 0.07926503 -0.09341183 -0.020910233 0.06531072 -0.06938649 0.08316175 -0.09157645 -0.13858044 -0.038531944 0.26433852 -0.0038745485 0.11781832 -0.0066278726 0.059604283 0.26981202 -0.11973772 -0.19127281 0.12761644 -0.08426037 -0.0036499426 -0.06017126 0.025236975 -0.09663308 -0.019573312 0.042170826 -0.067569144 -0.06931868 0.022540072 -0.10989756 -0.07263472 0.021659723 -0.026036985 -0.042193785 -0.03834442 -0.033907223 0.087814525 0.18859087 -0.013850255 -0.019421684 -0.06536049 0.11616382 0.18839851 0.04854418 -0.257426 0.086786784 0.14030804 0.008384672 0.085564435 -0.07173413 -0.1508278 0.012537574 -0.1772258 -0.025556404 0.1271061 -0.19255441 -0.1295278 -0.10507553 -0.003231028 -0.035881978 0.1458933 0.10927785 0.019148817 -0.004947089 -0.042115625 -0.095057316 -0.016875513 -0.13486159 0.051394753 0.1128385 0.0018131395 -0.11517214 0.016642662 -0.23651223 0.08624319 -0.03278872 -0.07350244 0.08103243 -0.012137622 -0.07850937 -0.02813926 0.0040329904 0.0092196865 0.014612598 0.10235745 -0.11018291 0.015990729 0.12741485 -0.17503928 0.016092483 -0.05543684 -0.05074568 -0.0933773 -0.0031121296 0.15374705 -0.15514365 -0.19428766 -0.09168599 0.13723472 -0.047276698 -0.012907188 0.041893676 -0.025334138 0.04875842 0.3560028 0.22018741 -0.0058289813 0.04250105 -0.13734907 -0.16725774 0.09729039 0.13412936 0.09572606 -0.049709033 -0.018951315 0.0733971 0.037570164 -0.040943187 -0.1634853 0.009808198 0.106321506 -0.122481406 0.06115343 0.036579482 0.053962234 0.10200356 -0.094182245 -0.17767015 -0.13768877 0.09810952 -0.009026927 -0.09115996 -0.20090243 0.20245287 0.14720616 0.17329447 0.19321162 0.17609906 -0.034486417 -0.079388425 -0.06576561 0.26771632 0.059240256 -0.068340205 0.04965069 -0.10380947 0.1481768 -0.067686364 0.048529103 0.10501831 0.036897413 0.007867685 -0.0004991017 -0.008366698 -0.060392357 -0.04152302 0.12690642 -0.0067059235 -0.117679514 -0.12560047 0.0439217 0.029994002 -0.0017272017 -0.1266974 -0.03217839 -0.10224186 -0.0016573785 0.14633825 0.1375956 -0.041353147 -0.0954053 -0.0050345594 0.16012634 -0.18731451 0.031482283 -0.15956461 -0.060332168 -0.03916535 -0.04432444 -0.054959036 -0.00085860514 -0.055104997 -0.14782386 0.07640751 0.07370776 0.081594855 -0.15679598 0.002619378 0.040609293 -0.11833388 -0.053576283 -0.08495697 0.15236177 0.24013099 -0.23663838 0.21232633 -0.14983007 0.091500826 0.13185424 -0.085780166 0.1835866 0.060431443 0.031851713 -0.076921955 0.15043207 0.03491261 -0.00011188412 0.087646246 0.06114061 0.07045876 -0.06918124 -0.10556873 -0.058351655 -0.06366162 0.07704047 0.09601895 -0.023060976 0.13440102 0.12815607 -0.035869908 -0.1251544 0.14032315 -0.13684447 -0.06722069 -0.10386297 -0.1179792 -0.24026038 -0.0039891177 -0.16673413 0.24126968 -0.11623657 -0.14249277 0.1086092 0.1587105 -0.014887171 -0.02553021 -0.19213292 -0.07869579 -0.15936497 -0.24800399 0.008830348 -0.23297364 -0.14091048 -0.06073045 -0.08470804 0.03806141 0.028978728 0.08780042 0.07365892 0.1113587 -0.0029144015 -0.023894487 0.031015795 0.0069885044 -0.19499058 -0.1155157 -0.1258906 0.065824196 -0.0794661 -0.04299356 -0.071319856 -0.10568173 0.18265456 0.07912265 -0.024145674 0.08477523 -0.038087778 -0.19561501 0.11542259 -0.03705637 -0.046778098 -0.020749874 0.12623616 -0.000718834 -0.12263429 0.053345334 -0.050078414 0.18721427 -0.0016912809 -0.22508167 0.03292579 0.19173725 0.1548695 0.13449684 -0.1212612 0.041055102 -0.19652896 -0.019681562 -0.18364692 -0.04765037 -0.11177528 0.08621092 0.06056961 0.01576639 -0.08922031 -0.010257653 -0.056533147 0.15131238 0.16000885 0.0023574682 -0.07740536 -0.27222446 -0.1775812 0.112223126 -0.02814826 -0.077795036 0.1615435 0.12424218 0.00086556224 -0.03091961 -0.014789442 0.021136977 0.15719406 0.039524235 0.06988033 0.06832853 -0.16695066 -0.03267046 -0.25930074 -0.32487884 -0.23203032 -0.10574152 0.008931441 0.0077355015 -0.0010655858 0.19587915 -0.081087075 -0.00053502986 0.036631506 -0.009282679 -0.0013845818 -0.23398577 0.10085738 -0.033052336 0.20225501 -0.0331869 0.114782594 -0.00805288 -0.005796944 -0.060676537 0.010333072 0.030220581 -0.08000531 -0.01408376 -0.06340562 0.22724387 -0.011695666 0.12960848 -0.06766601 -0.086713195 -0.2965294 -0.17503008 -0.0026391428 0.15438436 -0.025720606 0.17577226 0.04982204 0.20792621 0.10072597 0.29195 -0.035131525 -0.001771021 -0.08857033 0.23682712 0.11087726 -0.07105072 0.083383 0.041735057 0.20210716 -0.15750581 -0.029258585 -0.04864793 -0.19894639 0.104453266 -0.028618958 0.072383665 0.23439907 -0.03690381 -0.04369474 0.010287095 0.1098462 -0.05151095 -0.14215828 0.11707943 -0.02169915 -0.2117329 -0.17492598 0.13766898 0.025029978 -0.061840147 0.026818665 -0.03236523 0.039884407 -0.21460176 -0.12028199 -0.04029469 -0.024017537 0.04370783 -0.06082782 0.052831624 0.1075789 0.047102414 0.012331853 -0.011167683 -0.08506457 -0.008779189 0.12439106 -0.013482172 -0.090559855 -0.05080415 0.018505726 -0.03893084 0.022992982 0.026747055 0.009836207 0.15371639 0.046578478 -0.13640545 -0.18501769 -0.059963986 -0.078978226 -0.11815129 -0.019007502 -0.099838175 -0.14596003 -0.0756035 0.07778273 -0.074401915 0.18515871 0.0062123123 -0.024880087 0.031137392 0.024069894 0.041945953 0.20609301 -0.0861115 0.08432515 0.019195758 -0.15991358 0.07426621 0.123958595 -0.08852131 -0.003697078 -0.17533924 -0.12868449 0.10199929 -0.049445294 -0.11368397 0.020142345 -0.055044886 -0.04988581 0.071128935 -0.118977 -0.09334019 0.012604322 0.09413731 0.12101238 -0.06930984 0.09093403 -0.0812179 0.17981711 -0.11618077 0.13004406 -0.06845226 0.19852082 0.056328412 -0.10440532 -0.05502749 0.075314455 0.10246077 -0.009875247 0.001662141 0.073031634 0.01037613 -0.1321543 -0.08410107 0.020708302 0.118744604 0.15879442 0.075149275 0.025925385 0.07207772 -0.06947875 -0.018126816 -0.08521674 -0.12767807 0.03055126 0.015747638 0.06596158 0.05180754 0.021460734 0.052858025 -0.007071986 0.038485497 -0.07541811 0.03416695 0.0640381 -0.06977181 0.0023795168 -0.065163895 -0.055454314 -0.1152966 0.12377374 0.10376485 0.050939742 0.19441578 -0.02172827 0.3592483 0.034800798 0.1164617 0.07316633 0.13348272 0.16247858 0.10957647 0.30881372 0.17200302 0.08307384 -0.0848568 0.047892977 -0.014542635 0.0017642417 -0.040756654 0.2771576 -0.011927118 -0.13975257 -0.03697584 0.050303105 0.072189726 0.05267601 0.06485779 -0.06728967 0.031240402 -0.090409614 -0.064767964 -0.09457456 -0.12164255 0.1120434 0.08190418 0.11070955 0.07637044 0.13254713 -0.087703146 0.19423707 0.11042572 0.18816376 0.13041729 0.011487899 -0.13756463 -0.058966167 0.07715714 0.08967455 -0.124554895 -0.0063901534 0.034633897 0.035899006 -0.0890475 -0.16283767 -0.12541662 -0.020855935 -0.101657115 -0.01438406 0.11889829 -0.11713502 -0.007601471 0.099672005 -0.044630483 -0.060170613 0.11354591 -0.017577138 0.12349251 0.05593955 0.054001454 0.10283558 0.120470755 0.21001647 0.037879188 0.12957327 0.08626312 0.18060824 -0.09027861 0.1223632 0.074718915 -0.10360647 0.13306569 0.31512952 0.20714085 0.21432804 0.05569486 -0.18678299 -0.22764508 -0.0039731264 -0.042795558 -0.07841462 0.006768423 0.074601516 -0.13223267 -0.047691405 0.14818326 -0.110332504 0.08417245 -0.035430063 0.06762237 0.122775756 0.11943062 0.09197219 -0.1483236 0.14494447 -0.040609404 -0.01172983 0.035059933 0.060629398 0.00065238046 -0.13728222 -0.166688 0.06719006 0.043890737 0.19013327 0.108785324 -0.04719113 0.10203825 -0.07036001 -0.07273152 -0.1386405 0.17109993 -0.074613474 -0.02069992 0.02378794 -0.09617522 0.030248288 0.15838723 -0.051849857 0.03671064 -0.26932165 0.009150178 -0.018261163 -0.032127403 0.15504892 -0.017667199 -0.009312447 -0.049513664 -0.24410044 -0.15680756 0.03562126 -0.25859416 -0.105132766 -0.07934761 0.13423452 0.093629085 -0.0021991096 0.19930601 0.016093478 0.1653749 -0.10878375 0.07774299 -0.050956007 -0.07411448 -0.008671251 0.040777445 -0.03643183 0.068438336 -0.06110303 0.059233565 0.041418564 -0.008895995 -0.03851579 0.028197154 0.068068385 0.23395467 0.13349116 0.1172518 0.30772072 0.019397737 -0.04961659 -0.06352267 -0.22381616 -0.103740096 -0.07431348 0.02479662 -0.059588198 0.018376404 0.117978394 0.09141858 -0.003521999 -0.037053548 0.11301816 0.05559505 -0.1666289 -0.011596488 0.029594623 0.090925984 0.104053155 0.025586909 0.05572111 0.0036099867 -0.070188835 -0.028930131 0.0075214948 0.009575174 -0.1755142 -0.0075642355 0.041590102 -0.012814619 -0.027498785 0.020647071 -0.19647817 -0.33353376 -0.20480187 -0.007841173 0.15790513 0.043569505 -0.16443558 0.013690404 0.02805786 -0.003270699 0.04001273 -0.0929155 0.010043208 0.032259956 0.07823868 -0.059378162 -0.013800538 -0.25733873 -0.04910317 -0.05524513 -0.10476212 0.013757523 -0.008398236 -0.22872521 0.018747104 -0.07978941 0.06161191 -0.09600111 0.03897018 -0.0492186 0.027493773 -0.015682358 -0.07520314 -0.26047054 -0.2730549 -0.1618768 -0.03933928 -0.09546815 0.044911847 0.009005022 -0.09713931 -0.053259328 0.036329765 0.05893941 0.19441928 -0.07666333 -0.0032503386 0.07223218 0.01837285 -0.037018802 -0.14188263 -0.0538871 -0.11017391 -0.17546448 -0.082371555 -0.10751284 0.055575013 0.06573163 -0.08476547 0.033722036 -0.12924129 -0.063510805 0.045529783 0.07339061 -0.15627736 0.012317787 -0.25805774 -0.22054091 0.042300604 0.19562286 0.058430873 0.0052313735 -0.23939173 -0.24541831 -0.024469653 -0.046493154 -0.08495325 0.0012007394 0.015610641 0.14391291 0.054951273 0.13588256 0.013842505 -0.014337209 0.10362755 -0.100647755 0.27864116 0.034722105 0.03527928 0.058132038 0.19775607 0.13899563 -0.10392279 0.13369088 -0.021037314 0.0016123194 -0.21289821 -0.04024754 -0.17298147 -0.09267165 -0.07299574 0.21545696 0.20175867 0.008361987 -0.019030657 -0.08344379 0.07318995 -0.043578874 -0.016503483 0.09250673 -0.039385628 0.045695893 -0.11683994 0.07604149 0.19970934 0.06931887 0.1433761 -0.087413885 0.020828735 -0.09711966 -0.0073567866 0.10106703 0.01949657 -0.086705245 -0.10618575 -0.18988252 0.11092415 0.34813547 0.26485828 -0.058545597 0.2667601 0.20000696 -0.104178235 0.05531108 0.19642492 0.20320213 -0.0537241 0.025526429 -0.09174148 0.06473627 0.22707473 0.019144146 -0.04051901 0.15587689 0.15698981 0.14642389 0.08463057 0.10533381 0.07048719 0.023749173 0.006147205 -0.026529664 -0.1240405 -0.08011119 -0.029969474 0.07604761 0.18521865 -0.03837951 0.1380677 0.23666193 0.14184698 0.12896818 0.13052472 0.24952069 0.17366935 -0.024188958 0.12080866 0.36077935 0.09990431 0.16910383 0.15270653 -0.122506626 0.16803522 -0.108956054 -0.050771296 0.1745145 0.09519022 -0.015028043 0.04184246 -0.008812915 -0.0015458338 0.062878184 -0.075540446 0.0012299567 -0.034030423 -0.14314042 -0.09381365 0.21952572 0.07960977 -0.15506212 -0.17441966 0.047451705 0.17073436 -0.10041381 0.049697652 -0.0896416 0.0835067 -0.11983629 0.11728465 0.0077148373 0.17502353 -0.09913137 0.021170756 -0.013380917 -0.07307652 -0.00782491 -0.025109282 -0.008224225 0.22006316 0.10209162 -0.078890145 0.05404079 -0.077071555 -0.12127213 0.10057727 -0.17321378 0.08988192 -0.009852467 -0.02734265 0.103680335 0.0992573 -0.10393539 0.15808834 -0.018208697 -0.12416849 -0.0700873 0.015514228 0.22302507 0.14754607 -0.12089061 0.047204416 0.13708194 0.04403355 0.09534969 0.13387468 -0.07074313 -0.18795966 -0.34479648 0.018007228 0.057799686 0.08918431 -0.14440055 0.05797598 0.2026507 0.00504132 -0.008970223 0.028096514 0.20042989 -0.10516845 0.017517 -0.08615369 0.00800463 0.032027923 0.11793236 0.229899 0.023257343 -0.040723912 0.15301491 -0.07331154 -0.08768407 -0.054412436 0.15498239 0.12390441 0.2821812 -0.12740947 0.15708885 -7.90107e-05 0.032020845 -0.29326984 0.06406242 0.08091825 0.0353034 0.09793799 -0.08719578 -0.06446981 -0.049148105 -0.1880766 0.08337218 0.116355695 -0.072938085 0.03201666 -0.02935774 0.026639443 -5.2623018e-05 -0.051355608 0.10862133 -0.020439593 0.21481302 -0.017450592 -0.16522232 0.027518053 -0.029084325 0.103951 0.15499789 -0.08440143 0.0058349203 -0.06668703 -0.17455502 -0.08466316 0.09705362 -0.049521025 -0.22177176 -0.08159264 0.20642436 0.021454196 -0.07538727 -0.033924926 -0.1505346 0.1395057 -0.042108934 0.13393633 0.0023614776 0.14014938 0.022865757 0.07913531 0.12618837 0.11613512 0.038207266 -0.027281202 0.21376026 -0.10140871 0.004807146 -0.088727154 -0.056400497 -0.011517425 0.06172966 0.01559824 -0.20295279 -0.05682079 -0.14404412 -0.23031275 -0.023304688 0.099142775 0.080779165 0.1307082 -0.15331215 -0.13226512 0.18670596 -0.11124664 0.0582804 -0.07149743 0.005163581 -0.06612903 0.053350475 0.010873708 -0.05270248 -0.11627498 0.08105647 -0.061733272 0.03160182 0.23402579 0.085438706 0.13355562 -0.0012561443 -0.17751798 -0.19941291 0.13472788 -0.15011188 -0.08348616 -0.08797761 -0.122800685 -0.22739473 -0.06978932 -0.099637754 0.012008265 -0.06331508 0.100087956 0.016734216 -0.014020626 0.043978516 -0.025799628 -0.030629069 0.044241395 0.06401612 -0.01751106 0.005257084 -0.08098269 -0.09912796 0.043711297 0.09877334 0.15848583 -0.05911368 -0.024002401 0.07606439 0.14522524 0.19585861 0.09775568 0.13020717 0.06779071 0.054254115 -0.01162724 0.039800007 -0.115416735 0.035653986 0.3371046 -0.068325244 -0.010955701 -0.032668702 -0.012605005 0.16673012 -0.063460626 -0.063124105 -0.17034487 -0.07856484 -0.17364381 0.060376823 0.27716613 -0.039471522 -0.16947961 0.076940306 -0.10589597 0.17676128 0.08033279 -0.15038036 -0.046418563 0.08522312 0.013173156 0.10808584 0.13436842 -0.0029400869 0.16843687 -0.1328121 0.01437996 0.18774651 0.04972424 0.108534954 0.09952009 0.088608116 0.047151577 0.056565925 0.12895133 0.079906814 -0.048098616 -0.15010607 0.030440498 0.05180528 0.10624353 -0.09643579 -0.093446776 0.043186385 -0.009920388 -0.20429234 0.021794716 -0.17545523 -0.03619123 0.053346545 0.14981933 -0.13703951 0.011335392 0.0703041 0.28272966 -0.034042064 0.08392881 0.11103831 -0.12007967 -0.039706364 -0.22803813 -0.09681182 -0.23279032 -0.15046921 0.0066543235 -0.032113563 -0.056561414 -0.11800192 -0.055269055 0.014395237 0.086695924 -0.26531827 -0.08597979 0.01310594 -0.0126900105 0.037533984 0.023950337 -0.04620286 -0.06840146 -0.014763464 0.17320879 -0.06255654 -0.046401825 -0.03259251 0.24314937 0.036982477 0.14789972 0.09815858 0.045593582 -0.02968231 -0.14194232 -0.18099104 -0.1065591 -0.09312559 -0.072867446 -0.13287367 -0.16985518 0.18722187 -0.0424334 -0.12060416 0.109906286 0.012464782 0.04621983 -0.016608408 -0.034670938 -0.019762347 -0.14107764 -0.011596435 0.026799625 0.16933015 -0.0071161827 -0.24185455 -0.021724045 0.2877962 0.062919006 -0.112342045 0.121714555 -0.023198688 -0.12785849 -0.10230071 0.023958396 -0.25525448 -0.24670373 -0.14407027 -0.1542919 0.035531472 -0.11251833 0.07170402 -0.18617006 0.10777013 -0.2038669 -0.15238257 0.008533673 0.15070714 0.015788212 0.049760044 -0.0010499915 -0.105443515 -0.051817477 -0.12399464 -0.13599631 0.019137355 -0.13335569 0.020307519 -0.14520498 0.044581525 -0.09677651 0.14801514 0.0885824 0.16569696 -0.1288021 -0.070533656 -0.10002201 -0.09319635 -0.06768477 -0.20262168 -0.19894737 -0.14082369 -0.12271285 -0.051025253 0.06168543 -0.25841674 -0.15511495 0.10298389 -0.10217441 0.011067045 0.043194167 0.054405294 -0.15503524 -0.02590966 -0.16462654 0.24182796 -0.16229135 -0.12050019 -0.11977626 -0.15599287 0.08771893 0.22567584 -0.052262522 -0.030574238 -0.1591465 0.07886209 0.019232932 -0.11970897 0.0290447 0.022379844 0.011055933 -0.032879833 -0.15394782 0.113574974 0.03401925 0.110871874 0.07722968 -0.26747575 -0.26740628 -0.1858094 -0.13440987 0.059809033 0.019414876 0.10339264 0.03684504 0.018061265 0.11716931 0.04416909 -0.0010634501 0.13232912 -0.004197993 -0.04080651 -0.12866648 0.06949461 0.21918555 0.06660468 0.23584282 -0.1707555 0.014765338 -0.020083986 -0.040862016 0.2537532 -0.014212961 -0.0881315 -0.0836329 -0.2466417 -0.1286321 0.134924 -0.1121212 -0.18857145 0.00043035828 0.05275443 0.022915576 -0.061227806 -0.039663177 -0.09201069 -0.10228098 -0.10724532 -0.06460912 -0.10627577 -0.16424423 0.0062241913 0.007743484 0.15970689 -0.12994127 -0.0066509396 0.22032356 0.033373393 0.20651135 0.115825206 -0.0029700932 -0.041638475 -0.0039156587 -0.13285784 -0.08818549 -0.104004204 -0.12338086 -0.002367866 0.15002458 -0.034079913 -0.036729343 -0.26858875 -0.16101456 -0.15030402 0.03140609 -0.08359499 0.08544987 -0.036167726 -0.06776405 -0.12813438 0.02251676 0.08671817 0.019315967 0.20816699 0.12726256 -0.045945913 -0.08435141 0.024755333 0.013944521 0.34606507 0.14886804 0.061562248 0.07015771 0.06996379 0.047378466 -0.0333446 0.12778449 0.045883574 -0.067246094 -0.08238894 -0.119264685 0.0047581163 -0.17590518 -0.26691535 -0.12188564 -0.13599302 -0.06837691 0.047754988 -0.03260901 0.01162334 -0.12523395 -0.048967864 0.055922125 0.0566916 -0.07526105 0.013362555 0.21708097 -0.0045634755 -0.083571546 -0.06782697 0.048570376 0.1009443 0.170748 -0.09991347 -0.08163814 -0.015920067 0.023069708 -0.046341237 0.004072681 0.015171371 0.09801122 0.024921617 0.017731035 -0.121172145 0.06783067 0.023139635 0.090688184 0.062987484 0.05606992 -0.012645439 0.02169023 0.10354722 -0.06801113 -0.065644406 0.015339437 0.038724326 -0.08521432 -0.010279948 -0.012203575 -0.22433183 -0.0906335 -0.084405914 0.023323381 0.25765273 0.042236425 0.02337433 -0.1751234 -0.033466782 0.005587128 -0.03516511 0.13809651 0.100686654 0.042628445 -0.08478837 0.18839042 0.0462874 -0.009649688 -0.19947207 -0.075477816 0.096574925 0.22485006 0.0033573413 -0.07933922 -0.12130019 0.052391846 -0.17926542 0.06402512 0.090761796 0.052618463 -0.01297551 0.06548469 0.026084518 -0.06882174 0.19403136 -0.026177255 0.08656587 -0.23287131 0.13663721 0.1558665 0.011974031 0.06486774 0.064842165 -0.055287838 0.06370285 -0.071872406 -0.051885173 0.12168495 0.10645641 -0.061647028 -0.064367 -0.055569142 0.082254596 -0.09100784 0.044661783 0.08367532 0.00016611074 0.109997004 -0.021440336 -0.012394905 -0.088733986 0.11070837 -0.067661405 0.0439677 0.0018590512 -0.09628767 -0.051919796 0.14727736 0.029156435 -0.0919244 0.03952335 -0.0056207534 0.35439724 0.037502903 -0.029071808 0.15099292 -0.1751135 0.018422695 0.20843297 -0.0026292715 -0.16433997 -0.030601142 0.15444192 0.046597477 -0.07489497 -0.059533745 -0.04697951 0.045110308 0.14280973 0.11423294 0.054591738 -0.12417377 -0.123802535 0.062315695 -0.12555699 -0.0135660395 0.022154506 -0.14455543 -0.118661664 -0.037026145 0.025738658 0.13223466 0.07911344 0.041656647 -0.003210637 -0.045414187 -0.00016100539 0.09192027 0.058462027 -0.16179024 -0.00972896 0.19118232 0.067838065 -0.07320693 0.24477047 0.030044217 0.055679675 0.048942994 -0.02776887 -0.06376673 0.22115763 0.10931122 0.091184355 0.06661955 -0.0913411 0.13685867 -0.0743815 0.038260587 -0.17574602 -0.21423432 -0.018469192 -0.09438147 -0.20999028 0.14783293 0.25339678 0.17868473 -0.008886708 0.017729577 0.1057302 0.12917252 -0.017508497 0.04671003 0.16035226 0.1373325 0.06609986 0.021823196 0.13527791 0.10692536 0.053711962 0.18090104 -0.028712725 0.17222948 0.06418329 0.33609518 -0.11025755 -0.059944 0.050870303 0.04965531 0.20494604 -0.056905564 0.079625815 0.10609775 0.020166501 -0.109571174 0.12970236 0.2167045 0.101347126 0.06016313 0.03945592 0.009085967 0.08186488 0.020899778 -0.06800742 -0.0615669 0.055087015 0.1041581 0.0767119 0.055366065 0.04737594 -0.0767588 0.15253694 -0.01683923 -0.03341079 0.05817053 -0.17371887 -0.07006281 0.10709792 -0.16475207 0.12074806 0.1610458 -0.027013678 0.039113183 0.10113421 -0.08254608 0.04477977 -0.061494652 -0.01817248 -0.07427668 0.05145611 0.12153739 -0.031329688 -0.16019921 -0.1436133 0.018807998 0.1539222 0.07954936 0.028145993 0.105073124 -0.056082804 -0.065610014 -0.14987001 0.070119895 -0.22884226 0.089717686 -0.036442585 -0.031102208 0.17916366 -0.062422596 -0.059016395 -0.0040487684 0.050375257 -0.035080466 -0.14745374 -0.07663805 0.14611548 0.052268613 0.06346594 -0.0028976884 -0.042258214 0.18361866 -0.053070955 -0.08648976 0.065572225 -0.09972136 -0.08720691 -0.052213978 -0.067390755 0.013733552 0.24496 0.051516224 -0.23309186 0.05268727 -0.010684885 0.00038640603 0.07419775 0.0070640566 0.00467068 0.071236186 -0.044276174 -0.085778 0.31137073 -0.06259515 0.019004969 -0.14046037 0.0215787 -0.08339079 -0.027805472 0.15671243 0.082416445 0.067940965 -0.21078807 0.13744795 -0.20177013 0.120212436 0.094996616 0.0671893 -0.06702031 0.045985106 -0.050424807 0.0055024163 -0.01267475 -0.2327299 0.07324244 0.0006047994 -0.062063195 -0.080540806 0.068358146 -0.07944387 -0.21558541 0.050644886 0.06090082 -0.01097253 -0.10579965 0.017884232 -0.13746311 -0.093618095 -0.06513803 0.09432567 -0.022771742 -0.0069722026 0.20992854 0.02935811 0.00015301355 -0.08692201 -0.1532253 -0.26310912 0.101572126 0.060524255 -0.0024702817 0.04983314 0.119804926 -0.12741715 -0.04848603 -0.14399618 0.11228594 0.045638897 -0.2696095 -0.1859223 0.0005492695 -0.042754028 -0.122506455 0.20440836 0.04024451 0.056472152 -0.060210973 0.08121806 -0.029052602 -0.019343637 0.071031965 -0.15296762 0.17319202 0.05605335 0.13621041 -0.11343001 -0.12606299 -0.13944124 -0.038603455 -0.03141232 -0.06524035 -0.109325156 -0.11121347 0.058707397 -0.0003681799 -0.058271155 0.13645464 -0.014986977 0.08575054 -0.07748787 -0.02486258 -0.039979372 -0.15586402 0.14732367 -0.003583471 0.08457359 -0.06621224 -0.007493796 -0.077694595 0.13258997 0.040131453 0.04569587 0.14492407 0.12473961 0.11219486 -0.083783425 -0.06883319 -0.12049042 0.0628559 -0.03594939 -0.22479574 -0.0784846 -0.16377707 0.03170707 -0.11638027 0.09890555 0.06037516 0.17758703 0.0014486796 -0.08742497 0.04960881 -0.14007972 -0.11683119 -0.0011174993 -0.18423477 0.022521107 -0.09209456 0.020062562 -0.098783 0.05141533 0.010923397 0.14902672 0.009664115 -0.06787364 -0.015583452 -0.096562155 0.07627432 0.117374316 0.2484809 -0.08145847 -0.036676764 -0.11059051 -0.0645332 -0.01919117 0.011275006 0.17382875 0.016187266 0.17336893 0.10515725 0.014318125 -0.08828682 0.19753337 -0.11389925 0.029479897 -0.095605835 0.11841149 0.1202729 -0.041597735 0.06036461 0.034874685 -0.042671956 0.08480706 0.047921058 0.030560553 0.0047986796 0.051512025 0.031459805 0.034314647 -0.0324976 0.16656552 -0.16504507 -0.03277011 -0.099389404 0.13196751 -0.1942261 -0.111344256 -0.0851411 0.042816922 -0.09261977 -0.027426211 -0.18693163 -0.03961289 -0.047889914 -0.0074432692 0.16447887 -0.048528515 0.078535184 -0.13736622 0.16565882 0.100608185 -0.09239835 -0.08271762 0.06954316 -0.017247133 -0.007943598 0.136214 -0.06587825 0.018120052 0.10386921 0.10556097 0.01200098 -0.0067432886 -0.23060633 -0.19640847 -0.013095772 0.0055126036 -0.02585123 0.101885244 -0.12232094 -0.02890398 0.030407201 -0.07731938 0.14788115 0.056820937 0.104778945 0.22030759 -0.12451861 0.0826831 0.060193237 -0.15084152 0.03557297 -0.08500512 0.07746216 0.114774115 0.03622386 -0.17628966 -0.087688714 0.06546163 0.011110518 -0.2604077 0.1326898 0.038314804 -0.055356115 0.12164277 -0.088176504 -0.19135909 0.008534656 0.15497112 0.1649458 0.021704333 0.0044530127 0.09101114 -0.09784186 0.07383188 -0.08769314 -0.086657725 -0.093463786 0.0064723105 -0.108289585 -0.35427058 -0.009801447 0.008327731 0.053592883 0.015394522 0.1732063 0.040127832 0.052757848 0.11343983 0.04524982 -0.080811135 -0.23484361 -0.038721573 0.08450098 -0.039416786 0.10666923 0.037020124 0.10453679 -0.060825996 -0.0067838393 0.046708386 0.14427923 -0.23806545 -0.08087027 0.09002167 0.17151701 0.040934682 -0.0151641015 0.06560495 0.0813494 -0.09442795 -0.14590819 0.019622453 0.15997754 0.0106441835 0.005685191 0.0065676942 0.057031825 -0.0054902057 0.027954731 -0.09679699 0.13869584 -0.10502783 -0.03422066 0.018750006 0.20808882 -0.04637546 -0.04005025 -0.041297268 0.17591304 -0.26338643 -0.14238 0.23495549 -0.033257235 -0.16668157 -0.067077264 0.044724498 0.12915364 0.23919696 0.040838156 -0.08145588 0.07776206 -0.16418897 -0.25777096 -0.2548038 -0.18419981 -0.153845 -0.11650767 0.04329886 -0.11864804 -0.30828962 -0.09540054 -0.038195446 -0.05155443 0.1609426 -0.05236374 0.09708299 0.007092394 -0.0083376225 -0.056986697 0.007906193 -0.03200592 0.058089312 -0.03716116 -0.17445882 0.025442515 -0.038447324 -0.10337822 0.05506124 0.08271089 -0.03449517 0.02897607 -0.049524765 -0.103526026 -0.19452803 -0.19502538 0.014084379 -0.12590946 0.23955768 0.11534451 0.14274582 0.08081645 0.19136365 -0.06970956 -0.24708359 -0.03562204 0.0648125 0.024142377 0.03653778 0.14108112 0.034098595 0.10632806 -0.043664426 -0.06503575 0.208063 0.015848858 -0.14254202 -0.1570666 -0.15810953 -0.13063203 -0.047046565 -0.06495068 0.055057585 -0.116681434 0.07102948 -0.027856607 -0.009869776 -0.2202606 -0.065253794 -0.0128945615 0.05910642 0.017386766 0.120694526 0.0020910976 0.08536192 -0.0399947 -0.17226872 0.03582642 0.081523046 0.06652537 0.051209185 -0.0430366 -0.10195023 0.081609555 0.1098456 -0.014628523 0.114099436 -0.086840145 -0.073139094 0.14409527 0.076655604 -0.08918108 0.09344808 0.100783266 -0.2262689 -0.1625564 -0.08150272 -0.05940498 -0.056239374 0.061305128 -0.09321556 -0.15031318 -0.010905351 -0.00588641 -0.0028240539 -0.045053743 0.21309257 -0.2150803 -0.02984273 0.008621763 -0.06912361 0.09897322 0.09031641 -0.017010104 -0.050672498 0.015241218 0.08575074 0.02539791 -0.015642777 0.025279794 0.039841995 -0.22547087 -0.17768742 -0.25262958 0.08273978 0.026373735 -0.03212332 -0.28260955 0.08172455 -0.06515658 0.014676326 0.050810847 -0.19533457 -0.08573308 -0.02577276 0.28891152 0.042894803 0.14475976 0.10947571 0.04579152 -0.08992894 0.114966 -0.1408209 0.16907763 0.028991211 -0.277256 -0.05765574 0.04531115 0.043770697 0.104735896 -0.081845395 -0.14768687 -0.09998509 0.04105395 -0.034202576 0.13704526 -0.06018789 0.10602926 0.11408053 -0.0996358 -0.07059765 0.040644187 0.23842284 0.10885326 -0.24761254 -0.34214985 0.02961549 -0.0072837574 0.11546949 -0.103948206 0.02392983 0.093607984 -0.035755847 -0.033618037 0.011516936 0.06325825 0.0075572534 0.081523225 -0.062069893 -0.1893107 0.1997131 -0.05668293 -0.053607844 -0.030012168 -0.042434562 -0.009017967 0.09765118 -0.0290185 0.14532119 -0.12168231 0.30045283 0.087102525 0.092070356 -0.085184745 0.0032687436 -0.029345706 0.113372676 -0.111160405 0.04780675 -0.082703575 -0.06886695 -0.040431384 0.117292866 -0.17999515 -0.12257576 -0.1857404 -0.09975957 -0.07216936 -0.152458 -0.089291185 -0.2173478 -0.15827009 0.12205746 0.041578654 -0.024537388 -0.15073913 -0.19473818 -0.14668237 -0.031540718 -0.008553802 0.059940882 0.0851683 -0.07883448 -0.015048673 -0.042920854 -0.01205737 0.19991799 -0.1389412 -0.07935733 0.068595804 -0.17458993 -0.08203626 -0.07650901 -0.03820535 -0.17068693 0.06851925 0.07561937 0.05982805 -0.07804673 0.017641747 -0.08095339 -0.049136035 0.19947045 -0.046317413 -0.1785343 0.04011075 -0.16048928 -0.15992425 -0.12499952 -0.070831634 0.08282145 0.004481846 0.05079442 -0.13322549 -0.012061238 0.0034496365 -0.041876316 0.020401688 0.041612726 -0.04997614 0.02584274 0.12756407 -0.042177092 0.10027225 0.03233188 -0.16260055 -0.12608999 -0.077282384 -0.07649285 -3.8318638e-05 0.070455045 0.13450597 0.04284001 -0.057412528 -0.22106864 -0.04128032 -0.048819847 0.0931437 0.20815654 0.15872882 0.03573111 -0.14330362 -0.10318632 -0.14125632 -0.15572245 -0.042048693 0.037382964 -0.1438583 0.09907182 0.07070896 -0.13352631 0.025604565 0.09018047 0.07206016 6.690529e-05 0.06135278 -0.0018591037 -0.14434998 -0.15436117 0.121364884 0.12858854 0.041281443 0.1585608 0.11465162 0.07735351 -0.10700756 0.15726653 0.0022589888 -0.13334297 -0.067182705 -0.008507828 -0.1281902 0.009774416 -0.11073705 0.039340716 -0.12466007 -0.08797537 -0.11907532 -4.1037743e-05 0.23572235 0.23157112 0.15758406 0.07521503 0.11061665 0.18900304 -0.09249404 -0.00010038927 -0.22180718 0.117461406 0.19062607 -0.007868134 -0.20642386 0.06987969 -0.081418276 -0.05734442 0.07164828 0.017277535 -0.064687274 -0.080836974 -0.03870833 -0.13206376 -0.19631742 -0.07185673 0.03965307 0.023543824 -0.10068535 0.1299566 -0.2672999 -0.030692482 -0.04255069 0.03850434 0.060797367 0.21867874 0.11258365 0.22071913 0.06999889 -0.16735215 0.15416968 -0.16148889 0.04423463 0.044147193 0.011687293 -0.06533412 0.07163366 -0.14704663 0.0024077778 -0.04739695 -0.058739275 0.03469689 0.09187144 -0.050201952 0.026776155 -0.08555905 -0.20169634 -0.102986634 -0.0255335 -0.0013967184 0.1590304 0.08751394 -0.15248385 -0.15120861 0.04625554 -0.057842225 0.006106669 0.15499428 0.056728836 -0.005101249 0.26508412 0.03801828 -0.06409966 -0.11100543 -0.04875918 -0.11390603 0.0724648 -0.09355153 0.098261856 -0.031072231 -0.09534438 -0.03363964 -0.2534241 -0.008776739 -0.03288831 0.066597864 -0.19679569 0.041906048 -0.034211554 -0.03481186 -0.058808077 0.102660604 -0.06680147 0.1692732 0.035926994 -0.098200515 -0.059744224 0.123571165 0.0077229477 0.08032666 -0.1251928 -0.19147776 0.1537004 0.1823065 -0.08697414 0.010766097 0.1440099 0.07210536 -0.0010540743 0.093638994 -0.06977126 0.012108497 0.00720579 -0.018285524 -0.0299899 0.01627748 0.012431402 -0.09585213 0.08917023 -0.10432992 -0.055559143 -0.12194208 -0.021661999 -0.23580873 0.13571753 -0.013302701 0.19955634 0.026209662 0.06847555 0.30104107 0.055391137 0.2070101 0.05016531 0.11631954 0.07142214 0.18013845 -0.06343647 -0.08302972 -0.026138263 0.018961716 -0.01309122 0.080018125 0.13946329 -0.08859319 -0.06440424 -0.13463382 0.21202742 0.03945747 0.05697075 -0.12503013 0.008873664 0.017773084 -0.0584275 0.015156535 0.17371096 -0.15905684 -0.13240248 -0.0697472 0.21501625 0.14953308 0.03107847 0.08458955 -0.027258007 0.13526337 0.03670956 0.055556808 0.13275413 0.046413455 -0.04653951 -0.010596928 0.081864 0.17363943 0.06753926 0.08932206 -0.010994753 -0.061789256 0.074389264 0.023622917 -0.13576399 -0.026308136 -0.0017908706 -0.044546977 0.15467243 0.054482713 0.14381637 0.032841332 0.0146376025 -0.087160915 0.007691787 0.0078042266 -0.13021252 -0.047453936 -0.025829425 0.047846764 0.052633822 -0.051633038 0.05338577 -0.011709074 -0.28046307 -0.041971393 0.11439773 -0.1616817 0.017767949 0.165025 -0.06956243 0.006713741 -0.12390274 0.16922198 -0.0018344304 0.011161506 0.14192893 0.07264671 -0.08106401 -0.058228992 0.05599194 -0.055913296 -0.20522545 0.0011747509 -0.1415224 0.16812705 0.024177598 -0.08401864 -0.06336438 -0.18244089 -0.103447326 0.108131185 0.22967748 0.07913852 -0.0027054215 -0.036697127 -0.08915071 0.21247546 -0.0123760495 0.21806185 0.14585082 -0.16758077 -0.060096446 -0.060405746 -0.0014858023 0.0004674042 0.30612284 -0.10122392 0.029395828 0.06814964 0.006341633 0.017516887 -0.098438144 0.015035801 0.05439525 0.03471241 0.060617648 0.14788853 0.100541696 0.014070476 -0.11051327 -0.053308155 -0.015498567 0.03169918 -0.041352883 -0.08678702 -0.11238981 -0.1587591 -0.018424254 -0.14473052 -0.098763905 -0.03633406 -0.12848233 0.044474028 0.080521174 -0.04844389 -0.03720392 0.06024179 -0.064900644 -0.07177453 0.1261487 0.094547406 0.06537911 0.09778858 -0.19156836 0.13945651 0.0412931 0.10295067 0.040692788 0.009638628 -0.020728493 0.043513805 -0.024606261 0.093356125 -0.15244748 -0.04795929 0.21105067 -0.055876356 -0.017210051 -0.08193315 0.037719753 -0.07237442 -0.017350081 0.087293245 -0.06456336 0.085359976 0.08744705 0.110719725 0.019278297 0.33062485 0.11195224 0.03898657 -0.08109357 -0.0044817156 0.14785694 0.17617771 0.15271781 0.08259231 -0.123479195 0.05058875 -0.12216353 -0.1440009 0.030718295 0.05911931 0.09690622 0.055911917 0.058452517 -0.09317135 -0.0039291587 -0.14397995 -0.19367856 0.08038922 -0.07117727 0.08850192 0.11204571 -0.05952505 0.06434409 -0.060891468 -0.17936364 0.017555138 -0.041863184 -0.03751009 0.20403318 -0.14608683 0.044785924 -0.09425661 0.096050255 0.035067324 0.04315236 -0.09028967 -0.07437919 0.09431093 0.17871353 0.050614797 -0.08481131 0.0405766 0.2488497 0.016320854 0.15172613 -0.06863304 0.00240103 0.06859092 0.046299897 -0.0721426 -0.0784462 0.10042242 0.12064809 0.15357128 0.18543011 0.018686142 -0.02589573 0.14032334 0.076531045 -0.09174666 -0.0968647 0.05569183 -0.011228645 0.003485599 0.11247745 0.08112783 0.1381979 -0.18934287 0.027027855 0.07111796 -0.15113012 -0.06317217 -0.0790193 0.009105916 0.16934422 0.20838892 -0.075815745 0.05833107 0.062548645 0.04590998 0.04675209 0.035183568 0.17119333 0.111784406 -0.10458948 0.08146701 0.09388467 0.03672093 0.118366554 0.024031598 0.025270967 0.018622885 -0.19532554 -0.0015410044 -0.060326274 -0.112516165 0.14862607 0.055644955 0.002588384 -0.053619847 0.031152133 0.10088882 -0.08112912 0.0008056639 0.09092476 -0.18743184 0.0005563661 -0.03704381 -0.008355047 -0.04513655 0.018854583 0.19794343 -0.026711615 0.03213242 0.20128559 -0.053483043 0.18290922 0.0014917785 0.18255094 0.08024423 0.035935037 -0.0013388641 -0.055905335 0.0140779745 0.096235014 0.0051876907 -0.025163447 -0.018949619 0.10447178 0.12774043 -0.062462542 -0.06512006 0.0395683 0.15451181 0.11618749 -0.12378667 -0.02319232 -0.0883975 -0.021557642 0.16540584 -0.13723145 -0.15691978 -0.07793247 0.034149576 0.06756 0.04626342 0.11939949 -0.17463295 0.120434 -0.030199904 0.07504006 -0.12901269 0.0057198647 0.02885127 0.12207397 -0.1520266 0.009574078 -0.10202467 0.057048414 0.08422052 0.13394126 -0.048278745 0.09697515 0.13782872 -0.16267723 0.062993065 0.09743958 -0.024464536 -0.11786836 0.09857279 -0.11513652 -0.012879304 0.0010160375 0.076520525 -0.05774015 -0.06301955 0.015383324 0.10316664 0.23058507 -0.14909287 0.033134717 -0.10801424 0.103401475 -0.09052465 -0.062240686 -0.053702883 -0.0011210612 0.038818568 0.054868948 0.0059220777 -0.12649024 0.07927748 0.0008327307 0.12230211 -0.067646444 -0.15913588 -0.0015988407 0.13139093 0.0176234 -0.018241672 -0.0843989 0.1784727 -0.09816056 -0.06762473 0.062098388 -0.18063651 0.1323729 0.06747889 0.093181 0.058253642 -0.014088958 -0.10471882 -0.012414282 -0.09688437 0.049335282 0.082835265 0.1529051 0.042400967 0.0989564 -0.023215642 -0.041328903 0.053866 -0.032148477 0.033417385 -0.099990584 -0.08204142 0.06666836 0.08975958 -0.09766619 0.06795289 -0.051744353 0.0033758427 0.14433028 0.083266266 0.08414924 0.19572534 -0.06535231 -0.09368112 -0.067357436 -0.020449696 -0.23321028 -0.018300835 -0.052433744 0.07997203 0.03683521 -0.059321854 0.059715837 0.07448358 -0.07072595 -0.043173835 -0.21603745 -0.10256713 -0.06774809 0.013915436 -0.088039406 -0.04488221 -0.11644033 0.02252372 0.044315893 0.04076893 0.0022343684 -0.15329821 -0.06048175 -0.03883978 -0.037630938 0.009258018 0.14761648 0.086402275 -0.0936002 0.07308926 0.06933616 -0.0766359 0.08641776 -0.013776367 -0.13921422 0.046745323 0.023647806 -0.02144209 -0.002999067 -0.06978703 0.067476064 0.0021537684 0.023143718 0.042213004 -0.1089597 -0.08292944 -0.21449557 0.0629731 -0.11475799 0.01876237 0.038566135 0.060866505 -0.11943762 -0.0052262004 0.16881071 0.17315258 0.10133306 0.035339147 -0.09584162 0.07698653 -0.009591271 0.062378343 -0.057262424 -0.013181233 0.018022783 0.026780616 0.05073828 -0.05601219 -0.1327999 0.16303244 0.24967256 0.04686361 -0.12593627 -0.070820644 0.057410568 0.14061044 -0.1147902 -0.005934453 0.02609204 0.092956714 -0.0278971 -0.15087591 0.06445563 0.11311107 -0.007317752 0.042029317 -0.045327313 -0.08276961 0.10493084 0.04017581 0.053544655 0.15508221 -0.098622516 -0.04822624 0.021478081 -0.052266236 0.08001236 -0.016509345 -0.0977318 0.008836889 0.01891405 0.09408911 0.040126342 0.04823618 0.038527977 -0.012323432 -0.065123044 0.03538264 -0.026813647 0.17548114 0.1407171 0.06978278 0.044309683 -0.0032832588 -0.12377651 -0.020986084 0.011186307 0.026970008 0.052360468 0.09499922 -0.06677835 -0.066829056 0.14743832 0.08058955 -0.0321321 -0.003776117 -0.005607699 0.0060668048 0.048960723 0.25515747 0.021856835 0.07168247 -0.1647734 -0.04778227 0.12378061 0.04187994 -0.4340731 0.07327833 0.19831531 -0.19309188 0.15843764 -0.27069664 0.10029876 0.0056339684 -0.22849825 0.050126433 0.11741985 0.037015334 0.05959884 -0.037278507 -0.1809291 0.0719827 0.17725907 0.11445266 -0.19641769 -0.14778921 -0.07760849 -0.15235181 0.009102391 0.042274475 -0.14134075 0.079369836 0.062959075 -0.049345445 -0.013468793 -0.19430839 -0.03232712 0.0023869327 0.021713335 0.043763656 0.030923007 -0.019935535 0.035118297 0.10670207 -0.0030509757 0.0382583 -0.0121182855 -0.059163235 0.05462385 -0.05489596 0.039794896 0.0074909595 -0.02555512 -0.028966678 -0.047603507 -0.16384204 0.03902304 0.025321687 0.09142624 -0.048232917 0.19062155 -0.037387744 -0.08624731 -0.09843819 -0.17046566 0.15893073 0.1408977 0.061033208 -0.08877186 0.18320233 -0.030333335 -0.021026589 0.15022478 0.07238992 0.22660919 0.031371042 -0.03320427 -0.054681677 -0.17820075 -0.02234694 0.11716539 0.060419526 0.0032110268 -0.094699055 0.027333267 0.10433146 0.045940306 0.017431973 -0.078485 0.08929187 -0.30671167 0.043136943 0.2592528 -0.1494294 -0.023016293 0.00015445516 -0.04372436 0.10845176 0.050959423 0.016188731 0.080564275 0.0041567003 0.32282484 0.021010688 0.026027044 -0.16454794 -0.047846224 0.12123664 -0.12704681 -0.20925684 0.0078259725 0.14068267 0.0069441986 -0.033068668 -0.18471183 0.050014127 0.07078658 -0.17375226 0.11703322 0.077101536 0.11439889 0.060710732 0.07139768 0.056842703 0.08909147 -0.18019941 -0.14876993 -0.06954218 -0.0081853755 0.043498363 0.036311027 0.112577364 0.11568655 -0.08475686 0.026791783 -0.080811575 -0.012325883 0.038677946 -0.33437228 0.24762328 0.06313973 -0.053071517 0.19594821 -0.031721868 0.015957993 -0.0473921 0.166115 -0.0057097627 0.019523015 0.12518695 0.062359694 -0.0046757557 0.11247477 0.2557963 0.033691168 0.013604885 0.01897127 0.13250919 -0.0585673 -0.023347918 -0.14931326 -0.11370496 -0.04734436 -0.00421235 0.17773573 0.056080937 -0.08827372 -0.068826474 0.14397374 0.1191599 0.00931382 -0.037753835 0.11899215 -0.09283385 0.0424144 0.23028715 0.023269208 -0.07623431 0.041952085 -0.042212155 -0.13469037 0.07494246 0.115582764 -0.029990882 -0.035837512 -0.094212785 -0.013072873 -0.054402217 -0.09920583 0.19072403 0.048469175 0.062080346 0.09292419 0.08168717 -0.036875356 0.028636629 -0.025170743 0.046525106 0.03710329 -0.03429447 -0.126431 0.02112254 -0.013928127 -0.18253835 0.057264987 0.10303308 0.2557698 -0.036185548 -0.050597936 -0.10928178 0.022121022 0.024999535 -0.07642729 -0.013218819 -0.19324748 0.09626456 -0.07517577 -0.0016195559 -0.14084767 -0.056367047 -0.026035719 0.00057015015 0.049851015 0.14888357 0.07744331 0.10080398 0.14910544 0.059928797 -0.0015142999 0.103932366 0.110235065 0.06882816 -0.1389639 -0.07764715 -0.020986577 0.08446097 0.004364195 0.12018573 0.13445792 0.122851186 0.12382734 -0.10203907 0.04953353 -0.055957593 -0.16021176 -0.024336204 0.13726048 0.050203804 0.20374613 0.019699736 0.24671583 0.019744975 0.0042033014 -0.12626573 0.113835946 -0.04522194 -0.060593292 0.13276075 0.12031723 0.11616322 -0.03406273 -0.0020763925 -0.0030512714 0.08222339 0.16185534 0.043313466 0.20398799 0.09621831 -0.016981104 0.089370005 0.17352827 0.20276314 0.1219982 0.0043073753 -0.017481193 0.06332156 0.17210317 0.047886573 0.05070931 0.010923959 -0.030697746 -0.0142266415 0.015682472 0.1738337 -0.022158887 0.0077761305 -0.08235794 0.076707125 0.14118747 0.16700055 0.02466206 0.061101556 -0.013198618 0.055823117 0.03433072 0.008760596 0.019651363 0.051691037 -0.022916412 -0.017750846 0.17723508 0.2775534 -0.11750298 -0.12301338 -0.09260211 -0.0074347933 0.09490023 0.064695634 0.021879278 0.057530954 -0.06385282 -0.01872625 0.0003849086 -0.15641162 -0.11392349 -0.11003809 0.07822472 0.027866784 0.066690445 -0.17898996 -0.14382543 0.070788816 -0.27273887 0.12696518 -0.17978178 0.08735529 -0.085924745 0.10782409 0.32669145 -0.22081889 0.07603658 -0.1743174 0.049175702 -0.01417838 0.015912395 -0.08823449 0.08116776 -0.1410911 0.1300447 -0.035421427 -0.1354466 0.16413411 -0.001833273 0.19595945 0.123890914 -0.07826438 -0.006874909 0.013517096 0.15386288 0.046428874 0.023207761 -0.01534191 -0.0006081621 0.13490729 0.005466407 -0.0341646 -0.053400338 -0.052362546 -0.13727535 -0.072103396 0.1557179 -0.014161089 0.07694003 -0.24137677 0.06333 -0.011540856 -0.0452098 0.021030169 -0.046489812 -0.20836577 0.098579146 0.030377753 -0.025937961 -0.09103392 -0.14121792 0.028122881 0.16551384 0.023465049 -0.13683216 0.02370363 -0.0041730492 0.08957977 0.06630689 -0.29295456 0.059912838 -0.09514878 -0.136244 -0.013627654 0.044338528 -0.16105942 0.07339178 0.07926802 0.008669183 -0.080263495 -0.091438934 0.10909208 -0.1446234 0.11104143 -0.013585762 -0.0066492823 -0.167716 -0.010614019 0.067705326 -0.12721688 0.05616735 0.014863557 -0.0585455 0.09133335 -0.21605593 0.037816476 0.16327548 0.14518622 0.04020107 -0.026899291 -0.057946716 -0.024665121 0.060013447 -0.0742506 0.08201515 0.21853578 -0.0029469042 -0.13142544 -0.13154022 0.08059069 -0.0020030579 0.094181955 -0.046864614 0.089561224 -0.009331098 -0.06815698 -0.037165646 -0.1167713 0.20297922 -0.0045343656 0.071458235 -0.046418812 -0.09779854 -0.016068008 0.11630053 -0.045936696 -0.08151186 0.019700747 0.050938014 0.16627881 0.03948058 0.069861 0.07797161 -0.109015934 -0.089119405 -0.101739034 -0.12675686 0.08584662 0.03464537 0.012621331 -0.25633752 0.20848194 -0.08433378 0.21168014 -0.13842528 -0.07474125 -0.21378607 0.042711306 -0.10362682 -0.10080115 -0.13075255 0.084122404 0.077419415 0.18773325 -0.061938856 0.028604137 -0.12226839 -0.02682139 -0.045390148 0.052843302 0.10807877 0.10546065 -0.07765785 0.10647017 0.0022739375 -0.025906423 -0.06435046 -0.049530428 0.18056905 0.03708226 0.023900839 -0.019725854 0.2510969 0.13699992 -0.06560735 -0.02086267 -0.014925625 0.021086032 -0.063623734 0.05038046 0.15170768 -0.124863945 -0.10631581 -0.0420071 -0.0373708 0.20637643 0.10680277 0.10119232 -0.019749952 -0.021965202 -0.13848811 0.08463155 0.055541288 0.13501284 -0.014400445 -0.0074954783 0.02361527 0.09568843 -0.1405975 0.08004338 0.004276563 -0.09952998 -0.20194821 -0.007148545 0.15127017 0.17396735 0.042036433 0.20269944 0.0022047223 0.09734421 -0.043109234 -0.049446028 -0.065737054 -0.20403883 0.1307233 -0.06214944 -0.07813002 -0.115983315 -0.018422049 0.17836331 0.21139196 -0.16407262 -0.033430945 -0.10142192 0.10084763 0.030673223 -0.061643112 0.009271175 -0.04572801 0.16343868 0.056709807 0.0689962 -0.2646783 -0.0046649924 0.21033517 0.13462698 -0.18269488 -0.029328685 -0.11813809 0.17312422 0.026441723 -0.074765705 0.0054296744 -0.2587231 -0.106482275 0.0056582517 0.086581394 -0.19211735 -0.036101677 0.10298243 -0.14313126 0.02493218 0.008611316 0.17345211 -0.020999722 -0.015146183 0.08750983 -0.13062079 -0.020074423 -0.043558646 -0.0118773095 0.0868545 0.057430003 -0.07285438 0.015683807 0.15105823 -0.08112272 0.016530562 -0.01730217 -0.004286625 -0.16105169 0.14309035 -0.07542133 0.10462105 -0.060123812 -0.060536627 0.12332618 0.10140231 0.0010628785 0.085057475 0.01943478 0.023725783 -0.039209012 0.12645663 -0.025449838 0.20216997 0.017338015 0.078924134 0.11622424 0.042737883 -0.0050899694 -0.0032206937 0.04738408 -0.1202565 -0.083065696 -0.024939686 0.049654692 -0.06230724 0.14810766 -0.013639983 -0.021754466 -0.015089337 -0.12965007 -0.10165883 -0.051052835 0.11559684 -0.001298725 -0.053815182 0.10957303 0.14203726 0.100085944 -0.087206446 -0.038465124 0.21822031 0.05049308 0.022976957 0.13972838 0.14714168 -0.021937693 0.057151254 0.12049866 -0.08818606 0.036441874 -0.080242425 -0.103293784 -0.06746703 -0.011073596 -0.09105784 -0.14135048 -0.090513095 -0.15318482 0.044894177 0.10005823 -0.021000901 -0.033345427 0.03935789 -0.20083287 0.0556956 0.31220204 -0.025348116 -0.024992997 0.061280232 0.123986445 0.09559934 -0.2045008 0.09318656 0.28357273 0.11198357 -0.04756647 0.07459503 -0.092861496 0.15112314 -0.075475395 0.027537314 -0.050570745 -0.02344829 0.14367944 -0.0008111732 -0.114705846 -0.1733783 -0.26367933 -0.22079688 -0.027292471 0.08494293 -0.069115594 0.1439739 -0.08483049 -0.021787275 -0.105943814 0.10109003 0.21176513 -0.18926215 -0.0476967 0.11339758 -0.17396306 0.07542596 0.12454159 0.0064086015 0.07187487 0.14935187 0.20520571 -0.0065949787 -0.06837648 -0.08922199 0.09690578 -0.122199185 0.012493863 0.03462437 -0.06654458 0.030009136 0.25532353 -0.053045355 -0.11399282 0.019296372 0.0049977577 0.13085312 0.0033882644 -0.03792281 -0.19145295 -0.1599594 -0.1815558 0.03994777 -0.13421088 0.12020708 -0.010055811 -0.03749919 -0.101896465 0.10482881 -0.05296891 -0.07779849 0.10269804 -0.002054647 -0.054129582 0.020311665 -0.045535475 0.025602596 -0.08340081 0.20741723 -0.0219237 0.17292264 -0.016305411 0.08942616 0.08494258 0.09321333 -0.1383422 0.059342995 0.16956773 -0.03894979 -0.009609855 -0.0654251 -0.047724117 0.17315635 -0.0984096 -0.09219803 0.16310416 0.057104077 0.19895656 -0.058124356 0.00754384 -0.02643852 0.07703477 -0.14412758 0.042054623 -0.02048651 -0.09854289 -0.07223253 -0.11132653 0.063032925 -0.11323299 0.048542794 0.21825345 0.18860026 -0.08382844 -0.012404725 0.08074467 -0.004203463 -0.15769348 0.037602693 -0.008089727 0.17835207 -0.038403373 0.10371989 -0.12469507 -0.10078707 0.07418005 0.11038693 -0.09372542 -0.0029429847 -0.15123838 -0.03120248 0.079579696 -0.0048130653 -0.007156504 -0.097789824 -0.0886653 0.12117672 -0.03751052 -0.1083263 -0.06931284 -0.19930092 -0.12767695 0.08709097 -0.04390112 0.17925946 0.017790876 0.015903074 0.09056404 -0.2492067 0.027197832 0.013114964 0.13306141 0.08533104 -0.12644963 0.111133434 -0.024217557 -0.08843147 0.02172422 -0.018263038 0.1558606 0.036076058 0.0074854125 0.076984264 0.105174586 0.117043495 0.16358419 0.07605795 -0.0070643793 0.08768282 -0.04790321 -0.016026651 0.117077015 0.11275425 -0.027078489 -0.094298124 0.11666462 0.0652359 0.04712617 -0.0028060263 0.06952461 0.020873234 -0.059729997 0.02355324 0.0036357292 -0.048676364 0.07730212 0.11580281 0.09900362 -0.025610942 0.07759601 0.009810004 -0.12156075 0.06928679 0.00926245 0.2540038 0.14613684 0.12121642 0.053961676 0.007844836 -0.11967462 -0.19803551 -0.16998653 -0.039097395 -0.2880773 -0.13246071 -0.03874113 -0.04050973 -0.105705544 -0.06620173 0.19933428 0.121698424 -0.0156144425 0.020733163 0.0156302 -0.06614656 -0.09168629 0.093416266 -0.05505893 -0.122550085 -0.0023001572 0.013814842 -0.19525635 -0.0020607586 0.088811845 0.047136795 0.21762882 0.13151802 0.14530316 0.3301102 0.09713052 4.9867453e-05 0.078068346 -0.08006033 -0.071961895 -0.09937036 -0.043115873 -0.15187617 -0.08779169 0.01726113 -0.0584235 -0.2299218 -0.13185517 -0.05924281 -0.047881544 0.06901023 0.04035537 0.12269116 0.06050675 0.09955416 0.05548885 0.015617213 0.11194903 0.09395514 0.03962339 0.12912126 -0.23256475 -0.031660587 -0.040557906 0.11666324 0.15723278 -0.13381544 0.073593214 -0.16779956 -0.1317289 -0.001603313 -0.0018517041 -0.12115886 0.0022424026 0.014443279 0.14502087 0.005399316 0.009597979 0.053325772 0.16385905 -0.2331313 -0.1154682 -0.048233412 -0.24762826 -0.051367603 -0.029915752 -0.07803294 0.0038326196 0.06482878 -0.021612749 -0.04330562 -0.014562616 0.0012702429 -0.17201789 0.048169248 -0.047714423 0.13471209 0.058998223 0.122694254 -0.11863453 -0.06675739 -0.16223471 -0.10301351 0.15922713 0.2320374 -0.14069112 -0.079753034 0.029872485 0.13654126 -0.12849623 -0.0912956 0.07165694 -0.13609916 -0.10583057 -0.0045032953 -0.10053913 -0.06574735 -0.053883847 0.07219276 0.025906336 -0.0626878 0.00578617 0.040330756 0.1738378 0.080646224 0.12346954 -0.0590469 -0.055032592 -0.014979057 -0.011362798 -0.09511487 0.10808178 0.108480945 -0.0987959 0.068075225 -0.07709883 0.04916866 -0.22633131 -0.1625422 -0.07463308 0.03402375 -0.16000617 -0.27004534 -0.12871334 0.029423123 0.0024360053 0.23338784 -0.02979233 -0.033676345 -0.010801085 0.09815401 -0.05699719 -0.012014506 -0.10691196 0.14390467 0.041263748 -0.068738475 -0.009431634 0.052978933 -0.027686149 -0.056645773 -0.062432945 0.039583836 -0.07857109 -0.04946463 -0.17049034 0.016018063 -0.038015034 -0.05874037 0.017639942 -0.00988929 0.042858794 0.027975138 -0.12249836 -0.14457816 -0.1653073 -0.11505253 -0.015194994 -0.11336434 -0.020724485 -0.13849218 -0.17377834 0.07308258 -0.045944497 -0.08173927 -0.10737086 0.04431745 0.13950484 -0.038293533 -0.01954244 0.10917704 -0.1790305 0.19348826 0.24740441 -0.27560467 -0.0414689 -0.062192373 -0.061443396 -0.044631623 0.0011800957 -0.033550773 -0.12902373 -0.0722968 0.039269846 -0.16713974 -0.28164357 0.14451846 -0.11109965 -0.1055793 -0.0970214 0.035103574 0.19914645 0.011418665 -0.15951566 -0.14727053 -0.038399514 -0.024859281 -0.17018105 0.08394795 -0.1066182 0.15134422 0.18407734 -0.022811458 0.04591112 -0.12639359 0.065362126 -0.054789986 -0.10412777 -0.009025119 -0.07893872 -0.05204005 0.027883217 -0.07398893 0.12401367 -0.21042174 0.12770359 -0.16703942 -0.093933746 -0.11128227 -0.07609124 -0.036324758 0.061849397 0.117060564 -0.030375654 0.021184387 -0.08798046 -0.10427401 -0.11313323 -0.041793257 0.026974458 -0.18916744 -0.0026214905 0.15361658 0.11420496 -0.05650455 -0.13767321 0.04278432 -0.2213838 0.1069557 -0.016762989 0.21920466 -0.17791292 0.061186925 -0.08017938 -0.06876898 -0.18248248 -0.03141858 0.053842448 0.17117879 0.06431046 -0.11689583 -0.13043518 -0.211251 0.08088458 -0.109329954 0.14470844 0.055266023 0.023217643 -0.023813112 0.06756415 0.00041699084 -0.034907475 0.07161433 -0.012383336 -0.07781962 0.061996512 -0.0043846844 0.04957535 -0.049914185 -0.11055302 0.19015126 0.14977255 0.158005 -0.055703152 -0.062164154 -0.021379873 -0.12215195 -0.15630752 0.121978745 -0.049633246 0.20018964 -0.15620121 0.017150972 0.06986561 -0.095325544 -0.08399721 -0.120144315 0.11988998 -0.07527659 -0.019253513 -0.11657656 0.15585652 0.11612326 -0.001144596 -0.11340104 0.15560478 -0.034579318 -0.10850663 -0.17419773 -0.06422857 -0.14541356 -0.051923018 0.119902276 -0.019976215 0.10519559 -0.10210617 0.00842208 0.03146448 -0.10654704 -0.08537223 -0.27537942 0.08940833 -0.065105185 0.07681774 -0.08990374 -0.08438596 -0.045242805 -0.09752416 0.078243546 -0.122156784 0.07720341 -0.05867342 0.04182949 -0.046031937 0.0056321574 -0.10545552 0.026769593 0.006432663 -0.052001502 -0.0034889164 0.015414331 -0.061267786 -0.012825769 -0.10694609 0.26827687 0.123475686 0.096935645 0.1516324 -0.17368813 -0.34411168 -0.040829398 -0.13488308 -0.034884814 0.021396905 0.09541123 -0.10837212 -0.03647495 -0.14425072 -0.0031099569 -0.053736355 0.0820227 -0.05660918 0.17682815 -0.09096197 0.07923848 -0.0057994467 -0.03213973 0.065245375 -0.027903453 -0.26418307 -0.30427337 0.1292563 0.12504002 0.18890116 -0.0015854265 -0.14247768 -0.034024954 0.009685071 -0.033688843 0.19045345 0.27889273 0.03200944 0.055785783 -0.103323385 0.12590492 -0.017686635 -0.07848295 -0.012055145 -0.11173318 -0.08589838 -0.2284726 0.08830034 -0.06146649 0.08617579 0.00045797357 -0.022066833 -0.12118167 0.076143034 -0.08694927 -0.046628382 0.0021185977 0.014136285 -0.16859563 -0.021066692 0.081536874 -0.03766644 -0.022305747 0.0030262698 -0.0046626506 -0.103966 0.04663058 0.11454238 -0.029152755 -0.1116457 -0.102392465 0.06636205 -0.037487134 -0.09562409 -0.008873311 -0.15208393 -0.22209917 -0.28382266 -0.1871906 0.0603192 -0.10106445 0.016918132 -0.06305858 0.06750647 -0.10255812 0.004090194 0.005919691 0.2347946 0.065056376 -0.057276547 0.070518754 0.21583152 -0.16094954 -0.08408087 -0.02352233 -0.05029503 -0.043686803 -0.13587417 0.2239855 -0.11218935 0.040786915 0.043288503 0.011044968 -0.13285242 -0.15375876 -0.013435759 -0.1298795 -0.08391704 -0.23887686 0.059461668 -0.02783533 -0.056676507 0.08925449 -0.10111779 -0.085082375 -0.06322331 -0.019202556 -0.008929093 -0.08290243 -0.20034435 -0.054079045 0.037996422 0.015639719 0.121969305 0.22769947 0.106237784 0.16855651 0.09596961 0.1735304 0.18259872 0.13791372 0.08212362 0.052091703 0.019819282 0.032072727 0.061577678 -0.082700014 0.040902086 -0.16984347 0.12495596 -0.06859247 0.06404299 0.20729282 0.0749256 0.18151815 -0.11449592 0.26202786 0.11306699 0.05110739 0.17281239 -0.08655907 0.0032395553 0.1464391 -0.18469195 0.058059633 0.05523147 0.19893666 -0.15812849 0.16113016 -0.06679195 -0.09714965 -0.154088 -0.08253586 0.042688772 -0.08591987 0.09695085 0.04566966 -0.1346886 -0.08240959 0.06531476 -0.018353952 -0.022077432 0.013987112 0.14067143 -0.01526718 -0.0866076 0.0115690995 0.03698043 -0.16996378 -0.13627778 -0.060110997 -0.020614794 -0.07593605 0.07266817 -0.15849926 -0.1559578 -0.031374972 -0.015551407 -0.14478008 -0.060507514 -0.03993702 -0.052785918 -0.03705983 -0.07905868 0.11182933 0.077167474 -0.027954567 0.074674316 0.10159005 0.16435596 -0.04771041 0.16792199 0.059909567 0.19163209 0.13143809 0.049597066 0.007721792 0.17733905 0.07418654 0.18689571 -0.009047321 -0.083724916 -0.034153756 -0.12113622 0.055823274 -0.08136639 0.11182868 -0.12727943 0.014738021 0.11703623 -0.2145404 0.20199361 -0.04236116 0.0006534108 0.0095250895 0.04925113 0.034258835 0.139441 0.122489505 0.23921785 0.14875437 0.23934732 0.10243584 -0.11415323 0.3168347 -0.009839816 0.2146667 0.032578412 0.23295936 0.02343043 0.1699006 0.005851767 0.14100607 0.00070610235 0.105401896 -0.21624063 -0.00838987 0.041689675 0.024375387 0.09812958 -0.03457657 0.0068925903 0.11970355 -0.22770184 0.059102412 -0.042910643 -0.14046492 -0.0158981 0.121925555 0.105475925 0.058421325 0.15263794 0.22143391 0.03566797 -0.07607273 -0.023901165 0.09168524 -0.0028428985 -0.030865235 -0.07290422 0.1553876 0.012169257 0.068382084 0.15070248 -0.14411159 -0.019788388 -0.004148255 0.03814165 0.124083385 -0.13136461 0.05899365 0.105166234 -0.016623802 -0.011730831 0.043858793 0.036495563 0.060249116 0.058141906 -0.12094974 0.035449658 0.13321482 0.041176166 -0.10970006 0.120865345 0.18097614 0.02579026 0.049381632 -0.016345916 0.184343 0.17301212 -0.008161764 0.22670561 0.11851695 0.08486307 0.030755695 -0.14538066 -0.06257553 -0.056922223 0.0038963838 0.016809735 -0.01705809 -0.0403181 -0.033126473 0.2527859 -0.07505866 -0.053783346 0.33139884 0.044115186 -0.13598399 0.08628257 -0.14995277 0.031957384 -0.0045598308 -0.02141166 0.24366795 0.1997141 0.22653343 0.20502758 0.046070125 0.19084552 0.24965432 0.17500933 0.37172368 0.22837551 0.14647254 0.044945635 0.07590104 -0.21097288 -0.004959357 0.0665128 -0.039594658 0.035781555 0.0041446243 0.079383045 0.068325095 0.018729214 -0.12397356 0.19182001 -0.0014414269 0.0046590343 -0.02150444 -0.036093444 0.16715354 0.15135217 0.057187065 0.0019976601 0.07465951 0.020127356 -0.0062745977 0.046558317 -0.03136805 0.037974168 0.033169836 0.073041305 -0.04916597 0.08376135 -0.07788344 -0.04450894 -0.040144783 -0.09445746 0.11431393 -0.08415754 -0.057143908 0.13828851 -0.044310547 -0.006066574 -0.088455185 0.09604283 0.09742133 0.086642295 0.06650069 0.020106569 -0.039689943 -0.06874922 0.14173828 0.08922814 -0.05658269 0.01673083 -0.017263845 -0.10007337 0.030512802 -0.028801601 -0.08250596 -0.13516553 -0.14363262 -0.024394963 0.0042381827 -0.07478237 0.07782166 0.006193028 0.07043624 -0.005543382 -0.06596406 0.024159402 -0.11351973 0.06669156 -0.08096722 0.104570955 -0.021097928 0.11900106 -0.0995146 -0.055029258 0.05084122 0.12979758 0.17940862 -0.06686688 0.1440072 -0.04625552 0.07053924 -0.1503554 -0.06300935 -0.38567936 -0.261256 -0.13831581 -0.2606553 -0.037530717 0.0104201455 -0.111917995 -0.218944 -0.095486425 -0.116439134 0.02045554 0.04504861 0.034632802 0.21611942 -0.10174301 0.15189105 -0.091376215 0.020025417 0.13105826 0.12588346 -0.029278137 0.06825468 0.054865632 -0.040708385 0.07391677 0.19857115 -0.01936635 0.021000745 0.057417277 -0.18335535 0.02393529 -0.20235611 -0.21473482 0.07424588 -0.11232136 -0.1610124 0.028800951 -0.18122458 -0.131737 -0.037228797 -0.10245284 -0.21114568 0.08573063 0.0223627 0.2519658 0.007990167 0.087795965 0.19031754 -0.072772555 -0.0069995634 0.051184274 -0.07298687 0.03977724 -0.009744341 -0.011759074 0.017215574 0.019448224 0.028709833 -0.12684481 -0.09115211 -0.021657063 -0.041733682 -0.06597206 -0.068286136 -0.33722225 -0.21499477 -0.114987954 -0.17206842 0.07549877 -0.085534744 -0.069318205 -0.21045694 -0.1083075 -0.17651133 0.014349984 -0.03169154 0.070239685 -0.18738288 -0.13012694 0.15871458 0.095361546 0.14422587 0.15109406 0.080046445 -0.032539144 -0.090977386 0.12742218 0.01877855 0.2617242 -0.02418804 0.17204843 0.004035514 0.12770508 0.13472584 -0.14638294 -0.039999075 -0.19043328 -0.19192106 0.035840936 -0.030060481 -0.003450596 0.0040105595 -0.23683053 0.07698471 -0.07974802 0.05266347 0.1261286 0.20820639 0.089357644 -0.110388234 0.0143470615 0.032392424 -0.091104314 0.027070828 -0.023780083 -0.12152769 0.0798962 -0.043624792 -0.027890269 -0.03297235 0.13586973 0.00823013 -0.035327647 -0.06858332 0.01709844 0.0945273 0.059133813 0.10464011 0.041982435 -0.15432633 -0.067172 0.0024723685 -0.05281022 -0.109291896 -0.21443366 -0.1577345 -0.04967161 -0.003689311 -0.032312144 0.053809106 0.04033015 0.17385055 -0.016627444 0.08195486 0.03264311 -0.12788516 0.0032559389 -0.110814705 0.0019355909 -0.061765324 0.050944027 -0.12095009 0.013791941 0.069563314 0.07502732 -0.08365802 -0.0246034 0.0048271497 0.20766293 -0.053248417 -0.015657734 0.34777543 -0.0028148734 -0.17824161 -0.023874205 -0.19983448 0.08115677 0.091226004 -0.09615522 -0.00843308 0.1419934 -0.14795463 -0.11071619 -0.000102173464 -0.048103526 -0.017064936 -0.1140532 0.033753075 -0.002175633 0.067666754 0.03278767 0.03341673 -0.131883 0.0625447 -0.020764876 -0.004338092 0.08669974 -0.07926394 0.12303099 0.13747858 0.124041975 -0.008871313 -0.13915625 0.16401085 0.035569724 -0.08159892 0.1391664 -0.043806426 0.00800466 0.13339081 -0.06478879 0.009503489 0.12876183 0.024197616 0.1227331 0.12797731 0.024484258 -0.22660905 -0.09825546 0.08865518 -0.1422774 -0.019921605 0.046595786 0.1597048 -0.044754244 -0.051601045 0.0070771724 0.047413044 -0.033551373 0.09760645 -0.08831884 0.005047266 0.093284816 0.03997376 0.15416443 0.06787732 0.10944968 0.017927246 0.059450634 -0.020889735 -0.0126568945 0.21319227 0.12811917 -0.08744102 0.03233855 -0.24414156 -0.059403565 0.11125778 0.011733677 0.018856274 -0.28931627 -0.026903603 0.046574946 0.05927671 0.10898328 -0.008278083 -0.003817895 -0.12046419 -0.007166663 -0.11287219 -0.21488656 -0.12582064 0.14463131 -0.030204624 0.04629179 0.044838786 -0.0950542 0.15600196 -0.20594478 -0.037011962 0.07652691 0.10654491 -0.016630823 -0.08690977 -0.03158009 -0.10124351 -0.09910164 0.06578198 -0.14136648 0.045252856 0.031016275 0.09386643 -0.0009914333 0.091434866 -0.0044743214 0.056186978 -0.13754638 -0.25108033 0.05050241 0.055866037 0.060835768 -0.057204485 0.11887254 -0.063290596 0.034886867 0.055351336 0.19617774 0.06448551 0.018681632 -0.08518088 0.13075943 0.022662152 0.089298666 0.35717067 0.050524604 -0.07134155 0.043333482 -0.12384595 -0.06137914 -0.0714829 -0.078708574 -0.13953158 0.17443724 0.027705843 -0.0092617255 0.089049146 0.05985445 0.040316824 0.08124752 0.026141126 0.07976985 0.08541435 0.02691276 -0.021555092 0.12263792 -0.039450057 0.06775842 -0.07109508 -0.10958009 -0.10085556 -0.15042949 -0.20388308 -0.34572357 -0.2131063 -0.06502432 0.047617234 -0.03407748 -0.31290913 0.05486318 -0.14580634 0.052417614 0.0048723277 -0.015953422 0.0005876836 -0.012314593 0.12961704 0.008137073 0.12130132 0.1067383 0.07945226 -0.16591415 0.12441097 -0.033042405 0.08432044 -0.087150164 -0.11891336 0.16688451 -0.09817616 0.13318583 -0.08993602 -0.121255234 -0.065960385 -0.27168515 -0.15702859 -0.23661755 -0.16618071 0.017522532 -0.067816794 -0.25510183 -0.03961596 -0.1655351 -0.19114654 0.13136771 -0.010422708 -0.12892564 0.20065115 -0.011800904 -0.01296208 -0.030407425 0.13074434 -0.039740127 -0.14175025 -0.05512006 0.1454252 0.09596093 -0.012753887 0.14742856 0.07438827 -0.059094425 -0.019068839 0.038491536 -0.12791727 -0.04930032 0.063565336 -0.122190684 0.034119215 0.041891024 0.040746033 -0.19391745 -0.065846875 -0.037357733 0.09117289 0.013438062 0.13743672 0.169343 0.05053934 0.10711143 -0.019764401 0.075639576 -0.13804324 -0.06962189 0.058316715 0.13532342 -0.20744912 0.15019485 -0.0012658419 -0.17563976 -0.2874253 -0.14283556 0.015620191 -0.039025288 0.060842283 -0.045903392 -0.18693002 -0.041462667 -0.0070124455 0.084701456 -0.019149836 0.090047866 -0.16700472 -0.15017912 -0.11744668 0.0882407 0.00366657 -0.076923184 0.032379348 0.24103428 0.039611388 0.17613235 0.1272594 -0.062855 0.005650344 -0.11616157 -0.007879754 -0.049871325 -0.02754093 -0.062241808 -0.01596202 0.0659709 0.0007984861 -0.17368959 -0.05702144 -0.18437555 0.030517038 0.012773382 -0.06955162 -0.08120973 0.06091559 0.047754426 -0.09266999 0.090821154 -0.0015344798 0.05779613 -0.09242555 0.11792725 0.01865806 0.13809581 -0.043228053 -0.02435989 -0.25277993 -0.072944336 0.030116023 -0.04329591 0.17860553 -0.10415378 -0.043743655 -0.07773955 -0.043629974 0.11588901 0.1605509 -0.05733153 -0.059552986 -0.10296516 0.14821917 0.07966509 -0.0044871466 -0.19173357 -0.20559548 0.02714778 0.12763116 -0.12104517 0.030651983 0.2291274 -0.07055735 0.1629818 0.07228092 -0.04953061 0.0630643 0.071088105 -0.12985441 -0.15938757 0.112353735 -0.12249243 0.062342484 -0.02332521 0.0010638091 0.068277314 -0.047241397 0.06953816 -0.19189523 0.05671846 -0.23410527 -0.009936985 0.09817201 0.07497725 -0.112250395 -0.14993908 -0.11198539 -0.0335022 -0.28672993 0.003511532 0.10373746 0.028565785 0.11838088 0.08999295 -0.05189488 -0.15139413 0.098757975 -0.024135351 0.017063545 0.08177469 0.11422022 0.012059296 -0.009886281 -0.20592222 -0.020948835 0.01433267 0.12865727 -0.041952886 -0.0115492875 0.11862916 0.003544301 -0.098136425 0.2679108 -0.095111564 0.006277675 0.047192466 0.044128183 -0.051947553 -0.07239958 -0.08011466 -0.17952286 0.21267468 -0.011438151 0.109884575 0.027780728 0.07204514 -0.035494212 -0.12917267 0.036109246 0.04241003 0.1293605 -0.15247636 -0.08257725 -0.05042074 0.10478189 -0.1560453 -0.036033917 0.11733942 -0.0088777635 -0.12581214 -0.12402502 0.09872411 -0.11331168 0.051950384 0.024182554 0.050460972 0.059906203 -0.08114557 -0.07767468 0.03851952 -0.12938872 -0.29733327 -0.0030537534 -0.10222359 0.055281978 0.18923807 0.051331982 0.15354754 -0.05288422 0.12282958 -0.10877387 0.030106826 0.06192175 -0.041670177 0.14374132 0.0031896252 0.1796482 0.15341936 -0.06660251 0.08117919 0.1249013 -0.1068508 -0.11880953 0.13838963 0.040146593 -0.009902839 0.01386001 -0.22585641 -0.006308534 -0.063083164 0.11168531 0.09437738 0.00921045 0.01722736 -0.21766405 0.06211347 0.10241826 0.12384223 0.22195208 -0.15981995 -0.09764954 -0.1491272 -0.04642027 -0.07325085 -0.10532526 0.033281285 -0.14519678 -0.096188605 -0.119302064 -0.09483344 -0.21766876 0.022025729 -0.008499204 -0.06678257 0.09976708 0.0067976303 0.119012445 -0.006757291 0.010328181 -0.043530516 0.01204302 0.08309207 -0.029264625 0.060858984 -0.105678454 0.06840081 -0.12173336 0.1043506 0.04167598 0.19943921 -0.07069343 -0.095013045 -0.11969322 -0.16589539 -0.20923348 0.032429833 -0.07516088 -0.1377518 -0.10504643 -0.046605393 0.15643169 -0.14964813 -0.23123138 0.11751157 -0.0016975455 0.21574633 -0.040230125 0.09734613 0.12096745 -0.03938586 -0.061544333 0.086884364 0.07023691 -0.12919205 -0.10097463 -0.24462509 0.035134785 -0.06798687 -0.05211045 -0.17343165 -0.08098642 0.057906803 0.04730753 0.10787262 0.047884062 0.2620282 -0.032567352 0.12986402 -0.09638369 -0.18619582 -0.09862486 -0.156817 -0.0851121 -0.15414293 -0.2944454 0.21150897 -0.033878095 -0.15189297 0.10220764 -0.060113627 0.12176432 -0.0605916 -0.041342046 0.047230896 0.07206963 0.08871731 0.002894736 0.064524114 0.09897044 -0.025662929 -0.0072945175 -0.09832501 0.106095485 0.09737497 0.06773139 0.16180465 -0.21752034 0.07455833 -0.08145237 0.023742052 -0.06492053 -0.20105286 -0.11837192 -0.0014068879 -0.030481944 -0.03433231 -0.27611938 -0.116259634 0.22508 -0.09738466 0.1545739 -0.08079419 -0.0054978933 0.07526854 -0.06927174 0.17196925 0.03289115 0.07052461 -0.0023212193 0.0794168 0.17947376 -0.0614419 0.14867406 -0.059141915 0.15283136 0.1674295 0.0030588899 0.12147797 -0.061339635 -0.1260647 -0.07395331 -0.00027366212 -0.009745344 0.008697648 -0.08505264 -0.037419427 0.01626629 0.040175274 0.34952623 -0.10486523 -0.026024919 -0.026134698 0.22848858 -0.10682837 0.055339955 0.037587132 0.046107955 0.13638204 0.1343307 -0.033226915 0.031270623 -0.18543622 0.009112452 -0.08980387 -0.07019493 -0.19923009 0.116763465 -0.041198168 0.1148883 -0.051948782 -0.10848573 0.1249572 0.025872137 0.13791044 0.14034428 -0.121556096 0.09863036 -0.22929011 0.07043155 0.03379642 -0.010040015 0.090634555 0.09637623 0.103395775 0.033354845 0.025810188 0.06543432 0.04312414 0.066883266 0.033147693 0.09680204 -0.15085183 -0.001258499 -0.13322398 0.02722587 0.19798402 -0.22421798 0.047716808 0.11412426 -0.037188694 -0.013896488 0.07451827 -0.33843565 -0.14488281 0.09479186 0.13263479 0.044085007 0.08550619 -0.057553407 -0.0016241408 -0.10372554 0.024460142 0.025018333 0.14974675 0.15403749 0.14986023 -0.02894207 -0.08298694 0.1404451 0.06713843 0.04560616 -0.05061549 0.05509003 -0.09665887 0.075275175 0.14304934 0.16530475 0.0811738 -0.2383699 0.054509852 0.2753763 0.05069661 0.033622023 0.17941947 0.012977361 0.20637442 -0.08858088 -0.028644653 0.105430245 -0.12230142 -0.13131766 -0.044363607 0.0318647 0.1190115 0.13396202 -0.016844658 0.12338147 0.41445106 0.08099715 0.022357667 -0.11703859 -0.05100043 -0.008623332 -0.0407123 0.010861884 0.18967056 0.13658567 0.0020393971 -0.11466042 0.1402618 -0.065405205 -0.22552274 0.09595335 0.1822081 -0.20384912 -0.026505593 -0.083277136 0.017780121 -0.08495765 -0.03299155 0.043224793 -0.018876432 0.045585204 -0.15976785 -0.10172131 0.024687007 0.083018996 0.10311049 -0.059174668 -0.06764159 0.14794084 -0.1398261 0.13789381 0.1447982 0.098756656 -0.05603305 -0.06890467 -0.0082578845 -0.11675629 -0.08342169 0.08278181 0.06369552 -0.16338095 0.047532752 0.004526526 0.16113882 0.04662865 0.066184975 -0.07268578 -0.008728938 -0.24844867 -0.060455367 -0.052179202 -0.048588257 0.041166294 0.13203277 0.0061621196 -0.05042288 -0.116455674 0.08447045 0.047721006 -0.08911368 -0.006621058 -0.16158223 0.016284721 -0.0070903054 -0.044698972 0.17120776 -0.10286771 0.083387 0.23141855 0.1204745 -0.0017487688 -0.11200156 -0.19462967 -0.061234526 -0.08949888 -0.1313201 -0.13253662 -0.02050971 -0.033876453 -0.1925056 -0.14996564 -0.026252208 -0.04376176 0.23816136 0.038381655 -0.12948166 0.050500277 0.06640014 -0.07886516 -0.13178709 0.1885532 -0.09424068 0.07882492 0.032752767 0.072828755 0.18343353 0.04428456 -0.06774571 0.09871995 -0.07498922 0.0044764737 -0.14118774 -0.115207404 -0.0067406613 0.024929343 -0.18211845 0.03784941 -0.09382218 0.11608952 -0.04707577 -0.12424151 -0.0042988732 -0.10350278 0.11501524 -0.011826301 -0.02704699 0.04730078 -0.11237402 -0.14079475 0.028955836 -0.12184635 -0.12188029 0.07179632 0.040627085 -0.13726234 -0.07379289 -0.10225244 0.16575254 0.07872176 -0.05396381 0.045740142 -0.147498 -0.0791439 -0.0013930002 0.033343747 -0.02162524 0.012922028 -0.004045683 -0.028237067 -0.041493885 -0.054505818 0.011314428 0.029202243 0.007956595 -0.12973909 -0.11177207 0.028008854 0.13528794 0.0033622182 -0.053046167 0.0105547225 -0.12556136 0.11901504 0.00678009 -0.078825004 -0.028558873 -0.06458291 0.119287714 -0.03210334 0.0036572514 0.04549332 -0.08595594 0.007491622 0.015564231 -0.16728726 0.014023529 -0.014373331 0.004518192 -0.0023872645 0.01929068 0.12404101 -0.12768199 -0.043996703 0.05690535 0.03871942 0.03669246 0.2661104 0.052170377 0.10349852 -0.04075047 -0.10932839 -0.04067629 0.06510729 0.03439426 0.03189586 -0.032400176 -0.049259588 -0.02986505 0.060568213 0.072193466 -0.11250345 0.06435498 -0.07695141 0.03501284 -0.03104858 0.14482534 -0.05356114 0.0066511002 0.051270656 -0.09325622 -0.012760761 -0.03183528 -0.05968293 -0.05312767 0.10201945 -0.06895042 0.047545504 0.022391498 -0.14876589 0.042821657 -0.15055302 0.053527065 -0.05982901 -0.0072268825 -0.13449602 0.0067820637 0.08580375 -0.09149025 -0.07259599 0.033708423 0.036208153 -0.25517073 0.18966125 0.040976025 0.05781254 -0.026233371 -0.19728887 0.055718526 -0.06827247 0.043308757 -0.031268783 0.017943958 -0.08297556 0.081262276 -0.12713964 0.21540168 0.214613 0.15417464 0.1184799 -0.017424462 0.1076851 -0.018712945 -0.16455345 0.14103828 0.10377259 -0.01119753 -0.12758644 -0.06407631 -0.18900895 0.08371438 -0.1720844 0.016929423 -0.096123 -0.15442386 0.011956188 -0.045259267 0.07193963 -0.13863991 -0.087485135 -0.25051716 -0.23018818 0.16838406 0.19889586 0.003662795 -0.08750872 -0.034785125 0.08152972 -0.05894393 0.013995127 -0.011439455 -0.06701697 -0.06284092 0.019493647 -0.10780244 0.03515047 -0.056846734 0.0053666634 0.13240272 -0.021938914 0.08638182 -0.18630035 -0.05818836 -0.008984791 0.18057956 -0.20774873 -0.02137465 0.1337895 -0.090381324 -0.033163227 0.021294573 0.0065988232 0.14482354 0.033093702 0.12151149 -0.045172777 -0.07938344 -0.027295792 -0.120540366 0.04242837 -0.046356175 -0.07718033 0.039203335 -0.12520158 0.06626446 -0.058439538 0.10538234 -0.049937613 0.053135525 0.010151593 0.06788281 0.0054489095 -0.1725261 0.09352101 -0.01984906 0.067197934 0.057270966 -0.08908332 -0.10323321 0.053656183 -0.04220423 