1024 64 26
0.04544328 -0.08902679 0.09001674 0.10902809 -0.18013194 -0.11524633 0.027755609 -0.01665269 0.013291458 -0.07033277 0.10291142 0.09275082 0.021574639 0.1276957 0.061722506 -0.07095762 0.05184665 -0.080916636 0.10281665 0.009978988 -0.0035146805 -0.05312138 0.13722572 -0.00048138574 -0.027861213 -0.020241788 0.06820254 0.051515978 0.056244835 0.058053672 0.22913635 -0.025669936 -0.0362527 -0.066405654 0.076569565 0.12786883 0.0035768095 -0.069044024 -0.0674765 0.0800309 0.08929704 0.06928705 -0.051579393 0.038187705 0.026640149 0.036840435 0.1021145 0.03733113 0.08286298 0.021729477 0.043883514 0.07810044 -0.130744 -0.016995555 -0.032065693 -0.04891621 -0.012542652 0.16446571 -0.071611494 0.111799456 -0.1533154 -0.018516937 0.031246876 0.07359385 0.08609428 0.09430634 -0.019900938 -0.031263605 0.10076921 -0.0073681483 -0.11652337 -0.10539182 -0.08381403 0.05745886 0.026372178 0.081756935 -0.029616738 0.028420685 0.075058326 -0.01826221 0.058349993 -0.053520128 -0.023597075 -0.025705455 -0.106856816 0.06065158 -0.037333082 0.009362694 0.05684681 0.0565088 0.081510134 0.0051230057 -0.027358258 0.006999734 -0.15376186 -0.12973966 -0.11729835 -0.08475306 0.054850075 -0.075675175 -0.0229436 0.14168513 -0.02502463 0.08195561 -0.08564941 -0.013237292 -0.0831736 -0.02114604 0.09712913 -0.16005953 0.056114834 0.036347125 -0.046841428 -0.13193327 0.019921264 -0.040911082 0.03484098 0.011627308 0.16711298 -0.016508954 -0.0938063 0.029782524 0.036971245 0.15079147 0.09838385 0.050559763 0.16130187 -0.10390469 -0.049003582 -0.077685975 -0.024108319 -0.12279578 0.07838783 -0.010558866 -0.13647893 -0.09335385 0.03906374 0.091119215 0.2115013 0.30414364 0.05453931 -0.086281344 -0.20063108 0.039344713 -0.06872063 -0.028863309 -0.048501246 -0.0020408938 0.11817133 0.025146928 -0.008928596 -0.096138634 -0.15892445 -0.03677583 0.009494427 0.19166571 0.027900109 0.11314668 -0.034957986 -0.103522755 -0.081540056 -0.05755103 0.2277197 -0.067265935 0.09872165 -0.07608764 0.10394344 0.046621308 -0.008084411 0.0033512935 -0.056934524 0.05660999 -0.031152358 -0.10774182 -0.11286285 0.031047177 0.17110156 0.029499166 0.001264346 0.04054095 0.13965333 0.02883684 -0.034257974 0.1188694 0.052664343 0.1659026 0.03319611 -0.10757417 -0.121943116 0.17996551 0.18733816 -0.0029803608 -0.02334716 0.16111602 -0.09583184 -0.074599974 0.07920541 -0.025191614 0.010126743 -0.008580935 0.041386604 0.1483173 0.017602736 0.07740834 -0.18943319 0.010820883 -0.06866923 -0.10716839 -0.07376219 -0.019150686 0.10579005 -0.1193831 0.013251823 -0.04079545 -0.025145812 0.109087296 0.063508384 0.14606681 -0.00057789194 -0.054721612 -0.0075132106 0.039122332 0.032628924 -0.09346718 0.024020547 0.037794407 0.26661974 0.20255718 -0.0704516 -0.014470176 -0.13520809 -0.051637184 0.039346863 0.1280907 -0.064276084 -0.052302077 -0.1994501 -0.0011095547 -0.09142133 -0.038342793 -0.07308493 0.0053939717 -0.1617186 -0.13447778 0.22304547 -0.12096815 -0.10182316 0.19258152 0.30004817 -0.10281307 -0.02195224 0.049028207 0.18774249 -0.08371408 -0.009556211 0.09270538 0.05844818 -0.022644037 0.0014903798 -0.12261677 -0.008944699 -0.014777678 0.031946156 -0.04717384 0.054880314 0.10877696 0.024175866 0.04796624 0.02033162 0.015068095 -0.057335574 0.04625057 0.0044290414 0.2234607 0.17116103 0.051706027 -0.06820152 -0.10281263 0.12741318 0.03516512 0.05755602 -0.1625222 0.10499843 0.06031469 -0.096170336 -0.03218091 0.041343294 0.020218248 -0.014245543 0.004622726 -0.010226164 0.03012891 0.1620219 -0.2448047 -0.01495587 0.02621161 0.03732586 -0.029686162 -0.16693634 0.045789592 0.18745065 -0.13882634 0.10080202 -0.018251358 0.008025274 -0.09114609 -0.01962008 0.14306204 0.06677077 0.18206057 0.12604007 0.052798864 0.18383648 0.055736933 0.0950534 -0.01478442 0.021527236 -0.054770805 0.11393002 -0.102858745 0.09320666 -0.004093547 0.13209629 0.08995963 0.19693734 0.084727496 -0.14670914 0.0027976795 -0.109040126 -0.04366732 0.16023788 0.074659236 -0.05967914 -0.08679669 0.017551871 -0.1079066 -0.05318927 0.044943746 0.12885685 0.071871184 -0.22092147 0.039180044 0.016157432 0.05034309 0.171064 -0.19463798 -0.04685581 0.07396337 -0.14328672 0.16256648 0.051807236 0.09963002 -0.042122792 0.09634799 0.12181877 0.038160454 0.038376607 0.038684364 -0.07583954 -0.0052598636 -0.0070915744 0.046500053 0.10909735 -0.094947755 -0.0022869608 0.16279994 -0.06000578 -0.0683962 0.03423472 0.0982607 0.014547665 0.14389122 0.093886435 0.09292538 0.064365685 0.24171938 -0.011073359 -0.18866639 0.17268005 -0.030897293 0.025660703 0.14592665 -0.14525437 -0.110193096 -0.1451562 -0.06444201 0.05875029 0.067106605 0.042378332 -0.12962656 -0.22159721 0.01457262 -0.04616853 0.046941895 0.072882146 0.019766172 0.08257135 0.033649873 0.06292958 -0.061001576 -0.008833376 0.028929852 0.08840823 -0.03198758 0.058148343 -0.020994812 -0.0064835367 0.09147096 -0.188205 -0.118806124 -0.13614893 -0.21857494 -0.052854866 0.089915015 -0.013516828 0.034750577 0.12389337 0.1477402 0.008057763 0.15014526 0.024062391 -0.0720898 -0.04936315 -0.13964245 -0.08600764 -0.03323172 0.084553525 0.17951661 -0.13275136 0.047450744 -0.09558862 0.05537692 -0.005367476 -0.17562187 0.09874472 -0.057797566 -0.0500701 -0.09961538 -0.057123873 0.056344528 -0.007672566 0.04370735 0.048261825 0.14685284 -0.019307049 -0.1327142 0.121693864 -0.01817725 0.12643081 0.053309284 0.0018578054 0.049664218 0.20995106 0.21916313 0.017015016 0.024624802 0.110623576 -0.0805861 0.03745161 0.009475759 0.042841956 -0.07112607 -0.14654179 -0.19544196 -0.100048 -0.03316104 -0.023766814 0.19710745 0.11598894 -0.08966674 0.045740467 -0.026556674 -0.017184503 0.029373683 0.07398679 -0.018954283 0.12135678 -0.0992222 0.015605481 0.27473867 0.037279546 0.15829304 0.024123585 0.07286435 0.009107579 -0.0055756303 -0.06787135 0.052620888 -0.07881278 0.0731893 0.11210085 0.046381406 -0.018313006 0.05201918 -0.023787089 0.10450729 -0.17218794 -0.02531224 -0.1924874 -0.1448632 0.13964523 0.09566224 -0.06163728 -0.13677388 -0.28520185 -0.04350916 0.25411046 0.05846 -0.040985655 0.061479595 -0.14112425 -0.014760762 0.024919314 0.0063614915 0.09405223 0.049436096 0.08161856 -0.057372127 0.09985843 0.17309286 -0.090283595 -0.082138784 0.13654353 -0.009879968 0.15045637 -0.035778936 0.1520767 0.023976479 0.036249015 0.1658827 -0.029044501 -0.08697722 -0.03776308 0.051766425 -0.14633249 0.075577095 -0.042810876 0.1256216 -0.2273572 -0.063684955 -0.15367523 -0.067651324 0.03973816 -0.0029511028 -0.010366183 -0.00094692706 0.035310395 -0.085881986 0.08547092 0.077731684 0.048580676 0.06577355 0.036654763 0.21027686 -0.002640291 -0.018359497 -0.0640108 -0.09265949 -0.11413262 -0.07727329 0.0035110998 0.042058095 0.01409272 -0.066707455 0.09799535 0.082942784 -0.0025977571 -0.053525455 0.06399562 0.030297508 -0.1327439 0.00817353 0.041175153 -0.07499786 0.033955913 -0.13051066 0.14859019 0.13976657 -0.010280157 0.051317006 -0.2262064 -0.104070805 -0.019406522 -0.097093105 0.07898164 0.2067586 -0.11169119 -0.07095213 0.035751406 0.17167827 -0.112707995 0.037374564 0.19181505 -0.15525228 -0.11792242 -0.036027905 -0.045195226 0.09015931 0.03719623 -0.16596805 0.06069394 -0.046253763 0.13979743 -0.04778718 -0.048689958 0.069084786 0.09126427 0.05978151 -0.15358815 0.068775065 -0.088459186 0.036092136 -0.1299947 0.056196187 -0.07062864 -0.118132934 0.077626385 0.031531908 -0.053194687 0.15850915 -0.032311227 0.012476283 0.036185745 -0.048600875 0.058556028 -0.043641333 -0.033546586 0.14429875 -0.095894024 -0.22764935 0.17290753 0.26548636 -0.0326682 -0.18218368 -0.018695692 -0.016057806 -0.0064278943 -0.09636718 0.07292773 0.06742236 -0.13446897 0.0848913 0.22024009 0.029760523 -0.021168755 -0.002636312 0.07145767 -0.16370378 0.02268351 -0.031874478 0.1936532 -0.0066427975 0.1738098 -0.10340161 0.06647877 0.038950015 -0.08075825 0.02382694 0.12832361 -0.025748907 -0.15619674 0.013134621 -0.07815367 -0.023431867 -0.00012475225 -0.15946592 -0.14921312 0.060771212 -0.03970734 -0.24150285 0.09345602 0.04220855 -0.056415908 -0.11671141 0.09855241 0.04749959 0.2508239 0.053518977 0.048638407 -0.0073294532 0.087921955 0.06890157 0.13267551 -0.043714523 -0.037585802 -0.04254761 0.08514782 0.15568247 -0.04092099 -0.035907824 0.038092025 -0.017365776 0.1047084 -0.21099828 -0.07091023 -0.06743931 -0.22400118 -0.085264616 -0.079162866 -0.0075459876 0.12386116 -0.009534492 -0.088109754 0.009276124 0.11988898 -0.08262426 -0.076085865 0.068419464 -0.009589126 0.0764596 0.008353142 0.0793798 -0.09726344 0.0050264653 -0.013965979 -0.11094437 -0.14610574 0.076466836 -0.026626388 -0.09318891 -0.0002530829 0.123175636 -0.22081786 -0.14240412 -0.08039553 0.1567764 0.03946311 0.088165544 -0.10328059 -0.100418836 0.057345137 0.018391926 0.06743845 -0.003795543 0.042785946 0.030783476 0.09274836 0.09567245 -0.14701562 -0.21216254 0.11273911 0.13048358 -0.09234444 -0.17701414 0.016084047 0.0996284 0.18719614 0.06359199 -0.024968924 -0.0802671 0.010850964 -0.022028698 -0.09255431 0.21419494 0.19060436 0.12470856 -0.07952104 0.09764664 0.07229797 0.055688314 0.13570194 0.075071864 0.08656512 0.076255195 0.04664367 -0.16338953 0.023333678 -0.040647622 -0.11301247 0.18315324 0.18787111 0.14848638 0.03808587 0.1469585 0.011118386 0.032641277 -0.10361581 0.045794345 0.013258327 -0.116021544 0.008408938 0.0012097519 0.18930675 0.09890595 0.010161776 0.033514366 0.011766341 -0.009494831 -0.09707659 -0.0035794193 -0.065151416 -0.1132177 0.062457576 0.05066124 -0.16610698 0.0002960258 0.11213471 0.12089399 0.117555305 0.018862894 -0.06953291 -0.09339826 0.04943206 0.050492533 0.14129743 0.12207009 -0.0028742622 -0.11189331 -0.024499267 0.029282592 -0.013777179 -0.04512934 0.037869997 -0.04269948 -0.053986683 0.039673243 -0.031333204 0.03223269 0.037420258 -0.10266864 -0.037979886 0.1553832 -0.106153935 -0.20079356 -0.17442352 0.015055902 0.015655462 0.0008034049 0.1339833 -0.25231215 0.05456496 0.1711154 -0.09780645 -0.023009079 -0.060317583 -0.07687003 -0.02006171 0.15482049 0.1942986 -0.020723302 0.19814396 0.011306112 0.18104133 0.002431123 0.024719449 0.043428093 0.32524672 0.091995224 -0.06411461 0.10206921 -0.027243825 -0.039014958 0.09810958 0.012622112 0.037098188 0.0116792405 0.045888536 0.054856468 -0.18106903 0.07922184 -0.085637376 -0.12925833 0.0091304565 0.023369668 -0.05437904 0.09807481 -0.12165295 -0.028129885 -0.045922887 0.0074134385 0.038446072 -0.08937989 0.08104887 0.013493603 -0.18301105 -0.18511343 0.009835291 -0.014014111 -0.0023097452 0.003272726 0.027934458 0.100519985 -0.10263169 -0.106583074 -0.0993498 0.038053866 0.13403054 -0.031630304 -0.2369743 -0.15842314 -0.07067608 -0.04320836 -0.028274372 0.016422609 -0.016203066 0.11990558 -0.052630156 -0.07126018 0.06045208 -0.14099988 0.0515337 0.022327477 -0.003999699 0.17054658 -0.05410191 0.21332224 -0.016570285 -0.115542375 0.018714866 -0.09954194 -0.06714325 0.045416042 0.06093665 -0.056541175 0.10788163 0.12636484 0.15128922 0.060367893 0.1459774 -0.17515615 -0.018595172 -0.07472409 0.024550168 -0.044580393 -0.0040512932 0.2007818 -0.00200042 0.056350805 -0.008255359 0.0225429 0.015573243 0.057396937 0.12909508 0.17988625 0.043956414 0.07208308 -0.10801074 -0.00034851185 0.101065345 0.099777974 0.03355199 0.0995393 0.059204884 0.12529333 0.034799576 -0.02700203 0.04205968 -0.286307 0.04628265 -0.35674354 -0.1595727 0.05964772 0.06123792 -0.10216666 -0.056174714 0.14961842 -0.035838485 0.23926361 0.014779589 0.05577519 0.17665902 0.028074281 -0.085262775 0.0039988146 0.011410503 -0.12150254 -0.010969818 -0.059739836 0.10163241 0.012511534 -0.01753024 -0.0009802867 0.03214495 0.07106446 -0.09099668 -0.09562569 0.11919571 -0.031321514 -0.13177212 0.05446798 0.05557659 -0.13915758 0.036640707 0.08804549 0.05187321 0.07824909 -0.12545532 0.048075587 -0.015290414 -0.033307444 0.102027185 0.16289903 0.1944086 0.14645237 0.003998141 0.05024359 0.091653906 0.027089363 0.027740726 0.097039625 0.0032683325 -0.063878305 -0.032006018 0.07300984 0.011421009 0.04385372 0.075903036 -0.029030502 0.084273145 0.047716983 -0.11339464 0.1585352 -0.03619256 -0.15183362 -0.09108674 -0.087955415 0.019961456 -0.012671776 -0.018711628 0.07694182 0.04895911 0.04657636 0.05595442 0.076585084 -0.20145026 -0.027098127 -0.20867594 0.012951647 0.008882358 0.11389911 0.12810856 0.029623182 -0.04069043 0.057861786 -0.043446086 0.009206387 0.10795952 -0.04643146 0.08991375 0.07708602 -0.0861333 0.1067353 0.07920252 0.019538281 -0.06688646 -0.07657472 -0.04442058 0.06360535 -0.086216636 0.0530969 -0.114829674 -0.011061215 0.020310467 0.25385964 -0.1283865 0.15654653 0.024329929 0.050462868 0.021180483 0.05381836 -0.0060228156 0.1547501 -0.036301438 0.12256934 -0.055091023 0.0033205012 -0.097850375 0.05484805 0.15385766 0.0016100644 -0.010342925 -0.10211582 -0.013583616 -0.14993435 -0.08194192 0.03202425 0.1412464 0.29026797 -0.04931283 0.15287508 0.033720892 -0.00577907 0.052605122 0.015537329 0.020385265 -0.031487647 -0.1304659 -0.14501745 0.07467037 -0.018324332 -0.050263215 0.0101962155 0.088839106 0.056440365 -0.038379207 0.13532875 0.1590409 0.0581074 0.12201968 0.1528116 0.15085727 0.09878754 0.090758234 0.0924714 -0.069228396 0.11057769 -0.07282553 -0.015201406 0.19422263 0.13150501 0.19061917 0.0032544087 -0.08815748 -0.0015855312 0.019548822 0.017244563 0.12271393 -0.02678134 0.044549122 -0.08951683 0.054377403 0.009656507 -0.06584223 -0.014443799 -0.009278457 0.011388424 0.20105863 -0.012511076 -0.025476223 -0.20893148 -0.08036747 0.026844792 -0.0073277126 0.17867602 0.024011567 0.16914314 0.04646924 0.04422811 0.053876024 0.06462211 0.22806996 -0.19696839 -0.15524794 -0.01339213 0.03353144 0.098971374 0.056654397 -0.029285507 0.11104346 0.112158634 0.02775146 0.10561164 0.03661018 -0.046802625 0.078920774 0.0202004 0.009273094 0.18549244 -0.2211627 -0.1444348 -0.119793735 -0.035512675 -0.01640752 -0.09758025 -0.037258178 -0.045578785 0.28604132 0.22047292 -0.0008761778 0.0041470123 -0.052164726 -0.12657075 0.044502735 -0.06479321 0.03642136 -0.11909554 -0.04411873 0.044823658 0.045760043 0.05088628 -0.122909956 0.09460767 -0.07067529 0.07263167 0.0082817925 -0.12829368 -0.022480669 0.045675457 0.07043565 0.008477195 0.16458283 0.0801 -0.061771102 0.0369386 0.1818703 0.1854218 -0.14052166 -0.08950186 0.15756972 -0.11802049 -0.1394605 -0.048132546 0.027803933 -0.026651789 -0.08103509 -0.06408906 -0.074224025 -0.09043978 0.20707095 0.033896122 0.097815 -0.039768662 -0.009456552 -0.06221629 -0.25582394 -0.12845586 -0.1717168 -0.2156333 -0.11039681 0.14163439 0.00469547 0.15795515 0.052693125 0.049503952 -0.109161444 0.039699595 0.06136227 -0.060438465 0.042574275 0.05494385 -0.06321297 -0.12280281 -0.1302754 0.0042747427 0.019958932 -0.09769892 -0.005520863 0.0430503 0.04781568 0.13339616 0.09826179 -0.0959841 0.17749745 -0.043958567 0.11362637 0.015937734 -0.031869266 -0.17142461 -0.007810777 -0.14659326 0.10586902 0.16081809 -0.070552 0.06659824 -0.053102452 -0.060943585 0.06880077 -0.022871874 0.15810095 -0.058746945 0.076506704 0.0016486247 0.07760744 -0.042371474 -0.0026115614 -0.013520221 -0.09674031 0.06619542 0.06339267 0.03981736 0.1250519 0.12403116 -0.05140074 0.04843219 -0.053220987 0.0114746345 -0.050835863 0.1713521 0.045715492 -0.012457269 0.12870698 -0.20771646 -0.19227144 0.08872297 0.015185932 0.06221837 -0.112430446 -0.013937063 0.19807848 0.063401915 -0.0063958685 -0.06831126 -0.07563973 -0.23781158 0.023793766 0.08689273 -0.1585194 -0.0642754 -0.13116804 -0.108271584 -0.003266081 -0.21854396 0.03608446 0.05448244 -0.039016582 -0.23617058 -0.09586314 0.13242906 -0.2686595 -0.02540665 -0.10865419 0.08980291 -0.058165725 0.04974108 0.06589196 0.1927614 -0.0111550735 0.074778266 -0.12829623 0.12642975 -0.078323476 -0.075093515 -0.0111569585 -0.19796714 -0.032514077 0.06991897 0.02559385 -0.15654528 -0.013338323 0.07606915 -0.20322062 -0.12553574 0.08076942 0.018635232 0.015854508 0.16504616 0.032742396 0.0774816 0.27485272 -0.012241335 -0.070649184 0.052125316 0.05324478 -0.043325864 -0.09389382 0.24032952 0.042030025 -0.06408944 0.100732125 0.02012647 -0.00027164625 0.09028557 -0.1374441 0.0270067 0.18711779 -0.0057181395 -0.091095634 -0.08573043 -0.060740374 -0.013175067 -0.031599745 0.0917682 -0.19067833 0.072008744 -0.04059699 0.04103753 -0.12727946 0.118282355 0.11045056 0.10568394 -0.14769644 0.0920512 0.049624592 -0.15118206 0.0069159367 0.045799125 0.06495345 0.027071813 0.038468786 0.15649997 0.13806513 -0.2556646 -0.0067273187 0.017593225 -0.18346582 0.0011622955 0.12069812 -0.1609926 -0.019834245 -0.12194543 -0.08224064 0.1646173 -0.04341794 0.05101511 -0.19982229 0.17204024 0.057636905 -0.014907195 0.04297404 -0.15556294 0.10414022 -0.022673525 -0.016628135 -0.04002648 -0.048926055 0.07881294 0.03493634 0.07452069 0.008466189 0.06066566 -0.03249095 0.23216055 -0.13378032 0.15713492 0.1497868 -0.09731322 0.22096765 0.17422673 0.15990506 0.027051196 -0.018997867 0.01673526 0.094573796 0.20552821 0.0853541 0.0037382157 0.18083103 0.20368524 0.17043984 0.1876123 0.052573677 -0.069461346 -0.094259664 -0.15510969 0.027521903 0.001049047 -0.034653094 -0.28621498 -0.11538587 0.12142995 -0.05711693 0.045404844 -0.12972347 0.15326454 0.008816414 0.060044978 0.2636611 0.17368208 -0.02105532 0.011522326 0.0035045051 0.05290137 0.040328708 0.024143916 0.19768141 0.036593713 0.2922708 0.111544415 0.26731798 0.103538655 0.14826164 0.0051950845 -0.008974737 0.068033926 0.08531031 0.012462185 -0.12481188 -0.12663184 -0.13336857 -0.16741714 0.020294229 0.121850275 0.008004083 -0.21669641 -0.0097304 -0.006885943 0.23281907 -0.11462455 -0.007984385 0.1888611 0.054273628 0.07680963 0.037817076 0.008840648 0.039951663 -0.033653263 0.10031585 -0.12773873 0.056695428 0.030956121 -0.11744912 -0.02671201 -0.095766686 -0.11971447 0.032032292 -0.085953556 0.018734865 -0.106571995 0.07502514 -0.10880203 -0.047283813 -0.053114664 0.14185974 0.04237467 -0.011827734 0.05921762 -0.20137416 0.0050805733 0.216648 0.044323806 0.037874654 0.053194966 0.059271395 -0.15453571 -0.12735222 0.025349835 -0.12825967 0.16840342 0.0040092506 -0.16957356 -0.10292186 -0.2668233 -0.022487193 -0.016626926 -0.116001055 0.117939375 0.113974 0.081850894 -0.21951163 0.07766734 0.066865906 0.04028483 0.107493855 -0.10713693 0.2102206 -0.08659689 0.084268175 -0.1593897 -0.083680585 0.16098194 -0.009193348 0.11508149 0.05477885 0.008015464 0.12711926 0.021544868 -0.15732253 -0.07913588 -0.006322097 0.05574998 -0.09689304 -0.037228353 -0.03420124 -0.033064913 -0.11128183 -0.03310652 -0.10531359 0.04641678 0.07865724 0.062823564 -0.045197964 0.02993164 -0.07032771 -0.10533733 -0.084676236 -0.054135624 -0.1070015 0.025551632 0.08231745 -0.14936475 0.011858524 -0.012647933 0.051047485 0.029795343 -0.11427654 -0.10114332 0.010477469 0.13166238 -0.21850002 -0.017928187 0.012163227 -0.08096748 0.013537716 -0.11698396 -0.06887923 -0.2219363 -0.29676193 0.08029801 -0.14451453 -0.07220541 -0.12271461 -0.06991487 -0.004304758 -0.05568181 0.04912692 0.05459952 0.04143064 0.03320573 0.16712189 -0.097413495 0.0038522 0.12261486 0.13579905 -0.13283129 -0.014338912 0.16710792 0.0865963 0.044621963 0.0012388815 -0.009493066 0.031533886 -0.03778474 -0.10301424 -0.057805162 -0.123438984 0.0145783555 0.24895696 -0.22562441 -0.021926733 -0.07250508 0.028350139 0.005090602 0.050605375 0.14732964 0.032321148 0.13048102 -0.22294188 0.1683903 0.046851892 0.11713022 -0.11264169 -0.07373111 0.023939516 0.0076418696 0.037652522 0.1185698 -0.15885285 0.12867773 0.030240616 -0.007083921 -0.11551973 0.103714265 -0.24567464 0.0059468797 -0.24296594 -0.055938005 -0.05477734 0.049534567 -0.04612116 -0.11276062 -0.084701695 0.063244104 -0.0152082415 -0.038910173 -0.035955127 -0.11884558 0.03321673 -0.1587058 0.08666782 0.022980388 0.2488132 -0.10066767 -0.0009205205 0.18917383 0.12848407 -0.060275573 0.031742398 0.010318176 0.04581647 -0.038572226 -0.0037598961 -0.11613745 0.045104012 0.07362721 -0.038070627 -0.14896333 0.09462721 0.03802339 -0.04498732 -0.008305435 -0.1058339 -0.054454967 -0.030055325 0.12170746 -0.08212126 0.06642526 -0.047942314 0.048414443 -0.02581062 0.1028523 -0.041992903 -0.1471348 -0.12807688 -0.043842074 -0.115560114 0.05036688 -0.03723114 0.24680573 -0.16442639 0.030481542 -0.095174424 -0.024366928 0.012991561 -0.18886943 0.055274267 0.2547739 -0.033910654 0.054265648 0.15260237 0.08274902 0.04475057 -0.15368904 0.1404472 0.08510928 -0.056812223 0.0039857356 -0.01764952 -0.047703423 0.09347376 -0.11021821 0.093060486 -0.12422177 -0.054781847 0.20241264 0.122853756 0.01910609 -0.08470714 -0.043581553 0.01667321 0.013097976 0.00025859007 0.007034996 -0.01131929 -0.11309172 -0.052356213 0.12906212 -0.10524164 0.042607397 -0.060957666 -0.052480076 -0.090099946 0.16160937 0.06614651 -0.16993791 0.011023361 -0.12635848 -0.098473996 -0.020984476 -0.08301955 0.10358426 -0.027442073 -0.011056702 -0.05308979 -0.03889081 0.12754008 0.07299791 0.18111242 0.2361095 -0.09372582 0.016387587 -0.10827415 -0.06841471 -0.05366256 -0.09559721 -0.095070444 0.016677637 -0.12237681 0.086291626 -0.06650622 0.33114505 0.0032011743 -0.055298377 -0.21204686 0.14215112 0.11344713 -0.0019639754 -0.20446213 -0.044324018 -0.22874095 0.047090426 0.04183994 0.054060966 -0.17626065 -0.047503583 0.08132337 0.13896132 0.12853791 -0.14908327 0.040273488 0.11089741 -0.1564885 0.008555205 0.0367299 -0.020730782 -0.17587112 -0.022451594 -0.02261232 0.016250608 -0.04350919 -0.06288965 0.021423854 0.09455927 0.018386766 -0.04659629 -0.03690891 -0.17844594 0.07826648 0.009342614 -0.041629586 0.03353302 -0.2910488 -0.26128107 -0.021634815 0.020367822 0.06405702 0.01691709 0.08669536 0.110936955 0.06601908 -0.015964622 -0.20065092 0.086269505 0.13151805 0.073801726 -0.07861836 0.07672532 0.09539885 0.16599965 -0.07749271 -0.005130672 0.06692816 -0.023761334 -0.13310057 0.07172916 0.11504849 0.017180251 -0.004007434 -0.020715438 0.17445913 -0.081191264 -0.042635743 -0.05098341 0.009289456 -0.21303251 -0.15273163 -0.15410066 0.058831908 -0.032663595 -0.016473632 0.064635985 -0.0465335 0.033246443 -0.01981557 0.076557316 0.056858484 -0.05984772 -0.0075194957 0.11372022 0.048683364 -0.12957819 0.07568009 -0.090946235 0.13958392 0.06997536 -0.008776445 0.04051973 0.03757 0.08857323 -0.061370645 0.034799207 0.12938933 -0.05074042 -0.07075554 -0.15861002 -0.17880043 -0.24344082 0.01876369 0.23589166 0.22379895 -0.07394753 0.12540916 0.15954044 -0.021737572 0.020262975 -0.19067128 0.03601927 -0.09701009 0.029309178 -0.14677522 0.063631736 0.11256955 -0.0681997 -0.10357398 -0.19808769 -0.028307639 -0.077156946 -0.21730128 0.06748554 -0.041437123 -0.07534964 -0.10063662 0.08969755 0.06584513 -0.0014733374 0.053897355 -0.12809443 -0.050100155 -0.026901972 -0.11077553 0.073047526 -0.015608425 0.10660265 0.09706933 -0.2840638 0.14297426 -0.29464555 -0.05148664 0.112653084 -0.022383006 -0.13727354 -0.10002782 0.11203646 -0.18203244 0.12301739 0.004608043 -0.10172471 -0.06002607 -0.13209458 0.012530515 0.09563315 -0.15677506 -0.021984644 -0.08707631 0.111918196 -0.12945837 0.17164259 -0.011342805 -0.13285384 -0.06982785 -0.121796034 -0.20330094 0.01704719 -0.060149852 -0.12884109 0.0039158305 -0.17263362 -0.05127251 -0.080792 -0.07700332 0.21021433 0.014986814 0.03388275 -0.16829476 -0.05605062 0.030875944 -0.092334606 0.10092457 -0.116964415 -0.04154668 -0.11020497 -0.028607404 -0.08999466 -0.0045436663 -0.018603982 -0.09166896 0.04482314 0.041028913 -0.008456688 -0.05153279 0.06174792 -0.026976587 -0.019543415 -0.0009823041 0.20743932 -0.10098628 0.10346445 -0.18742949 0.016785698 0.17317633 0.058985114 0.02718073 -0.04669927 0.012450374 -0.015860626 -0.069251776 -0.019641886 0.029183792 -0.067375824 -0.0712823 -0.12667927 0.0481089 0.038001943 0.03071802 0.15888666 0.050607298 0.10600024 0.054049004 0.0036960153 -0.017557276 0.24636388 -0.02400733 -0.038265515 0.071723126 0.055317838 -0.16153522 0.1745039 0.049214892 -0.06903319 0.14083202 0.07657032 -0.117108494 0.18706335 0.07522562 0.008326047 0.16836695 0.025275456 0.00653738 -0.056684326 0.067530945 0.05700597 0.010813666 -0.06965275 -0.0035856324 -0.02355848 -0.12579508 -0.08481178 0.11872168 -0.19623329 0.020976719 -0.024142992 0.16169295 -0.029054997 0.08247928 -0.01602608 0.041507237 0.13000563 -0.031188404 0.12058807 -0.07017672 0.05262163 0.102843195 0.08360976 0.20098956 -0.06699805 -0.12856986 -0.09008763 0.07539014 0.05913797 0.023128496 -0.0993931 0.08958933 -0.1095679 0.12879781 0.29864663 0.04954799 0.071213536 -0.036383104 -0.16811825 -0.047369067 -0.096386924 -0.13179737 0.18513907 0.04018907 0.050871637 -0.017999403 -0.004384268 0.10935767 0.0096691465 0.065972134 -0.006697594 -0.021312425 -0.12778834 -0.18487182 -0.013253363 0.018552514 -0.11571031 0.009455372 0.018278098 -0.20269772 -0.07860987 0.053629268 0.051608752 -0.1024649 0.028747622 0.115143314 0.09060989 0.0033742718 -0.03389476 -0.05003159 0.059684854 0.032413203 0.07584299 0.026090212 0.094779 0.022362096 0.09137148 0.09998487 -0.06755006 -0.16791132 0.16725236 0.03856867 -0.15854551 -0.058479212 0.09009002 -0.015064874 -0.038303267 0.15299127 -0.09182611 -0.06691274 0.03404148 0.051948372 0.06253718 0.10402641 0.032760672 0.061841268 -0.013018091 0.019172683 0.031920105 0.03613767 0.065301545 0.05176144 0.03195128 -0.08154751 0.040533975 0.035050627 0.07954901 0.292817 -0.015404566 0.0792015 0.14381857 0.035682887 0.23881017 -0.032397415 0.021495858 -0.10257362 -0.015640486 -0.013756765 0.108621925 0.044812348 0.13881461 0.0034063188 -0.020313993 0.2833013 0.05232664 -0.059045415 -0.056523588 -0.09338844 0.0945365 -0.035558306 0.033902958 -0.0019164605 0.015229167 -0.05162724 -0.059798982 0.059519827 0.08260276 0.049427956 -0.04397278 0.104720995 -0.049436856 -0.02720457 -0.057422828 0.15599844 0.042667106 0.007064605 0.09509149 0.2677074 -0.19490339 -0.10079554 -0.038639493 -0.07217936 -0.10687877 -0.02908587 -0.12078084 0.0464071 0.018072678 0.061005745 0.063675664 0.061180107 -0.036461473 0.2129935 0.03258636 -0.18181413 -0.15815762 -0.14100325 0.049491923 0.024909522 -0.024335451 0.21726745 0.09187086 0.09755921 -0.06815797 -0.07496511 0.040653206 0.04318347 -0.20630631 -0.071465366 -0.028222442 -0.0350723 -0.105320156 -0.08091134 0.0052920594 0.009959455 0.06135858 0.10896517 -0.028555337 -0.032712746 0.05666844 0.07398717 -0.030517153 0.079918906 0.09883809 0.13004781 0.16241045 -0.077932514 -0.0090112 0.08764133 0.08937675 -0.015335567 -0.1902089 -0.036833633 -0.10310797 -0.03767447 -0.13249552 -0.1408765 0.0033614533 0.0040830523 -0.018650651 0.1219486 -0.09575668 -0.10263797 -0.25201553 -0.15975422 0.19137464 -0.09146842 -0.10351485 -0.0030304512 -0.008139805 -0.07734805 -0.017594505 0.13584052 -0.067696765 -0.13848808 0.09513892 0.05010911 -0.04981322 -0.11386846 -0.06421457 0.07079692 0.18140312 -0.054067355 -0.059165467 0.051682446 -0.22288209 0.11803094 -0.13332692 0.012637673 0.0029252328 0.09982016 0.02021463 -0.30433595 -0.14103748 -0.048739016 -0.09016078 0.04079963 0.1120284 0.06172466 -0.020548038 -0.18375453 -0.044668704 0.05453969 -0.09614213 0.07603006 0.10374193 0.01356615 -0.3054996 -0.12692967 0.19984366 -0.014472118 -0.16375385 0.20733242 0.038510904 0.119753644 -0.05144744 0.067232825 0.08696975 0.109324 0.24415915 0.11351663 -0.11845882 0.07896834 0.08639818 0.015362692 -0.116877005 0.084185295 0.04738543 0.24531397 -0.060055483 -0.04986064 -0.029732473 -0.0481428 -0.07609947 -0.26336476 -0.030567057 0.04983868 -0.036419306 0.19441728 0.002217021 0.12998207 0.014155319 0.099610716 0.031127898 0.20925473 0.042769305 0.05988529 -0.02561141 0.019864883 0.095058575 0.26301417 -0.010623713 0.048169002 0.1259227 0.12018335 0.013983369 -0.32509878 -0.02033087 -0.24406265 0.10160483 0.005009684 0.091700256 -0.10456529 -0.15437157 0.026954893 0.009542515 -0.036251206 0.021368973 0.2896464 0.096355155 0.117852464 0.08527325 0.14882538 -0.030993992 -0.18850632 -0.038571596 0.15354972 -0.059804603 -0.0127659235 -0.103405714 0.2097897 0.11238332 0.09963009 0.07857609 0.0024976542 0.019900773 -0.11236043 -0.23349337 -0.066652745 -0.03450304 0.09881062 0.11174469 0.13303861 -0.1200928 -0.0495807 0.048912853 0.25406882 0.160913 0.124842316 -0.025875911 -0.07541737 0.09179339 -0.09716353 -0.02296418 -0.010598342 0.15528268 -0.035999883 -0.27378252 0.09200742 -0.028339284 0.033036195 0.014716739 0.04228024 0.122458726 -0.118502 -0.08744794 0.04538973 -0.0663626 -0.17184503 0.026965188 0.1144447 0.0065886495 -0.21381271 0.052868716 -0.18995002 0.02326003 -0.10310056 -0.11510436 -0.04331158 -0.0054269107 -0.05151805 0.07177303 -0.031704064 0.11092168 0.041020136 -0.06887616 -0.0580538 -0.16875817 0.02854311 -0.06531687 -0.19565676 -0.012008593 -0.061330277 0.18095462 -0.10062696 -0.050247747 0.19624422 0.15039264 -0.047049537 -0.017699895 0.10112172 -0.27260062 -0.18398403 -0.016985163 0.13726091 -0.061301235 -0.013867424 0.10575895 0.19633508 -0.056805424 -0.0008042352 0.1951086 -0.13931684 0.11566071 -0.08892895 0.023150068 -0.044748325 -0.12831107 -0.10417318 0.023632845 0.12162531 -0.06910007 -0.1116159 -0.08138823 -0.123351485 0.11407257 0.23009469 0.42945758 0.019370088 -0.031253286 0.101349466 0.08479531 -0.1441712 -0.1504308 0.10710039 -0.0788485 -0.015636284 -0.015837839 0.016246475 -0.10694907 -0.23198177 -0.21214628 -0.11303864 -0.11841414 -0.002558234 -0.10598542 -0.057372723 -0.064505994 -0.031147907 0.11176393 0.072355285 -0.0023956918 -0.0993034 -0.05057987 -0.12962966 0.0025503593 -0.08811841 0.10945452 -0.12569237 -0.015689502 0.049855817 -0.07111386 0.1286746 -0.18519482 -0.06951557 -0.08601733 -0.1211505 -0.054329578 0.030338475 0.1444832 0.058310106 -0.046714135 0.033788245 -0.09066307 0.08949815 -0.06329656 0.1219686 0.23396717 0.0006944552 -0.20635127 -0.041904416 0.10270115 0.06146817 -0.012506541 0.047666244 0.027671766 0.024108851 0.13499282 0.16255215 0.29716864 0.28717887 -0.032412 0.006387412 0.22046277 0.06153533 0.13190685 -0.10671405 -0.24639238 -0.12248685 0.0422384 0.07554307 -0.18432845 -0.10098804 0.13174027 -0.069123 -0.16714479 0.20220797 0.081141844 0.0059015676 -0.024238877 0.1211378 -0.041295465 0.12772845 0.033733137 0.0029681306 -0.022846399 -0.070697434 0.06376488 -0.08688771 -0.12394776 0.033692706 0.18557511 0.12512656 0.012830349 -0.028941365 0.107047245 0.023743263 -0.13099565 -0.16815624 0.08974124 -0.3045064 0.0020348763 -0.20237799 -0.0979078 -0.12383993 -0.2560054 -0.009853249 -0.02510091 -0.19701755 0.09685941 0.15640369 0.16191551 0.04879852 0.017508665 0.14571874 0.18114144 0.09185689 -0.13155156 -0.03306614 0.0032917361 -0.1950947 0.08518077 0.19940886 0.13465753 0.20961574 0.0652891 -0.044446956 0.05805613 -0.0488618 -0.14158244 -0.011383345 0.008405603 -0.19718052 0.026339516 -0.021609142 -0.015755497 -0.06784462 0.051932275 -0.040485196 0.15391928 0.043844137 0.07532103 -0.07042366 0.22876897 0.05988537 0.084202334 -0.1479155 -0.0693676 0.10228839 -0.008708795 -0.24457838 0.08723464 -0.071020186 0.14079963 0.014641331 0.07653835 0.14490636 -0.13215052 -0.08958241 -0.061900135 0.09356219 -0.20227592 -0.2501023 -0.04986612 -0.056238428 -0.083627075 -0.20019606 -0.14529479 -0.05173515 0.051014863 -0.12588012 0.1786407 -0.055552844 -0.055406433 0.16663884 0.034048844 -0.042299595 -0.0026104685 0.14821044 0.15952337 -0.1031793 -0.029617887 -0.027111433 -0.115218125 -0.07253425 0.02941588 0.12542227 0.22562979 0.020667754 -0.06379626 0.051708966 -0.07419134 -0.028519262 -0.03028252 -0.19147179 -0.20538278 0.073454924 -0.12532924 0.18066156 -0.0855961 -0.021857891 0.19724481 -0.10908302 -0.17687838 0.14156209 -0.06977831 0.010832217 -0.045688946 0.03971908 -0.082151026 -0.0050911633 0.034672733 -0.14554258 -0.09538288 -0.05943393 -0.13513517 -0.14667481 0.044095114 0.0103446 0.1734776 -0.021834785 -0.14429659 0.022768972 0.12092547 -0.098806866 0.0013979044 -0.13493027 0.019415814 0.062011678 0.06971897 -0.17848215 0.055533182 0.0881141 -0.06418248 0.09621914 -0.079320535 -0.15886195 0.027019732 -0.1627446 -0.011074269 0.1415873 -0.17807321 -0.11504696 -0.1135122 -0.01765442 -0.061946165 0.1522792 0.09303733 -0.05489122 0.047041472 0.17262076 0.017880542 0.06730036 -0.13339758 0.11534678 0.16013426 0.014868534 -0.07599458 -0.031157294 -0.28711596 -0.09669789 -0.010877083 -0.03053194 0.10838934 -0.029916868 -0.16114272 -0.017484618 -0.0035532375 0.0011846068 0.029094752 0.1168395 -0.09570086 0.03047286 0.14189605 -0.16055807 0.007655892 -0.06986035 -0.090105936 -0.10577578 -0.019352542 0.07970715 -0.20608124 -0.056887984 -0.08365202 0.17777666 -0.031100076 0.026569853 0.0126739675 -0.021929981 0.03370731 0.2831136 0.122028895 -0.15433697 0.06186434 -0.019949552 -0.13990098 0.079511136 0.068887316 0.101260886 -0.057295326 -0.02698639 0.08787915 0.05205248 -0.02646087 -0.1490041 0.024290355 0.120803565 -0.13006692 0.053567104 -0.027859056 0.053973343 0.035773665 -0.17386484 -0.24988829 -0.04499421 0.04890682 -0.060556173 -0.1696653 -0.17941363 0.2636843 0.19861487 0.13370076 0.085038 0.059542347 -0.00059889554 -0.055623304 -0.0014340578 0.33860138 0.06812336 -0.060759984 0.035227228 -0.11139587 0.14014265 -0.053204138 0.06301139 0.11950037 0.05137973 0.022349842 0.013983071 -0.01595289 -0.067978784 -0.10596146 0.12691788 0.0035408256 -0.21065849 -0.09806248 0.010341455 0.0960638 -0.020408517 -0.16178599 -0.01535225 -0.12186525 -0.055742998 0.08107741 0.08307355 -0.13730128 -0.067175604 0.08050095 0.22134832 -0.11642966 0.040365327 -0.15198448 -0.07475558 -0.046751644 -0.052359637 -0.04047672 0.013623567 -0.040622678 -0.13334265 0.09088956 0.08818981 0.07400845 -0.16438147 0.0022678939 -0.028235057 -0.085539766 -0.17242226 -0.09932012 0.071481965 0.27524328 -0.1460117 0.22228739 -0.037874117 0.21628354 0.19911113 -0.01108855 -0.03570804 0.010895707 0.0018631077 0.102791324 0.19677304 0.05108535 -0.010206827 0.0952264 0.04671715 0.06287236 -0.076767646 -0.09162368 -0.043869335 -0.049179245 0.09152253 0.110501006 -0.0026101854 0.13278387 0.12653892 0.0104620345 -0.15156631 0.24939695 -0.05779901 0.059214268 -0.19716775 -0.09511953 -0.18461348 0.023114309 -0.07183911 0.36179158 0.01183789 -0.021511542 -0.034157485 0.035216805 -0.07720354 0.104250066 -0.14444628 -0.1179614 -0.16017434 -0.1657101 0.000375587 -0.23459078 -0.14252762 -0.040816505 -0.070225984 0.052543726 0.04346088 0.10228248 0.08814098 0.1037723 -0.010500632 0.016468778 -0.026203727 0.046344865 -0.05771504 0.017029023 -0.30944064 -0.14111145 -0.061578397 -0.14532086 -0.16645475 -0.1490155 0.15717813 -0.036317248 -0.11020082 -0.061268646 -0.24214816 -0.12619749 0.07084929 -0.15200013 -0.12959208 0.03616388 0.1305973 -0.008305077 -0.13021983 0.06729041 -0.0355961 0.20169547 0.012790891 -0.21060047 0.025427658 0.18415175 0.147284 0.16921735 -0.17933117 0.009312436 -0.083508395 -0.025191864 -0.21347678 -0.17839827 -0.058207985 0.08669372 0.10499326 0.027224641 -0.13993151 -0.0070745763 -0.14363967 0.031538814 0.09061485 0.1352725 -0.100189425 -0.3803669 -0.21489649 0.17544664 -0.023787363 -0.08538144 0.15395801 0.116207086 0.015347738 -0.016437478 -0.0003072799 0.03561909 0.14969671 0.031937946 0.06229389 0.10304918 -0.16093346 0.035342697 -0.1065669 -0.28720745 -0.32873407 -0.0965162 -0.0098508345 0.008218196 0.043358218 0.15339775 -0.13179843 -0.029116804 -0.035946332 -0.12905583 0.04575632 -0.20272747 0.12834679 -0.22660515 0.16493973 0.030036451 0.11914365 -0.015639063 -0.013383167 -0.068711884 0.024815226 0.044702735 -0.06552325 0.00039839893 -0.048107017 0.21965837 -0.019281883 0.18015827 -0.047856618 -0.033138346 -0.33584258 -0.082056984 -0.09095525 0.24608788 0.06666863 0.19115314 0.12130982 0.22183025 -0.013322773 0.23333156 -0.08814603 -0.24575484 -0.18327999 0.16067272 0.035373986 0.04403631 0.10051183 0.114854366 0.23717609 -0.1650913 -0.03684481 -0.033349264 -0.18446518 0.11893532 -0.01413684 0.08686572 0.24888027 -0.022421483 -0.029212408 0.024769248 0.07038857 -0.10548155 -0.30390579 -0.07256813 -0.02667894 -0.20763393 -0.18874325 0.18470593 0.061619535 -0.04787553 -0.0022137605 -0.014417611 0.05783213 -0.14355849 -0.12785445 -0.024416067 -0.016589865 0.07970636 -0.14908336 0.099078536 0.122060955 0.06158473 0.026814003 0.003314491 -0.07058251 0.005702994 0.1388737 0.0009999906 -0.076077804 -0.03632183 0.03298784 -0.024448505 0.033109277 0.03686332 -0.15191142 -0.035931196 -0.026750326 -0.07693194 -0.07511118 -0.07378114 -0.07415368 -0.13595134 -0.07980483 -0.11365528 -0.074917264 -0.06970989 0.089489326 0.011376799 0.19037452 -0.03973581 -0.013379741 -0.03494308 0.038551997 0.056428272 0.22057422 -0.07162945 0.0988072 0.033677887 -0.1624499 0.07172964 0.12142213 -0.09105788 -0.0062335622 -0.17787555 -0.13122077 0.09946272 -0.05198185 -0.11622054 0.017605837 -0.057581443 -0.052422367 0.06859236 -0.121513575 -0.09587676 0.010067829 0.09160074 0.118475825 -0.07184641 0.08839746 -0.08375447 0.1772808 -0.11871734 0.12750775 -0.07098884 0.19598451 0.053791873 -0.10694189 -0.057564046 0.07277788 0.0999242 -0.012411732 -0.0008743508 0.07049506 0.007839672 -0.13469061 -0.086637646 0.018171795 0.11620799 0.1562581 0.0726127 0.023388876 0.06954115 -0.07201532 -0.020663293 -0.08775331 -0.13021438 0.028014673 0.013211138 0.063425004 0.049270984 0.018924227 0.050321467 -0.009608492 0.03594894 -0.07795468 0.031630393 0.061501533 -0.072308384 -0.00015696706 -0.06770045 -0.05799087 -0.117833175 0.12123726 0.101228274 0.048403185 0.19187947 -0.02426477 0.2965092 0.012108331 0.062451743 0.02020002 0.01933605 0.1283726 -0.0004204313 0.22893727 0.12320324 0.09279143 -0.060876433 0.071873255 0.016620735 -0.011737341 -0.04713134 0.23293445 0.053223725 -0.060809728 -0.0008118732 0.021575999 0.07757127 0.050139453 0.06232122 -0.06982628 0.028703816 -0.09294619 -0.0673045 -0.097111136 -0.124179125 0.11498038 0.0774206 0.10622597 -0.0027358804 0.120865405 -0.08990613 0.16134696 -0.040976126 0.116313055 0.017906686 -0.06794003 -0.11978045 -0.041182082 0.1004148 0.11293223 -0.10677086 -0.04902342 -0.0024217241 -0.0064151934 -0.061799172 -0.11255781 -0.10665979 -0.043453347 -0.11252105 -0.016920524 0.11441471 -0.12161851 -0.01208509 0.09713543 -0.04716704 -0.06270717 0.11100934 -0.022060696 0.11900893 0.051455956 -0.027051961 0.091153674 0.11826771 0.17712642 -0.1135228 0.057722736 -0.026247196 0.1011803 -0.07249465 0.14562106 0.09055592 -0.08776925 0.15084969 0.27249593 0.17008525 0.17201382 0.082943045 -0.1365032 -0.2088881 -0.02657048 -0.05365955 -0.0828982 0.0022848023 0.07011795 -0.13671602 -0.050227962 0.14564694 -0.11286908 0.08163588 -0.039913658 0.06313879 0.118292175 0.090641096 0.13826513 -0.115096465 0.11501125 -0.051921967 -0.011794023 -0.052691907 -0.01144937 -0.004044241 -0.12452054 -0.117841996 0.094403915 0.016232003 0.14059265 0.0014633858 -0.13964291 0.11233199 -0.0042446847 0.017010694 -0.07587611 0.2113799 -0.079097055 -0.025183445 0.01930437 -0.100658804 0.027711727 0.15585092 -0.054386415 0.03417408 -0.26638392 0.004666548 -0.022744715 -0.08241035 0.15471976 0.0134398285 -0.02780301 -0.054573536 -0.22942959 -0.22867593 -0.06200417 -0.2593664 -0.104303986 -0.05376302 0.16766867 0.07454639 -0.060223524 0.04503525 -0.120412946 0.129096 -0.10770182 0.13230495 -0.015242708 -0.055900585 -0.013154884 0.036293827 -0.040915426 0.06395479 -0.06363958 0.056697037 0.038882006 -0.011432478 -0.035578813 0.023713592 0.06358484 0.18825336 0.1267326 0.13580303 0.30003378 0.051814936 -0.0019122123 -0.025315309 -0.20575687 -0.07191711 -0.07846279 0.046952438 -0.03522643 -0.014023531 0.08760802 -0.009978395 -0.07362969 -0.051149458 0.16209318 0.13952471 -0.11847835 0.018406985 0.02511106 0.0864424 0.099569574 0.0230504 0.053184554 0.0010735054 -0.07272541 -0.031466648 0.0104585895 0.0050915424 -0.17999756 -0.05915641 0.036929686 0.01594813 -0.04029838 0.049018275 -0.14090647 -0.26153892 -0.15326238 0.054445334 0.14090964 0.06040391 -0.15631203 -0.045772873 -0.01040563 -0.09010867 -0.0062996754 -0.100477435 0.04673653 0.104167975 0.124714546 -0.032330804 -0.011138355 -0.2618222 -0.05358678 -0.05778169 -0.107298695 0.011221049 -0.010934715 -0.23126152 0.016210597 -0.08427299 0.057128314 -0.14759335 0.0343098 -0.027633734 0.014694149 0.01268885 -0.021884603 -0.15129942 -0.20886424 -0.124115385 -0.08633395 -0.07863367 0.053035833 -0.050458234 -0.13257016 -0.11860392 0.020015854 0.08137595 0.22807996 -0.0047553238 0.04869923 0.10475283 0.021035038 -0.041502398 -0.14636599 -0.056423657 -0.11271048 -0.1780008 -0.08490813 -0.11004941 0.053038456 0.06866868 -0.0818285 -0.029131643 -0.10814125 -0.04475968 0.044937253 0.087533034 -0.09715009 0.050701167 -0.2565898 -0.15477394 0.0148014715 0.17141554 0.036844023 -0.08423032 -0.29934698 -0.2889443 -0.022035396 -0.0061816555 -0.065521486 0.051615413 0.06756023 0.1862844 0.037037592 0.13139917 0.009358871 -0.016873676 0.101090975 -0.10318433 0.27610424 0.032185547 0.032742724 0.061069015 0.1791995 0.076141916 -0.08282253 0.14502124 -0.029050546 0.015754627 -0.1537704 -0.0018640253 -0.17015788 -0.06977267 -0.13435315 0.14702636 0.13594854 -0.12532331 -0.123210184 -0.12404378 0.07562432 -0.0032673823 0.002928427 0.14292139 0.0022172255 0.08806696 -0.13475364 0.078978464 0.20264643 0.066782296 0.14083979 -0.08995046 0.018292228 -0.09965623 0.00934469 0.123242125 0.021763472 -0.1443728 -0.088031344 -0.16418537 0.17921315 0.35450402 0.23419757 -0.14905228 0.05406513 0.12945016 -0.11010963 0.05967516 0.14344797 0.021159517 -0.09507636 -0.088560335 -0.21222417 0.094024256 0.23466417 0.047822483 -0.0043978584 0.22533628 0.15831399 0.16312516 0.082094 0.10279724 0.067950614 0.021212665 0.0036107309 -0.029066171 -0.12657702 -0.06340988 -0.030519718 0.021036435 0.20164163 -0.033717006 0.25179344 0.19816571 -0.0061883563 0.068880536 -0.033771254 0.2254185 0.17780699 0.044285633 0.14863005 0.2223913 -0.0168542 0.110732384 0.16377084 -0.11806821 0.16183847 -0.08515033 -0.021925462 0.24397396 0.09651426 0.0016734399 0.039305903 -0.011349397 -0.004082328 0.06034164 -0.07807702 -0.0013065379 -0.036567006 -0.12643915 -0.094363704 0.19117337 0.09603272 -0.15188359 -0.036742773 0.098885976 0.2052034 -0.12002753 0.031220848 -0.07132371 0.07018663 -0.061399207 0.13506861 -0.120156206 0.18267283 -0.084065095 -0.041325636 0.08315456 -0.055452727 0.09567723 0.013997267 0.07149575 0.22138728 0.099555045 -0.08142672 0.051504232 -0.07960813 -0.123808704 0.0980407 -0.17575009 0.08734535 0.006849013 -0.0063994983 0.07532779 0.115680225 -0.08947891 0.25817934 0.050840914 0.014334527 0.09492365 0.114106126 0.22704455 0.18143973 -0.027413037 0.14068212 0.21624129 0.11634094 0.081735425 0.16851228 -0.065983765 -0.08965473 -0.2967805 0.057235055 0.13764109 0.0992302 -0.1390945 0.05916143 0.20011438 0.0025048335 -0.011506703 0.025560018 0.19789357 -0.10770502 0.01498049 -0.06521057 -0.020347841 0.052601323 0.088984974 0.31732458 0.08431795 0.14118353 0.26525724 0.04088 -0.029313575 -0.083802775 0.21267302 0.171313 0.35621873 -0.1518332 0.1829128 -0.07165813 0.1284836 -0.20858155 0.17735721 0.13938412 0.115144745 0.10798389 -0.08188977 -0.0632842 -0.051684663 -0.19061291 0.08083561 0.11381912 -0.07547466 0.029480081 -0.03189425 0.047582638 -0.028405081 -0.030782193 0.13205181 0.041182328 0.31440526 0.04847103 -0.071172036 0.14361364 0.095723055 0.13051662 0.15051498 -0.05577426 0.056594588 -0.02677705 -0.20645972 -0.18847857 0.08967308 -0.01170341 -0.08698383 -0.024630446 0.27841535 0.034440745 -0.07008125 -0.032739352 -0.15307091 0.13696939 -0.044645492 0.13140002 -0.00017500602 0.13761307 0.02032925 0.100078434 0.092362255 0.10757258 0.06163743 0.035159785 0.33096066 -0.032954037 -0.03170971 -0.015326693 0.07288697 -0.011463084 0.025194952 -0.016603494 -0.1333888 0.008182944 -0.19862391 -0.24749355 0.040938597 0.14222471 0.21526602 0.1876704 -0.081321135 -0.14398976 0.19201201 -0.11006112 0.055743918 -0.074034005 0.0026270961 -0.06866564 0.050813917 0.008337239 -0.05165061 -0.09174339 0.047230393 -0.069229506 0.05517617 0.38472942 0.12557545 0.18106589 -0.11892376 -0.30052423 -0.08327463 0.14265344 -0.047767635 -0.051441956 0.026846673 -0.031066602 -0.11121266 -0.016006216 -0.06328891 0.086134285 0.057380565 0.18950951 0.08872522 -0.025745574 0.05287296 -0.02102554 -0.033165563 0.041704837 0.06147955 -0.02004755 0.0027205986 -0.083519265 -0.09288997 0.052727107 0.064947195 0.2125549 -0.04474947 0.12670153 0.11939351 0.197162 0.036899477 -0.105344 0.091170184 -0.07120665 -0.055155717 -0.03080209 0.013966333 -0.00022395428 0.05423487 0.29011896 -0.0016344732 0.035550166 0.09252397 0.07166893 0.20872249 -0.07518554 -0.05422968 -0.16557074 -0.08110141 -0.17618012 0.057840206 0.2746292 -0.04200808 -0.17201592 0.0831783 -0.09688007 0.1674614 0.15589558 -0.13601656 0.10428562 0.21445806 0.1521623 -0.036015853 -0.013460696 -0.10742485 0.032310177 -0.18147774 -0.062358797 0.13269913 0.09603211 0.11834535 0.12986112 0.20495646 0.10486441 0.18175901 0.21322547 0.12932003 -0.051834833 -0.14121135 0.035214584 0.049268723 0.103706956 -0.098972365 -0.09598335 0.040649828 -0.012456871 -0.19539762 0.0306892 -0.16401534 -0.011688495 0.102968425 0.30456874 -0.0014897572 0.11061006 0.07328139 0.24537009 -0.041953903 -0.08965699 0.11362929 -0.059805904 0.074041836 -0.13165528 -0.021594228 -0.18139957 -0.029574692 0.049064815 0.05627878 0.016948218 -0.101659946 -0.04625323 0.023289744 0.09146995 -0.2678552 -0.08851636 0.010569453 -0.01522648 0.034997426 0.02141383 -0.037308443 -0.05950695 -0.0033230186 0.19771153 -0.0062179547 0.13287412 0.11950626 0.36233693 -0.0044224584 0.0132257985 0.029358657 -0.09206581 -0.09158485 -0.059338335 -0.097221 0.00459622 -0.08440633 -0.06716734 -0.16644263 -0.16050507 0.27561393 0.031076273 -0.10426219 0.118922144 0.021359282 0.050993863 -0.01914491 -0.037207514 -0.022298837 -0.14361395 -0.014132911 0.024263097 0.17822488 0.0017783204 -0.2496519 -0.00856832 0.3550949 0.22085322 0.015145203 0.2461226 -0.06672618 -0.2613655 -0.13742803 -0.08974112 -0.26641858 -0.16656758 -0.05996627 -0.0008642448 0.110109285 -0.11676134 0.05867584 -0.22272311 0.23025173 -0.13661383 -0.13604045 0.017549427 0.15960187 0.024682742 0.05094559 -0.0035864883 -0.10798009 -0.054354034 -0.12653117 -0.13321112 0.033353258 -0.11913947 0.01628462 -0.12859476 0.018811781 -0.031451594 0.18012455 0.21567379 0.10168826 -0.23595431 -0.1040605 -0.16104002 -0.09940606 -0.14109525 -0.17928018 -0.112387836 -0.07517824 -0.21281317 -0.11420554 0.081956245 -0.14072172 -0.10133923 0.118893534 -0.08783718 0.025283061 0.057409994 0.060912415 -0.15757155 -0.028446168 -0.16716285 0.23929165 -0.16482766 -0.11160569 -0.11088175 -0.16533686 0.120547816 0.24199484 -0.0077342503 0.022899047 -0.12072344 0.018787028 -0.09236196 -0.11906502 -0.01998184 0.045686398 -0.012164247 -0.0563692 -0.15533336 0.1791754 0.14894027 0.070040256 0.11437491 -0.14420597 -0.22680359 -0.17592226 -0.1468878 0.06870351 0.028309356 0.10457816 0.034308482 0.015524755 0.11463274 0.041632533 -1.1488382e-05 0.14122385 0.0046965093 -0.046104863 -0.098494 0.08986565 0.24121046 0.115634546 0.28026363 -0.2515244 -0.055265732 -0.06645602 -0.15157187 0.17817308 -0.081019096 -0.15447967 -0.060257062 -0.2364063 -0.155256 0.15188766 -0.07706412 -0.08787853 -0.029328678 0.048779864 0.010437967 -0.052333366 -0.03076868 -0.087236665 -0.104817554 -0.10978189 -0.067145616 -0.10881234 -0.16319196 0.015118688 0.016637985 0.15440844 -0.11900694 0.030269453 0.22493306 0.081409864 0.22890955 -0.019922318 -0.10487633 -0.08801047 -0.114625126 -0.21031219 -0.15499192 -0.12612867 -0.19278964 0.007867386 0.21198407 -0.0022911346 0.0002748642 -0.25580892 -0.19077356 -0.15427834 0.018928483 -0.07470049 0.09434437 -0.031393655 -0.070300594 -0.13067068 0.019980252 0.0841816 0.021991925 0.21706171 0.13615729 -0.052895516 -0.08373256 0.058116958 0.06152491 0.4054322 0.15116626 -0.037546247 -0.05161489 -0.06875235 -0.10878256 -0.14549476 0.01716935 -0.024994187 -0.15420105 -0.065094195 -0.037498765 0.027587531 -0.12535338 -0.3098956 -0.16785347 -0.15925124 -0.08679605 0.056649353 -0.023714492 0.014299259 -0.12777053 -0.051504422 0.053385567 0.054155033 -0.07779762 0.010826071 0.21454465 -0.0070999707 -0.08798261 -0.026694784 0.13920514 0.19153585 0.13175048 -0.08036263 -0.07671882 -0.05604321 -0.08738572 -0.13153678 -0.08260672 -0.024132716 0.05870707 0.012049364 0.11688161 -0.10349268 0.032892454 0.0005825979 0.03715317 0.016227487 0.053533364 -0.01518191 0.019153723 0.10101065 -0.07054769 -0.06818102 0.012802954 0.036187768 -0.08775089 -0.012816429 -0.014740046 -0.22686814 -0.06873937 -0.06251177 0.113958076 0.3482446 0.09135879 0.028543254 -0.27270433 -0.028547417 -0.06064482 -0.076137185 0.09564085 0.10560598 0.029756231 -0.12708133 0.1650344 0.06366529 0.002828129 -0.16804881 -0.11246384 0.089138314 0.22231375 0.0008208644 -0.08187579 -0.12383676 0.049855288 -0.18180174 0.05953575 0.086272374 0.048129182 -0.01746495 0.060995303 0.021595053 -0.073311165 0.18954241 -0.03066671 0.082076445 -0.23736025 0.13214827 0.15137756 0.007484612 0.060378343 0.060352758 -0.05977709 0.05921347 -0.07636183 -0.056374453 0.11719553 0.101966985 -0.06613634 -0.06885642 -0.060058396 0.077765174 -0.095497265 0.040172502 0.079185896 -0.004323315 0.10550758 -0.0259298 -0.016884344 -0.09322341 0.10621895 -0.07215083 0.03947842 -0.0026303735 -0.10077709 -0.056409076 0.14278841 0.02466697 -0.09641382 0.03503404 -0.010110148 0.34990644 0.033013668 -0.033561245 0.14650397 -0.17960244 0.013933271 0.20394403 -0.0071186787 -0.16882892 -0.03509056 0.14995298 0.042108197 -0.079384394 -0.06402306 -0.05146879 0.040621027 0.13832079 0.10974352 0.050102457 -0.1286633 -0.12829207 0.05782644 -0.13004594 -0.018055486 -0.035009935 -0.25468642 -0.18019329 -0.05628195 0.031326186 0.111960195 0.11302599 0.0052006864 -0.013304594 -0.055471644 -0.019031487 0.07304974 0.06571855 -0.18387689 -0.08188872 0.16926529 0.027931606 -0.105433896 0.17882736 -0.0041947095 0.0028294367 0.044453714 -0.03225831 -0.068256155 0.21666868 0.1048218 0.08669493 0.062130157 -0.09583052 0.13296333 -0.079103 0.033538863 -0.22936392 -0.31325805 -0.049500536 -0.12088565 -0.24968645 0.1227089 0.23631355 0.1437136 0.0063244454 0.032940723 0.121535905 0.14497781 -0.0022973455 0.029531151 0.10647218 0.09611569 0.022333149 -0.042549517 0.13028997 0.050141767 -0.039757963 0.17641209 -0.0334344 0.16750765 0.05946172 0.3316044 -0.11474697 -0.06443331 0.046381023 0.04493358 0.2002242 -0.06162729 0.025775952 0.00707397 -0.010864875 -0.1360752 0.09000618 0.19158062 0.08426354 0.025192348 0.054667 0.024891604 0.09684373 0.03587865 -0.052796267 -0.0787457 0.001207042 0.062941216 0.03294529 -0.009006657 0.042388167 -0.13354251 0.05906707 -0.021560926 -0.038132522 0.0534488 -0.1784407 -0.07455223 0.102608494 -0.16924101 0.116258636 0.15632397 -0.031735357 0.034391455 0.09395784 -0.17192529 -0.010505381 -0.103107005 -0.04162811 -0.10063137 0.0538119 0.09777074 -0.079950534 -0.23594287 -0.12958042 0.006878553 0.14975373 0.08706331 0.08990682 0.20005627 -0.045448095 -0.09759984 -0.12417287 0.1438453 -0.25315213 0.084996186 -0.041164316 -0.035823897 0.17444183 -0.06691189 -0.0635057 -0.008538169 0.045885976 -0.038975403 -0.15217558 -0.08135955 0.14845559 -0.031507924 0.03793751 -0.03825459 -0.09501915 0.14705947 -0.084263764 -0.136063 0.019601114 -0.14458328 -0.06255635 -0.051603742 -0.053969007 0.005617105 0.2810203 0.12730113 -0.22283302 0.047602206 0.054055598 0.066426456 0.025362968 0.0023423517 -5.1035415e-05 0.06651468 -0.048997905 -0.09026742 0.30687994 -0.06708453 0.014515546 -0.14435571 0.016857017 -0.08811229 -0.07582014 0.018084489 0.022731204 0.030328246 -0.2444628 0.08259427 -0.20812124 0.10830246 0.09960473 0.08570283 -0.07130404 0.029353363 -0.019122733 0.012851173 0.037380032 -0.16253176 0.13692164 0.055508383 -0.064830765 -0.10921635 0.0805944 -0.08416537 -0.22030725 0.045923155 0.05641154 -0.015461966 -0.110289074 0.013394809 -0.14195205 -0.0975128 -0.06985953 0.08960417 -0.06853386 -0.13190863 0.16139959 -0.008223463 -0.033443037 -0.08617006 -0.09304045 -0.2426025 0.12568171 0.07280048 -0.0037222386 0.032226667 0.13658723 -0.08278876 0.03246419 -0.116280794 0.12215176 0.11942951 -0.2366201 -0.20455994 0.030813986 0.0052539255 -0.12722792 0.19968653 0.03575522 0.051982872 -0.064700276 0.076728635 -0.033542037 -0.023833102 0.06631054 -0.15768945 0.12742993 -0.068882994 0.07578003 -0.15101147 -0.1596589 -0.15512761 0.0072804387 0.0015900075 -0.014334034 -0.070846796 -0.11246521 0.041100986 0.016414048 0.004121445 0.20788828 -0.013473746 0.06941438 -0.021461116 0.008126784 -0.05802231 -0.12500483 0.19533204 -0.008305179 0.07985209 -0.07070166 -0.011983175 -0.08218402 0.12810117 0.035642166 0.04120659 0.14102873 0.120844394 0.0922491 -0.14248154 -0.084549926 -0.17767312 -0.00453084 -0.06911753 -0.16256256 -0.045487013 -0.14422433 0.0441461 -0.12443264 0.1020804 0.10335971 0.26677644 0.10622063 -0.074749835 0.018813 -0.11784388 -0.07432492 -0.019160457 -0.12894346 0.04878186 -0.09681606 0.015340887 -0.10327242 0.04692605 0.006433975 0.14453778 0.0051746913 -0.07236306 -0.019478427 -0.09094031 0.056328654 0.058676243 0.23193756 -0.13946795 -0.10406365 -0.14375864 -0.0022997474 0.0115563655 0.054851085 0.21309605 0.034408245 0.20281658 0.17441468 0.12978059 -0.010060388 0.21020801 -0.14469458 0.051715698 -0.053099535 0.12608711 0.17556389 -0.015337027 0.056469675 0.03097973 -0.047161236 0.08031764 0.043431778 0.026071088 0.00030926825 0.049170896 0.029713176 -0.00093815883 -0.048386645 0.1504616 -0.12546095 -0.17527449 -0.07906289 0.124938495 -0.12121845 -0.05162102 -0.022368383 0.08985696 -0.06691776 0.053089377 -0.13197322 -0.020718804 -0.09716414 0.022888666 0.15070282 -0.051330302 0.13452326 -0.056057915 0.199058 0.12901732 -0.094739296 -0.08720704 0.065053694 -0.021736598 -0.012432983 0.13172506 -0.07036767 0.013630632 0.101528265 0.07335536 -0.00024632082 -0.023615409 -0.20746933 -0.2899052 0.036157113 0.035029 -0.029039102 0.10298341 -0.07841588 0.0038452859 0.041190356 -0.07695485 0.1324922 0.060928244 0.06508943 0.2052885 -0.3209584 -0.04171464 0.08224309 -0.021630775 0.06897232 -0.05659613 0.07512122 0.11028469 0.031734567 -0.18077861 -0.092178136 0.06097224 0.006621097 -0.26489848 0.1303485 0.006109214 -0.064628296 0.10477075 -0.10781728 -0.21163833 0.06738197 0.16454515 0.23997767 0.014497178 0.012501575 0.1833634 -0.026629126 0.13462576 0.058131076 0.11479874 -0.035555843 0.06921401 -0.2178171 -0.4953203 0.055430688 0.13403985 0.08349384 0.043803565 0.16871735 0.035638545 0.048268568 0.10895041 0.04076054 -0.08530056 -0.23933256 -0.043210853 0.08216004 -0.08113923 0.09739701 0.020147972 0.09610023 -0.019436317 -0.004208018 0.0481476 0.11421694 -0.21451418 0.006480948 0.10510196 0.22181177 0.091228805 0.08558624 0.12757805 0.20224081 0.095253825 -0.15003172 -0.14435272 0.03964081 0.09219031 -0.008580324 -0.0032403695 0.060240895 -0.0070660347 0.023465266 -0.10128641 0.13420689 -0.109517254 -0.03870994 0.014260582 0.20359987 -0.08809786 -0.049322523 -0.049806543 0.23580694 -0.38052672 -0.1512431 0.16806413 0.059469752 -0.12782778 0.0064523723 0.023434935 0.13456485 0.2905595 0.14212772 0.012796769 0.11768722 0.020454708 -0.26615682 -0.39795467 -0.26138481 -0.07015074 -0.1307734 0.03349086 -0.11543897 -0.30986485 -0.099889964 -0.042684726 -0.05604371 0.15645365 -0.05685302 0.092593566 0.002602981 -0.050060045 -0.066258855 -0.00060314103 -0.013901491 -0.076122075 -0.08585395 -0.24505547 0.0764191 -0.048122924 -0.10809445 -0.082794495 0.012756788 -0.09106183 0.005667582 -0.029579345 -0.08146038 -0.07784381 -0.1998741 -0.08598195 -0.21261099 0.4308035 0.12511918 0.13260004 0.08402552 0.18978767 -0.07419898 -0.25157195 -0.040111322 0.060323097 0.019652912 0.032048527 0.13659218 -0.007623838 0.09646133 -0.032115124 -0.046931025 0.11590868 -0.073970646 -0.21220623 -0.030801358 -0.15445007 -0.13418405 -0.18045859 -0.12763372 -0.02005535 -0.09302699 0.10668395 0.056361303 0.048612703 -0.20199148 -0.010971517 0.036056563 0.25035268 0.027161479 0.10780627 0.0053001666 0.08378593 -0.044483982 -0.17675766 0.03133712 0.077033624 0.06203597 0.046719905 -0.031057272 -0.1272039 0.07174295 0.12144281 0.02166087 0.024705518 -0.22966744 -0.0922581 0.26532114 0.18401894 -0.046177458 -0.006707864 0.014860448 -0.32761154 -0.1346044 -0.029234748 -0.02499072 0.009672088 0.0013250146 -0.051256724 -0.09802274 0.13485874 0.0038883886 -0.015712347 -0.025376016 0.22798492 -0.21956925 -0.034332152 0.004132336 -0.07361303 0.0944838 0.085826986 -0.0009740987 -0.075161114 0.005374537 0.17200537 0.030450514 -0.105036914 -0.013233637 0.03457967 0.027847344 0.08629117 -0.067460135 0.17858505 0.13036998 0.058721106 -0.098095074 0.18573211 -0.0045877 -0.010084939 0.005435958 -0.21339412 0.02572044 0.12838401 0.32488915 0.030006489 0.16443725 0.12436868 0.04130224 -0.09441836 0.110476576 -0.14530985 0.16458869 0.024501747 -0.2612204 -0.08214433 0.04369187 0.1205086 0.10978849 -0.17123932 -0.1773318 -0.120719865 0.17453708 0.1478044 0.2569758 0.019034073 0.1286484 0.13925397 -0.059830442 -0.070786856 0.100322835 0.21026199 0.0019501271 -0.25668794 -0.23069604 0.18377228 0.029519932 0.114020504 -0.084270425 0.038822677 0.08911856 -0.040245127 -0.038107317 0.007027516 0.058768872 0.0030678404 0.101201005 -0.04239209 -0.20253009 0.30166626 -0.059593227 -0.14308107 -0.09080856 -0.05946537 -0.0035756635 0.010534311 0.06463808 0.15085267 -0.14557286 0.2646231 -0.06956173 -0.028986447 -0.18095118 -0.033347074 -0.15642507 -0.049676895 -0.1045929 0.08336402 -0.070298105 -0.093355566 -0.020753661 0.13218565 -0.1844841 -0.12706518 -0.19022934 -0.10424899 -0.076658785 -0.15694694 -0.069613405 -0.19767031 -0.17148943 0.22401072 0.09967282 -0.10576333 -0.16880096 -0.18574862 -0.077578716 -0.017845321 0.14829537 0.12247509 0.13316973 -0.12318703 -0.21467763 -0.23886076 -0.13999093 0.14041464 -0.24279271 -0.1584738 0.07516337 -0.1390336 -0.0696308 -0.10099751 -0.018527618 -0.15579458 0.06402976 0.07112995 0.05533877 -0.08253615 0.013152334 -0.08544281 -0.029458266 0.21914794 -0.061685283 -0.16537873 0.08540425 -0.22275631 -0.15149125 -0.15446275 0.025343943 0.2008079 0.09174071 0.09479365 -0.083851054 -0.03358075 0.01196722 -0.16974325 -0.12628314 0.08477581 0.033138398 -0.05495916 0.13562717 0.022957966 0.11267772 0.007843346 -0.14292306 -0.106412336 -0.078858376 -0.080982275 -0.004527746 0.06596563 0.13001703 0.035318743 -0.040766526 -0.20442298 -0.004207578 0.030192506 0.14858413 0.21925204 0.16798835 -0.05560823 -0.07883133 -0.10934986 -0.15967011 -0.11652855 -0.008481797 0.06396264 -0.11535841 0.079844564 0.043336846 -0.03614315 0.08122365 0.05615151 0.027058946 0.034957413 0.107977696 -0.029379461 -0.12770432 -0.13771553 0.11675721 0.124099635 0.036792163 0.15407185 0.1101622 0.072864085 -0.08732978 0.17694402 0.04236357 -0.058956094 -0.0646925 -0.006301068 -0.12266532 0.013419153 -0.0442216 -0.01838056 -0.17534684 -0.035932776 -0.08647774 -0.02600485 0.25178236 0.25892594 0.12226182 0.061115555 0.10535273 0.13523301 -0.16902143 -0.03107685 -0.18368347 0.10248983 0.21030356 0.011809615 -0.20799984 0.06539025 -0.0859077 -0.061833642 0.067158855 0.029256769 -0.04500945 -0.06115923 0.0013170745 -0.06131877 -0.102213524 0.020959824 0.027629614 0.008611114 -0.1039581 0.05780532 -0.32527852 -0.08185656 -0.07322591 -0.027944284 0.05907097 0.19367406 -0.0054847472 0.1763756 0.061944187 -0.32024056 0.05012597 -0.23860504 0.08917401 0.029175472 0.031365026 -0.04565626 0.08652663 -0.15153557 -0.0020816447 -0.05188623 -0.06322858 0.046676207 0.11154922 -0.030524159 0.06680149 -0.016962329 -0.06485812 0.089252464 -0.036987208 -0.059658542 0.12724473 0.042086545 -0.21046191 -0.20237292 0.05380322 -0.124290824 -0.021892872 0.15810631 -0.061339617 -0.062981345 0.2545919 -0.11463912 -0.24960493 -0.18812162 -0.003819793 -0.12887782 0.09214258 -0.07387375 0.11315483 -0.035561655 -0.0998338 -0.03812892 -0.2579149 -0.0075756 -0.013210571 0.086275645 -0.17603593 0.109350465 0.12103562 0.09370511 0.13363408 0.011761355 -0.17077611 0.009374875 -0.1894962 -0.10337836 -0.09369943 0.065448955 -0.026168946 0.050368942 -0.25610694 -0.3340514 0.029830735 0.036479168 -0.17686456 0.08393036 0.16039194 0.08469438 0.018623663 0.113316774 -0.06857003 0.0076190783 0.0027163774 -0.022774989 -0.034479313 0.0117880795 0.007941976 -0.10034155 0.08468081 -0.07059646 0.028300509 -0.060901597 -0.002887554 -0.22243534 0.026382763 -0.16132851 0.03574663 -0.09734842 -0.05278353 0.13700452 -0.06636161 0.08525725 -0.09283653 -0.052650925 -0.058205348 0.051832307 0.0007851657 -0.079314016 -0.004354591 0.014472293 -0.017580662 0.0755287 0.13497435 -0.093082614 -0.06889366 -0.13912277 0.20753847 0.034968182 0.05248147 -0.12951966 0.0043842383 0.099484235 0.023283882 0.076196946 0.19248517 -0.1611081 -0.13587247 -0.09648371 0.06699052 -0.00029818062 -0.11645368 -0.10572006 -0.17528386 -0.0077383784 -0.16081561 -0.0041675707 0.13877927 -0.0038523371 -0.0033474367 0.03585334 0.021083832 0.16915049 0.063049845 0.08483264 -0.015484193 -0.06627857 0.06989984 0.021244852 -0.13814214 -0.028686201 -0.004168953 -0.04692501 0.15229428 0.05210468 0.14143822 0.030463295 0.01225954 -0.08953915 0.005313702 0.0054261414 -0.13259067 -0.049831968 -0.02820749 0.045468733 0.05025579 -0.05401107 0.05100774 -0.01408714 -0.2828414 -0.044349425 0.112019494 -0.16405985 0.015389877 0.16264684 -0.07194066 0.004335656 -0.1262809 0.16684383 -0.0042125136 0.008783438 0.13955078 0.070268475 -0.08344224 -0.060606997 0.05361391 -0.058291327 -0.2076036 -0.0012033276 -0.14390054 0.1657489 0.021799533 -0.08639687 -0.06574261 -0.18481904 -0.10582556 0.10575295 0.22729933 0.076760285 -0.005083506 -0.03907516 -0.091528945 0.21009731 -0.014754116 0.2156837 0.14347267 -0.16995892 -0.06247459 -0.06278388 -0.0038638844 -0.0019106772 0.3037445 -0.103602156 0.027017763 0.06577141 0.0039635454 0.015138813 -0.09799945 0.01751154 0.054911166 0.036423285 0.060773548 0.14536522 0.09728134 0.010070805 -0.114551485 -0.05747846 -0.020172667 0.027025033 -0.046042833 -0.09103727 -0.115267366 -0.16147955 -0.01553357 -0.14231627 -0.097125374 -0.035702948 -0.12652302 0.042095996 0.07814294 -0.050821923 -0.03958195 0.057863757 -0.06727888 -0.07415276 0.12377048 0.092922755 0.064659 0.097068444 -0.1912465 0.14217867 0.042282283 0.10408372 0.041314777 0.008405842 -0.024727548 0.039626274 -0.029384341 0.088578254 -0.15647215 -0.051983938 0.20627211 -0.060072113 -0.020709634 -0.08519792 0.039855663 -0.070361115 -0.015417344 0.087720014 -0.06355839 0.08298174 0.08672691 0.10999959 0.01855801 0.3282465 0.109574005 0.03660854 -0.083471805 -0.0052019414 0.14713646 0.17545724 0.15469748 0.08531443 -0.1224899 0.051721748 -0.12154161 -0.14523335 0.026719242 0.05523178 0.09212835 0.05188727 0.055332247 -0.096291594 -0.0087072365 -0.14817594 -0.19717796 0.07712445 -0.0690414 0.090515226 0.113978565 -0.059098244 0.065349095 -0.06161168 -0.18008411 0.016834876 -0.042583432 -0.03988812 0.20165503 -0.14846498 0.042407893 -0.094976746 0.09533012 0.034347083 0.046291217 -0.08738036 -0.07423899 0.09529005 0.17970337 0.04671793 -0.090202644 0.036752485 0.24494062 0.012630936 0.14902323 -0.07139591 -0.0019553988 0.06530165 0.04351031 -0.07648766 -0.07821973 0.101569414 0.122110665 0.15518816 0.18827963 0.017965859 -0.02661601 0.13960287 0.07581091 -0.09412489 -0.09924293 0.0533138 -0.013606713 0.0018609626 0.111757316 0.080407694 0.14133497 -0.18586618 0.027906204 0.07200338 -0.1501227 -0.06680243 -0.08471593 0.00428815 0.16485205 0.20470816 -0.078618735 0.05527266 0.05849605 0.041899882 0.04293428 0.03030771 0.17154934 0.113038875 -0.10294083 0.083603926 0.09712411 0.036000684 0.11764642 0.023311317 0.024550686 0.016244827 -0.19770369 -0.00391909 -0.06270442 -0.114140816 0.1479056 0.054924708 0.004614009 -0.049626563 0.032679513 0.10188405 -0.080152184 -0.001845642 0.08564243 -0.19080575 -0.0029913858 -0.039743792 -0.009731384 -0.046511248 0.01694781 0.19502036 -0.030238556 0.028926767 0.20295887 -0.05145508 0.18561365 0.004881355 0.18714392 0.07952409 0.035214793 -0.0020591107 -0.058283366 0.01169991 0.09385678 0.0028096056 -0.027541513 -0.02057434 0.103751644 0.12701993 -0.062428128 -0.06331524 0.041026205 0.1554946 0.11714344 -0.12579733 -0.027874993 -0.091320656 -0.024192583 0.16362645 -0.13860855 -0.15830219 -0.07974127 0.031055227 0.06449547 0.04243282 0.120932646 -0.17269441 0.1229797 -0.026860487 0.07879368 -0.13096069 0.0049996353 0.02813099 0.11969574 -0.15440474 0.0071960045 -0.1044029 0.054670382 0.08184229 0.13322079 -0.048998993 0.097009555 0.13963358 -0.16132364 0.06397589 0.09839553 -0.02633967 -0.12234792 0.09650762 -0.1171165 -0.014757302 -0.0003607907 0.07513765 -0.059548996 -0.06613435 0.012320455 0.09943451 0.23221657 -0.14713398 0.035680287 -0.103921264 0.107908554 -0.092473276 -0.06296084 -0.05442313 -0.0034991442 0.036440536 0.052490916 0.003543994 -0.12886839 0.076899245 -0.00079191156 0.120677456 -0.066299245 -0.15517437 0.0010224901 0.13266258 0.019161602 -0.02088139 -0.0896821 0.17376763 -0.10045765 -0.06956689 0.061320595 -0.18202165 0.13046566 0.065019324 0.08949282 0.054185938 -0.012606692 -0.10217762 -0.009870367 -0.09279139 0.05470183 0.08205917 0.15218464 0.04168072 0.096578166 -0.025593707 -0.043706935 0.051487967 -0.03452651 0.031039348 -0.101615235 -0.083667755 0.06801556 0.09372226 -0.094140515 0.07012885 -0.050206207 0.0007360962 0.1390471 0.07873935 0.081903115 0.193665 -0.06625744 -0.09519372 -0.06939231 -0.023036836 -0.23588541 -0.022368623 -0.05095156 0.08251323 0.039379127 -0.055337414 0.065082416 0.07370748 -0.0723506 -0.04479847 -0.2184156 -0.10494536 -0.070126325 0.011537374 -0.09041764 -0.04712621 -0.11793064 0.020953944 0.047046117 0.04420601 0.004410816 -0.15237607 -0.058863457 -0.038468484 -0.039746396 0.008934186 0.1483252 0.08689063 -0.09186089 0.07400924 0.07006047 -0.075627 0.08618132 -0.014522101 -0.13816464 0.048663538 0.025861656 -0.017692361 0.002246127 -0.07042889 0.065231994 -0.00022431472 0.020765653 0.039834972 -0.11133793 -0.08530767 -0.21687372 0.060595006 -0.11700206 0.016716326 0.04157348 0.06456481 -0.11706027 -0.0038364055 0.17072171 0.17349997 0.09989089 0.034990333 -0.09484856 0.077486634 -0.009705625 0.06246847 -0.056586575 -0.012473472 0.017951695 0.026058434 0.051562104 -0.051136117 -0.12578438 0.16756645 0.25491676 0.04622173 -0.12818028 -0.07319888 0.055032536 0.13823229 -0.117168434 -0.008312526 0.023713974 0.09057848 -0.030141125 -0.15292229 0.066692576 0.11680921 -0.004877736 0.043428198 -0.043777358 -0.08278743 0.104143925 0.040583163 0.054910805 0.15639687 -0.09882694 -0.048226178 0.023500852 -0.050733633 0.07999523 -0.016944284 -0.097039916 0.012900699 0.025926886 0.09855626 0.04530552 0.047594298 0.036149945 -0.014701502 -0.06750128 0.033004623 -0.029191716 0.17310299 0.13833895 0.067404546 0.042065687 -0.005327624 -0.12153957 -0.01728756 0.013548272 0.029846534 0.053483963 0.09381859 -0.067807846 -0.06652673 0.14821485 0.07964083 -0.032525286 -0.004169288 -0.006427977 0.0057559744 0.04887828 0.25426304 0.01963897 0.070114836 -0.16165036 -0.04415272 0.12812217 0.040960494 -0.43479088 0.07152295 0.19593716 -0.19547004 0.15605949 -0.27307498 0.09792053 0.0032558865 -0.2308764 0.04808204 0.1196568 0.040718276 0.06202352 -0.034791414 -0.17960857 0.07073935 0.17609465 0.11530462 -0.19579537 -0.14921048 -0.07806149 -0.1528228 0.008196808 0.041890122 -0.14105056 0.07862375 0.06149348 -0.050866503 -0.0102872895 -0.19054465 -0.027985483 0.0014674639 0.02099553 0.04200847 0.028544942 -0.0223136 0.03274028 0.104323834 -0.0054290583 0.035880268 -0.014496351 -0.06120761 0.05686087 -0.051193018 0.041679177 0.0084542595 -0.024314426 -0.03134173 -0.05024285 -0.16574568 0.037433106 0.021689966 0.08781003 -0.051381793 0.1884738 -0.039394233 -0.08909932 -0.10218687 -0.17090945 0.15944226 0.14408058 0.063994735 -0.08417509 0.18185489 -0.031051133 -0.022781814 0.14784662 0.07001169 0.22423103 0.028992994 -0.0355823 -0.05705971 -0.1805789 -0.024391286 0.118649 0.06412465 0.0050953366 -0.0935456 0.029874135 0.1031372 0.043833744 0.01547979 -0.080552295 0.08498297 -0.31037542 0.03991472 0.25559267 -0.15211102 -0.026726361 -0.0037842707 -0.043391626 0.1107668 0.05478546 0.019150294 0.085161045 0.0019225698 0.32210705 0.019255461 0.02364898 -0.16692609 -0.050224256 0.118858404 -0.12942496 -0.211635 0.0040420913 0.13723232 0.008427777 -0.029372219 -0.18324995 0.05049283 0.073216975 -0.17521732 0.11465393 0.07551529 0.11244838 0.056830067 0.06820072 0.05364131 0.08528922 -0.18239865 -0.15120664 -0.07306951 -0.0052147117 0.046161674 0.039516028 0.114949994 0.12028332 -0.086990565 0.02466816 -0.08397253 -0.014703952 0.036299914 -0.33675063 0.24524513 0.060761645 -0.05544955 0.19354732 -0.034683358 0.017441604 -0.04511957 0.16703255 -0.00523104 0.022602513 0.12397756 0.059476946 -0.0072127087 0.10960241 0.25195783 0.029847391 0.00929007 0.014968023 0.12969661 -0.062033243 -0.025484992 -0.14526764 -0.11112721 -0.045369126 -0.0030910536 0.18223454 0.053846914 -0.09039723 -0.07198743 0.14159559 0.11678167 0.00693574 -0.040131867 0.11661392 -0.09521208 0.04001358 0.22732536 0.024734134 -0.07396003 0.04287038 -0.04173345 -0.1316532 0.07348861 0.11273441 -0.03318597 -0.03927318 -0.09804227 -0.01682143 -0.058399882 -0.10262906 0.18675536 0.044547178 0.060236122 0.09686275 0.08435791 -0.03490012 0.02975791 -0.021576757 0.044093996 0.03497963 -0.037455484 -0.12880915 0.018744474 -0.016306182 -0.1849165 0.054886956 0.10065485 0.25365037 -0.03830921 -0.049860287 -0.10789072 0.022421699 0.025499247 -0.07432781 -0.014218768 -0.19741245 0.0931542 -0.08007753 -0.005596276 -0.14489153 -0.060435466 -0.030420179 -0.0046425643 0.04480354 0.14629899 0.08099902 0.10261968 0.15035075 0.061835665 0.0011152575 0.100971006 0.10811155 0.065667205 -0.14134204 -0.08002538 -0.023364643 0.08208273 0.0019861106 0.1178075 0.13233402 0.12072767 0.12456486 -0.10064801 0.04991215 -0.05547654 -0.15818666 -0.024589887 0.13407396 0.046823543 0.19917108 0.015826192 0.24285264 0.015735587 -0.00040937067 -0.13102135 0.108426936 -0.04747569 -0.05635822 0.13419777 0.12156262 0.11807008 -0.0314331 -0.005037782 -0.0051748934 0.07906244 0.15947719 0.040935434 0.20160984 0.09384008 -0.01935917 0.08699177 0.17140438 0.20063925 0.12260176 0.005716976 -0.016683657 0.063104615 0.17433901 0.04700842 0.048553508 0.00791154 -0.034509145 -0.017467441 0.012518557 0.17047426 -0.026147742 0.0033709037 -0.08406683 0.07476056 0.14510715 0.16883741 0.026151862 0.06249437 -0.010569051 0.052861627 0.032207057 0.006636985 0.01789614 0.049313005 -0.025294477 -0.020128911 0.17485693 0.27517527 -0.119626075 -0.1251367 -0.09178878 -0.007826011 0.094545715 0.064669155 0.023824431 0.057253543 -0.06599014 -0.02173293 -0.0049870466 -0.16037254 -0.11734274 -0.113523915 0.0738512 0.024114585 0.06548205 -0.17910643 -0.14042987 0.07309304 -0.27234322 0.12753572 -0.17967972 0.084394306 -0.08804784 0.10570099 0.3249367 -0.22319704 0.07365835 -0.17669556 0.04679767 -0.016556447 0.013788759 -0.090358004 0.08198061 -0.14252064 0.12907027 -0.035576604 -0.13298549 0.16350007 -0.003038511 0.19433613 0.1198065 -0.08133141 -0.00918736 0.010949638 0.15071133 0.043382466 0.02212972 -0.015666068 0.0025022654 0.13772088 0.0058588632 -0.034684077 -0.053994544 -0.055325594 -0.13939925 -0.07422691 0.15396275 -0.016539158 0.0745618 -0.24375492 0.06095191 -0.015324743 -0.04733346 0.018906547 -0.045655876 -0.21007234 0.0981402 0.030202711 -0.02447465 -0.09278853 -0.14304675 0.025914453 0.16295269 0.021666076 -0.13917966 0.02060475 -0.0072242487 0.086755484 0.06441141 -0.29469955 0.061731502 -0.093853585 -0.1368904 -0.013728173 0.043484606 -0.16402337 0.07126827 0.07714451 0.0055081653 -0.08264173 -0.09381717 0.10671385 -0.14700155 0.10725767 -0.015709367 -0.008772924 -0.16688193 -0.012454793 0.06719239 -0.12739374 0.05639994 0.012429663 -0.06079628 0.0893649 -0.21861708 0.03601731 0.16031575 0.14208737 0.0372774 -0.029465318 -0.059842218 -0.026473671 0.061060693 -0.074613295 0.080766946 0.21843512 -0.0038008462 -0.13438939 -0.13366412 0.078467175 -0.0051640715 0.09180372 -0.049242646 0.08718299 -0.01170916 -0.06912977 -0.039289307 -0.118894815 0.20232013 -0.004317026 0.06938021 -0.048131518 -0.09768295 -0.021263793 0.113530934 -0.048709642 -0.084133096 0.017776871 0.047768727 0.1624324 0.03703656 0.06838575 0.074889176 -0.11249713 -0.090323105 -0.101957336 -0.12900805 0.08504796 0.035234906 0.012061429 -0.25845695 0.20635805 -0.08530657 0.209302 -0.14080343 -0.077119485 -0.21616422 0.040333275 -0.10600505 -0.10317938 -0.1331307 0.081131764 0.07436554 0.18444856 -0.06449807 0.026249275 -0.12534288 -0.02993434 -0.048820715 0.048526764 0.10379781 0.10124221 -0.08089823 0.10322978 -0.0008870174 -0.029191563 -0.06721846 -0.052547306 0.17770235 0.03394917 0.021395292 -0.022103919 0.24871859 0.13462177 -0.06798558 -0.023240736 -0.017303685 0.018707966 -0.06600197 0.04800243 0.14932953 -0.12724209 -0.10869404 -0.045194916 -0.040558618 0.20309174 0.10424352 0.09858471 -0.022741245 -0.024742384 -0.14160094 0.08044246 0.05138776 0.13092205 -0.017513392 -0.010656441 0.02046946 0.093319304 -0.14282238 0.07780339 0.0014146552 -0.102737375 -0.20434147 -0.009526615 0.14889202 0.1715892 0.0396584 0.20032129 -0.00017335883 0.0897074 -0.050745983 -0.057082776 -0.07337387 -0.21167569 0.123086296 -0.069786206 -0.08576684 -0.12362013 -0.02605885 0.17072645 0.2037551 -0.17170948 -0.041067693 -0.10905874 0.09321082 0.023036448 -0.0692799 0.001634391 -0.053364757 0.15580182 0.04907306 0.06135937 -0.27231508 -0.0123017905 0.2026983 0.12699012 -0.19033174 -0.036965482 -0.1257748 0.16548736 0.01880492 -0.08240252 -0.0022071248 -0.2663599 -0.11411909 -0.0019785496 0.07894458 -0.19975421 -0.04373843 0.09534562 -0.15076812 0.017295377 0.0009745287 0.16581525 -0.028636524 -0.02278296 0.07987302 -0.13825765 -0.027711226 -0.051195394 -0.01951408 0.07921769 0.049793255 -0.08049119 0.008046997 0.14342137 -0.088759534 0.008893752 -0.024938973 -0.011923424 -0.16868855 0.13545349 -0.08305815 0.09698424 -0.06776063 -0.06817344 0.11568937 0.0937655 0.026582422 0.0942141 -0.049866833 -0.014851959 -0.074693725 0.03664331 -0.06002749 0.17902504 -0.017604709 0.031008903 0.059059776 -0.014426614 -0.046603903 -0.011022535 0.016918613 -0.16653273 -0.14353904 -0.12058217 0.038352467 -0.045887746 0.19374655 -0.021276759 -0.029391268 -0.022726113 -0.13728693 -0.109295644 -0.058689583 0.10796002 -0.008935522 -0.04928249 0.1218354 0.15429975 0.13125396 -0.101347685 -0.04658563 0.21696116 0.042863786 -0.04018542 0.078493305 0.11802336 -0.07395804 0.0051309373 0.08064792 -0.12803677 -0.015578507 -0.11945918 -0.1508168 -0.16656262 -0.04633279 -0.14659482 -0.17710856 -0.04964784 -0.10192257 0.03725743 0.112320624 -0.008738421 -0.02108293 0.03172114 -0.20846973 0.04805885 0.30456525 -0.013085648 -0.0127305295 0.07354265 0.17505378 0.08145809 -0.21262132 0.09192768 0.2759427 0.048821412 -0.108801685 0.04547623 -0.14488207 0.11127227 -0.107596345 -0.0045838105 -0.10259108 -0.06266498 0.09615595 -0.099906944 -0.14996469 -0.22891533 -0.29943734 -0.17993157 0.023969611 0.097205326 -0.056853224 0.1562364 -0.072568096 -0.029424077 -0.11358063 0.09345321 0.20412827 -0.17699966 -0.03543428 0.12566002 -0.13173757 0.04594404 0.15456204 0.072228 0.12821431 0.19290945 0.25165993 0.01556309 -0.0948598 -0.13245465 0.064601675 -0.12737045 -0.006523776 0.040672053 -0.06013419 0.016112762 0.2283745 -0.07669258 -0.087901555 0.08637845 0.046465337 0.14311561 0.015650727 -0.02566035 -0.17919046 -0.16759627 -0.18919265 0.03231102 -0.14184774 0.12473965 0.002206628 -0.025236722 -0.03497271 0.09159668 -0.035612494 -0.036645547 0.17002441 0.05228127 -0.014197367 0.051891733 -0.04049906 0.012417009 -0.11150311 0.18366797 -0.067602776 0.14918622 -0.05202932 0.06847747 0.059917573 0.10118033 -0.10506782 0.11189484 0.20715085 -0.026687328 0.0026525778 -0.05316274 -0.035461698 0.16551949 -0.106046416 -0.099834844 0.1554673 0.0616368 0.21121906 -0.045861937 0.061898313 -0.036202617 0.06338999 -0.11141995 0.08322881 0.003927867 -0.022353455 -0.07842275 -0.12707533 0.047781 -0.14166822 0.02663064 0.18245499 0.09290629 -0.22449428 -0.10684721 0.019999908 -0.007106779 -0.1376026 0.052780077 0.022087893 0.19061457 -0.026140898 0.11598229 -0.13233161 -0.10842389 0.06654324 0.102750115 -0.101362236 0.001589709 -0.13897589 -0.018940015 0.13156426 -0.015028844 0.013965222 -0.057692833 -0.05010242 0.14753412 -0.017968701 -0.13772005 -0.062471617 -0.1847329 -0.12597491 0.0773373 -0.08665969 0.10896299 -0.10025407 -0.057353776 0.07244264 -0.23319963 0.022831896 0.009349862 0.1702954 0.09789104 -0.11418722 0.12339582 -0.031854365 -0.096068285 0.0140874125 -0.02589984 0.14822374 0.028439308 0.01974786 0.08924666 0.15715902 0.10682763 0.16951948 0.11615491 0.031498633 0.114080116 -0.001717009 -0.018063752 0.12463015 0.1158642 -0.025376553 -0.104051754 0.073905826 -6.812773e-05 -0.09561691 -0.064605206 0.0628607 0.03188826 -0.06409587 0.03195754 0.05303865 -0.036116377 0.08956452 0.12806527 0.091366805 -0.03324776 0.06995919 0.002173223 -0.12919736 0.06164996 0.013795136 0.25853682 0.19723824 0.11375241 0.0573655 0.035840224 -0.08090097 -0.19744043 -0.065368295 0.0011190573 -0.24429747 -0.13199995 -0.088572934 -0.09352292 -0.15992187 -0.13079438 0.0827586 0.06654345 -0.022995293 0.031958845 0.03596232 -0.05774218 -0.04163377 0.1024755 -0.04279651 -0.11028769 -0.009936954 0.006178054 -0.20289321 -0.009697551 0.08117503 0.039500047 0.22216155 0.1607487 0.19640456 0.3226471 0.10826419 0.03577502 0.116842 -0.07946512 0.03265617 -0.058882024 0.009139055 -0.13967457 -0.1294204 -0.02754896 -0.104436696 -0.28631166 -0.23518614 -0.11439771 -0.055262353 0.08023616 0.0606876 0.12558137 0.11055942 0.108613394 0.06002153 0.020149902 0.10431221 0.08631832 0.031986643 0.12148416 -0.2402016 0.0153317265 0.01860388 0.20076486 0.20865065 -0.16291532 0.108686626 -0.0878751 -0.17788482 0.0061756684 0.02775319 -0.089057446 0.06993007 0.039181475 0.06900177 -0.10233797 -0.08860624 -0.10807344 -0.03725669 -0.46305194 -0.17596672 -0.08776648 -0.13070183 -0.051457606 0.07911899 -0.014344464 0.050825007 0.057192042 -0.02924955 -0.050942373 -0.022199394 -0.0063665505 -0.17965475 0.040532496 -0.0007221121 0.2068448 0.11061673 0.10367954 -0.12918672 -0.039444838 -0.19815005 -0.051629115 0.23273382 0.2592987 -0.10031504 -0.028430993 -0.00041022763 0.050722286 -0.20756814 -0.22630544 -0.036118183 -0.2863677 -0.15546076 -0.12186724 0.04132496 -0.0385338 0.05515079 0.13588114 0.07289859 -0.07032463 -0.0018506316 0.03269401 0.16620094 0.07300941 0.11583272 -0.06668372 -0.008040322 0.057153184 0.08715504 -0.114129595 0.09997273 0.09868668 -0.0061670374 0.13928735 0.09629433 0.20250472 -0.13591911 -0.013532861 -0.014958032 0.038162444 -0.056946117 -0.2294838 -0.13610402 -0.041991938 -0.038368806 0.09977152 0.07291924 -0.016208978 0.08848745 0.1618423 -0.06463396 -0.019651277 -0.11454877 0.13626781 0.033627 -0.07637529 -0.017068416 0.04534218 0.01930617 -0.009211605 0.03608497 0.02056911 -0.061914187 0.013759987 -0.17546137 0.031433266 -0.025099305 -0.040400818 -0.018702338 0.048185274 0.01911187 0.0042282236 -0.06553772 -0.14398052 -0.20843855 -0.12526995 0.041386295 -0.078686185 -0.00021141394 -0.12105026 -0.07451518 0.13322225 -0.053064357 -0.08932633 -0.115007676 0.036680702 0.13186797 -0.045930285 -0.027179243 0.10154022 -0.18666735 0.2409222 0.3459224 -0.28396058 -0.018967364 0.0017714426 -0.06833214 -0.035061017 -0.004966848 0.062076703 -0.140635 -0.027458785 -0.025489492 -0.19461338 -0.21062261 0.06662585 -0.22049941 -0.1030002 0.03850304 0.0739941 0.2203587 0.083489716 -0.060252473 -0.08713083 -0.04551937 -0.03244624 -0.17781791 0.076311134 -0.11425502 0.14370736 0.17644048 -0.03044826 0.038274366 -0.0789592 0.16388005 -0.06314628 -0.08550175 0.05561353 -0.08943395 -0.039963152 0.030453533 -0.01349345 0.13348475 -0.14974512 0.09200756 -0.15327257 -0.030168004 -0.17171355 -0.10445566 0.07501957 0.2590378 0.2300474 -0.033861704 0.07552266 0.006929785 -0.047873463 -0.12025305 -0.049380224 0.019337656 -0.1968043 -0.010258286 0.14597972 0.10656814 -0.06414135 -0.14531007 0.09021844 -0.1350355 0.1507731 0.0018630053 0.28148457 -0.16548988 0.08917238 -0.09767559 0.024505679 -0.1770019 0.01228333 -0.009348406 0.10817213 0.082237795 -0.11431239 -0.15248851 -0.16370665 0.22369559 0.042323835 0.15898837 0.109604314 0.118128 -0.03421112 0.060444348 -0.0071699913 -0.042544227 0.06397752 -0.02002011 -0.08545644 0.054359794 -0.0120214885 0.041869882 -0.0025487975 -0.024204649 0.22396822 0.16372053 0.14936347 -0.0144921895 0.02323586 0.06534231 -0.0042372732 -0.063030034 0.093989864 -0.11472814 0.06345052 -0.19056435 0.048557002 0.18567425 0.02379157 0.06052458 0.008553251 0.104525134 -0.019798243 0.07565686 -0.12697466 0.14866811 0.10846724 -0.008781388 -0.121037856 0.14796792 -0.042216066 -0.11614344 -0.1818346 -0.07161779 -0.15262753 0.034425408 0.13610728 -0.05456769 0.09655426 -0.061109502 0.08096833 0.2111143 0.009156475 0.0876492 -0.16130698 0.100992955 -0.14513959 0.06631735 -0.01976162 -0.009739879 -0.016230235 0.045833725 0.21514522 -0.0050589168 0.12683901 0.024779066 0.03143153 -0.053220417 -0.0020235565 -0.11309233 0.019132791 -0.0012041383 -0.05963825 -0.01112572 0.0077775256 -0.06865697 -0.020039566 -0.040303394 0.25978363 0.08888448 0.08829431 0.11903579 -0.15738392 -0.2338725 -0.06109758 -0.19543092 -0.12819035 -0.09082067 -0.023853388 -0.08639346 -0.030594714 -0.03500929 0.0047672708 0.06670602 0.21411382 0.06048862 0.22646406 -0.015239263 0.07075849 -0.01298802 -0.039795365 0.057608653 -0.035540238 -0.27181986 -0.31191015 0.121619195 0.117402874 0.18171275 -0.008773998 -0.072651096 -0.051673908 -0.007144747 -0.039718833 0.16244178 0.23945402 0.045168873 0.01606349 -0.2663127 0.067905955 -0.09096713 -0.08957306 0.08121377 -0.10252711 -0.02157392 -0.16484562 0.23659699 0.038925253 0.2564065 0.038590457 -0.013409178 -0.1283955 0.06895441 -0.09460528 -0.05426513 -0.0055181975 0.006499497 -0.17623249 -0.028703494 0.07390006 -0.04485492 -0.029494284 0.07285306 -0.022311416 -0.082636975 0.0208946 0.07291398 -0.01164278 0.024427569 -0.07150959 0.031853296 -0.026879579 -0.12875572 -0.03282264 -0.13536291 -0.14476757 -0.176199 -0.10897888 0.24697101 0.014877097 0.18714912 -0.024926143 0.076164186 -0.10977189 -0.0030983593 -0.0017360211 0.22715774 0.05741965 -0.064913355 0.06288194 0.20819466 -0.1685864 -0.09126949 -0.030710867 -0.035097457 -0.06544899 -0.10809845 0.12717803 -0.20650136 0.048847362 0.14559862 -0.05963397 -0.19440454 -0.18155156 -0.04849261 -0.12589386 -0.062413517 -0.2905091 0.05334529 -0.023233093 0.10273356 0.3055041 0.04743903 -0.031026902 -0.054565575 -0.026416365 -0.016117638 -0.09009106 -0.20793131 -0.061715793 0.030359691 0.008002906 0.11433249 0.18992586 0.06891209 0.13123071 0.075262465 0.12083668 0.22600803 0.10908862 0.06083004 0.050039735 -0.039282456 -0.12788713 -0.091583386 -0.16447663 -0.087896384 -0.26329753 0.08561888 -0.113455296 -0.0076268013 0.18648668 0.10642905 0.30940816 -0.1031435 0.16114536 0.08263042 0.013756519 0.13548659 -0.123884775 -0.03448438 0.13880225 -0.19232881 0.05042288 0.047594722 0.1912998 -0.1653169 0.15394175 -0.057361767 -0.09849387 -0.08608114 -0.057133604 0.07734074 -0.11295479 0.051619932 -0.07485132 -0.23283054 -0.15654108 -0.03513805 -0.1058021 -0.10550646 -0.0037420539 0.06836851 -0.04294923 -0.04083451 0.19302483 0.076295055 -0.21803786 -0.0930282 -0.04262667 -0.02780333 -0.083124675 0.06508111 -0.16613612 -0.16359466 -0.039011784 -0.023188183 -0.15248574 -0.06769615 -0.0471255 -0.040744487 -0.03860456 -0.09882556 0.246328 0.07756208 -0.008627623 0.032857087 0.09456206 0.08391404 -0.1037798 0.08278869 -0.047363274 0.113284394 0.09661091 0.07381101 0.026488457 0.12653604 0.108474195 0.20526594 -0.0757408 -0.06796621 -0.01666954 -0.1283249 0.048634794 -0.089022405 0.10419186 -0.13491629 0.0071012187 0.109399416 -0.22224607 0.1948052 -0.04954964 0.0126947565 -0.046648853 0.015867556 0.067038074 0.12367529 0.14326362 0.20513928 0.10616313 0.15890561 0.046366364 -0.21978147 0.20956236 -0.09639133 0.14323999 0.056792453 0.24206862 0.029598048 0.18428835 -0.059259035 0.07431248 0.016464872 0.122886196 -0.22342904 -0.015578438 0.034034047 0.016738584 0.09049276 -0.042213317 -0.0007442065 0.112499714 -0.23489025 0.051913932 -0.04718015 -0.19772464 -0.026539126 0.119166404 0.14090587 0.0966293 0.19346234 0.2474407 0.024303703 -0.10938353 -0.11345368 -0.003697265 -0.07770685 -0.029377097 -0.06731476 0.21338797 0.025278576 0.01309741 0.044826277 -0.22065945 -0.035735812 0.013763393 0.030953158 0.116894715 -0.13856797 0.0513569 0.09752942 -0.024260612 -0.019367598 0.036222044 0.028858822 0.052612368 0.050505158 -0.14908154 0.069209754 0.11181271 0.027824162 -0.035884123 0.06626608 0.15243906 0.00781438 0.034815863 -0.07798166 0.12515005 0.15267786 -0.02849624 0.20071635 0.18375583 0.120231554 0.017210485 -0.19317235 -0.15760104 -0.056356005 -0.003740408 0.009172921 -0.024694892 -0.047954854 -0.040763225 0.24514969 -0.08269548 -0.061420094 0.32376206 0.036478434 -0.14362085 0.07864576 -0.17082162 0.011088333 -0.025961973 -0.03476383 0.25124076 0.11169492 0.23081876 0.17649037 0.023301193 0.121006735 0.18225823 0.14647223 0.34573406 0.14100136 0.13149299 0.09808019 0.05393862 -0.2460882 -0.11360176 -0.01622076 -0.04723141 0.0281448 -0.0034921702 0.07174623 0.06068836 0.011092401 -0.13797958 0.17781398 -0.015447585 -0.00934712 -0.03551049 -0.050099585 0.1531475 0.13734613 0.043180924 -0.012008496 0.060653336 0.006121225 -0.020280737 0.03255217 -0.045374196 0.023967989 0.019163653 0.059035175 -0.06317208 0.069755234 -0.09188955 -0.058515083 -0.054150928 -0.10846358 0.10030782 -0.09816365 -0.071150035 0.12428241 -0.05831669 -0.020072713 -0.1024613 0.08203672 0.08341522 0.07263619 0.05249456 0.006100438 -0.053696085 -0.082755335 0.12773225 0.07522202 -0.07058883 0.0027247146 -0.031269945 -0.114079475 0.016506702 -0.042807687 -0.09651207 -0.14917156 -0.15763865 -0.038401034 -0.009767977 -0.08878849 0.06381554 -0.0078131175 0.056430113 -0.019549537 -0.079970166 0.010153273 -0.12752593 0.052685436 -0.094973326 0.09056485 -0.035103995 0.104994945 -0.11352072 -0.06903537 0.03683508 0.115791306 0.16540259 0.099218465 0.226579 0.055329237 0.1748343 -0.04899834 0.020143095 -0.2584988 -0.20604765 -0.061575964 -0.24822138 -0.106683575 -0.058732636 -0.19951038 -0.25992656 -0.21137916 -0.246515 -0.16974775 -0.13179876 -0.055323634 0.21867202 -0.019450331 0.13788502 -0.10538232 0.0060192836 0.11705214 0.111877315 -0.04328421 0.054248553 0.040859487 -0.040574625 0.075014465 0.19966839 0.14225182 0.12734959 0.10318156 -0.110128544 0.14399727 -0.093342915 -0.1401919 0.083160244 -0.17470469 -0.22339572 -0.019442452 -0.22946839 -0.1941203 -0.038126 -0.13972516 -0.25034648 -0.023494827 -0.15411802 0.11942627 0.0048100697 0.1232109 0.17631151 -0.07167485 -0.005901949 0.05228182 -0.08699298 0.02577107 -0.023750465 -0.025765195 0.018313212 0.020545831 0.029807447 0.04987694 0.01519674 0.024107357 0.031493284 0.054089747 0.04072692 -0.2626793 -0.20608063 -0.17737131 -0.2203122 0.028218882 -0.13281476 -0.13170184 -0.21135442 -0.14557981 -0.21571213 -0.09487544 -0.20817229 -0.06229912 -0.19056328 -0.09471202 0.15981182 0.09645925 0.14532311 0.15219131 0.06604034 -0.046545286 -0.1049835 0.11341606 0.019876163 0.26282156 -0.023090448 0.25179207 0.024549095 0.19469362 0.25498733 -0.0013344362 -0.041182637 -0.11114191 -0.117127225 -0.06620856 -0.15559195 -0.0023306566 0.05453104 -0.20067056 0.1464855 0.03411013 0.17908469 0.06566719 0.1553324 -0.026098955 -0.14863995 -0.0104701165 0.033490002 -0.09000661 0.028168434 -0.0226825 -0.13553369 0.06589009 -0.057630938 -0.04189634 -0.03283859 0.13696703 0.009327718 0.047755223 -0.0008004591 0.14070944 0.19777744 0.110959046 0.07600387 0.050002962 -0.16425073 -0.19984537 -0.10138168 -0.06322196 -0.07595794 -0.15588294 -0.102947064 0.027946133 0.1181417 -0.020663125 0.06653467 0.011692032 0.20509614 -0.03234547 0.08305256 0.03374069 -0.12678792 0.004353532 -0.12482081 -0.012070566 -0.07577149 0.03693788 -0.120816 0.014889515 0.070661 0.09620287 -0.12343441 0.03572226 0.041860763 0.21554276 -0.14180113 -0.14864366 0.23546934 -0.064759426 -0.16996022 -0.0409361 -0.25956845 0.043231398 0.13066949 0.006284812 0.07049196 0.16976696 -0.051868483 -0.11753554 -0.031737458 -0.09970872 -0.015967323 -0.11295556 0.034850664 -0.016181793 0.053660627 0.018781513 0.01941057 -0.14588903 0.0626785 -0.01966727 -0.0032404817 0.1112155 -0.11801565 0.11758944 0.15122078 0.13610858 -0.0573284 -0.18495531 0.1363856 0.02976157 -0.055380493 0.13467531 -0.040927432 -0.02547573 0.14621831 -0.035845857 0.114908986 0.14071395 0.11635461 0.13936408 0.10443428 -0.02275573 -0.20161721 -0.09715776 0.08975288 -0.15628344 -0.03392766 0.03258964 0.14569877 -0.058760386 -0.065607116 0.008174761 0.04851059 -0.009035496 0.058854744 -0.13555779 0.018789237 0.105351515 -0.009209201 0.12060195 0.096190065 0.14734326 0.07370757 0.054959368 -0.01801064 -0.04613733 0.21616907 0.15372245 -0.011597457 0.014728515 -0.1421342 -0.04277246 0.10185477 -0.021366294 0.043848272 -0.28821886 -0.025806027 0.0325688 0.045270566 0.09497717 -0.022284213 -0.017824069 -0.13447005 -0.007032802 -0.112738036 -0.16070609 -0.13256228 0.13641363 -0.061505087 -0.012461273 -0.076645866 -0.11603415 0.20125984 -0.21897173 0.0014892741 0.008731127 0.038168244 -0.02054928 -0.040230848 -0.0022238896 0.053807672 -0.1100521 0.096970275 -0.12139579 0.03584975 0.022620304 0.12810263 0.00010615922 0.09253257 -0.01848049 0.042180832 -0.15155241 -0.26508668 0.036496263 0.04185989 0.060969524 -0.05373096 0.17305313 -0.07003227 0.027632922 0.025014574 0.13742512 -0.05699897 -0.002298375 -0.042166244 0.10980158 0.055426393 0.015815407 0.2831071 0.04091883 -0.030350452 0.058295045 0.031205207 -0.07232954 -0.04029448 -0.058737982 -0.13357656 0.16604058 0.06194181 -0.009127862 0.089183256 0.045848306 0.026310634 0.06724141 0.0121350195 0.06576374 0.094693735 0.050332237 -0.037037842 0.1771207 -0.00028175412 0.12805142 0.20056623 0.070343375 0.0317027 -0.081348 -0.1469889 -0.35175562 -0.24544102 -0.21788475 0.009103943 -0.056217533 -0.32934678 -0.16247024 -0.16968296 0.006431556 0.013305067 0.10138681 0.00820757 0.046320662 0.18713859 0.017416557 0.10729521 0.09273218 0.06544615 -0.17992018 0.110404864 -0.04704855 0.070314325 -0.07787078 -0.1481836 0.22171979 -0.11544387 0.1717085 0.1708474 0.058199164 -0.0066644303 -0.34845456 -0.0579101 -0.17134061 -0.12784947 -0.04402755 -0.07174484 -0.19963071 -0.05506802 -0.14272957 -0.18018913 -0.19917229 -0.09745506 -0.1529816 0.23402922 0.04683435 0.04455955 -0.02112793 0.11673817 -0.053746272 -0.15575628 -0.06912617 0.13141917 0.081954814 -0.026760004 0.15670785 0.04511796 0.018063227 -0.036336597 0.060336135 0.029529957 0.14504562 0.16815723 -0.26441735 -0.04780813 0.07205172 0.16873947 -0.16676956 0.018923149 0.01894353 0.3013586 0.10774907 0.078841165 -0.006927739 -0.18758658 0.012992987 0.013841484 0.13450272 -0.080521524 -0.083628 0.044310573 0.121317305 -0.22145516 0.13618882 -0.015271999 -0.1896458 -0.30143166 -0.13355626 -0.016989665 0.038132265 0.043574486 -0.062347483 -0.038795218 -0.001844971 0.10865499 0.024430396 -0.06669243 0.22279905 -0.08895599 -0.10508484 -0.072352216 0.17544968 0.10217568 -0.017550565 0.14922784 0.081525065 -0.052260242 0.015994217 0.11845438 -0.046402603 0.020959722 -0.12951277 -0.021752663 -0.063877456 -0.04154702 -0.07624791 -0.02996812 0.051964846 -0.013207674 -0.18769562 -0.08963127 -0.10721747 0.0046604467 -0.02163815 0.046156276 -0.039276812 0.19455077 -0.015169305 -0.050917093 0.08009979 0.08948314 0.08007139 -0.03007225 0.16092187 0.009738167 0.11491288 -0.121888936 -0.084186085 -0.31911424 -0.06229273 0.04459671 -0.02684362 0.19391501 -0.117505014 -0.057616543 -0.09174567 -0.057636116 0.101882905 0.14654487 -0.07133766 -0.07355916 -0.11697127 0.11560932 0.15682235 -0.030343773 -0.19140394 -0.15491727 0.08708575 0.15723434 -0.1562106 -0.0077308486 0.15208152 -0.25212157 0.12751772 0.048714608 -0.0726322 -0.04868453 -0.008865222 -0.07145581 -0.18615803 0.015406092 -0.11518024 0.23312601 -0.05061854 0.01573239 0.05492602 -0.061114285 0.055532012 -0.20590127 0.04271232 -0.24811131 -0.023943111 0.08416589 0.060971092 -0.1448603 -0.08692219 -0.11165492 -0.03317235 -0.24833193 0.062406536 0.14812109 0.058804426 0.07719118 0.012624075 -0.16903484 -0.2148062 0.031095324 -0.09311328 -0.10522762 0.110540465 0.23226742 -0.018933775 -0.012350345 -0.10905593 0.14983445 -0.012960713 0.10590018 -0.05530427 -0.0254222 0.10462304 -0.010461858 -0.11214254 0.25390446 -0.10911768 -0.007728471 0.034356143 0.012688349 0.011069988 -0.044590984 -0.0743054 -0.059318367 0.22210374 0.07335831 0.1405475 0.08192153 0.05992939 -0.08208072 -0.19337787 -0.09460169 -0.030384138 0.075015254 -0.17271255 0.0063359113 -0.15573122 0.17062528 -0.015764166 0.21956027 0.09004597 -0.03163485 -0.13799386 -0.13672815 0.084718004 -0.12731783 0.03794424 0.010176428 0.03645483 0.045900058 -0.09367981 -0.13226725 0.10153697 -0.04613257 -0.32111892 0.11715056 -0.07473015 0.097163215 0.35942128 0.28317663 0.28267315 0.030041574 0.1795155 0.028562305 0.26382807 0.1759942 0.050484184 0.07992428 -0.18666327 0.19131911 0.3271445 0.19246405 0.08344788 0.102144524 -0.11903247 -0.13151276 0.12438354 0.026140418 -0.023908962 -0.00014613439 -0.23986244 -0.020314675 -0.0756174 0.057092685 0.14420442 0.08912702 -0.006558324 -0.09745973 0.16350386 0.19314863 0.33713683 0.39885128 -0.040889695 -0.1309024 -0.13324605 0.009759633 0.08903678 -0.10812279 -0.043638553 -0.12597562 -0.25019997 -0.035539623 0.07889213 0.04139795 0.023330674 -0.03357157 -0.07896424 0.08706389 -0.0072085126 0.10500633 -0.020763423 -0.0036779474 -0.057536658 -0.001963117 0.0709104 -0.041446093 0.07885049 -0.044977855 0.05042112 -0.0057155844 0.19460613 0.12517406 0.21005215 -0.053400047 -0.14818802 -0.23440029 -0.37551913 -0.31871277 -0.14298628 -0.20197359 -0.2655451 -0.23012693 -0.038557466 0.24659772 0.01933629 -0.0053941105 0.056831576 -0.056290027 0.20356461 -0.052933235 0.08334001 0.10696133 -0.053392004 -0.07555048 0.07287825 0.056230772 -0.14137377 -0.1131563 -0.2266332 0.09583549 0.01746992 0.050717037 -0.08364256 0.008037879 0.013016362 0.03497548 0.09002393 0.012193376 0.29215375 -0.02937924 0.084946014 -0.4529765 -0.42648786 -0.1496052 -0.18772705 0.13739179 0.01484146 -0.06860799 0.1508293 -0.088470615 -0.16407469 0.08950445 -0.074119836 0.1077582 -0.074597836 -0.05534819 0.03322475 0.058063503 0.07653564 -0.009286797 0.059230097 0.11255288 0.027960464 0.014658392 -0.09703535 0.13546519 0.028248323 0.04583383 0.17116107 -0.13802683 0.19177146 -0.016317198 0.090924285 -0.047814928 -0.24581194 -0.05432611 0.060081843 0.12775625 0.043401547 -0.13023895 -0.17693935 0.17048761 -0.10956633 0.14239219 -0.09466708 -0.019504048 0.061262406 -0.08327785 0.15796322 0.00631436 0.045772415 -0.027073381 0.10756917 0.22190194 -0.027453778 0.11280506 -0.12707031 0.16331701 0.09093907 -0.047040224 0.05693043 0.022136057 -0.05227222 -0.01918636 0.021140467 -0.09858549 -0.020770771 0.006107614 -0.117000125 -0.0013134188 -0.025825452 0.34705484 -0.17114867 -0.09318804 -0.05088688 0.20373659 -0.13327177 0.041333813 0.023580968 0.032101814 0.12237604 0.12032455 -0.045408357 0.019089067 -0.14471322 0.05624015 -0.06670198 -0.031760857 -0.23247233 0.062979735 -0.15557916 0.092994526 -0.10175293 -0.084881626 0.16531795 0.05614772 0.29656655 0.08910967 -0.05057488 0.23274158 -0.26698428 0.010088082 -0.057980727 -0.0906694 -0.017790351 0.04512362 0.091214105 0.021173308 0.01193727 0.05142824 0.029117968 0.05287716 0.01914151 0.08396565 -0.16303355 -0.013440048 -0.09668755 0.074001245 0.25743827 -0.07601192 -0.038061492 0.056934062 -0.23413438 0.08866901 0.15787075 -0.20260914 -0.018045984 0.2018865 0.1789814 -0.036233064 -0.011224226 -0.1688049 -0.009992059 -0.13160428 -0.026176365 -0.12852919 0.0916936 0.10278448 0.13767852 -0.04112355 -0.09569013 0.12643906 0.0531323 0.031600017 -0.06462157 0.042253707 -0.10884054 0.063093506 0.17958564 0.18879461 0.1401616 -0.17260326 -0.045731474 0.20451197 -0.21111985 -0.05799636 0.26277208 0.14880367 0.34862196 0.018514073 0.023389634 0.06051212 -0.2190316 -0.016342243 0.04910953 -0.01111779 -0.09224566 -0.01958564 -0.07489788 0.07212903 0.4022695 0.06881548 0.00965452 -0.1310446 -0.06500648 -0.022629462 -0.054718446 -0.0028662449 0.17748885 0.12440392 -0.016215026 -0.05668406 0.15889193 0.07148326 -0.19342595 0.043673433 -0.0023461813 -0.25771758 -0.09304194 0.024069298 0.15126199 -0.055328004 -0.057349127 0.09358245 0.0994494 0.10421989 -0.019380504 -0.22268164 -0.14663152 0.023498224 0.099629164 -0.06917476 -0.07982326 0.13575913 -0.15355417 0.12388776 0.13079217 0.08475055 -0.07003915 -0.08291078 -0.022264015 -0.13076225 -0.0974278 0.08418672 0.14797866 -0.042916868 0.07763412 -0.06581503 0.1582403 0.119148485 0.14529724 0.07378969 0.15753302 -0.09886484 0.006377063 0.014653233 0.0685994 0.14623955 0.026191331 -0.032862563 -0.11680724 -0.119723484 0.06477677 0.033714864 -0.10311979 -0.02062719 -0.17558827 0.0022785924 -0.021096434 -0.058705118 0.15720172 -0.116873816 0.069380894 0.21741252 0.10646839 0.05924884 -0.051004153 -0.074165694 -0.031133235 -0.08351362 -0.010539186 -0.012664651 0.0520101 0.118286595 -0.020556172 0.005305732 0.046267603 0.07342588 0.11209164 0.025151063 -0.14576982 0.03522726 0.06576251 -0.08259943 -0.14477868 0.17454717 -0.108246796 0.064818814 0.018746614 0.058822613 0.1694275 0.06572773 -0.046302553 0.120163105 -0.053546067 0.025919754 -0.11974452 -0.09376425 0.014702596 0.04637254 -0.16067536 0.059292607 -0.07237903 0.13753252 -0.025632491 -0.10279835 0.01714439 -0.08205963 0.1364582 0.009616954 -0.0056037284 0.06874398 -0.09093087 -0.11935151 0.050399028 -0.1004032 -0.10043714 0.09323948 0.06207028 -0.11581903 -0.052349728 -0.08080929 0.18719564 0.10016491 -0.032520615 0.06718332 -0.1260549 -0.057700742 0.020050276 0.054786947 -0.00018197934 0.034365237 0.017397577 -0.0067938096 -0.020050617 -0.03306262 0.03275763 0.05064543 0.029399872 -0.108295836 -0.09032891 0.04945205 0.15673102 0.0248055 -0.03160297 0.03199792 -0.104118265 0.14045803 0.02822337 -0.057381857 -0.0071156085 -0.043139752 0.1407307 -0.01066008 0.025100527 0.0669365 -0.06451278 0.028934903 0.037007425 -0.14584418 0.1006074 0.021713246 0.085178934 0.09564227 0.062646054 0.09479467 -0.15062511 -0.039248724 0.07381588 0.05272064 0.08927809 0.31869516 0.10475102 0.14902864 0.059198663 -0.040858727 0.029802198 0.116614394 0.116913676 0.09738804 0.019398905 -0.027816324 -0.008421797 0.082011424 0.093636625 -0.09106029 0.08579814 -0.05550828 0.056456037 -0.03782267 0.13795272 -0.06043351 0.09319894 0.069075614 -0.043582823 0.04852015 -0.025564099 -0.10669521 -0.044880457 0.14651304 -0.016517593 0.09997833 0.046606913 -0.1245504 0.09525445 -0.10541623 0.09062476 -0.028368514 0.030298619 -0.09832121 0.11249445 0.11022317 -0.034646668 -0.05115283 0.026836073 0.029335778 -0.26204374 0.21110435 0.06241922 0.07925574 -0.004790111 -0.2041615 0.048846178 -0.07514505 0.101541094 -0.01346382 0.06761703 -0.02169387 0.08753339 -0.17415151 0.22364873 0.25910634 0.20660745 0.14269558 0.006692627 0.13180222 0.0337198 -0.119416736 0.17813565 0.13523304 0.026327988 -0.0914117 0.04163607 -0.16458568 0.14055766 -0.17895703 0.010057005 -0.10299556 -0.16129649 0.033399392 -0.023815986 0.09338278 -0.11719661 -0.0943577 -0.25739014 -0.2370608 0.20743558 0.23557623 -0.023080459 -0.09426171 -0.03015971 0.043826424 -0.11462918 -0.020447774 0.023529364 -0.061789047 -0.11871681 -0.044675387 -0.10286224 0.0003694869 -0.08162188 -0.029921023 0.17295201 0.034695603 0.1643482 -0.16825671 0.020293608 -0.015857216 0.17370693 -0.21462135 -0.02824706 0.1552326 -0.06893817 -0.011719955 0.04273778 -0.00017520951 0.13795091 0.02622136 0.14343414 -0.024220904 -0.093318865 -0.007901765 -0.08744396 0.0048203645 -0.08486942 -0.116612606 0.059635025 -0.14658797 -0.0013707018 -0.11720525 0.087182045 -0.08096411 0.009708799 -0.038547557 0.08163721 0.018241614 -0.10971681 0.10959376 0.058561593 0.06032543 0.050398618 -0.09595588 -0.11010577 0.07509937 -0.020760959 0.103206806 -0.008256167 0.08371475 0.023704408 0.010171421 -0.021527661 0.04641288 0.14575431 0.03392588 0.09854284 -0.033499643 -0.02493207 0.15337262 0.15397145 