1024 96 26
-0.0959789 -0.0366801 0.0354542 -0.0181754 -0.0614199 -0.0526472 0.024639 0.0700516 -0.0423418 -0.0976881 -0.0296741 0.0504033 -0.0391008 -0.0755272 -0.0813238 0.0494614 -0.0863384 0.00751849 0.0102576 0.0459812 0.0936792 -0.0589029 -0.0117936 0.00105807 0.0120956 0.00837347 0.0430364 0.0231021 0.0565527 0.0140704 -0.0477196 0.0632468 0.0800631 0.0904076 -0.0522559 -0.0786838 -0.0595668 0.0750558 0.0940406 0.000764502 0.0800406 -0.0329608 -0.0461595 -0.0563874 -0.00581502 -0.0248102 0.0957469 0.0105195 0.0853809 0.00867745 -0.0408266 0.0817329 0.0524473 0.0500526 -0.0145362 -0.0327844 -0.0389012 -0.068827 0.0929904 -0.0796756 0.0479161 -0.0520563 0.0862441 0.0306523 -0.0589759 -0.063339 0.0546411 -0.0158696 -0.0856103 0.0531163 0.0918611 0.101958 -0.0746287 -0.0510956 -0.0540982 0.0193501 0.0227637 -0.0584753 -0.067351 0.00909421 0.0522557 -0.00777413 -0.00693132 0.0103105 -0.0530469 0.0859797 0.0838687 0.0126653 -0.0821407 0.0744519 0.0324573 0.0669743 -0.0755529 0.0213745 0.000299418 -0.0318559 0.0607082 -0.0423867 0.0547717 0.0773429 -0.088787 0.0471882 0.0814006 -0.0601376 0.0941757 -0.0722328 0.0571748 0.0173086 -0.0330155 0.0891205 -0.071419 -0.0769013 -0.0154193 0.0256568 0.0336539 0.0325707 0.012829 0.0165261 -0.0492964 0.0334796 -0.00607349 0.0821446 0.000221325 0.0189081 0.00464676 -0.0972344 0.0901529 -0.0315444 -0.0365205 0.047773 -0.0515285 -0.0226346 -0.00479442 -0.0693082 0.0197005 -0.00527046 -0.0423659 -0.0213439 -0.0893246 0.026913 -0.0341677 -0.0592679 0.0519336 0.0539384 0.0692805 -0.0103455 -0.00976832 -0.0166494 -0.09 0.0408338 -0.077403 0.006481 0.025431 0.0218022 -0.0748434 -0.0689596 0.0261232 -0.0820176 0.00259679 0.0927034 0.0688561 0.0541687 -0.0272583 -0.0332654 0.0855326 0.0934943 0.0641579 -0.0530012 -0.0306555 0.0725909 0.0696924 0.0354881 -0.0864293 0.0265559 -0.00507285 0.0882859 -0.0800239 0.0881685 -0.0270383 -0.06857 0.0327713 -0.000411964 0.0419059 -0.0391978 -0.077264 0.067894 -0.0069219 0.0491478 0.0877912 -0.101652 0.0449518 0.059748 0.0556171 -0.0792058 -0.0705918 0.0438226 -0.0852717 0.0928584 0.0910909 -0.0121777 0.0673072 0.0648449 -0.0751146 0.0855871 -0.00464986 0.0266298 0.077656 0.021243 0.0210706 -0.0416897 0.0565781 -0.0451254 0.0585007 0.000968981 0.0197712 0.0817795 -0.030502 -0.0868897 0.031906 -0.0414622 -0.0855098 -0.0204694 -0.0786136 0.073208 0.00342571 -0.0463575 0.0199558 0.0208267 -0.0517733 0.0137937 -0.0890563 -0.08036 -0.0170558 -0.0585207 -0.0932043 0.0820823 0.0675244 0.0862639 0.00514964 -0.00674939 -0.0515648 -0.0343695 0.0504697 -0.0919499 0.0710121 -0.0254295 0.0933331 -0.0584971 -0.00916565 0.0253626 -0.000566461 0.0039254 -0.0919164 0.0239208 -0.0197657 0.01461 0.0802361 -0.0969617 -0.0616383 -0.0688644 0.0190437 -0.0480601 -0.0461712 -0.0942769 -0.00507092 -0.0368762 0.0905153 -0.0327238 -0.0483629 -0.00159906 0.0630259 0.00600221 0.0700147 0.0164023 0.0137105 0.0403382 0.0948923 0.0138402 0.084383 -0.0152707 -0.0575343 -0.0166367 0.0872286 -0.0513823 -0.0904003 -0.0298694 0.0663281 0.0929364 -0.0241582 -0.0924618 -0.0728274 -0.102442 -0.0383914 -0.01723 -0.0932471 0.0606781 0.0475735 -0.100585 -0.0693807 -0.097174 0.000376497 -0.103007 0.0122482 -0.0239052 0.0188516 -0.0701316 -0.0836788 0.0137469 0.0461849 -0.0950139 0.0978504 0.0879827 -0.00814829 0.0846466 -0.0648261 -0.000304701 -0.0427315 -0.0958302 -0.00426747 0.0362106 -0.0856191 0.0255781 0.0368695 -0.0210853 -0.0892694 0.0445097 -0.05738 0.0607227 0.047079 -0.0233655 0.0675415 -0.0508422 -0.0233403 -0.0161277 0.0287869 -0.0991954 0.0193923 0.0503353 0.0131463 -0.0328769 0.0573047 0.0149243 -0.0473397 -0.052129 0.00354642 -0.0128151 0.0465231 0.0590588 -0.00588364 -0.0541736 -0.00162974 0.0115981 0.0740772 -0.0620875 0.0933609 0.0874807 0.0843983 -0.0626446 0.0526995 0.0343377 0.016946 0.0243438 0.0889402 -0.105543 -0.0893197 0.0213652 -0.103903 0.0321083 -0.0238311 0.0139383 -0.10394 -0.0636084 -0.0670051 -0.0454477 -0.0159245 0.0352557 0.0467028 -0.0691477 -0.00672872 -0.0614043 -0.0203071 0.0952123 0.053042 -0.0433816 -0.0642023 0.0490758 -0.0531962 -0.0759874 0.0886846 -0.0984869 0.0658061 0.010884 0.0347977 0.0614683 0.00999597 0.040137 -0.0179928 0.00963453 -0.0266968 0.0621827 -0.0690552 -0.0212606 -0.0995336 -0.032745 0.0335503 -0.011378 -0.094062 -0.0170804 0.0214062 -0.00364179 0.0174702 -0.101132 -0.00672506 -0.025773 -0.041697 0.0317454 -0.0740245 0.00792306 0.0587502 -0.081624 0.011561 0.0240483 0.0320742 -0.0554127 -0.0107137 -0.0512654 0.0902893 0.0638905 0.0550489 -0.0326273 0.0298363 0.0934771 0.0533261 0.0356433 -0.0384794 -0.0147533 -0.0810171 -0.0298203 0.0777052 0.0449821 0.0621029 -0.011437 0.0385555 -0.0458597 0.0644941 -0.0994269 0.0887019 0.0931425 0.0111691 0.050125 -0.0856654 -0.0739179 -0.0238902 0.048058 -0.0263317 0.0636775 0.100212 -0.0314199 0.033055 0.0497809 0.03175 -0.0351179 0.0473146 -0.00968217 -0.0941418 -0.0887941 0.079916 -0.0755475 -0.0234951 0.0616764 0.0779807 -0.0561516 -0.0567431 0.0103956 -0.00707153 -0.0936976 0.0123186 -0.0146549 -0.0978823 -0.0738397 -0.0618572 -0.0808748 -0.0449416 0.0176047 0.0702971 0.0303752 -0.015971 0.0683362 -0.0994792 -0.0795704 0.026685 0.0329944 -0.0154865 -0.0192553 -0.0706246 -0.000483295 -0.00227679 -0.0907366 0.0276685 0.0708624 0.0655377 0.00294989 -0.0764568 -0.0885511 -0.0880575 0.0122475 -0.0856535 0.0232361 -0.100985 -0.0805483 0.0513889 -0.0604986 -0.0587503 -0.0908798 0.0599223 -0.086244 0.0426095 -0.0543999 0.0841189 0.0399005 -0.029645 0.0130522 -0.013892 0.0568783 0.0912435 0.0145423 -0.037519 -0.00239746 0.0291865 0.0856589 -0.0281511 -0.00277095 -0.0112599 -0.00489887 0.0130496 0.00528213 -0.0956473 0.0231099 -0.077382 -0.0978426 0.0439845 0.0769944 -0.0563485 0.0875776 0.0887875 -0.0937533 -0.0959936 0.0336061 -0.0450394 0.0902369 -0.0208455 0.0217889 0.00442289 0.0642819 -0.0105564 -0.000277168 -0.0226538 0.0503717 -0.0993494 -0.0849457 0.0421944 -0.0313752 0.00780446 -0.0678906 0.0581221 -0.0735066 0.0366649 0.0720301 0.0419759 0.0571753 0.0671339 -0.0115276 0.0372213 -0.0863598 -0.0219573 0.0283523 -0.0774402 -0.015278 -0.0353689 -0.0202701 -0.0219264 0.0460734 -0.0942245 0.0827719 0.00915147 -0.00321585 -0.00728377 0.0895416 -0.0539143 -0.00771508 -0.0913322 0.0945942 0.0684682 0.0213903 -0.0748262 0.0257765 0.0401223 0.067032 -6.44817e-05 -0.00449487 0.0207404 -0.0363295 0.0764055 -0.0395262 -0.0196376 -0.0430166 0.0908184 0.00526567 0.0443781 -0.0418777 0.0876681 -0.074435 -0.0919624 0.0972626 -0.0877798 0.0175363 -0.00674663 0.00564698 0.0190525 0.0425582 -0.101511 0.0305502 0.0427359 0.0692848 -0.0412939 0.0707429 -0.00655128 -0.105665 0.0313817 0.101601 -0.00668737 -0.0349976 -0.0376719 -0.0349014 0.0189982 0.0448069 0.0260373 0.0123524 -0.0488385 -0.0281446 0.0731475 -0.0584975 -0.000810917 0.0838865 -0.0569198 0.0146974 0.00456012 0.0344343 -0.0798166 -0.0742364 -0.0119073 -0.0795947 0.0528021 -0.0670118 0.0944073 -0.0836093 -0.0885021 -0.00549316 -0.0882503 0.0415402 0.000785546 0.00998403 -0.0900568 0.0597841 0.072011 0.024714 0.00144184 0.000237576 -0.0598398 0.0551391 0.0731817 -0.0852528 -0.100685 -0.0249563 -0.100089 -0.0553771 0.0940559 0.0107229 0.0855915 -0.0876597 0.0349236 -0.0245585 -0.0558564 -0.00697362 0.012795 -0.0538213 0.0180336 0.02995 0.0453072 0.0338984 -0.0275877 -0.0614845 -0.0580583 -0.0179732 0.0998327 -0.0835448 -0.0971593 -0.000543617 0.0141529 -0.0548102 -0.0425632 -0.0107391 -0.038974 -0.0418091 0.0669772 -0.0363904 0.00409112 0.0634496 0.0764755 -0.00364853 0.0839308 0.0110746 0.0706392 -0.0713167 -0.0870043 -0.0126007 -0.0220259 0.0388594 -0.0812591 -0.0752935 -0.0273977 -0.00794323 -0.040121 0.00923007 0.0635242 -0.0429353 0.0300636 0.0776013 0.0587588 -0.0576253 -0.0784845 -0.0816138 0.0336747 -0.0166256 -0.0223337 0.00209152 0.0496567 0.08443 -0.0333701 0.0288052 -0.0187788 -0.0445651 -0.0532975 -0.0463581 -0.0156924 -0.0403473 0.0443174 0.0577677 -0.0977981 0.071377 0.0888949 -0.0257208 -0.0330043 -0.0454054 0.0884493 -0.0616517 0.00522287 0.0112169 -0.0904495 -0.0255164 0.0554135 -0.0662047 -0.00840596 -0.00872113 0.0192085 0.0700927 0.0944592 -0.0296949 0.0571955 -0.036238 -0.099801 -0.0589106 0.0196367 -0.0480808 0.0017829 -0.0962652 0.0161062 -0.0538863 0.0688995 0.012726 -0.0815001 0.0623878 0.0909901 -0.0125603 -0.0840419 0.0792607 0.0264718 0.032057 -0.0108557 0.0302604 -0.0992196 -0.0481518 0.0662862 -0.00463465 0.0448701 -0.00947912 -0.0321523 0.0404913 0.0619147 -0.0738677 -0.0934034 0.0647866 -0.032197 0.0283985 -0.083506 0.0711958 0.0378366 0.0294851 -0.0816609 0.00642859 -0.0499875 -0.0587614 -0.0227267 -0.0471271 0.033655 0.000643982 -0.067091 -0.044291 -0.0697045 0.0252158 0.0877513 -0.0734828 0.0753189 0.0635595 0.0229234 0.0247695 -0.0443071 0.0956847 -0.0308576 -0.0812298 -0.0765862 -0.0226642 0.0864072 -0.00560244 -0.0926694 -0.0939182 -0.0327002 0.048708 0.0440382 -0.00979257 -0.0416037 0.0925515 0.0329419 0.0384952 -0.0508616 -0.0242943 -0.0588162 -0.0128149 0.0350457 -0.030859 -0.0905821 0.0194681 -0.0103519 0.0869715 -0.0194553 -0.0754593 0.0145944 0.0425785 -0.0771645 0.0904272 0.0669435 -0.0513027 -0.0311483 0.0544396 0.045438 -0.0211446 0.0625142 -0.0845892 -0.0712377 0.00733681 0.00918036 -0.00832632 0.00220694 -0.0559227 -0.0709435 0.0496533 0.0151518 -0.0267248 -0.0629384 -0.0519849 0.0436619 -0.0518331 0.0648332 -0.0700131 -0.0737647 -0.0480406 -0.0403193 0.0582883 -0.0962362 -0.0136494 0.0495611 0.0728048 0.0406218 -0.0782348 0.0283336 -0.0128509 0.00205997 -0.00738311 0.00455247 0.0334949 -0.0990176 -0.0852946 -0.0721744 0.00469248 -0.0412835 -0.0416889 -0.0401444 0.0711598 0.0247704 -0.00131137 -0.0766672 -0.0277288 0.048435 0.0956888 0.00450187 0.0748188 -0.0589098 0.0638506 0.037432 -0.0433554 -0.0382227 -0.00960008 -0.0707293 -0.0955032 0.0168354 0.060956 -0.00726521 -0.0800159 -0.0449877 -0.100944 0.0551102 -0.0413325 -0.0852094 0.0815542 0.067953 -0.0272568 -0.0558148 -0.0710661 -0.0479685 0.0701697 0.0216593 -0.0265163 -0.0594046 -0.029529 -0.0336141 0.048562 -0.0535449 0.00918177 0.0141428 0.0896086 0.0714919 0.0862648 -0.0136908 -0.0983416 0.0896686 -0.0940838 0.0673817 -0.0136589 -0.0730107 -0.076517 -0.0124717 0.0842302 -0.0167602 0.00340783 0.0678015 -0.049911 0.0795925 -0.0909334 -0.0192109 -0.0660409 0.0864972 -0.0985346 0.00181588 -0.0746437 -0.0300063 0.0694068 0.0781242 0.0194652 -0.0172885 -0.00111352 0.0127285 -0.0417781 -0.0115988 -0.0931869 -0.0311142 -0.0203884 -0.0867579 -0.0647271 0.0699344 -0.0570958 -0.0385712 -0.0398646 -0.0701927 0.0473412 0.066216 -0.0997184 -0.0998968 0.0475545 -0.0878358 -0.0204826 0.0828688 -0.0957913 -0.010505 -0.0150537 -0.0717827 0.0592144 -0.0419869 -0.0878416 -0.0111802 0.044877 0.0113104 -0.0949362 -0.0904759 -0.0972528 -0.0837606 -0.0182703 -0.0116941 -0.0661773 0.0171768 -0.0388427 -0.023608 0.0812783 0.0239658 0.00887206 0.0368166 -0.00162127 0.0173507 0.0395927 -0.0513939 0.0335174 -0.0768878 -0.0685705 0.0363628 0.012332 0.0202203 0.068798 -0.024302 0.0805348 0.0812219 0.0645317 0.0295634 -0.0027617 0.0731944 0.041992 0.00432583 0.0907669 -0.0761043 0.0955488 -0.0757455 0.0437451 -0.040621 0.00331912 0.0276963 0.0860176 -0.0851361 -0.0383384 -0.018455 0.0293632 0.0984029 0.0272998 -0.0399708 -0.0813362 0.0558779 0.0935407 0.0281445 -0.0267531 0.0594873 0.100991 -0.0490697 0.0378578 0.0626714 0.0776423 -0.0677552 0.0330144 0.0167829 0.0337192 0.02093 0.0378272 0.0264168 0.0423331 -0.021279 0.0829444 -0.0571992 -0.096434 0.0661106 -0.0451866 -0.0376238 -0.0551958 0.0813253 -0.0420723 0.0692526 -0.0614969 -0.0262598 -0.0575472 -0.13393 0.00233612 -0.0579929 -0.0102383 -0.00216371 -0.159928 -0.0951198 -0.132344 -0.126967 0.0218092 -0.0412628 -0.0115162 -0.137387 -0.145413 -0.0454335 -0.111059 0.0615295 -0.0148655 0.0354631 0.0353181 0.0410362 0.0480139 -0.0633718 0.100561 0.0899668 -0.0848979 -0.0443626 0.056368 -0.0531494 0.00962416 -0.0411063 -0.106698 -0.0222493 -0.151856 -0.156469 -0.0041147 -0.0614565 -0.0144158 -0.156328 -0.0576957 -0.0484778 -0.0223368 -0.134974 -0.170233 -0.101152 -0.0715494 -0.152266 -0.0209176 0.00796449 0.0963548 0.0129461 0.0358881 0.0325534 -0.00158511 0.0609025 0.00276679 0.0275677 -0.0694093 -0.0268144 0.0754701 0.0373634 0.029228 -0.0671884 -0.126572 -0.13606 -0.110541 -0.0282395 -0.0115766 -0.0828394 -0.13585 -0.204569 -0.169191 -0.168567 -0.127893 -0.185267 -0.00965497 -0.0945043 -0.167807 -0.0966238 -0.117076 0.158776 0.0487822 0.112216 -0.0217833 -0.0646182 0.0388614 -0.0776611 0.060098 0.083503 0.0095751 0.0496188 0.0349172 -0.0640482 0.0795792 -0.110714 -0.0996574 0.0031551 0.121451 0.0929506 0.109321 0.0240417 0.102064 0.0734581 -0.0891577 -0.0862299 0.0591521 -0.119309 -0.194991 0.0191513 -0.0741233 -0.102123 0.0566562 -0.0755716 0.108703 0.0304841 -0.0723936 0.0221054 0.0186737 -0.0848691 0.00275701 -0.0577004 0.0788004 -0.0482751 -0.00769801 0.0685271 -0.0618404 0.0314488 -0.0724624 -0.0562171 0.0120047 -0.00980626 0.0587367 0.100075 -0.0186095 0.0889271 0.0534902 -0.103597 0.0604177 0.0397689 0.0134653 -0.150704 0.0117159 0.0658516 -0.119146 0.038757 -0.0582308 -0.0591624 -0.0875867 0.0833861 -0.0127425 0.0660355 -0.0771657 -0.0198914 -0.0681889 0.029187 -0.0503127 -0.0198817 -0.0422156 7.67769e-05 0.0222956 0.0723941 0.071415 -0.0370039 0.0392455 0.210779 0.127215 -0.0127585 0.104556 -0.0333023 0.0879324 0.144914 -0.0577249 -0.0891604 0.019636 0.0287822 -0.0854453 -0.0423406 0.0739648 -0.0476887 -0.102945 -0.0309439 -0.0558572 -0.0687248 0.0632153 -0.00999533 0.0745129 -0.0899487 0.0711748 -0.0575551 0.00727667 -0.0235605 -0.0775139 -0.0223749 -0.0161807 0.0414704 0.0238333 0.0613525 0.103093 0.0410238 0.0301692 -0.070851 -0.0287793 -0.0256257 -0.00692032 0.043307 0.0536432 0.0810973 0.0826713 -0.00722279 -0.114248 0.0744826 0.0724046 -0.030289 -0.0774485 0.0289877 0.072712 -0.0888849 0.0530897 0.0410354 -0.0453883 -0.0255829 -0.0853764 -0.0386934 0.0502009 0.0227632 0.071356 -0.040701 0.121828 0.0663105 0.0253499 0.0507524 0.0492056 -0.00454141 0.0286165 0.0119332 -0.0808665 -0.134832 0.111984 -0.0492223 -0.024272 -0.0832023 -0.107019 -0.0377504 -0.0148897 -0.0446512 -0.0880658 -0.0449068 -0.0205398 0.0790746 -0.0898206 0.0312206 -0.0493598 -0.0611464 -0.0973251 0.0980492 0.0386051 0.080105 -0.0637598 0.0283777 -0.0202494 0.0409582 0.127274 0.157739 0.102647 0.00914207 -0.0582311 -0.057139 -0.0354348 0.0808373 -0.0345054 0.098404 -0.0857567 -0.0389972 -0.0609079 -0.00894099 0.0196195 -0.0454842 0.0668491 -0.0814575 -0.0330395 0.0910792 0.0638137 0.0147494 -0.0729186 0.0675403 0.00994714 0.100017 0.0162992 0.0289495 0.016826 0.0778538 0.130386 0.0693255 0.073089 0.146655 0.13843 0.102395 0.126574 0.00513481 0.0471487 -0.0705233 -0.0274889 0.0725114 0.0132692 -0.0287538 -0.0579912 -0.0931441 0.0494039 -0.0876524 -0.000975816 -0.051174 -0.0632032 -0.0361104 0.0646273 -0.0389732 -0.0714215 -0.057218 -0.090604 0.0598363 0.0806851 0.0921194 0.0830859 0.0226412 -0.155803 -0.0737461 -0.128322 -0.122891 -0.187683 -0.165758 -0.184318 -0.107604 -0.126565 -0.232122 -0.0435612 -0.0882606 -0.149988 -0.017281 -0.0039563 -0.132715 -0.148864 -0.152556 -0.0761311 -0.0264755 -0.0224517 -0.0815109 0.0316999 0.0032754 -0.00873607 0.0749921 -0.0652609 -0.0123311 0.0102426 -0.0581705 0.0198746 -0.0220803 -0.089182 -0.0920648 -0.0498213 -0.117225 -0.185763 -0.224483 -0.145854 -0.166133 -0.223315 -0.278106 -0.132062 -0.285712 -0.10336 -0.100024 -0.19324 -0.101339 -0.149959 -0.0884111 -0.000151628 0.0131807 -0.00370753 -0.0384588 -0.0863952 0.0847051 -0.0663181 -0.0216632 -0.0642154 0.0553307 -0.043152 0.0700561 0.0470361 0.120916 0.139769 0.160125 0.0950108 0.0737202 0.128525 -0.183537 0.00701899 -0.115659 0.0147391 -0.112143 -0.108091 0.0101891 0.0326162 0.0622891 0.0758198 -0.0202402 -0.0349649 -0.099214 -0.0739442 -0.0804732 0.0285418 -0.0631908 0.101381 0.0593722 0.0122946 -0.0328421 -0.0218865 0.0844419 -0.126104 -0.040464 0.088839 0.0821007 0.0810359 0.0781727 -0.0419493 0.0343269 -0.0162749 -0.0301478 0.0313714 0.0642192 -0.0358697 0.139785 0.0295531 -0.0813685 -0.0984797 0.0807643 0.0964959 0.0152738 -0.0849663 -0.0803512 0.0705778 0.0957581 -0.00198763 0.0573376 0.0491881 -0.0925444 -0.0783558 -0.0427054 -0.0958954 -0.0891607 -0.0464877 0.109224 0.121969 -0.0279052 0.0133851 -0.0265592 0.143391 -0.109128 -0.091802 -0.0561101 0.162552 0.00105256 0.0288788 -0.00385113 0.162966 -0.0246915 -0.0951582 -0.0666946 0.0227578 -0.0402564 -0.054343 -0.131253 0.0210321 0.095852 0.067639 -0.0444003 0.0973654 0.0864319 0.010043 0.0986186 -0.0905218 0.0788546 0.0500852 0.11537 -0.0533572 -0.00525314 -0.150884 -0.0378138 0.0304687 -0.0502584 0.00307354 -0.0575559 0.148086 -0.013739 0.0922491 0.0929362 0.0976061 0.153962 0.101098 0.123737 0.053079 -0.144008 -0.123578 -0.1284 -0.0579103 0.0798615 -0.037371 -0.0751653 0.0603511 0.0698206 -0.0793981 0.066978 0.0608823 0.0859865 0.0284942 0.0987105 -0.0104784 0.114706 0.0166858 0.0965931 -0.112682 0.0283902 -0.0978092 0.0633248 0.18258 0.136696 -0.00865475 -0.0176752 0.0527246 0.0788103 0.0249953 -0.093958 -0.0658573 -0.0865086 -0.0868377 -0.0488641 -0.0164019 0.011592 -0.0253471 -0.0706713 -0.0245296 -0.00759657 0.0934553 -0.0664987 -0.000753234 0.0419953 -0.115036 0.0763916 0.0271914 0.0593053 0.00981664 0.101352 0.00505309 0.0512431 0.0270381 -0.0539412 0.0897143 0.0335887 0.0552098 -0.0981383 0.0122637 -0.152927 -0.0186122 -0.0637456 0.0278886 -0.100617 0.0391895 0.0883719 -0.0714789 -0.0417075 -0.0836171 -0.0192787 0.0361042 -0.0930132 0.0113713 -0.0761501 0.0686448 0.0523165 0.0479066 -0.0692094 0.0187303 -0.0607242 -0.12508 -0.0909026 -0.0324412 -0.016672 0.0319769 -0.0540803 0.159248 -0.0671026 -0.0619369 -0.0369517 -0.0424468 0.108798 -0.0233696 0.0348648 -0.150794 -0.0265287 0.0284263 -0.051928 -0.0402192 0.0648792 0.0274756 0.0726149 0.0572742 -0.0640045 0.0936134 0.00696243 0.0720396 0.0975007 0.0256341 -0.0888846 -0.0561149 0.0513526 -0.084768 -0.137524 -0.0538416 0.0790131 0.0902274 -0.0577416 0.144694 0.250438 0.183868 -0.063414 0.0223563 0.0696146 0.103023 0.0345045 -0.0102492 -0.132394 -0.0677937 -0.0732986 -0.0394977 0.066753 0.0911739 0.0945065 0.0881568 0.0819359 -0.00138246 0.0412397 0.0674779 -0.00591056 -0.112751 0.0465306 -0.0832353 -0.035019 -0.135017 -0.0520112 -0.141478 0.0086782 0.104644 -0.108692 0.132158 0.215997 0.0939491 -0.000449049 0.0972411 0.0526471 -0.0627865 0.0723391 -0.0829601 -0.101144 0.121808 0.0306953 -0.0509728 0.0580495 -0.00717586 -0.0860861 0.0253936 0.0885903 0.0523023 -0.0303987 -0.0201716 0.0783288 -0.0681105 -0.0233458 -0.105874 -0.0826664 -0.16543 -0.0786627 -0.0505297 -0.138791 0.03744 -0.102727 -0.0653204 0.209569 0.281718 0.205297 0.166246 0.022502 0.113411 0.114476 -0.0348349 -0.125163 0.0516422 0.0673455 0.116305 0.0895335 0.0488817 0.0184282 0.063532 -0.00166729 0.0851781 -0.0799097 -0.0261899 -0.0441546 0.0453465 0.00245132 -0.0634292 0.0163985 -0.224341 -0.055973 -0.191402 0.0346651 -0.0359783 -0.176734 -0.0325531 -0.047962 0.134549 0.0209643 -0.00893649 0.0473415 0.124661 0.191946 -0.00220228 -0.0920324 0.0608264 0.0406305 -0.02175 -0.0365465 -0.0702281 -0.0814882 0.0385161 -0.0909922 -0.0642493 0.0874795 -0.0395754 0.0854536 -0.0260783 0.019344 0.0472031 -0.0396961 -0.117358 -0.0282964 -0.248746 -0.0440322 0.0186115 -0.115644 -0.107506 -0.0412859 0.0400227 0.107702 0.160317 0.0051218 0.0562516 0.029673 0.0665274 0.0899867 -0.0461924 -0.0263106 -0.0541538 -0.0351275 -0.0370856 0.0626693 -0.0478127 -0.00569994 0.048874 -0.00908099 -0.0215205 -0.0445569 -0.0816128 0.0976451 0.0486855 -0.0853873 -0.0805775 -0.0615992 -0.123251 -0.0774883 -0.0639698 -0.165772 -0.0991489 0.0249555 0.11899 0.0373868 0.0192403 -0.00650042 0.132433 -0.00468833 -0.061578 0.129202 0.0790751 -0.00561104 0.118673 0.0814841 -0.0881808 -0.0524102 -0.0474861 0.054751 0.0356575 0.0163729 0.107343 0.0851151 -0.00933627 0.00876433 -0.139824 -0.159938 -0.147689 0.0296962 -0.024734 0.0119592 0.0951395 -0.0180689 -0.0739366 0.00362049 0.132594 0.122733 0.210898 0.211419 0.110804 0.16219 -0.0580257 0.126183 0.00149861 0.00457188 -0.033861 -0.0301366 0.0155723 -0.00461713 0.101344 -0.0633621 0.100255 0.0940666 0.118902 0.0164629 -0.0162098 -0.0367323 -0.0986822 -0.151872 0.010146 -0.0298508 -0.0404714 0.131704 -0.0839146 -0.0752595 0.00338942 0.0521908 -0.0388346 0.0129257 0.13015 0.0163516 0.0349077 0.137277 0.141521 0.168382 -0.030134 0.0858363 0.0967175 0.0333341 -0.0553703 0.0747916 0.0467018 -0.0697074 0.0573571 0.0484889 0.0439042 -0.0333083 0.0707068 -0.0255087 -0.0645914 -0.081186 -0.171286 -0.0478796 0.0878851 0.112179 0.14634 -0.0674967 0.0245257 0.0933883 0.174685 0.168648 0.110804 -0.0245329 0.14884 0.0557463 0.215085 0.113257 0.170315 0.0758192 -0.0217984 -0.0628712 0.0262196 0.101633 -0.0558487 -0.02543 0.0411151 0.0647853 0.0179916 0.00860643 -0.0889769 0.0184338 -0.0829758 -0.093939 -0.0873942 -0.0899203 -0.103927 -0.0482263 0.0129433 -0.0381316 0.0730299 -0.077647 0.0277047 0.0658218 -0.0103801 -0.0350913 0.0991031 0.0745914 0.169667 0.160326 -0.0691304 -0.0720461 0.0744825 0.0274059 -0.0732642 -0.0842176 0.0991244 0.0649996 0.0777163 0.0142646 -0.0292453 0.0858881 -0.0880981 0.0177717 -0.0294751 -0.0754094 -0.0475025 -0.0581786 -0.035729 -0.0597109 -0.0691553 -0.0285468 -0.0344398 -0.0407398 -0.0180153 0.078787 0.0785221 -0.0847221 -0.074036 0.0438963 0.185712 -0.000708021 0.0873665 0.0706832 0.0762278 0.05017 0.0836142 0.0725009 0.0123183 0.0504489 -0.0241161 0.0721913 0.0334856 -0.0150656 0.0105588 -0.0753938 -0.0884521 -0.0319864 0.0313649 0.072427 0.0119079 0.0447014 0.00926643 -0.0989249 -0.0524419 0.073743 0.0804862 0.0757186 -0.0878287 -0.0780336 -0.0259497 -0.0916279 -0.0292116 -0.102515 0.0762039 -0.0558352 0.0448033 0.0569668 -0.0861857 -0.0457298 0.0125946 -0.00512291 -0.0683596 -0.0487409 0.0849904 0.0473781 -0.0189559 -0.0982828 -0.0794295 -0.0824122 0.0793231 0.0376573 0.0674682 -0.00623158 0.0439114 -0.0797949 -0.0273096 0.0295765 -0.0988974 -0.00995942 0.0567218 -0.0196682 0.00359154 -0.0673109 -0.0170047 -0.0150257 -0.0179672 -0.0670226 -0.0528801 0.00102602 -0.00757349 0.0648933 -0.098918 0.0292458 -0.0786687 0.0912512 -0.0181973 0.00755428 -0.101153 0.00873504 0.0328794 0.0866953 -0.0461721 0.00192043 -0.0179876 -0.102138 0.0260915 0.0550787 0.030037 0.0304367 -0.0491362 -0.00810502 -0.085509 0.057846 0.0314352 0.00641258 -0.0490894 -0.0787403 0.0461243 0.00590768 0.0274192 -0.0559198 -0.0240201 0.03368 0.0785048 0.00249007 0.0301102 -0.0348039 -0.0865533 0.0316597 0.0797157 0.0520565 0.0246917 -0.0629608 -0.0399302 -0.0925019 -0.0634703 0.0903907 0.0689972 0.0741673 0.0282357 -0.0714288 -0.0245192 0.0537649 -0.103004 -0.0847962 -0.031518 -0.044166 -0.0578297 -0.0785631 0.0698738 0.0773408 -0.0298297 -0.0495601 0.0144232 -0.0443695 0.0598855 -0.0485112 0.0262958 0.0785111 0.0883275 0.00791551 0.0359114 0.0178807 0.0520827 -0.096507 0.0309661 0.0917345 -0.104094 0.00561948 0.0716226 0.0312329 0.0398936 -0.0458068 -0.0057612 0.0479481 -0.0210022 0.0709933 -0.0856821 0.0289703 -0.100567 0.0918558 0.0144432 -0.0226451 -0.0512747 -0.0647707 0.0381641 -0.0844338 -0.00632654 -0.0285846 -0.0989674 -0.0128202 0.0845098 0.0406245 -0.0893012 0.0405147 0.0485103 0.04736 0.0393887 0.0488908 -0.0413721 0.0178365 -0.0101344 -0.0941852 0.0818913 0.0936164 0.0673447 -0.028283 0.0748885 0.0891684 -0.0894641 0.0823387 0.0870765 0.0316599 -0.0335197 -0.0598901 0.0707661 -0.0915337 -0.039145 -0.028605 -0.0131629 -0.0311568 0.0655302 -0.0219881 -0.0853533 0.0796152 -0.0770215 0.071103 0.035003 0.0669344 0.0259295 -0.106372 -0.0111568 -0.0803903 -0.0920135 -0.0241224 -0.079745 0.0803383 0.0548804 -0.100277 0.07387 0.0690988 0.0886445 0.0681903 0.00772623 -0.0403155 -0.0850201 -0.0196624 -0.029965 -0.0214009 0.0569113 0.0638275 0.0543977 0.029397 -0.0526914 0.0757094 0.014191 -0.0256872 0.0482384 -0.0475838 -0.0495153 -0.0185632 -0.044425 0.0399432 0.0082653 -0.0296644 -0.0741965 0.0354184 -0.0451735 0.0833954 0.0390313 -0.0662149 0.0609404 0.0336413 -0.089486 -0.0264882 0.0992287 -0.070932 0.0590965 -0.0320379 0.00717015 0.0175567 -0.0612549 -0.0314767 -0.0460909 -0.00876743 -0.0502981 0.0747652 0.0707243 -0.0962967 -0.0674905 -0.0749313 -0.00486354 -0.00672012 0.0739084 -0.0962257 0.0686516 -0.0959511 0.0446181 -0.0720689 0.0921812 -0.0109983 -0.0324721 0.0545142 -0.0733625 -0.0186384 -0.0659137 -0.0698613 0.0148778 0.0964062 0.00264402 -0.0774595 0.0135909 0.0414615 -0.00401532 0.0744554 -0.0603505 0.0508654 0.0546898 -0.0826708 0.0597475 0.0916712 -0.0532568 -0.0416812 -0.00622847 -0.0739358 -0.0300442 -0.0370613 -0.0638797 -0.0792036 -0.00184612 -0.0676344 0.0135271 0.0712731 0.0934499 0.0439591 -0.0420456 -0.0685546 0.0791223 0.0759933 -0.0671751 -0.0146003 -0.0990161 0.0469084 -0.0732204 -0.00266877 0.0262847 -0.0266154 -0.0448479 -0.0138466 -0.00410738 -0.078145 -0.0155104 0.0485939 -0.013881 0.081575 0.0818803 0.0614529 -0.0469953 -0.0830906 0.0865286 0.0574423 -0.0432432 0.0027958 0.0311873 -0.0440375 -0.0459651 -0.106977 -0.00575231 -0.0628279 0.0734672 0.0297039 0.0270901 0.0790709 -0.0205824 0.0562249 -0.0236794 -0.0947593 -0.0666929 0.038428 -0.00165059 0.0343787 0.0654619 0.0883082 -0.0118487 -0.0447003 0.0756984 -0.0265426 -0.0784375 -0.0678742 -0.000258853 -0.0922964 0.0946935 0.0629403 0.016766 0.0275617 -0.0800074 0.0762842 0.027802 0.0171236 -0.0800326 0.00761036 -0.0475615 0.0521797 -0.00880068 0.0360172 0.00998688 0.0698751 0.0422969 0.0443186 0.0120007 -0.0538845 -0.0158336 -0.0173585 -0.0603974 0.0770513 0.0430241 -0.0828871 -0.0421127 0.0705145 -0.0418036 0.063405 0.0926121 -0.0420894 0.0304235 0.0124325 0.0872784 0.0526931 -0.00644867 0.0238918 -0.0208653 0.0209145 -0.0665882 0.033321 -0.0251604 0.0325395 -0.0211917 0.0901405 0.003688 -0.0809303 0.0313472 -0.0826176 -0.030382 -0.0785723 0.00520284 0.0143995 -0.0956065 -0.0455685 0.0387923 -0.0359924 -0.0682392 -0.0959641 -0.0683955 -0.0743507 -0.0345795 0.0668067 0.0410699 -0.0409783 0.02095 -0.0653693 0.0848296 -0.0945002 0.0590659 -0.0737039 0.0463607 -0.0607736 0.0577518 -0.0736549 -0.0696851 -0.028468 -0.0500666 0.062277 -0.0132797 0.0212451 0.0881376 -0.102163 -0.0591765 -0.10229 -0.0425523 0.0855299 -0.0317453 -0.009517 0.0949668 0.00774758 0.0199416 -0.0402365 -0.0236689 -0.0347026 0.0227872 -0.0973045 -0.00336526 0.0088449 -0.0891523 -0.0344254 0.0382223 0.0664343 0.0108439 0.00940782 0.0958321 0.0415723 0.0836791 -0.0497797 0.00796928 -0.0276306 0.070585 -0.00162092 -0.0253604 -0.0834127 0.00126796 0.0372662 -0.0927038 0.0754367 -0.0657141 -0.0965739 -0.0114145 0.0612466 -0.0296325 0.0658272 -0.0733443 0.0987374 0.074264 0.0334851 0.00797007 0.083341 -0.0990142 -0.041688 0.0519069 0.0133515 0.068697 0.0552726 -0.0391339 0.0620596 -0.0975668 0.0748963 -0.0637204 0.0793684 -0.0246914 0.0151906 -0.0995421 0.0804747 -0.0427311 -0.087067 0.0610904 -0.00253078 -0.0770082 -0.0491612 -0.035883 -0.000480096 -0.0774105 -0.0079858 -0.000715373 -0.0989398 -0.0694334 -0.0864913 0.0848989 -0.068803 -0.024417 0.0466874 0.0525038 -0.046841 0.00247878 -0.0809617 -0.0765898 0.018631 -0.0987615 -0.0364616 0.00038446 -0.0227715 0.0811306 0.00511391 -0.037794 -0.0577024 0.022859 -0.0715247 0.0449457 0.0510297 -0.014053 -0.0897743 -0.0441931 0.0151899 0.0108098 0.0549104 0.0181548 0.0395335 0.0761293 0.0098805 0.0791983 -0.0476886 -0.0406472 0.0402704 0.0134144 0.0703499 0.0654981 0.0371597 -0.00923926 0.0713842 -0.0901118 -0.0966493 -0.047297 0.0918984 0.00799425 0.0195369 -0.0621389 -0.0652486 0.0528243 0.0879857 0.09096 -0.0560499 -0.0951559 -0.0520703 0.0646876 0.0177914 -0.0877659 -0.0178624 -0.0355025 0.0849909 0.0960598 -0.0491421 -0.053953 -0.0434041 0.0927099 0.0656283 -0.0665513 0.0654378 0.0108706 0.0317469 0.0398521 0.0240677 0.0400666 -0.095746 0.0185766 -0.0515724 0.0233206 0.0610656 -0.0141812 -0.019957 0.0538635 -0.0180424 0.029172 0.0638865 0.0373783 -0.00440967 -0.0102655 0.0507333 0.0852396 0.0581722 0.0394286 0.0784066 -0.092698 0.096121 -0.0587714 -0.0940239 0.0657502 -0.0174323 0.0755933 -0.0187605 -0.0807415 0.0218129 -0.0952784 0.0621968 0.0296586 0.0380961 -0.0903904 -0.0460475 -0.00106231 0.000914379 0.0366353 -0.0441588 0.0868259 -0.0290138 -0.0750934 0.028525 0.0740377 0.017474 -0.0125269 0.0651238 -0.0197067 -0.0644034 0.043519 -0.013128 -0.0655817 0.0971022 0.000149824 -0.0966704 -0.0181856 -0.0151571 -0.0106358 0.00438609 -0.0927652 -0.00219761 -0.0390111 0.0354853 -0.0609653 -0.0152592 0.0930679 0.0392069 0.0848747 0.0347892 -0.102312 0.0747407 -0.0902707 -0.0722266 0.0084446 0.0872595 0.0516065 -0.10125 0.0558026 -0.0619825 -0.0610059 0.00503744 0.0280167 -0.0289414 1.85182e-05 -0.0661614 -0.0247566 0.0815324 0.0163002 0.0662542 -0.0150473 0.0252648 -0.032655 0.0537425 -0.0382468 0.0103737 -0.0564777 -0.0307459 -0.0459178 -0.070967 -0.0967374 -0.0446301 -0.092988 -0.083968 -0.0129027 0.0206355 -0.0915296 -0.0578038 0.0261975 0.0678674 -0.0190391 0.0716987 -0.0238863 -0.0859795 -0.058362 0.0758577 -0.0551415 0.021015 0.062096 0.0619951 -0.0100353 -0.0488735 -0.0108812 0.0639608 -0.0913823 0.0600622 -0.0198077 -0.0425579 -0.065642 0.0422917 -0.00555398 -0.0602231 -0.100609 0.00469093 -0.0395185 -0.0104712 -0.0707196 -0.0258692 0.0369039 0.058518 -0.0528229 -0.0765079 0.0301221 0.0296033 -0.0585989 0.0789031 0.00480635 -0.0121484 -0.000111349 -0.0270064 -0.0403114 -0.100222 0.0301466 0.0580534 0.0675085 0.0449122 0.0230077 -0.047664 -0.0909574 0.0638193 -0.0988944 0.0129822 -0.0868822 -0.0973476 -0.0805972 -0.0231683 -0.00314538 -0.0482767 0.0549165 -0.0610626 -0.0845798 -0.0948664 -0.0323917 0.0511697 0.0353778 0.0119398 0.0338412 -0.0525164 -0.0985275 -0.0663641 0.0155302 -0.0318152 -0.059273 -0.0485514 -0.0740978 -0.0843165 -0.0949972 0.0575496 -0.0272351 -0.0803911 0.027239 -0.026069 0.0354037 0.0461855 -0.0102901 0.0567976 -0.0750333 0.0907113 -0.0864396 0.0829232 -0.0673113 -0.0662075 0.0932357 0.00338316 0.0901873 0.0335516 -0.0798532 0.0281349 0.0806114 -0.074746 0.0610483 -0.000212132 -0.012421 -0.0925671 0.0550782 0.0207466 -0.0754417 0.0636445 -0.0208509 0.00172797 0.0871814 -0.0908094 0.0831092 0.0247606 0.0613684 -0.0159943 -0.00851966 0.0860771 -0.0270089 0.00821681 0.0740394 0.00867384 0.0450034 0.0720412 -0.0828102 0.0381846 0.0107256 -0.0595151 -0.0308299 -0.0037113 -0.0335462 -0.0636099 -0.102868 0.0579816 -0.0578043 0.0586507 -0.0194679 -0.0293285 0.0263 0.0647346 0.0748923 0.0158248 0.0785748 0.0637214 -0.0577181 0.0389295 -0.0518831 0.0432175 0.0329229 0.0216546 -0.0475595 0.0126943 -0.0639926 -0.0995161 -0.0122244 -0.0419907 0.0438474 -0.0976008 0.0036731 -0.0837882 0.00276199 0.075314 -0.046088 0.00406067 0.0335843 0.000295651 -0.0380742 -0.0775212 0.0699222 0.0908119 0.0900309 0.0511033 0.00996116 0.0715807 0.0132247 0.0569784 0.0216409 0.065064 0.00939189 -0.0485611 -0.0059577 0.0592473 0.0711754 0.0361154 0.0662681 -0.0380089 -0.102835 0.0140696 -0.0312889 0.00473603 0.0354603 0.0744502 -0.0154236 0.09401 -0.0188417 -0.072478 -0.00892947 0.046762 -0.0547116 -0.0321796 0.0378961 -0.0624738 -0.0794554 -0.0457767 -0.0864307 0.0372166 -0.0875941 0.0327222 0.0122985 0.0241191 0.0905083 -0.0962821 -0.0110863 0.0642937 0.0468757 -0.0396104 -0.0671789 0.0470805 0.0774992 0.00548638 -0.0438627 0.0165319 -0.0148845 0.0436908 0.0128459 0.0698611 0.0706409 -0.0874232 0.0196283 -0.0838466 -0.0242881 -0.0429 -0.0505155 -0.00310161 0.0115843 -0.0275367 -0.0624884 0.0272296 -0.093572 0.0490707 -0.0398206 -0.0959798 0.0601648 0.0532018 0.0723639 0.0102255 -0.0833476 -0.089527 -0.0374228 -0.102808 0.0189994 0.0233609 0.0183701 -0.092845 -0.0299082 -0.0661329 0.0777842 -0.0570453 -0.0529415 0.00129389 -0.0374446 0.0273868 0.0606653 0.0251201 -0.0719464 -0.0247699 -0.100786 -0.0271859 -0.0909402 -0.0899328 -0.0735844 -0.0274558 -0.0837746 0.0867125 -0.0735542 0.0901928 0.000470877 -0.0551848 -0.0958048 0.0693243 -0.0528142 0.0283735 -0.00213587 0.0707347 0.0407074 0.0731348 -0.0902193 0.0236705 -0.0803775 -0.0372466 -0.071859 -0.00962788 0.0920448 0.0913466 -0.0852592 -0.0761102 -0.0314714 -0.0833165 0.000113945 -0.0187286 -0.0719035 0.0259335 0.0492955 -0.0562325 0.0177401 0.0822814 -0.0582771 -0.0786977 -0.0715437 -0.0524301 -0.104296 -0.0186739 0.0811223 -0.00125342 -0.0427603 0.0295259 -0.0204225 -0.0252835 -0.0416248 0.00437896 0.0398379 -0.011116 0.0951167 0.0352636 -0.0188694 -0.0887317 0.0618034 0.0499531 -0.0723321 -0.0386787 -0.070241 -0.0439419 0.088106 0.0836036 0.00357171 0.00720556 0.0677498 0.0469464 0.0335848 -0.0981099 -0.100305 0.0344673 -0.0116051 0.0859965 -0.0616073 0.0508135 0.0181837 0.0206318 -0.0718083 0.0792207 -0.0723275 0.0706912 -0.0292338 -0.0745493 0.0086163 0.0545584 -0.0606197 -0.0269188 0.00717304 -0.0302904 0.0370641 0.0395935 0.0284293 0.0278315 0.0258586 -0.0653373 -0.0623013 -0.00373017 0.0842707 0.0739452 0.000821374 0.0866275 0.011074 0.091878 0.0752854 0.0521283 0.0453529 -0.00386946 -0.0245783 0.0762062 -0.0219873 0.00575571 0.0495588 0.0514405 0.0358457 -0.0381549 0.0433992 0.071477 0.0503212 -0.0684167 -0.0477183 -0.0240765 0.0699975 0.0842657 -0.0901149 -0.00764274 -0.0853136 -0.0502504 0.0912692 -0.101731 -0.0652221 -0.0105055 0.0942771 0.0335826 -0.0208172 0.070864 -0.00770922 -0.0657611 -0.030344 0.0703743 -0.0868933 0.0503303 -0.0212086 0.0625659 -0.00396671 -0.0930783 -0.0659533 -0.0863321 0.114598 0.0974066 -0.0406128 -0.0553703 -0.0524998 -0.106146 -0.0637839 -0.0341588 -0.00115765 -0.0471873 0.0156613 -0.00990564 -0.0539264 0.0156295 0.0712922 -0.0547637 -0.0153485 -0.0491733 -0.0830711 0.0678551 -0.00514769 -0.0144622 0.0324915 0.0190195 -0.0530711 -0.0776561 -0.012992 0.0456238 -0.0680731 0.0100956 0.0692616 -0.0652067 0.00992881 -0.0586476 0.00685209 0.0387122 -0.0845361 0.00743627 -0.0925801 0.0165007 0.0637421 0.00799559 0.105042 -0.0750545 -0.0639933 0.0587099 -0.0374475 0.0151549 -0.043418 -0.0225178 -0.0161614 0.0423471 0.081206 -0.0763178 -0.0359718 -0.0608043 -0.0429133 0.062097 0.0958804 -0.00832462 -0.0251459 0.0625817 0.0358806 0.0696218 0.11023 -0.0591993 0.029416 -0.108023 0.0343872 -0.00109302 -0.00562889 -0.0162613 -0.109124 -0.000673565 0.0417881 0.000947112 0.0425094 -0.0377352 0.142248 0.0515485 -0.00145482 -0.0257625 -0.0320092 -0.0197695 0.0104764 0.0603179 0.0220878 0.0786241 0.0334757 0.0290288 -0.01864 -0.0833704 -0.00572788 -0.0847615 0.104667 -0.000846365 -0.0283564 0.0297793 -0.000945226 -0.127079 -0.10063 -0.102116 -0.0225624 -0.0710169 -0.0145199 -0.092877 0.0430648 -0.0512952 0.0069488 0.100329 0.122162 0.0655485 -0.0776184 -0.0457169 -0.0932933 0.0369629 -0.0700453 0.0605639 0.0182485 0.0744914 0.00065348 -0.0893306 0.0965436 -0.0967747 -0.0714307 0.0879954 0.0241832 -0.0263338 0.00560786 -0.0951625 -0.012838 0.0158623 -0.0959156 -0.0812096 -0.0980528 0.0335674 -0.0884552 0.033011 0.0863258 0.0522783 0.105077 0.133015 0.0108781 0.0561705 -0.107824 -0.0534571 -0.0285359 -0.0414246 -0.0512321 -0.096675 -0.0558726 0.0604821 -0.0749448 -0.0566676 0.0691302 -0.0380759 -0.0660105 -0.0369722 0.08158 0.0406235 -0.04407 -0.0487796 0.00238552 -0.0430036 -0.0101559 0.0957731 -0.0600145 0.00984846 -0.0208265 -0.0945203 -0.0648714 0.0177904 0.210323 0.0274101 0.102333 -0.0576233 0.0297288 -0.0956119 -0.0233821 -0.0899346 -0.0453592 0.0298791 0.0840792 -0.00924334 0.0842724 0.0558707 0.0581035 -0.0706774 -0.0784399 0.012296 0.114308 -0.0140823 0.0631242 0.00816648 -0.113843 -0.0863706 -0.0190436 0.000759848 0.0643378 0.0726905 -0.0465304 -0.130697 -0.0788756 0.0737286 0.0795148 0.126427 0.0459286 -0.0383858 -0.104652 -0.142213 -0.0566305 -0.0184425 0.0373543 -0.0606566 0.0858459 0.0326873 -0.093725 0.0466108 0.0646715 -0.0611043 -0.0327934 0.0572298 0.0649248 -0.0663819 -0.029423 0.0109654 -0.0516096 0.00130379 -0.0758903 0.0125511 0.0177346 -0.0117159 -0.044465 0.0297236 0.105432 0.1445 0.114233 0.0530571 0.101778 0.026487 -0.00937673 -0.0871062 -0.0839957 -0.0567145 0.00192585 -0.0825675 0.0945528 0.0192614 0.0751042 0.0618856 0.0608188 -0.0522667 0.021777 0.0194573 0.0204527 -0.11557 -0.0454073 -0.136954 -0.00944143 -0.0621437 0.00764356 0.00220569 0.0888439 0.0764129 -0.0983008 0.0848725 0.065231 0.129875 0.0673914 0.0818668 -0.0245998 0.0770184 0.0745399 -0.0294899 -0.066688 -0.00822627 0.0355973 -0.0509148 -0.0703849 0.0161241 -0.0836065 0.0930955 0.0665191 0.0225522 -0.0170389 -0.0427643 0.0652377 0.0869477 0.0234607 -0.0160281 -0.0619893 0.0604796 0.0857643 -0.0623133 0.0230506 0.0399731 -0.159927 -0.0400003 0.0113005 0.0616158 -0.0228261 0.153021 0.0309871 -0.0650455 0.00349525 0.0268531 0.00427043 -0.0975795 -0.117617 0.0669911 0.058165 -0.077521 0.062748 0.0273455 0.0687335 -0.0278278 -0.1188 0.00748258 -0.0357047 -0.0264422 -0.0577245 0.0138284 -0.0292049 -0.169922 -0.0283837 -0.122965 0.031883 0.0102583 -0.0485776 -0.0784805 -0.0834963 0.0798994 -0.00154256 0.132444 0.0805604 0.0905733 -0.0429419 -0.000639499 -0.0958516 -0.0206979 -0.03169 0.095419 0.0414014 -0.0452399 0.0254259 0.0127964 0.0295939 0.0303287 -0.0844626 0.068801 -0.0785253 -0.0543787 -0.0207982 0.0236058 -0.0764984 -0.116222 -0.0443033 -0.134501 -0.0815994 -0.0622192 0.0241785 -0.0626896 -0.106335 -0.0176535 -0.00084279 -0.0217775 -0.0140885 0.0416145 0.00647136 -0.034299 -0.0576181 -0.120707 -0.0165441 -0.0837741 -0.0263264 -0.0884564 0.0316837 -0.0940707 0.0445336 0.0709237 0.0699885 0.0451102 -0.0658669 -0.0297201 -0.0491532 -0.0172861 0.00201168 -0.127921 -0.0105789 0.0508906 -0.0373718 -0.0117806 -0.101852 -0.0474323 0.0636473 0.0255566 0.0919865 -0.0137142 -0.0567859 -0.0935755 -0.00419376 -0.0169349 -0.0960555 -0.13883 0.0192323 0.0105829 -0.0868706 -0.0431351 0.0195441 0.0603245 -0.0695498 0.0132351 0.0329465 -0.0563148 -0.0988967 -0.112203 0.0776718 -0.00721897 -0.121767 -0.0228579 -0.0273564 -0.0421799 -0.0762432 -0.0154524 0.0423211 -0.104406 0.0782828 0.0284441 0.0704278 -0.0263944 -0.0880694 0.0687782 0.0312805 -0.0290155 0.0437948 -0.0777785 -0.0770798 0.0898888 0.0195026 0.0484131 0.0532453 0.0526143 -0.0356902 -0.0111466 -0.0761887 -0.0554849 -0.00435103 -0.118599 -0.105777 -0.0200605 -0.0459466 -0.0735952 0.0661692 0.0890052 -0.0941255 -0.00773387 -0.114323 -0.140936 -0.0942636 0.0617129 0.0386548 0.0096486 -0.0742122 0.090519 -0.101733 -0.114013 -0.0856036 -0.0932673 -0.0750306 0.0787806 0.0929377 0.0841637 0.0344269 -0.0400911 -0.0243215 0.0608997 0.0319358 0.0504294 0.0640603 0.0242125 -0.0273303 -0.0241555 -0.129369 -0.0974801 -0.0251189 -0.0231756 -0.0709173 -0.0296375 -0.0375391 -0.0669952 -0.0776811 0.127996 0.125491 -0.0326085 0.0125346 0.0722715 -0.0130318 -0.126587 -0.113351 0.0208275 -0.0987128 -0.0755317 0.0189811 0.0416629 -0.0125908 0.0973214 0.00522412 -0.0779933 0.0725514 -0.0570856 0.0710252 -0.0519782 0.0674874 -0.0649353 0.0145083 -0.108317 -0.0275437 -0.0783182 0.105005 -0.117757 -0.0723154 0.071051 0.114587 -0.0248866 -0.0435505 0.0400287 -0.109012 0.0349087 0.0753827 -0.0409357 -0.0464288 0.0675753 -0.0145543 -0.0852772 0.0232282 0.0815149 -0.0822129 -0.0688859 -0.093817 0.0957112 -0.000346797 0.0715083 -0.0334972 -0.0528337 -0.0951024 -0.0661842 0.00227241 -0.029286 -0.104355 0.0927504 0.0774478 0.00102603 0.00451502 0.0529303 0.148532 0.173076 0.0167375 0.120358 0.0222071 -0.0691504 -0.0463744 -0.0391837 -0.12891 0.0317334 -0.0305173 0.0329989 0.0272381 -0.00407054 0.0698561 0.0360826 -0.00569788 -0.0232315 0.0125455 0.0551052 0.04525 -0.0207522 0.0872457 0.0234346 -0.076628 -0.101232 -0.0569239 0.0983969 0.076615 0.124693 -0.0787524 -0.0171837 0.0953872 0.0327919 -0.0658466 0.0829662 0.0509553 0.0351706 0.101373 0.0729652 -0.0853591 -0.0347172 -9.21938e-05 0.0749215 0.0734378 -0.0215765 0.016747 -0.0295987 0.0578536 -0.0634479 -0.0709391 0.0131944 0.0527648 -0.116476 -0.0954311 -0.0801046 -0.0501762 -0.00476246 0.0375193 0.0353889 0.0393747 -0.0710657 -0.125297 -0.121671 -0.0313546 -0.0587647 -0.142754 0.0291035 0.093621 0.14642 -0.0260813 -0.0484274 -0.0330212 0.0810799 -0.091666 -0.0524529 -0.0309442 0.0337408 0.0236915 -0.0704288 0.0729544 0.0614121 0.0454272 0.0313724 0.0778889 0.0467056 0.0146824 -0.0650479 -0.00180224 -0.0162704 0.0461371 0.0838147 0.100252 -0.0542619 -0.0862485 -0.0789534 -0.0565755 -0.162577 0.0462554 0.00614614 -0.119554 0.0442132 0.0101873 0.00330903 -0.0393752 0.0257746 0.0326959 0.0368112 -0.0309322 -0.0349529 0.0721255 -0.0553163 -0.070879 0.0262122 0.0787177 -0.0873371 0.0269112 -0.00155247 -0.0696784 0.139703 -0.0157642 -0.0678145 0.0199821 0.144231 -0.0057643 0.104939 -0.0644199 0.0114023 0.0608173 -0.0390627 -0.0798447 0.0759508 0.000816042 0.0671237 -0.0557266 0.0958122 -0.0219249 -0.100967 0.0282493 0.0513569 -0.0267383 0.00903443 -0.0952996 0.00541458 -0.0620917 0.0886867 0.017348 0.0460409 0.039523 0.0731605 0.0317905 0.0855735 -0.0858694 -0.0477367 0.0394586 0.0692679 0.00747567 0.0742035 -0.0586429 -0.0703721 0.140074 -0.0138803 -0.0729155 0.0228318 -0.104691 -0.0489059 0.0342725 0.000268514 -0.0112039 -0.0594418 -0.0462392 0.0428981 0.0587744 -0.0294882 -0.0396365 -0.096894 -0.034749 0.0897623 0.0551995 0.0815748 0.0938646 0.028008 0.0156453 0.125226 -0.0969255 0.000979398 0.0163652 0.0458713 -0.095061 0.0122546 -0.0116166 -0.123543 0.11081 0.0582315 0.067589 0.113174 0.102537 -0.069591 0.0289145 -0.0325691 0.0273058 0.0569289 0.0911358 -0.0455768 -0.0745896 -0.0398411 -0.0338113 -0.00630651 -0.0474173 -0.0726633 -0.0220703 -0.0801429 0.0782229 -0.0587343 -0.0179885 0.116154 -0.00159793 0.00313212 -0.052654 0.021251 0.0897647 0.023452 -0.0171566 0.0155377 -0.0697464 -0.00959531 0.0922909 0.0983389 -0.0213141 -0.0529291 0.00741917 0.132608 0.122867 -0.0656479 -0.0839185 -0.0894765 -0.0102305 -0.00907013 0.0128766 0.0480953 0.0236393 -0.103245 0.070614 -0.0337228 -0.0405014 -0.0632991 0.00940376 0.0630256 0.0217346 -0.0309587 0.0843921 0.0440205 0.0895505 -0.0155198 -0.0565989 -0.128972 -0.00203418 -0.0293066 -0.0478316 0.0418251 -0.0411934 -0.0412132 0.0812232 -0.00150522 0.00360699 0.0579871 -0.0619317 0.0583334 -0.0558244 0.0596047 0.0150884 0.0735582 0.0617324 -0.00758595 -0.0575032 0.085646 0.0142242 0.0397483 0.0735196 0.224304 0.0911834 0.0123685 -0.0717739 0.0312822 0.0837941 0.0585915 0.0625099 -0.0295744 0.069055 0.121307 -0.0151629 0.0686419 -0.0431041 0.141658 0.0264916 0.059326 0.0990012 -0.0392791 -0.052489 0.0906159 -0.0856791 0.0712593 0.0728338 0.0806632 -0.0317172 -0.0760097 0.0749689 0.067485 0.0129362 -0.0247653 0.0760366 0.04397 0.110944 -0.0724934 -0.0745107 0.0890862 0.132462 -0.0599636 -0.0188221 0.0362615 0.122545 0.0586297 0.0266523 0.0795659 0.0740227 0.109378 0.00530561 -0.044993 0.107811 0.0422745 -0.0430242 -0.0898425 0.0161953 -0.0675288 0.0934822 0.0871399 -0.0408772 0.0711125 0.0572862 0.0747208 -0.047829 0.0570251 -0.0168678 0.00366716 0.112408 -0.0198869 0.150911 0.134859 0.00918949 -0.0234954 0.0333866 -0.0582093 0.0980798 -0.0480237 0.00448372 0.00231721 0.153311 0.102723 0.069609 0.0908767 -0.0184777 -0.0976483 0.0938816 -0.083506 -0.0625158 0.0900252 -0.0937046 0.0103348 0.0748649 0.077309 -0.012283 -0.0703024 0.00337409 0.039889 -0.0358152 -0.015507 -0.0779743 -0.0363127 -0.0350792 0.00714464 0.0197212 0.0902446 0.0741538 -0.00626971 -0.0571436 -0.0592491 0.0787441 -0.067308 0.0961133 0.02412 -0.0835839 -0.00358789 0.0291332 -0.0870409 0.0155675 0.0692789 0.105646 0.0245244 -0.0287907 0.0721063 -0.00657099 0.0505218 0.0933995 0.0883984 -0.0179939 -0.0508201 -0.0355129 -0.00437253 0.00446257 0.0210032 0.0943674 -0.0842209 0.00284344 0.060117 0.00110503 0.0372954 0.0924633 -0.0285553 0.061583 0.0801723 0.08716 0.0695945 -0.0318199 0.00788882 0.0741492 0.0753429 -0.0312367 0.0713906 -0.00853709 0.031568 0.0350927 0.0764873 -0.0263148 0.0200878 0.0564815 0.0472868 0.0281027 -0.104556 -0.0952403 -0.0503214 0.0580708 -0.0640078 -0.0680158 -0.10728 -0.00242712 0.0511656 0.0219254 0.0296772 -0.120086 -0.0437374 0.0187648 0.0928015 -0.0379825 0.11817 -0.0157115 -0.0642727 0.0338582 0.0586352 0.0915916 -0.0622157 -0.0182014 0.0182798 0.105867 0.0470793 -0.0700371 0.0586508 -0.000520984 0.095939 0.0221153 -0.0149918 -0.089764 -0.0372905 0.0625213 -0.01435 -0.0338806 -0.0521124 -0.100937 -0.110211 -0.0958963 -0.0845982 -0.0169452 -0.00411759 -0.117223 0.0232683 -0.0106858 0.0250138 0.0866799 0.000108531 -0.0416328 0.0772571 0.0239646 0.0644548 0.000650077 0.0079098 -0.0103881 0.00869106 -0.0465504 0.0806863 -0.00377434 0.116666 -0.0516398 -0.0218167 -0.0510965 0.074409 0.122053 0.0460806 -0.0538673 -0.129345 0.028644 -0.0382288 -0.0735085 -0.0468302 -0.0959775 -0.0811119 -0.113189 0.0161209 0.051845 -0.0751588 -0.0680062 -0.0145436 0.0768168 0.0549439 -0.0775349 -0.0117617 -0.0455508 -0.00984486 0.075007 -0.0140234 -0.0510804 -0.0371717 -0.00576178 0.0248635 0.0448194 0.0410416 0.028685 0.0184627 -0.0104775 0.042335 -0.0235795 -0.121299 -0.0942921 0.0727253 0.03083 -0.0114211 -0.113777 -0.0101634 -0.14585 -0.129881 0.0273475 -0.086986 -0.0394036 0.0560876 0.0761169 -0.00447721 -0.0757923 -0.0674735 0.0772733 0.0772928 -0.0034189 0.104271 -0.081801 0.0736039 0.0207298 0.06946 0.015124 0.0641124 -0.0204117 0.0951918 0.0273172 0.0769545 0.0702574 0.0337114 0.0523421 0.00965873 0.154697 0.110931 -0.0659363 -0.0912276 0.0607014 0.0594588 -0.0610514 -0.0732487 -0.0204786 -0.0879158 -0.00964491 0.0301345 -0.03205 -0.00280667 -0.000977185 0.042609 -0.0204579 -0.00470017 0.00310165 0.0830564 -0.0436447 0.110629 0.0852475 0.00335609 0.101551 0.00772029 -0.0321556 0.0566912 -0.0831055 -0.101147 -0.0510628 -0.0888034 0.111951 0.0212366 -0.0618407 0.03171 -0.0913814 -0.0399455 0.0467742 -0.00169551 -0.0338682 -0.0483825 -0.0812669 0.0822003 0.0977523 0.0470672 0.00288731 -0.0446275 -0.0795553 0.0975842 -0.0746825 -0.0404153 0.0998091 0.0886859 0.0630351 0.03925 -0.0427151 -0.0561655 -0.0159126 -0.0407042 -0.0964592 -0.017308 -0.0666336 0.0871541 0.135088 0.017636 0.00564114 -0.0912966 0.0410059 0.000479186 0.0574262 -0.0675449 0.0411826 -0.139355 -0.0941635 0.0741651 0.0585916 0.0466957 -0.0771223 0.0571144 0.022358 -0.0602092 0.103588 0.000245097 0.120072 0.0585558 -0.0535972 -0.0602909 0.0825463 0.0398188 -0.0196343 0.0810929 -0.0886728 -0.0149016 0.0222517 -0.0657375 -0.0425667 -0.00867908 -0.0574118 0.0487043 0.0129416 -0.0792221 -0.0676809 5.44511e-05 -0.128064 -0.0780193 -0.0188316 0.0657574 0.114849 0.0373117 0.016212 0.0152849 0.0551806 0.0113954 0.107125 0.0533309 -0.0472644 -0.06335 0.0700932 0.108397 0.071221 -0.0312635 0.0607312 0.0916862 0.0665442 -0.0250652 0.0720684 -0.0887905 0.0771185 -0.037104 0.0678068 -0.0299516 -0.0785874 -0.0608777 -0.0383763 -0.0554487 -0.0572856 -0.0268474 -0.104013 -0.0501736 -0.0433632 0.0591695 0.0873807 0.089895 -0.0513572 0.0861017 0.0348215 -0.0117327 -0.0856527 0.0319288 -0.039894 0.0528982 0.111096 -0.0596398 0.00705648 0.0819325 -0.0131536 -0.0279746 0.0500695 -0.040064 0.0641826 0.0653042 0.0413368 0.0632905 0.028275 0.0882935 -0.0131078 -0.101093 -0.0569426 -0.0734917 -0.0366586 -0.00804278 -0.0765243 -0.0111186 0.00412183 -0.0409926 -0.0381278 -0.0694614 0.0388701 -0.0128021 0.0641149 0.153057 0.0769798 -0.0121553 -0.0784815 -0.132749 -0.147029 -0.0161447 -0.00723804 -0.173926 -0.00280849 -0.0694057 0.0516068 0.046589 -0.0981693 -0.0759698 -0.0366586 0.0142766 -0.00418893 -0.0083967 -0.00976651 -0.147469 -0.0274137 -0.0973111 0.016972 0.0898383 -0.040124 0.04635 -0.0880274 0.0903413 0.101053 0.0388868 0.113272 0.128373 -0.0920029 -0.101434 -0.00610707 -0.150216 -0.0504504 -0.11213 -0.12316 -0.0308289 -0.0536769 -0.184385 -0.0738189 -0.115223 -0.0997952 -0.0354969 -0.0315723 -0.158276 0.00911059 -0.0683097 -0.130434 -0.140657 0.0115756 0.00904483 0.118644 0.0845817 -0.0464254 0.0981226 0.0665187 -0.0537764 0.028605 0.0472967 -0.0493201 0.0884443 0.0424237 -0.0168337 -0.0500775 -0.0722241 -0.0249921 -0.0310192 0.133169 -0.0236773 0.0332866 -0.0953627 -0.00147452 0.108317 0.0878851 -0.126281 -0.103312 -0.0205832 0.0336031 -0.0965648 0.0442666 -0.0542851 0.0517026 0.0115808 -0.0484022 0.0943351 0.00788342 -0.0902882 -0.0678459 -0.0719163 0.0486041 -0.04966 0.0926121 0.0135534 0.0300677 0.064679 0.082914 -0.132626 -0.0798151 0.0219046 0.0368889 -0.0112524 -0.101998 -0.165644 0.0260178 -0.109844 -0.106794 0.0257238 -0.00683301 0.00750539 0.0973792 -0.0716241 -0.0257205 0.00639953 0.0699595 -0.0216333 0.0131445 -0.0385441 -0.0109763 0.0408657 -0.0183394 -0.0707769 0.0828009 -0.0582216 0.00880876 0.0353944 0.103019 -0.0581799 0.0853125 -0.099116 -0.135186 -0.0487379 0.0815018 -0.11509 -0.0215416 -0.0286304 -0.116783 0.014757 -0.050156 0.000962589 -0.0256333 -0.0522197 0.0961828 0.00625633 0.0814763 0.0332959 0.1141 -0.0140071 0.0835972 -0.013263 -0.0721967 -0.0391751 0.00808105 0.1022 -0.00580123 -0.0915149 0.00362665 0.0197434 -0.0437786 -0.0606474 0.0564101 -0.0812891 -0.00445603 0.0416118 -0.010449 -0.124481 -0.093387 -0.14415 -0.0101158 -0.00264411 0.0373201 -0.153289 0.0648088 0.11115 0.0710759 0.0403344 -0.0197012 0.0134152 -0.0420688 -0.0352662 -0.0868872 -0.0344196 0.0310758 0.0167608 -0.0400986 -0.0831301 0.0168415 0.0551235 0.00264559 0.0955884 0.0956855 -0.0466148 -0.0582079 -0.0157662 0.049309 0.00945745 0.10193 0.0573069 0.00285674 -0.136361 -0.013246 0.00756667 -0.0937167 -0.0931585 -0.00583618 -0.0132188 -0.0183205 0.0563746 0.00282911 -0.0459996 -0.0147749 0.0210017 0.0325414 0.0961466 -0.0279241 0.0880095 0.105137 0.0805127 0.0347286 -0.000621471 0.0387017 0.0542145 0.0156238 0.0894998 -0.030398 -0.0765367 -0.0111992 0.144032 -0.0165104 0.0209477 -0.0803403 -0.0389347 -0.00981929 0.0197754 -0.133271 -0.138342 0.0578458 -0.0173055 -0.0564437 -0.0528701 0.0096238 -0.0406806 -0.0108162 -0.0625038 -0.0329424 0.0376737 -0.0401806 -0.0288063 0.0137391 0.0861432 0.0621677 -0.0525319 0.0039217 -0.023023 0.0885832 0.0348178 0.0587738 -0.120141 0.0679363 0.122974 0.177078 -0.101119 -0.00478583 -0.0992063 0.0321391 0.040142 -0.0396137 -0.00612506 -0.0575523 -0.00987158 -0.0372369 -0.126083 -0.0749995 -0.00987063 -0.00359982 -0.0556774 -0.0533548 0.0331442 0.0498297 0.059383 0.0148401 0.00359277 0.0984463 -0.0837429 0.0687487 0.0862152 0.0396239 -0.0306627 0.124409 -0.0352751 0.0171931 0.125548 0.040775 -0.0829359 -0.0535245 -0.164206 -0.107286 -0.123113 -0.0998471 -0.0291663 0.0201985 -0.0574517 -0.0238899 0.0761239 0.0717676 0.0450771 -0.0425471 -0.117618 -0.00293658 0.0930182 0.0643738 -0.0890979 -0.00783655 0.0544158 -0.0812452 -0.0415924 0.0273066 0.0708836 0.070566 -0.0260777 0.00420702 -0.105785 0.0463761 0.111843 -0.0195008 -0.0866983 -0.115571 -0.122417 -0.116625 -0.0719491 0.0803109 0.105283 0.0205877 -0.00651376 0.0530325 0.0102681 -0.0214872 -0.0784528 -0.0268262 0.0385598 0.099557 -0.0603002 0.043541 -0.00928094 0.0896677 0.0538915 0.0407222 0.0159732 0.0163704 -0.0164417 -0.0461728 0.0374396 0.0375701 -0.00911666 0.0930523 0.138747 0.151388 -0.0881777 -0.087217 -0.194105 -0.0129111 -0.0876324 -0.124771 -0.110308 -0.00100435 0.0870734 0.0452661 0.119173 0.116973 0.0900031 -0.00248858 0.0795135 -0.0853057 -0.0567955 -0.0356885 0.103361 0.0926484 0.0966289 0.0109295 0.00801762 -0.0282172 0.0370269 -0.0147007 0.0757553 -0.00329638 -0.103986 0.0870906 0.0144541 0.143713 -0.0511086 -0.0606027 -0.159757 0.0580214 -0.0220567 -0.0818034 -0.0723287 -0.0867356 -0.0230876 -0.0698358 -0.00872884 0.0491749 0.0385247 0.0753971 0.0409198 0.0822277 -0.0615854 0.0378343 0.0738747 -0.0659579 -0.0591155 -0.0265121 0.0103712 0.0750543 0.0606947 -0.0204074 -0.0877827 -0.0643981 -0.122693 -0.0063362 0.058597 0.125404 0.0647569 0.00728239 -0.114279 -0.0545923 0.125512 0.00522915 -0.0643701 0.00812401 0.0645039 -0.0458628 -0.010277 0.0169888 -0.0855557 0.0583153 0.0128825 0.0141801 0.0283073 -0.019689 0.0416736 0.0626431 0.0403722 -0.0619074 0.0311486 -0.0128853 0.0177617 0.0664698 -0.0248106 0.129807 -0.120248 -0.0955983 0.0187022 0.0410099 0.0505798 0.0689711 -0.0568397 0.0716316 0.0527351 -0.106774 -0.0212061 -0.0330883 -0.0546259 0.0444685 -0.0577945 0.0644441 0.0468891 0.0316071 -0.0106862 -0.0142127 0.100654 -0.089497 -0.0525709 0.040025 -0.0592835 0.070173 -0.0772933 0.0500738 0.0422668 0.00835695 0.00452282 -0.0480172 -0.0644644 -0.0247491 0.0127529 0.18126 -0.027814 -0.0525707 -0.0185577 0.0915179 -0.041351 -0.0351055 -0.00738329 0.057386 -0.098511 -0.0231768 0.0111024 0.0439909 -0.0183551 0.0434269 -0.0190044 -0.0373458 0.0603181 0.00450854 0.101678 0.100033 -0.0297657 -0.0805886 0.0456739 -0.0959035 0.0370186 -0.0408455 -0.116333 0.00256844 -0.155405 0.0552832 -0.041669 0.182828 0.106971 0.0907396 0.0283242 -0.0906785 -0.0588351 -0.00967137 0.0643304 -0.0383805 -0.115395 -0.119791 -0.0836547 -0.0608406 0.102376 -0.0461307 0.0451814 0.0430489 0.0681977 0.022943 0.0420808 -0.0625696 0.0379072 -0.0172181 -0.0613245 -0.0334788 0.0511865 -0.0376289 0.0152404 -0.0402972 -0.229544 -0.18195 -0.00992795 0.238111 0.152266 0.0349927 -0.154822 -0.0909945 0.0475684 0.0727851 0.0225384 0.126351 0.115223 -0.0870304 0.0223189 -0.0100165 -0.0415572 -0.00754106 0.0173696 -0.0265142 -0.0709158 -0.0600711 0.0099151 0.0659899 0.0161565 0.0420364 -0.0684904 -0.0336583 -0.0875025 0.0954178 0.0424454 -0.0783844 -0.0194343 -0.122961 -0.108552 0.135659 -0.0442371 -0.0665431 0.0223422 0.0666437 0.0803166 -0.0834487 0.000689409 0.0462777 -0.057857 -0.0400544 -0.0340507 0.00261371 0.0736709 -0.0760443 -0.0578596 -0.0676121 -0.0475746 0.0436511 0.0899733 0.0601773 -0.0227171 -0.0869214 -0.0818857 -0.018624 0.100092 0.0607269 -0.0295026 0.0649674 -0.0500414 -0.0235018 0.0532105 -0.0377387 0.0108237 0.0527979 -0.157877 0.00295537 0.0738071 0.00622578 -0.0313527 -0.0693501 0.0876892 0.0272281 0.0076331 0.0190973 0.0624727 -0.0908401 -0.073008 -0.0503143 0.071374 -0.091439 0.101458 -0.0597476 -0.0877868 -0.0898538 0.0122019 0.103901 0.0624685 -0.092612 0.0935571 0.0298301 0.0218862 0.0667631 0.0591184 -0.0341211 0.0257252 0.0695599 0.0882484 0.00249752 -0.0180502 -0.0360852 0.0352331 -0.0193468 -0.049471 0.0292202 -0.0247428 -0.0522106 0.0569432 -0.00615514 -0.0109295 0.0199129 -0.00599855 -0.0178756 0.0517608 -0.00116777 -0.0151119 -0.0434198 -0.00464935 -0.0600258 -0.0434143 -0.0184747 0.0624217 0.0710894 -0.0590941 0.0141577 -0.0704141 0.0592486 -0.0236649 -0.0895482 -0.0456364 0.0509023 -0.0330159 0.0822142 -0.075827 0.0101307 0.00405194 -0.00795228 0.0505376 -0.0463873 0.07851 -0.0677744 0.0661431 -0.0348711 0.00696754 0.0105214 0.0565786 0.0844731 0.0597191 -0.0554532 -0.0829352 -0.0910776 0.0186897 0.0534339 0.048314 0.10996 -0.00767134 0.0651037 -0.0856353 -0.0605914 0.0160311 -0.0449836 -0.103175 -0.129257 -0.0608681 -0.0756155 -0.025346 -0.140545 0.00298648 -0.0213746 -0.0659223 0.0860738 0.0551236 -0.0900482 -0.0783186 -0.0721648 0.0306912 0.0708776 0.104926 -0.0169722 -0.0919581 -0.0853918 -0.0108987 0.0392419 0.0992225 -0.0525763 -0.0460102 -0.00287909 -0.003485 0.0386725 -0.00742658 -0.187396 -0.0843422 -0.115477 -0.112816 -0.163125 -0.0101835 -0.159947 -0.168978 -0.0253152 -0.0774974 -0.0366405 -0.0429099 -0.0707746 -0.00918456 0.0287587 -0.0318799 -0.036977 0.0156688 -0.0144437 0.0187755 -0.00356445 -0.0271106 0.0959607 -0.0717052 -0.0352705 -0.0417144 -0.0172989 -0.0219092 0.0145694 -0.0220565 -0.0500298 -0.110026 -0.0993155 -0.0488597 -0.0315219 -0.0546422 -0.0621702 0.0117635 -0.0283156 -0.144515 -0.0847352 -0.149622 0.0370133 -0.0185974 0.0486727 -0.0308021 0.0995099 0.122755 0.10649 -0.0187942 0.034148 -0.0243493 0.0268201 0.00283348 -0.0233297 0.0841669 0.0537365 0.0543798 -0.0246271 0.104886 0.0472228 0.026612 -0.0101603 -0.0940392 -0.140116 -0.134389 0.0121151 -0.0294535 0.0430973 -0.0333937 0.0337072 -0.0217718 0.0441408 0.0534289 -0.0656699 0.027034 -0.0566875 -0.0849323 0.0239507 -0.0449293 0.0020699 -0.0372622 0.0233387 0.101615 0.038296 0.0727337 0.0585064 -0.0307093 0.019731 0.116189 -0.0248161 -0.0484318 0.00446646 0.0301846 -0.00663312 -0.0162364 -0.0376169 -0.0968504 -0.0944744 -0.0267923 0.0303109 -0.0915636 -0.132227 0.0400205 -0.114613 -0.0599543 -0.00712574 -0.0437253 -0.0298233 -0.082592 -0.0104933 0.0679684 -0.0272697 0.112552 0.0622006 0.0837511 0.0580106 -0.00656819 -0.0588742 -0.0450001 0.00223842 0.00574703 0.0211548 0.0695276 0.0554363 0.0665852 0.0304747 -0.0213997 -0.098079 0.0950765 -0.0655719 0.0585865 -0.0984589 -0.010114 0.065426 -0.0195755 0.01645 -0.0942925 -0.00163575 0.0720371 -0.142103 0.0242695 0.0565681 -0.0121135 0.0875341 -0.0111453 -0.0556376 0.0182696 0.0550112 -0.0218942 0.0613534 -0.065492 0.0764702 -0.0447988 0.129064 0.0346594 0.0512657 -0.0091961 -0.00251225 0.0330481 -0.0317778 0.100205 0.0893171 -0.0348858 0.0942156 0.0105889 0.0490682 0.166697 0.0357676 0.0176046 -0.030328 -0.0333676 -0.0405564 -0.138391 0.101261 0.0115214 0.0185016 0.124618 -0.0861838 -0.0537624 -0.0245511 0.0677871 -0.0311705 -0.0753561 0.115606 -0.0222271 0.0983177 0.0615958 -2.8958e-05 -0.066398 0.0789367 0.0482837 0.109666 0.0910344 -0.0689748 0.0301244 0.0805317 0.0272931 0.0355134 0.123251 0.0147412 0.0500275 0.0630658 0.0529056 0.0177781 -0.0355084 0.0327074 0.000823271 0.0526146 0.020985 0.0310862 0.100788 -0.0385031 0.0925332 -0.0819504 -0.0501726 -0.0524355 0.0808882 -0.0476497 0.0755422 0.078942 0.0409505 0.0201113 0.0105805 0.0134335 0.114642 0.0153087 -0.0359712 0.00948033 0.109304 0.0594063 0.145126 0.0330753 -0.0785525 -0.0661913 -0.0857447 -0.173713 0.0294772 0.132463 0.0526809 0.0139668 0.0393486 0.0353855 0.0481885 0.0046066 0.0460526 0.0906335 0.040255 0.0195583 0.0984645 0.043185 0.00880838 0.0525739 -0.0612395 -0.0770435 -0.115666 -0.0465712 0.0718349 -0.0381101 -0.0354525 0.00548111 0.117526 0.0997705 0.194583 -0.00482277 -0.0801413 -0.0849676 -0.124626 -0.110317 -0.0894652 0.143331 0.0774299 0.0992884 0.0391564 0.0075348 -0.00802112 -0.026707 -0.00921416 -0.0751486 0.0906397 -0.00130025 0.0248518 0.00704575 -0.0276766 0.121711 -0.00514877 -0.0896016 0.00616413 -0.0901839 -0.0689102 -0.169053 -0.0227349 -0.0481617 0.0914487 -0.0407984 -0.0312307 -0.130317 -0.0253 0.0907167 0.00842375 -0.0387894 0.0598288 0.0596345 -0.0202574 0.0423067 -0.0845899 0.0439333 0.0985128 -0.00118648 0.0614022 0.0720655 0.0758927 -0.0101649 -0.0620503 0.126184 -0.0693746 0.0977519 -0.050223 0.0410518 -0.226018 -0.0445038 -0.15511 -0.0195538 -0.0991229 -0.0633236 -0.0966627 -0.00657685 -0.156805 -0.227962 -0.0353308 -0.126236 -0.0787837 0.0100514 0.0479483 0.0820529 0.00913139 0.0706089 -0.0257729 -0.0201439 -0.0476646 -0.0717532 -0.0554609 -0.0791544 0.000994928 -0.00586765 -0.0906031 0.0488036 -0.0671254 -0.0664846 0.0333187 -0.152894 0.0167594 0.00268786 0.0811051 -0.0185742 0.0989581 0.164882 0.120329 -0.0343481 0.0723964 0.0423756 -0.0702307 -0.0312599 -0.0555724 -0.0734466 -0.0949273 0.127644 0.104667 -0.0188301 -0.0399351 -0.0707856 0.00203424 -0.00277839 -0.0573225 0.0956466 0.0742669 -0.036282 0.0195999 -0.0756749 -0.0019619 -0.0766676 -0.0314885 -0.0381893 0.0137027 0.0970982 0.0944991 -0.00288752 0.0752914 0.0181584 0.0731947 0.151207 -0.0667966 -0.000965131 -0.0786853 0.013365 -0.139022 -0.0971946 0.0273833 -0.0119932 0.0472466 0.0779052 -0.0319296 -0.0580169 -0.018641 0.00728282 -0.0697528 -0.0517566 0.0539139 0.0446586 -0.052282 -0.0308648 0.0680021 -0.0351108 0.0052582 0.010123 -0.0724471 0.0137326 0.0349611 -0.0667586 0.0569294 -0.0567875 -0.0139876 0.00362983 0.00968623 0.0958938 0.0294688 -0.0820947 -0.0255333 -0.0687368 0.0918335 0.0592551 0.00751765 -0.0554263 0.0520874 0.081579 0.0580886 0.0788694 -0.0775601 0.00462007 0.0161457 -0.0350305 0.0489049 0.00403308 0.035133 -0.0335683 -0.1052 -0.128333 -0.00623909 0.0288171 0.102458 0.0649492 0.020956 0.0910187 0.0915239 0.0262548 0.0605415 0.101655 -0.0544235 -0.199796 -0.0800914 -0.0379479 0.00780006 0.123988 0.0910802 -0.0251797 0.0543771 0.0486385 -0.0400781 0.0733519 -0.0541239 0.0686851 -0.069061 0.0895926 -0.0521323 0.0814236 -0.0399299 -0.0536615 0.0671531 -0.0949047 0.0111934 -0.0063321 0.194883 0.0140711 -0.0754574 0.0961008 0.0967184 0.0613317 0.0952124 -0.0589434 -0.167628 0.0272618 -0.127035 -0.164427 0.0408345 0.141343 -0.0284159 0.0101444 0.0387922 0.0452136 -0.0102715 0.0812031 0.0065162 0.0132851 0.0634131 0.0369194 -0.0378845 -0.053597 -0.100653 -0.0583469 -0.0163322 0.0375484 -0.0695891 -0.0344337 0.106963 0.164317 0.0960789 0.132939 0.146804 0.126141 0.00619569 -0.138976 -0.0843725 -0.0447904 -0.0473009 -0.10549 -0.0850488 0.0978309 0.0589646 0.0678321 -0.0204215 -0.0375993 0.0675435 0.0949058 0.0683032 0.0235744 0.0367188 -0.0848552 0.0237624 0.0592184 -0.0325701 -0.105573 0.0421247 -0.118355 -0.107465 0.101619 0.202948 0.0518571 0.0639509 0.0355692 0.120548 0.0724453 0.153163 -0.123081 -0.00444653 -0.0155573 -0.0346099 0.033997 -0.114362 -0.0253798 0.0234537 -0.0172396 0.00230837 0.00470491 -0.00382533 -0.0205771 -0.0791033 -0.074489 0.00954702 0.0430069 0.0385144 0.117356 0.0547114 -0.0323636 0.119127 -0.0832118 -0.0438679 0.0432577 0.0239735 -0.0100489 -0.00164313 0.00821155 0.0217765 -0.0703631 -0.250043 -0.217237 0.0110113 0.0267408 0.0684609 0.0356547 0.0187273 0.00267167 -0.0622261 -0.0614202 0.0880231 0.049922 0.0365109 -0.0822691 0.0680505 -0.0613245 0.0757172 0.00138383 -0.100814 0.0566778 0.0650824 -0.0845933 0.0697743 0.00205477 0.0547015 0.113494 0.0978007 -0.0223432 0.0659646 -0.0467653 -0.0612477 -0.0339556 -0.226132 -0.218179 -0.0966344 0.0157464 -0.0754936 -0.127189 -0.00183358 -0.0499509 -0.0575318 0.0112145 -0.103659 0.0996889 0.0474538 0.073203 -0.0690182 0.0157886 -0.00690465 -0.0772148 -0.0773769 0.00917076 -0.0780443 0.0896735 0.105235 -0.0706021 0.075835 0.0787045 0.0927391 0.128601 0.129473 0.155975 -0.0225229 -0.136624 -0.227903 -0.0795245 -0.0610788 -0.0421837 0.0456898 -0.124579 -0.034898 -0.0819558 0.0177137 -0.0135317 -0.0858967 -0.0141226 -0.0218201 -0.0461038 0.0942834 0.0638926 -0.00481019 -0.090476 -0.0767799 0.0584341 -0.109838 -0.0796856 0.117793 0.12106 0.0215405 -0.0672537 0.101562 -0.0367167 0.0989145 -0.138538 -0.0331531 -0.153726 -0.0304196 -0.187066 -0.109711 0.0430311 -0.138107 0.0266847 0.037054 0.0419913 -0.0633727 0.0737894 -0.0854584 0.0315996 -0.0538061 -0.0726667 -0.00797287 0.0340013 -0.0518517 0.000647244 -0.0549209 -0.02721 0.0557502 -0.0708365 -0.046515 -0.0719175 -0.0688615 0.113611 0.114882 -0.0765384 0.00755958 -0.0476304 -0.157388 -0.0394457 -0.112635 -0.0389929 -0.124833 -0.0156996 -0.0361315 -0.0400678 -0.0280908 0.0316712 -0.100858 -0.0437393 -0.0873814 -0.0378719 0.0093198 0.0303717 0.0998816 0.0573029 -0.0432553 -0.0552044 -0.109933 0.102953 0.0201419 -0.0336432 -0.0344491 0.0456455 0.114586 0.159088 0.197282 -0.0105507 -0.0939131 -0.080384 -0.122951 -0.0220321 -0.0420287 0.00679965 -0.105814 0.0166699 0.0686027 -0.0142515 -0.00144178 0.105795 0.017349 0.00369173 -0.0532076 -0.0494114 -0.0474282 -0.0348177 0.104426 0.00193409 0.01621 -0.112889 -0.0423566 -0.0570553 -0.0196166 0.104166 0.114076 0.0194663 -0.00140789 0.0761409 0.169561 0.0136515 0.0498391 -0.0157736 -0.12128 -0.0817359 0.134507 -0.00504159 -0.0931394 0.0796031 0.044022 0.155396 0.0850456 -0.0118556 -0.0801292 -0.0851013 -0.00864175 -0.0159138 -0.00141058 0.0142931 0.0948314 -0.0803068 0.00763586 -0.0549076 -0.0911364 0.0910831 0.0913762 0.169062 0.0458549 0.0153054 0.0339184 0.0955228 0.115713 -0.0502877 -0.0478966 -0.0854504 -0.0370947 -0.0839352 -0.0408022 0.106533 -0.144758 0.144287 -0.00198785 0.192221 -0.0381504 0.064549 -0.111805 0.0362687 -0.0864631 -0.00157166 -0.0309299 -0.0731233 0.0269328 0.0815998 -0.0162632 0.0284137 0.0189083 -0.0268797 0.063 0.155334 0.193851 0.0792817 0.0796471 -0.0811395 -0.0149055 0.0161201 -0.00947308 -0.110553 -0.158709 0.0159253 -0.00169912 -0.0699636 0.0452182 0.0483367 0.1035 0.179655 -0.0152097 -0.00957455 0.0190204 -0.0713665 0.0295831 0.0936154 -0.0259815 -0.0249757 0.0745734 0.0571135 -0.0780537 0.0119901 -0.0884245 0.0509323 -0.0675868 0.00922719 0.147004 0.131701 0.119558 -0.0958489 0.0315241 -0.0955601 -0.071416 0.0315455 -0.19891 -0.0698829 -0.118582 0.0415978 0.100772 0.116619 0.130184 0.056165 -0.0713758 -0.0557752 -0.0754731 -0.0485961 -0.0428272 -0.00883704 0.0190457 -0.0756363 -0.0591061 0.0336096 0.0289714 -0.054913 -0.0228406 0.0751776 0.0372272 -0.0577283 0.111774 0.0826295 0.0919536 0.0159131 0.121159 -0.107195 -0.0510911 -0.121653 -0.0957298 -0.00380846 0.0564899 0.0397892 0.183119 0.160012 0.0625661 -0.0036828 -0.0304457 -0.0834736 0.0274696 0.103434 0.0338452 -0.0608672 -0.0795846 0.0673566 0.0641144 0.0407589 0.103816 -0.0661088 0.00855401 0.0501225 -0.0147575 -0.045102 -0.0204004 -0.0875347 0.0616323 -0.0229315 -0.0658632 -0.0435686 -0.00803937 0.0347658 0.0814891 -0.0441255 0.0903009 0.0616247 0.0453191 -0.0841613 -0.0623096 -0.00841945 -0.041479 0.0577775 -0.0123677 0.0849837 0.0895277 0.000665198 0.0449578 0.047505 -0.064713 0.0426364 0.0752592 0.0377039 -0.0133782 -0.0456355 0.0864648 0.0600843 -0.0393073 0.04196 -0.0689842 -0.0113075 0.0922543 0.0168393 -0.0826789 0.0676062 0.0665767 0.101485 0.0230939 0.00575876 -0.0888134 0.0546472 0.0912022 -0.0364295 0.00628765 -0.0273027 -0.0575829 -0.0103217 0.0672254 0.0812377 -0.0689538 0.0963753 0.0177371 0.100168 0.0279421 0.0982218 -0.0516042 0.00799932 0.0498216 0.00181794 -0.0597963 0.0751564 0.0860375 -0.0681938 -0.0118421 0.0977494 0.0920647 -0.0515874 0.0922619 0.00860256 0.048206 0.0988813 -0.0411956 0.0319078 -0.0463507 0.055776 0.0988208 -0.00977513 -0.0591621 0.0605248 -0.0340977 -0.034253 0.0507631 0.0775023 -0.0402218 -0.0274319 0.0681634 -0.000128842 0.0725352 0.0146161 0.0965308 -0.0907317 -0.0162698 0.0762336 -0.0632873 0.0682143 0.0687943 -0.0774042 -0.0894808 0.0535772 0.0236711 0.0521934 0.0460494 0.075832 -0.0229421 0.0908001 0.0258608 -0.0302439 -0.0240474 0.0592294 -0.0737046 0.0362763 -0.0809162 0.0687557 0.00980731 -0.0251094 -0.0626476 -0.0267428 0.0686247 0.103751 0.0805734 0.060336 -0.0898848 -0.0402567 0.0327891 -0.0589593 -0.0748798 -0.00170192 -0.0408181 -0.070481 -0.0543337 0.0759542 0.0730852 0.0865804 0.0478595 -0.0525497 0.0725809 -0.0349727 0.0120901 -0.0554805 -0.0789822 0.0309163 0.0768103 -0.0633114 -0.00405507 -0.0195196 0.00760778 0.029326 0.0497662 -0.0277389 0.0269394 0.0242025 -0.0725371 0.0321474 0.0814546 0.0550629 0.0684714 0.0983144 -0.0517288 -0.0774477 -0.0787285 -0.0103781 0.0932914 0.0895276 -0.0311283 0.0378553 -0.0653391 -0.0598173 0.100437 0.0384094 -0.0255466 -0.0868766 -0.0321517 -0.0476799 -0.0514622 0.0594983 0.0276267 0.0500085 -0.015147 -0.0265784 -0.0817018 -0.092179 0.0922291 -0.060376 0.0349219 0.0689571 0.0946989 -0.000701175 0.062714 -0.0646744 0.0192019 0.0821547 0.0209004 0.0111229 0.0712655 0.0866576 -0.0589138 0.100692 -0.0768257 -0.0597308 0.0406953 -0.00355563 -0.0521739 0.0999291 0.0452133 -0.00466862 0.0570707 -0.0320786 -0.060057 -0.0642134 0.0373716 -0.0457301 -0.0603639 0.0248872 -0.0115011 0.068421 -0.0125373 -0.0244121 -0.0340348 -0.0525417 0.00792124 0.0777579 -0.0740405 -0.0729096 -0.00998321 0.0993567 -0.0844577 0.0291789 0.0954506 -0.0659207 0.0631896 0.0300489 0.0273619 -0.092952 0.0246799 -0.0346628 -0.00201874 -0.0194321 0.0305693 0.0330202 0.0111619 -0.0360305 0.0833187 0.0468267 0.0827197 -0.0328958 0.00985276 -0.0359547 0.0373194 0.0700224 0.00897753 -0.0579414 0.0469436 0.0296152 -0.0330744 -0.0683879 0.026761 -0.0198597 0.0576704 0.0178127 0.00865458 0.0167759 -0.0567371 -0.0667391 0.0190821 0.0637181 -0.0078393 -0.0899232 -0.0602604 -0.0797124 0.040915 0.0464711 -0.0223753 0.0201445 -0.0106735 -0.043627 0.0811116 0.0944657 0.016447 0.0122939 0.058997 -0.0818328 0.0521248 0.00193183 0.0464792 -0.0872919 0.0312469 -0.03131 -0.00924088 -0.0133319 0.0832795 0.0964298 0.0988714 -0.0778191 -0.0765223 0.0144891 0.081191 0.0110661 0.0201265 -0.0854951 0.0261966 -0.0432159 0.0587939 0.100815 0.0717199 -0.0559688 -0.0467838 0.0488601 -0.0676402 0.0635261 -0.0428173 0.0859618 0.0769443 0.102227 -0.0164359 0.0175373 -0.0875643 -0.0890313 0.085236 0.00179922 -0.00294468 0.0656757 -0.00596981 -0.00642088 0.0846523 0.0134292 0.100372 0.059712 -0.0803333 0.0168935 0.0719166 0.0423169 0.0700392 0.0258461 0.0397994 0.0387522 0.0646011 0.0887414 -0.016359 0.0929895 0.0461304 0.0346865 0.0742379 0.0169376 0.0333227 -0.0475771 -0.0687194 0.0388143 -0.0405245 -0.0877505 -0.0606894 0.0550315 0.0774518 0.0307487 -0.0567631 0.0587338 -0.059143 -0.0591451 0.0122136 -0.0466099 0.0527185 -0.0204452 0.0928982 0.0192113 0.101779 0.027648 -0.0453685 0.0640314 0.0118553 0.0339983 0.0523073 -0.0467279 -0.0374523 0.0204081 0.0651492 0.0880513 0.0677862 0.0913992 0.024738 -0.0782223 0.098126 0.0601582 0.0753937 0.0744618 -0.0111842 -0.0838002 0.0267219 0.0248577 -0.0481615 -0.0636487 0.0735805 0.0956899 0.0121314 0.0638467 0.0164856 0.0108441 -0.0122406 0.0652613 -0.0298345 0.0971179 -0.00372582 -0.0814543 -0.0554 0.0526848 0.0328167 0.103959 0.0363696 -0.00433863 0.0917338 -0.0442494 0.0146954 0.0852654 -0.091174 -0.0126579 0.0586935 -0.00293199 -0.00197941 -0.0180082 -0.0826538 0.0492793 0.0160658 0.0883275 0.0417563 -0.0794448 0.0506592 -0.0410319 0.0347166 -0.0640188 -0.0802134 0.0980874 -0.0734977 0.0123789 -0.0863522 -0.0328249 -0.0407264 0.0403274 -0.0350029 0.0895061 -0.0698013 -0.0496323 -0.058366 0.0398607 -0.0678166 -0.0527884 -0.0802045 0.0875669 0.0436341 0.0207943 -0.0319336 0.0601028 -0.0332376 0.0863389 0.0510025 -0.0909981 -0.097032 -0.00810187 -0.0351466 0.0369093 0.0304646 -0.0174721 0.0305199 0.0508182 0.0889668 0.0411626 -0.0846622 -0.0556868 -0.024647 -0.0258022 -0.0723178 -0.000585397 0.0187754 -0.0370471 -0.0660776 0.0459253 0.00657586 -0.0489486 0.0259604 -0.0527646 0.0697564 0.0960084 -0.0939447 -0.0629802 0.079182 0.0578651 -0.0523361 0.0817741 -0.0517857 0.00279007 0.0136938 0.0755524 0.0866497 -0.0587659 0.024012 0.0708603 0.0796791 0.0374457 -0.0863734 -0.048153 0.105507 -0.0648358 0.0451245 0.0181448 -0.00767309 0.0743655 -0.0412828 0.0938694 -0.0781855 0.0830145 -0.0664988 0.0898743 0.0780319 -0.056212 -0.0757664 0.0585348 0.100345 -0.026415 0.0427514 -0.0534318 0.0755659 -0.0497241 -0.0808739 0.0610918 -0.00410209 0.0421932 0.0301847 -0.0280827 -0.0234949 0.0422466 0.0222175 -0.0211735 0.0712738 -0.0388026 0.0908342 -0.0425364 -0.0705742 -0.0551299 -0.05402 -0.05381 -0.0759291 -0.0220677 -0.0701804 -0.100335 0.022979 -0.0432092 0.0577716 0.0222838 0.0326301 0.00300135 0.0726338 0.00445924 0.0502505 0.0857343 -0.0371285 -0.0564158 0.0299285 0.0882399 0.0125631 -0.0981488 0.0290633 -0.0656314 -0.0206474 -0.00322341 -0.0105708 -0.0359578 0.0481031 0.0127179 0.00277518 0.0894018 0.053555 0.0232193 -0.0358495 0.0803871 0.0160834 0.0808465 -0.0628007 -0.025326 0.00342706 0.0674574 0.0774197 -0.0243769 -0.0269355 0.023626 -0.0441373 0.0283115 0.0623543 0.0797933 0.0171623 -0.027822 0.0810524 -0.0574295 0.00612416 -0.0400069 0.038022 0.0902222 0.0178983 -0.0200195 -0.00319701 -0.0854636 -0.0367548 -0.0543232 0.0309794 0.0238366 -0.0771383 -0.0559411 -0.000733971 -0.0434035 0.0197332 -0.095398 -0.0756329 -0.00544374 -0.0226097 -0.00645707 -0.0852622 0.0286112 -0.0831001 0.0742168 0.00855505 0.0318112 -0.0563453 -0.014605 0.0715333 0.043898 0.0447488 0.00892096 0.0327953 -0.042684 0.0827643 -0.0765465 -0.0342847 -0.0601276 -0.037007 0.0920148 0.0572872 -0.0176864 -0.0661046 -0.0459856 0.0324914 0.0495153 -0.0414268 0.0559554 -0.0587009 0.03313 -0.0502993 -0.0459555 -0.0419451 -0.0396098 -0.0815485 0.0622525 0.0910487 -0.0360569 -0.0533078 0.0595895 -0.0972019 0.0859578 -0.0328953 0.0351178 -0.0581382 -0.0554622 0.0524341 0.00143226 -0.0217268 -0.09071 -0.0126916 -0.069474 -0.0148183 0.0151301 -0.0193985 -0.0848656 -0.0411957 0.0359379 0.0721984 0.000924636 -0.0312222 -0.0785739 0.0552036 0.0259365 -0.0201718 0.0718943 -0.0160201 -0.0334153 -0.0696055 0.0295311 -0.0768961 -0.069372 0.0104901 -0.0141859 0.0642598 0.0518763 0.0281977 0.0114429 -0.0528286 0.100326 0.0145958 0.0283426 -0.0752868 0.0947415 -0.0602396 0.000280967 -0.0925997 -0.00533342 -0.0696895 0.0732613 0.0965718 0.000739412 0.0974017 0.0535008 -0.0713552 -0.0246952 0.0216312 0.00634976 0.0329224 0.0452735 -0.0719047 0.0522796 0.070928 0.0363194 -0.0640265 0.0344074 -0.0132299 0.0633413 -0.057969 0.0289054 0.0575301 0.0504819 -0.0488891 0.0761062 0.0390863 -0.0152656 -0.0270299 0.0399912 0.0771837 -0.000343513 0.00764977 0.0669555 0.0995837 0.00630175 0.0211728 -0.0727399 0.0791092 -0.0626128 0.0269841 0.0059143 0.0745597 0.0504154 -0.0463442 0.0438475 -0.0192053 -0.0126381 -0.0263463 0.0674559 -0.0507224 0.0148545 -0.00745796 0.101772 -0.0408007 0.0375081 0.0717407 0.0921485 -0.0838947 -0.0614264 0.0287226 0.0871406 0.0355765 -0.0652344 0.0501582 0.0304568 0.0377445 -0.0298182 0.0584659 0.0170666 0.00508514 -0.0202739 -0.081374 -0.0240075 -0.0780178 -0.0320561 -0.0897007 -0.00165726 0.0462968 -0.0176043 -0.036793 0.0968745 0.0966979 0.055068 0.0948189 -0.0491312 -0.0135611 0.0604225 -0.0631273 -0.00359286 0.0929236 0.0595226 -0.0201519 0.0239306 0.0915641 -0.0736675 -0.0512375 0.0249967 -0.00587485 -0.0957669 -0.0590124 0.0984291 -0.0185666 -0.0450207 -0.0298791 0.000201999 0.0166994 -0.0244448 0.093482 -0.0430621 0.0516818 -0.048449 -0.049677 0.0476519 -0.0943308 -0.0553725 0.0951392 -0.0129205 0.0988484 -0.0741898 0.0772775 0.0855704 0.0791313 -0.049076 0.00472278 0.0657233 -0.0257339 0.0489631 -0.0137431 0.0642649 0.0510376 0.0257867 0.0619891 -0.0689064 0.0773901 -0.0750929 0.0236155 -0.0140613 -0.00375378 0.00972374 0.0383809 -0.0606171 0.0562177 0.0855142 0.0850056 0.0609832 -0.0707556 0.0782088 -0.0567315 -0.0782708 0.0978819 -0.0855912 0.101155 0.0708761 -0.0408042 -0.000259357 0.0318856 0.028494 -0.0538354 -0.0843315 -0.0115607 0.093667 0.0383443 -0.0472221 -0.0765283 0.0127936 -0.0308795 0.0396697 0.0910063 0.0556494 -0.0564096 0.0254215 0.0923748 0.0949124 0.00310712 0.0706804 0.0537887 0.0326959 0.0507825 0.0936252 0.0493643 0.0423011 0.101897 0.044382 0.00703232 -0.0450446 -0.0620142 -0.0672192 0.0792028 -0.0208192 -0.056428 -0.0350335 -0.0293924 0.0784521 0.012526 -0.00545357 -0.0099774 0.0792014 -0.0714664 -0.0237828 0.0296923 -0.0331997 0.0963925 0.0186099 -0.0393278 -0.00241655 -0.0136463 -0.0954606 -0.0729623 -0.0646851 0.100044 0.0729701 0.0725548 0.0955776 0.011215 -0.0265499 -0.0556118 0.0430635 6.3335e-05 -0.0825461 -0.0820024 0.0388507 -0.0227024 -0.0170698 0.0115514 0.0858267 0.0725681 0.103174 0.0640543 0.0999157 -0.0263596 -0.0116627 -0.0391191 -0.0358861 0.101387 0.014284 0.0586482 -0.0195704 0.0172525 0.0796021 0.0179812 0.01547 0.0528938 -0.0151281 0.0067386 -0.0433481 0.0521848 0.0449896 0.0936087 -0.0538585 0.0563064 0.105469 0.0802441 -0.0694264 -0.0130646 -0.00887421 -0.0877269 -0.0445733 -0.0126454 0.0738887 -0.049002 0.0571538 -0.0436186 0.00706708 -0.0834373 -0.0475532 -0.081912 0.0710328 0.0340145 0.0328316 0.0464112 -0.0545762 -0.0538065 -0.00465013 0.0253436 0.0471432 0.0455988 -0.0286087 -0.0140042 0.0330705 0.0113957 -0.0638349 0.0324026 -0.0144973 -0.0393983 -0.0868232 0.0708385 -0.0311067 -0.0382987 -0.0477019 -0.0653181 0.00941608 0.104676 -0.0135844 -0.0901968 -0.0850838 0.0329437 -0.0785965 0.0796076 -0.0402123 0.0501804 0.021204 -0.00121327 0.0892585 -0.0886063 -0.0802351 0.032136 0.0513538 -0.0143122 -0.0880053 -0.0217128 0.0909464 -0.051696 0.110834 -0.0234068 0.00276859 -0.0821262 -0.0581894 0.0660409 -0.0238906 -0.0101219 0.0965116 0.079292 -0.0113332 -0.0231242 0.0829039 -0.00275836 0.103339 0.098256 -0.0293689 -0.0420424 0.042844 0.0874698 0.0530476 0.0278368 0.0932248 0.0673443 -0.0461643 0.0384414 -0.0531051 -0.0403067 0.110592 -0.0682957 -0.00442093 0.109007 -0.00412085 0.0859295 -0.0855374 0.0252714 0.0395519 -0.0218463 0.102731 0.0236452 -0.0549726 -0.0210202 0.0881028 -0.0844871 0.063803 0.0790239 0.101351 -0.077984 -0.0754367 0.0317762 0.0970674 0.0651927 -0.0528053 0.0778739 0.0201184 -0.0113879 0.0038969 0.054595 0.0358872 0.00207011 0.073881 -0.0809519 -0.00134102 -0.0426582 0.0925592 0.000703213 0.070195 0.0196927 0.0827014 0.0966513 -0.0225917 0.12558 -0.0543211 0.109862 0.11186 0.0903144 0.0998513 0.0817458 0.121843 0.119146 0.0633995 0.0933677 0.0806293 0.0845024 0.0739325 -0.0514499 -0.0880654 -0.0636362 0.104231 0.0448714 0.0192868 0.0494683 0.0515011 0.105528 0.094392 0.0316418 -0.00618762 0.0520555 -0.0616886 -0.0527723 0.0160997 -0.0145913 -0.0470454 0.0209967 -0.0585171 -0.100075 -0.0397331 0.103934 0.132902 -0.0133612 0.115278 0.030803 -0.0530788 0.020299 -0.0313475 0.0939432 0.0707663 -0.0285189 0.0519744 0.0114893 0.0890784 -0.0333156 -0.0435153 0.0135615 -0.0408115 -0.0609366 -0.0666098 0.0411876 0.0788136 -0.0407169 0.0759972 -0.0339516 0.0201239 0.126637 0.0876366 0.0501601 0.100293 -0.0865903 0.0233707 0.092377 0.0118915 0.0469088 0.0187302 0.0157294 -0.054355 0.0197608 -0.0485386 0.0989629 0.0670297 0.0927033 -0.0526013 -0.00516941 -0.0678864 -0.000693376 0.104524 -0.0351108 0.0259516 -0.0738989 0.0942637 -0.00704808 -0.0264293 0.0578424 0.046582 0.0654349 0.0490841 0.0207751 -0.0387184 0.00873627 -0.0160434 -0.148346 -0.0303875 0.0722967 0.0908349 0.165081 0.0233736 0.067968 0.0462155 -0.0252551 -0.0222512 -0.0761035 -0.0967566 0.00882017 -0.0132704 -0.0684523 0.107435 0.0173971 -0.0139219 0.0160839 0.0310797 -0.0314715 0.0972227 0.0928374 -0.0854423 0.0318782 0.0458538 0.0462093 -0.0905737 -0.0951713 -0.0732157 -0.0217047 -0.0999061 0.0458972 0.00973782 0.0846924 0.188126 0.183477 0.0674535 0.0568796 -0.000224518 0.0721788 0.0292032 -0.044149 -0.0702347 -0.0899968 -0.0387272 -0.057837 0.0287561 0.0608015 0.0509611 -0.0560927 -0.0830883 0.0363704 -0.0750686 -0.0803439 -0.0440566 0.0588588 0.053447 -0.0335939 0.0377144 -0.114581 0.028834 -0.153519 0.0866222 -0.0258221 0.0082862 0.0605297 0.0195554 -0.000391635 -0.0168748 0.0445989 0.130883 0.0694625 0.0873028 -0.0905449 0.0149859 -0.0712891 -0.0448752 -0.0443125 0.078089 -0.0852564 -0.000741881 0.10258 0.0393006 0.0123761 0.110423 0.0828258 -0.0410704 0.0519438 -0.0631863 -0.0758054 0.00696454 -0.123463 -0.123584 -0.0156213 -0.00158936 0.0546341 -0.0362721 0.0715871 -0.034445 0.104681 0.026539 -0.0585915 0.0393204 -0.0192487 -0.014526 -0.0893645 -0.042332 -0.0199015 -0.0236698 -0.0206852 -0.0336494 0.0593443 -0.0305214 -0.0652333 -0.022146 -0.0319116 0.105779 0.0243654 0.107727 -0.0692206 0.0361416 0.0530425 -0.113186 0.00793016 -0.0780356 -0.0215811 0.00765929 0.0715075 -0.0158305 0.0433682 0.0707973 0.142172 0.0737346 -0.0532856 -0.00996684 0.11313 0.0030259 0.00400656 -0.0673228 -0.0243493 0.0772967 0.0606612 -0.0578808 -0.0694688 0.0831244 0.0492017 0.00475333 0.0770902 -0.0382462 6.20947e-05 0.0954512 0.0860822 -0.0588217 -0.0788925 -0.0346213 -0.0470832 -0.0328279 -0.111669 -0.0230008 -0.0451699 0.0667808 -0.0787904 -0.0282062 0.0286445 -0.0593721 0.0049993 -0.00101598 -0.00393442 0.13492 -0.00427388 0.0351889 0.0156022 -0.0757525 -0.0631224 0.0485393 -0.0981057 0.0737756 -0.00879642 0.0928203 -0.0762838 0.0794525 0.0758531 0.09738 0.108326 0.0845422 -0.00873605 -0.0455561 -0.0421059 -0.0487496 0.0502085 0.0433505 -0.0094894 0.111762 0.0953009 0.0990748 -0.0512385 -0.0483014 -0.0597398 0.00725479 -0.0499145 0.0704023 -0.0840404 0.0447528 0.0118709 -0.0793028 0.0564186 0.0238732 -0.111005 -0.059064 0.0550963 -0.0734528 0.108083 0.0186441 0.111509 0.10399 -0.0255847 -0.00764283 -0.0392593 0.0273366 -0.12152 -0.0570048 -0.0507331 -0.0735769 -0.0418231 0.0250337 -0.0254784 -0.0067192 0.0784883 -0.0155336 0.109887 0.118478 0.0993836 0.205893 0.119183 -0.0199546 -0.1012 -0.0730535 -0.0547207 -0.133731 -0.0151717 -0.0841572 -0.0514564 0.0232131 0.0385347 -0.052366 0.0147851 -0.0830023 0.0441519 0.0914222 0.0568506 -0.0150851 -0.0989031 -0.0178278 -0.144013 0.00235418 -0.0747771 -0.00460391 -0.0437306 -0.0667628 0.0787187 -0.0761205 0.140338 0.0886137 0.163955 0.0869947 0.0199499 -0.0118833 -0.033956 -0.0235116 -0.123366 -0.0202079 0.0233071 -0.0308825 -0.0412676 -0.0078566 0.0207992 0.0610992 -0.0032773 -0.0474672 0.0565691 -0.0260997 0.0545077 -0.161645 -0.162 -0.123114 -0.0421009 -0.11936 0.00512709 -0.054332 -0.0114898 0.0323273 -0.0419847 -0.00124695 0.00986784 -0.00666568 -0.0937379 0.0174731 -0.00501319 -0.0529779 -0.0561011 -0.107698 0.0102929 -0.157175 0.0418363 -0.061648 -0.000384314 -0.0070628 0.087033 0.0839202 0.0330518 0.0311838 -0.038132 0.00788638 0.0210415 -0.119443 -0.0237038 -0.036966 -0.0561955 -0.0107994 0.0384421 -0.0234219 0.00930751 -0.0716763 0.0480027 0.036832 0.00082592 0.0666169 -0.0393618 0.0418375 0.0912424 -0.124833 -0.127088 -0.0361909 -0.105101 0.0151345 0.0462995 0.0464675 -0.0321878 0.0778392 0.0371534 0.0951629 -0.00339548 0.0866032 0.0070969 -0.0640296 -0.0813378 -0.135918 -0.0331893 -0.0260471 -0.0893756 -0.0195844 0.13012 0.148249 0.00902613 0.0157859 -0.0139823 0.101877 -0.00289664 -0.0272926 0.0114064 0.0113092 0.0517709 -0.118877 -0.162391 -0.0721952 -0.144451 0.0321103 -0.0106543 -0.0015033 0.0696899 -0.0289943 0.000425246 -0.0394067 -0.0548094 0.0951039 -0.0158547 -0.0178229 -0.0893115 -0.16975 -0.13278 -0.0646261 -0.0781083 -0.0444943 0.113672 0.143653 0.0875874 0.112738 0.077729 -0.0243478 -0.00329383 0.107819 0.0152991 0.0775222 -0.0975131 -0.166116 -0.0471509 -0.138919 -0.178869 -0.0878046 -0.143397 -0.0792185 0.0421965 0.00111384 -0.0118594 0.081686 -0.0162006 0.0598676 -0.0485553 0.0128123 0.0416211 -0.101927 -0.128303 -0.175519 -0.0932517 -0.0581115 0.0324685 0.0496791 -0.0602291 0.119431 0.0227166 0.0155908 0.140106 0.0896641 -0.0167268 -0.120254 -0.162512 -0.0669445 -0.0419056 -0.162922 -0.198681 -0.0271517 -0.0227169 0.0734756 -0.0670426 0.092931 0.0619273 0.0110558 0.0403802 0.100954 0.11145 -0.0160117 -0.0659211 -0.107957 -0.0585536 -0.0342649 -0.123707 -0.0728163 -0.0289823 0.0731857 -0.0832227 0.0402396 0.0942714 -0.0467857 0.0953176 0.125609 -0.115463 -0.0458639 0.00313454 0.0648945 0.0271504 -0.0382816 -0.115489 -0.0635434 0.0427723 0.0252682 -0.0279544 0.0322068 -0.0405732 -0.076938 0.0207423 -0.0415418 0.010969 0.0585051 -0.00469741 -0.131817 -0.0310269 -0.160726 -0.151616 -0.0188098 0.0419678 -0.0357558 0.0254523 -0.0884975 -0.0551624 -0.0286116 -0.0484102 0.0138621 -0.130897 0.0820848 0.105186 -0.1115 0.0212509 -0.219768 -0.0930916 -0.0125539 0.0464385 0.0759897 -0.0337369 -0.0666274 -0.0778454 0.0976415 -0.0205875 0.0207052 0.0747057 0.0686502 0.0336897 -0.017366 0.0194716 -0.150248 -0.0535056 -0.00794498 0.0171678 0.0606921 0.0699696 0.105198 -0.0140505 -0.0401577 0.0396052 -0.0272203 -0.063095 -0.054522 0.0498473 -0.101582 -0.158096 -0.0497886 -0.0385881 0.0304531 0.067931 -0.0752892 -0.0900558 -0.083199 -0.0545448 -7.6238e-06 0.0250878 0.107743 -0.0127982 -0.0518313 0.000737002 -0.0702454 -0.0607705 -0.0847838 -0.0294635 0.0753189 -0.0836625 0.138509 0.133408 0.0525644 0.198207 0.0453168 0.142123 -0.0726829 -0.0361145 -0.0466704 -0.0310995 -0.109654 -0.173283 -0.301638 -0.149368 -0.131771 -0.0728743 -0.0184142 -0.0877849 -0.00250642 0.104681 0.0479386 -0.00718224 -0.0205355 -0.0807897 -0.118864 0.0169849 -0.0436972 -0.0644545 -0.0523016 -0.0869844 0.0197961 -0.0988007 -0.011055 -0.068222 -0.0249586 0.0390402 0.0825327 0.0293123 0.0709862 0.0951033 0.10193 -0.0529036 -0.207558 -0.146203 -0.167813 -0.20427 0.0364892 -0.0821758 -0.0710458 -0.0388325 -0.0525821 0.0999957 0.0646214 0.0144641 0.106788 0.0688607 -0.0809693 -0.0291436 -0.0812647 0.0307686 0.0318787 0.0230041 -0.0265547 -0.126725 0.110658 0.0655896 0.00544614 0.0432405 -0.079896 -0.0282763 -0.0231714 0.0751437 0.160614 0.0621033 -0.0979954 -0.162945 -0.123597 -0.141439 -0.000587847 -0.106967 0.0253993 0.0615481 -0.0887761 0.0131235 -0.000884909 0.11231 -0.0304342 0.0395177 -0.0309825 -0.0221299 -0.0126322 -0.0302386 -0.0509543 0.0202074 0.0285732 -0.078619 0.0080406 -0.0105757 0.108079 -0.0101086 0.0879643 -0.00474595 -0.106973 0.0283856 -0.0335019 0.019396 -0.132202 -0.208555 -0.202778 0.0470306 -0.0753886 0.0400197 0.0571773 -0.0798839 -0.0286614 -0.0188737 -0.0427396 0.0369343 0.109957 0.0511117 -0.095883 -0.0318385 -0.0892204 -0.001265 -0.0691554 0.00208852 0.0731011 -0.00251584 0.103788 0.103011 -0.0820689 0.0619855 0.0169268 0.0148629 -0.0100641 -0.0273021 0.082415 -0.0334707 -0.0618616 -0.245435 -0.0982975 0.0436964 0.0419145 -0.0196397 -0.0950536 -0.0753451 0.0981507 -0.0146904 0.0846922 0.102406 -0.0759968 0.095575 -0.0418507 -0.0961113 -0.00195114 0.0187524 0.08656 -0.114742 -0.0551921 0.0446592 -0.038923 -0.0330435 0.0255024 0.00825776 -0.000125068 0.110888 0.084234 -0.0905994 -0.00520538 -0.028064 -0.07322 -0.132638 -0.0630465 -0.0568786 -0.134099 0.00290482 -0.00630073 0.069585 -0.0914582 0.00149418 0.0950942 -0.0568195 0.000987874 -0.0399909 -0.0653491 0.0657401 0.0779569 -0.0693522 -0.0150434 -0.115363 0.0718918 -0.0550724 -0.0221388 -0.0164077 0.0475563 0.046441 -0.064785 0.0277457 0.0867839 0.0318153 -0.0975798 -0.132843 -0.137155 -0.0479002 0.00889705 -0.0807402 -0.0274221 -0.0864927 -0.0852324 0.00298968 0.0353286 -0.0670353 0.0692731 -0.0530474 -0.00310741 -0.0860186 -0.0997256 -0.0584472 -0.064437 0.000330619 0.019232 0.0374254 0.0112976 -0.0220234 -0.045841 -0.0667474 -0.0148525 -0.00358103 0.0634547 0.115947 -0.0529054 0.00489504 -0.151051 -0.165427 -0.0696817 0.0934601 0.000287828 -0.0339104 -0.01812 0.0244088 0.0496943 0.0763089 0.0691734 0.0420702 -0.0536357 -0.0333069 0.0566788 -0.0302584 0.0313488 0.0829703 0.0369541 0.0798599 0.0384615 -0.14872 -0.0816867 0.00822945 -0.0628814 -0.058419 -0.105105 -0.118186 -0.0462492 -0.0867307 0.0286153 -0.0281467 -0.0462561 -0.0739109 0.00824915 -0.122706 0.0381384 0.0856807 0.0672171 0.0554161 0.0887796 0.0486457 -0.0149319 -0.0772743 0.102921 -0.0706713 -0.0199511 0.0218511 0.0998806 0.104585 0.00827029 0.0423897 -0.0610384 -0.0091271 -0.064311 -0.0758993 -0.0821211 -0.0233037 -0.0407128 0.0222676 0.0522024 -0.0282338 -0.0831477 -0.0889598 -0.054644 0.0969358 -0.0408151 0.0859988 0.0469354 -0.0360939 0.0624877 0.0495467 0.0953306 0.108219 0.0598539 0.0858329 -0.0748706 -0.0748363 -0.00705518 -0.0897293 -0.0826699 0.0887968 0.044127 -0.0522417 0.0666511 -0.0564951 0.045963 -0.0704509 0.0612136 -0.051287 0.06292 0.0185099 0.0351694 -0.0767648 0.0815951 0.0451217 0.107053 -0.0381471 0.0252748 0.06782 0.00853759 -0.0515743 0.00494837 -0.00855021 -0.0557736 -0.047616 -0.0351357 -0.0430626 -0.0325497 0.0477116 -0.0428894 -0.0253171 0.0264109 0.0911401 0.0123438 -0.0170355 -0.0754525 -0.0517908 0.00241612 0.0756636 -0.0131752 -0.0447614 -0.015924 -0.0881033 -0.0316237 -0.0444264 0.0469209 -0.0346683 0.00732897 -0.0379018 -0.0769458 0.105769 0.000426425 0.017905 -0.0128786 0.0345553 0.0601916 0.0418882 0.0813953 -0.0824556 -0.0204977 -0.0715916 -0.0178701 0.0958158 0.109451 0.0843762 -0.0317904 -0.0793903 -0.080489 0.056424 0.0857404 -0.00337714 0.1044 -0.038295 -0.000134655 -0.0362291 0.00795456 -0.0631294 0.0189825 0.105846 -0.00857037 0.0339626 0.100878 0.0780964 -0.0632117 -0.025172 0.00195485 0.090514 -0.0893604 -0.0240768 0.097961 -0.0199556 -0.00576582 -0.0300067 -0.0342374 -0.0065107 -0.0559797 0.0240962 0.00674514 -0.0467702 -0.0294669 -0.0184416 0.0399924 -0.0329831 0.0387811 -0.0647445 0.0248434 -0.0618436 -0.0364381 -0.0656969 -0.0657878 0.0435595 0.0575407 -0.0739809 0.0106655 0.0852778 -0.00764537 0.104804 0.0655413 -0.00398948 -0.025649 0.0560442 0.0657056 0.0587395 -0.0838081 -0.0783774 -0.0577702 -0.0498853 0.0356212 0.0392718 -0.0039665 0.0975945 -0.0885315 -0.0725884 -0.0435612 0.0419191 -0.0421142 0.0763082 0.0742579 0.0126785 0.101802 0.0988982 -0.0531416 0.0498083 -0.0836062 0.0510892 0.0247627 -0.000820154 0.0473529 -0.0172919 0.0849398 -0.0852797 -0.0673719 0.0434392 0.0633623 -0.0610257 0.055216 0.0957463 -0.0207568 -0.0192602 0.0249207 0.0658255 -0.0286303 0.0284081 0.0833056 0.0179422 -0.0383212 -0.0678523 -0.0107584 -0.0693929 0.0409429 -0.0156838 -0.0795045 0.0767241 -0.0771731 -0.0726476 0.0189895 0.0405897 0.0162192 -0.0436444 -0.0851369 -0.00580883 -0.0369223 -0.0578698 -0.0685232 -0.0810959 -0.028993 0.0768471 0.104805 0.0404045 -0.0522589 0.0197812 -0.00386751 0.00931315 -0.0599287 -0.0291175 -0.0817655 -0.00715188 -0.00339516 -0.000398329 0.0181807 -0.0682077 0.0790533 0.0316277 0.100032 0.0921832 0.0493922 0.0112887 0.025124 -0.0416475 0.0575727 0.0307079 0.0435758 -0.085918 0.0659774 0.0707535 -0.0725142 -0.0702526 0.037503 -0.0775552 0.0603062 0.0753985 0.032227 -0.0535055 -0.0253858 0.0629221 0.0101513 -0.0158505 -0.0535831 0.0985254 0.0782856 0.0566265 -0.0759477 0.0513406 -0.0160235 -0.081369 0.0357335 -0.0755835 0.0214577 -0.0462873 -0.0251936 -0.0282987 0.0745327 -0.0900941 -0.021937 0.0345283 0.073706 0.000696496 0.0585133 0.00401973 0.0132956 0.00897383 -0.0304276 -0.0645749 0.0454694 0.0342424 0.0882498 -0.0535036 -0.0889837 -0.0745191 -0.0647451 0.0805745 0.0766378 -0.0474499 0.0255895 -0.0458825 -0.034604 -0.0459558 -0.0301979 0.0774833 -0.00203963 0.0366523 -0.0575963 -0.0345203 0.0371647 0.0107455 0.0922968 0.00484908 0.103717 0.0452533 0.10313 0.0100074 -0.0551537 -0.0371433 0.0355869 0.0802182 0.0871001 0.0139909 -0.0833828 0.0892807 0.0321712 -0.0571152 0.0602337 -8.51972e-05 -0.0101977 -0.0214823 0.0477356 0.049487 0.0267179 -0.0896503 0.0186726 -0.0842221 0.0377305 0.0524602 -0.0250702 -0.0321325 -0.0468412 -0.043523 0.0649793 -0.0488581 0.0947392 0.0625524 0.0555089 -0.0673212 -0.0839718 -0.0187499 0.103051 0.0930308 0.0851435 0.109823 0.0723673 0.00863227 -0.0550037 0.0235426 0.0988596 0.0267156 0.0961298 0.0393397 -0.0312806 0.0163946 0.0439371 0.0814623 0.0249583 -0.0271197 0.0240824 0.0903772 0.0336447 0.0702289 -0.062171 -0.011388 -0.0867052 -0.0735734 -0.056113 0.0632623 -0.0465351 -0.0468369 -0.0644621 -0.0533295 -0.0636518 -0.0894161 -0.0536042 0.0987165 0.00911867 -0.0173013 0.0142431 -0.0011673 0.0995944 0.00200469 -0.0677226 -0.0376812 -0.0881725 0.0696918 -0.0629671 0.0296647 -0.0654801 0.052441 0.0104348 0.0592599 0.0159161 0.0415266 -0.0605037 0.0200373 0.0598776 -0.0223403 -0.0235716 0.107801 0.0250724 0.00536758 -0.0545033 0.0514215 0.00595242 -0.0182049 0.0400405 0.104986 0.0547316 -0.0546913 -0.0044312 0.0450118 0.0373096 0.0175015 0.0997575 0.0404468 -0.0179204 -0.0680216 -0.0329334 0.0104654 0.0773394 0.0695112 -0.0387177 -0.0147604 0.00273091 -0.00660407 0.0950615 -0.0469769 0.0612386 -0.0318491 -0.0434039 -0.0170336 0.0676392 -0.00451214 -0.0745004 -0.0364197 0.0671855 0.0554426 -0.0414451 0.0120043 0.091369 0.0454165 -0.0510623 0.0199076 -0.0443545 -0.0590373 -0.0447636 0.0290355 -0.0306324 0.0187024 -0.061863 -0.0589791 -0.0180206 -0.00873542 0.0183116 0.0781508 0.0781117 0.0099326 -0.0757314 0.0328963 0.0677676 -0.0229932 -0.0897622 0.0309644 0.0666604 -0.0708676 0.0856564 0.0238346 0.0744775 -0.0658862 -0.0742586 0.0558352 0.0702002 -0.0338774 -0.0322914 -0.083308 -0.000591243 0.015711 0.0409651 0.0599961 -0.0691578 0.0757312 0.0992709 0.00706712 -0.0398763 0.00895463 -0.0225093 -0.0683663 -0.0884667 -0.00117463 0.056379 0.0713552 0.066282 0.0623593 -0.00310582 0.0276473 0.085273 -0.024525 -0.0574064 0.049653 -0.000508682 -0.0417626 -0.00460924 -0.0403198 0.01503 0.0548972 -0.0316619 0.105314 -0.037328 0.102373 0.0614049 -0.013458 0.0758184 0.0562393 0.091044 -0.0711447 -0.0415472 -0.039227 -0.0478247 -0.0376607 0.0512956 0.103318 -0.0762738 0.00887931 0.0556285 0.0170674 -0.068891 0.0361471 0.0859009 -0.0334975 -0.0228146 -0.0242348 0.0148146 0.0624787 0.025348 -0.0801667 0.0077106 0.085484 -0.082887 0.0612068 0.0791389 0.0702464 -0.0575283 0.0473043 0.0230808 -0.0712896 0.0716806 0.074322 -0.017475 -0.0841072 -0.0727513 -0.074312 -0.0876414 -0.053475 0.0259657 0.0601642 0.0551046 0.0527084 -0.00898371 0.036205 -0.0871723 0.0610016 0.103356 0.0180153 0.0135551 0.0186061 0.0277511 -0.0888318 -0.00557532 0.036662 0.0644141 -0.0349716 -0.00173274 0.0987846 -0.0928383 -0.0861255 -0.0762257 0.0745422 0.083615 -0.000516761 0.0838079 0.10327 0.0157114 0.0872052 -0.0570677 -0.0632987 0.0386156 0.0908704 0.0817651 -0.076233 0.0215069 0.0894521 0.080118 0.0178533 -0.0012284 -0.0159539 -0.0734658 -0.0835748 -0.0148832 0.0108614 0.0434218 -0.0586713 0.0680274 -0.0678089 -0.0685826 0.0663857 -0.0577218 -0.0519604 0.036572 -0.0795531 0.0431939 0.0125109 -0.0828918 -0.0485148 -0.00877251 -0.0477995 -0.0195315 -0.0748185 -0.065663 -0.044005 -0.0575144 0.050554 -0.0600219 -0.0819838 -0.0362433 0.0317404 -0.00681822 -0.019336 0.0382404 0.0682011 0.0814279 -0.0284353 0.0995837 0.0408738 -0.00331258 -0.0781267 -0.00127602 0.0298098 -0.0341377 -0.0724397 0.0461908 0.104122 0.0368502 0.0561985 -0.0511157 -0.0790537 0.100364 0.0226348 -0.0612215 -0.0699676 0.0714452 -0.0250822 0.0745077 -0.0943503 -0.0130918 -0.066604 0.0322035 0.0728 0.00517953 -0.0389023 0.0313565 -0.0234901 0.022565 0.0211235 0.107398 -0.0894151 0.0358388 -0.00260073 0.0319748 0.0928983 0.0211317 -0.029553 0.0914766 -0.0473322 -0.0779421 -0.0662198 -0.0342214 -0.0853869 0.0495518 -0.00123961 -0.0613448 0.0177616 0.0669163 -0.0936619 0.0149627 -0.0527958 -0.0663147 -0.0570723 -0.0850951 0.0316245 -0.00485499 0.0369153 0.09849 0.107612 -0.0520587 0.0963916 0.108298 0.0751126 -0.0126843 0.031709 0.059591 0.0990916 0.0975423 0.0447169 -0.0529696 -0.0844825 0.0758938 0.00804718 -0.0767182 0.0167597 0.0991509 -0.0448637 -0.0728378 0.0618955 -0.0445244 0.0357485 0.100502 -0.0177351 0.072412 -0.0887159 0.10879 -0.0398366 0.0392039 0.097934 -0.0418686 0.0770477 0.0842282 -0.0430672 0.0421105 -0.0378651 0.0821632 -0.00671899 -0.0468073 0.0697795 -0.0670866 -0.006847 0.0816553 0.104676 0.0978422 0.0984235 0.0137259 0.089204 -0.0535279 0.0344973 0.0440538 -0.0022758 -0.0365635 0.038072 0.0708002 -0.0706939 0.0428352 0.0758182 -0.0161376 -0.0255864 0.0644537 0.0326477 -0.0581832 0.0385844 0.0794831 0.0745811 0.0906218 0.0518193 -0.0386095 -0.0650395 0.0137442 -0.0144763 0.0231905 -0.0130906 -0.0153255 0.0166746 -0.0186148 0.0921497 -0.00122105 0.020281 0.0194911 -0.064058 -0.0888021 0.0789816 0.0665287 0.0734884 0.0982541 0.00286807 0.0437359 -0.0216557 0.0716747 0.000564071 0.101693 0.104145 -0.070496 0.0710791 0.0686289 -0.0892203 0.0128008 -0.0798077 -0.0606453 -0.0814717 -0.00252883 0.0542008 -9.21382e-05 0.073709 -0.0345343 0.0776346 0.0626612 0.0582364 -0.00907158 -0.0258621 0.0866191 -0.00542959 -0.0542319 0.0485466 -0.040448 -0.0647241 -0.0579185 0.0979818 0.00832951 -0.0895257 -0.00681455 0.00209913 0.105149 0.0133433 -0.0361679 0.0638524 0.0140255 0.0672545 0.0739149 0.0434346 0.0786165 -0.0354561 -0.0112045 -0.0306651 -0.0692836 0.046467 -0.0588258 0.0893727 0.00168759 0.0266085 -0.0427818 -0.0201485 -0.0885338 -0.00521952 -0.0796837 -0.0332792 0.0214749 -0.0438907 -0.0422437 -0.0746361 -0.0371831 0.0471229 0.0218514 -0.0413521 -0.0490046 0.0763698 -0.0868134 0.055128 0.0335591 0.0777877 -0.0115026 0.00222576 -0.0663759 0.0717429 0.0641189 -0.045206 0.00921754 0.0965075 -0.0605637 0.106423 0.0204706 -0.00889544 -0.0198825 0.023944 0.0761729 -0.00718765 0.0840836 -0.00726442 0.0414026 -0.0659228 0.0105138 0.0987539 0.0774053 -0.0716012 -0.0487364 -0.0803505 0.0957194 -0.0448961 0.0654314 0.0193532 -0.0772058 -0.0556981 -0.0885185 -0.0535638 0.106251 0.0693024 -0.00441974 0.00811864 0.0565937 0.0250877 0.00541593 -0.0285169 -0.0900147 0.0786229 0.0867482 0.0776235 -0.0368631 0.0637458 -0.0353504 0.101054 0.0926379 0.0702811 0.0959275 0.0660481 0.0938468 -0.0600814 0.0784074 0.0809184 -0.0143076 0.0344927 -0.00907455 -0.0011579 0.0689779 -0.00721997 0.0351808 0.0654135 -0.0478621 -0.0765619 -0.0342677 0.102526 0.0392005 0.0633348 -0.0347201 0.0456655 0.03859 -0.0521198 0.0168282 0.0957245 -0.0941495 0.0764514 0.0920922 0.0930568 0.0396106 0.0801153 0.0550604 0.0297768 -0.085051 0.0262539 0.00340505 -0.00772559 -0.0485836 0.0849844 0.0817704 -0.0892501 -0.0320523 0.00732526 0.0660659 0.0102701 0.0208685 -0.0753901 0.00590318 -0.044669 0.0826883 0.0641866 0.0906799 0.0115296 0.104202 0.00233265 0.00153335 0.104302 -0.0268989 -0.0114502 0.094551 -0.090104 -0.0343238 0.0464361 0.0353592 -0.0250294 -0.036358 -0.0694636 0.0587799 0.00622393 0.105971 0.0312041 0.00762775 -0.0358992 -0.0712884 -0.0356525 0.0650248 0.0403791 -0.0204365 -0.038021 0.0870599 -0.0463847 -0.080359 0.0730819 0.0595597 -0.0814646 -0.0309116 -0.0444864 -0.083016 0.0365876 0.039748 0.107024 0.0427788 0.0996363 0.0464842 -0.0297406 -0.0329388 0.101498 -0.0079824 -0.0823254 -0.000901375 -0.0110478 0.0387812 0.0966289 0.0429555 0.0573954 -0.0491211 -0.00211717 -0.012323 0.0203449 0.0499777 -0.0352744 0.0640963 0.0594011 -0.0714527 0.0150184 0.0698903 -0.00970662 0.0624036 0.0780056 -0.0820375 -0.00623824 0.0777423 0.0528508 -0.0121783 0.016072 -0.0851668 0.045051 0.00779162 -0.00220772 0.0536276 0.0974653 0.0773889 -0.0179602 0.0839967 0.0102469 -0.0706624 -0.0763839 0.0968702 0.00575526 0.0338638 0.0367506 0.0608897 -0.0116311 -0.0132059 0.0799591 0.0940292 -0.0531435 -0.039476 0.0479165 -0.0832064 -0.029404 -0.0661836 0.0860195 -0.0851043 0.0113547 -0.007737 -0.0793691 -0.0529638 0.0906295 0.0090678 0.0902946 0.0779974 -0.0236408 -0.0377629 0.0518968 0.0765084 -0.0185228 0.0665773 0.0644433 0.0782967 -0.00849439 -0.00774177 0.030251 0.0709388 0.0701165 0.00127462 0.0560327 0.108037 0.052863 -0.00498645 -0.0841044 -0.0854769 0.0198946 0.0929797 -0.0795166 -0.0776865 -0.0236927 -0.0678211 -0.0395857 -0.0419986 0.0323113 -0.0582265 -0.0729368 0.0997347 -0.00492511 0.0700243 0.0673076 0.0676164 0.0276664 0.0228155 0.0369779 -0.0897637 0.106138 -0.0417067 0.0722396 0.0805422 0.0415105 0.0581019 0.11129 0.0482769 0.14916 0.0656913 -0.00193015 0.0283283 0.0564568 0.0211081 0.0391646 -0.0662806 0.0482239 0.124046 0.000561114 0.00909192 -0.0414016 0.031847 -0.00898623 -0.00387962 -0.0469202 0.107486 -0.0411113 0.0718104 0.0213657 0.0869307 0.0731112 0.0185683 -0.0641196 0.0362826 -0.023181 0.0935981 -0.0492002 -0.0355414 0.00306132 -0.0270703 0.106699 0.0284019 0.0245589 0.0554112 -0.0343815 -0.0208195 0.0708649 0.0916218 -0.0647705 -0.0624277 -0.0644078 -0.0570755 0.00952344 -0.0237788 0.0548659 0.051748 -0.0283092 0.0900705 0.0181037 0.083988 0.0681986 -0.0175876 -0.00624641 0.0955515 -0.0902405 0.061637 0.0644682 -0.0367463 0.0912548 -0.0507042 0.0215865 0.106853 0.0729761 -0.102486 -0.0105183 -0.0781569 -0.00582207 -0.0221384 0.0963581 0.029496 -0.0194327 -0.0781098 0.0641304 0.0854115 -0.0250089 -0.00410382 0.0525069 0.0358268 -0.0260494 -0.0529405 0.0144929 -0.0667863 0.0206693 0.0994437 -0.0800375 0.0216262 0.0521452 0.0754953 0.0603313 0.0413546 0.0837759 -0.0645038 -0.00299929 0.0330868 -0.118106 0.0191762 -0.0288373 0.0172189 -0.0548785 0.0156997 -0.0690536 0.0422806 0.0299715 0.0706726 0.00161059 0.0526268 -0.0734006 -0.107353 -0.00816077 0.0262374 -0.00350169 -0.0660644 0.0646666 0.108232 -0.0754234 0.0758266 0.0210555 0.0679192 0.0421114 -0.0275487 -0.0105347 0.0260172 -0.0210811 0.0701137 -0.0649123 0.00767274 0.0129738 0.00780181 -0.101403 -0.0664771 -0.00117645 -0.0177615 0.0784976 -0.0663631 -0.0181368 -0.0122474 -0.0990123 -0.0019017 0.00453484 -0.0144939 -0.0649782 -0.0869038 0.0631461 -0.0798527 -0.0711822 0.0787873 0.0871713 0.0410708 0.0379042 0.0207553 0.104311 -0.0815663 -0.068762 -0.00540286 0.0643752 -0.0364726 -0.100764 0.0346111 -0.108386 -0.0920444 0.0355977 0.067791 0.0636334 0.0574412 0.111607 0.154909 -0.0217003 0.0954119 -0.00485587 -0.00609743 -0.0571165 0.00143812 0.0195193 -0.0479739 0.0903753 0.101295 -0.059114 0.068744 0.0335635 0.0699873 -0.0194361 0.0293473 0.0792105 0.00286635 -0.0866259 0.0549024 0.0392992 -0.0922103 -0.0143288 -0.102537 -0.0789611 -0.0779316 0.0361364 -0.0770432 -0.0433188 0.0624319 0.17612 0.0235126 0.0933972 0.0441185 0.0555623 -0.161984 -0.0951485 -0.0344497 -0.0991858 -0.053884 0.0432339 0.014685 -0.0665938 -0.0239356 -0.0241301 0.00516743 0.0964758 -0.0534471 0.099231 0.100914 0.0973594 0.0546296 -0.112128 -0.0305944 0.0465088 -0.0277387 0.0171655 -0.016908 -0.0212781 0.07228 -0.0161173 0.026281 0.1683 0.143187 -0.00306138 0.103356 0.0425744 -0.0806891 -0.0656477 -0.153645 -0.0231314 -0.0586202 0.0374281 0.0836676 0.0363983 -0.0874352 -0.0199676 0.0240717 -0.0498177 -0.029672 0.0161835 -0.0616691 -0.0794134 0.0144813 -0.0109862 0.0534228 0.0800234 -0.0411317 -0.0449269 -0.0280731 -0.0810355 0.0545056 0.160039 -0.000804149 0.0571709 0.172508 0.184947 -0.0846027 -0.0673763 -0.0323856 -0.126671 -0.170841 0.00322998 0.0740646 0.0883309 0.0130211 -0.0889952 -0.0272114 -0.0717101 -0.0476155 0.034181 0.0355381 -0.0178121 0.045832 -0.0529523 0.0884078 -0.0191453 -0.0752434 -0.0542331 0.0799291 0.000834145 -0.013803 0.00658594 0.031657 0.102925 0.158058 0.0685615 0.113934 0.00691689 0.0430928 -0.0854895 -0.0567322 -0.00781323 -0.162593 -0.0786524 0.0489829 0.0259326 0.00111169 -0.0541282 0.0586481 0.0449687 0.0715251 -0.0147495 -0.0817792 0.00308149 0.0218886 0.0913964 -0.0987854 0.0623564 