1024 64 26
0.030471709 -0.10399841 0.075045116 0.09405647 -0.19510353 -0.13021795 0.0127840405 -0.031624258 -0.0016801157 -0.085304394 0.0879398 0.077779196 0.0066030696 0.11272412 0.046750933 -0.085929245 0.036875077 -0.09588826 0.08784503 -0.004992591 -0.018486237 -0.06809296 0.12225413 -0.015452948 -0.04283278 -0.035213355 0.05323092 0.036544405 0.041273262 0.0430821 0.21416476 -0.0406415 -0.051224273 -0.081377275 0.061597943 0.11289723 -0.011394746 -0.084015645 -0.082448125 0.06505928 0.07432542 0.054315425 -0.06655097 0.023216132 0.011668581 0.02186886 0.08714288 0.022359556 0.06789136 0.006757907 0.02891194 0.06312882 -0.14571558 -0.031967122 -0.047037266 -0.06388778 -0.027514225 0.14949413 -0.086583115 0.096827835 -0.16828698 -0.033488505 0.016275307 0.058622234 0.07112266 0.07933472 -0.034872506 -0.046235178 0.085797586 -0.019130433 -0.12756863 -0.113328725 -0.09194523 0.049716074 0.014242574 0.06904854 -0.042725265 0.01585397 0.06255904 -0.030934654 0.045677524 -0.0661926 -0.036305383 -0.03817379 -0.119583964 0.048697248 -0.046940234 0.0012494118 0.048074666 0.044653118 0.06653851 -0.009848548 -0.042329833 -0.007971821 -0.16873345 -0.14471124 -0.13226996 -0.09972468 0.039977424 -0.090547904 -0.037816256 0.12992284 -0.035626397 0.073751554 -0.093361765 -0.020543756 -0.095002204 -0.03390331 0.084030814 -0.17273204 0.043442365 0.02377356 -0.059414994 -0.14460579 0.007212951 -0.052949272 0.023267621 0.0021852145 0.16017789 -0.023935562 -0.10234975 0.017927563 0.021999668 0.13591875 0.08351112 0.035687108 0.14633028 -0.11887631 -0.063975155 -0.092657596 -0.03898098 -0.13766861 0.0635151 -0.02222227 -0.14708063 -0.10155791 0.031351384 0.083812654 0.19967309 0.29138625 0.041440945 -0.09895381 -0.21320462 0.026771147 -0.08129411 -0.041535728 -0.06120968 -0.014079088 0.10659802 0.015704857 -0.015863484 -0.10356537 -0.1674683 -0.048630793 -0.005378255 0.176793 0.013027452 0.09827395 -0.04992956 -0.11849438 -0.09651168 -0.0725226 0.21284698 -0.082138665 0.08384892 -0.090292715 0.0931573 0.038495097 -0.01566379 -0.0040762527 -0.06547877 0.04460722 -0.04549835 -0.122560576 -0.12779376 0.017258791 0.15790913 0.01599916 -0.011863832 0.028582614 0.13060017 0.02193825 -0.041092724 0.11062887 0.042875644 0.1535756 0.018323444 -0.1224469 -0.13681592 0.1650928 0.17236657 -0.01795192 -0.03831873 0.14614443 -0.11070457 -0.0894727 0.06433268 -0.039460514 -0.00051218667 -0.01634429 0.033757456 0.14074819 0.00905849 0.06439388 -0.20501721 -0.00487184 -0.084323026 -0.121881306 -0.08781524 -0.033412345 0.091590255 -0.13263927 0.0030631493 -0.048416942 -0.03276731 0.100275785 0.053811543 0.13373981 -0.015450568 -0.069594264 -0.022385882 0.024249678 0.017657336 -0.108438805 0.009048978 0.022822833 0.2517474 0.18768446 -0.08532433 -0.028738337 -0.1463442 -0.059070703 0.0315605 0.12058536 -0.07290839 -0.065414645 -0.2147289 -0.016266592 -0.10624144 -0.05294394 -0.08768608 -0.009426256 -0.17577285 -0.14670452 0.2129247 -0.12874226 -0.10967856 0.18369135 0.29050672 -0.11715666 -0.036824897 0.034155555 0.17286977 -0.098685704 -0.024527784 0.077733755 0.043476608 -0.03761561 -0.013382296 -0.13748959 -0.023817375 -0.026638748 0.023216989 -0.055532724 0.047153853 0.101271585 0.015542933 0.03517564 0.005315535 8.43931e-06 -0.0721558 0.031649426 -0.00972866 0.20931683 0.15733549 0.038584657 -0.076305725 -0.11124115 0.119114295 0.026274923 0.04801434 -0.1744586 0.09274385 0.045442034 -0.111043066 -0.047152482 0.026371721 0.0052466798 -0.029217118 -0.010348827 -0.025197737 0.015256251 0.14714919 -0.25666586 -0.023685027 0.017651241 0.029599398 -0.037191458 -0.17567217 0.03279955 0.17273502 -0.15338615 0.0863828 -0.032852523 -0.0061324346 -0.105289854 -0.03344562 0.13000447 0.058265526 0.17323115 0.11774119 0.043908667 0.17439345 0.043899316 0.082798816 -0.029657096 0.0066545815 -0.06974238 0.098958395 -0.117830366 0.07823504 -0.019065106 0.11712471 0.0750869 0.18206462 0.07307747 -0.15720403 -0.006695317 -0.11720072 -0.051827986 0.15112284 0.06375338 -0.06989304 -0.101371735 0.0032782094 -0.121656016 -0.067114025 0.031200947 0.115531206 0.060876146 -0.22912896 0.030436672 0.0072033573 0.04138903 0.16162097 -0.20632383 -0.059110343 0.059090633 -0.15815943 0.1475949 0.036835663 0.0846584 -0.057094365 0.08137637 0.10684715 0.023287803 0.02344009 0.027034324 -0.08633453 -0.014752868 -0.015252253 0.038339388 0.099982426 -0.10585361 -0.012500903 0.13181417 -0.09069001 -0.09855619 0.003899295 0.06810733 -0.015188729 0.13289607 0.0856794 0.08418201 0.05541165 0.23276532 -0.020516168 -0.20035224 0.16042544 -0.045769945 0.010788045 0.13095507 -0.16022596 -0.12516472 -0.16012779 -0.07941363 0.04113804 0.049593166 0.024801802 -0.14127658 -0.19179249 0.026305879 0.07672305 0.157142 0.12991296 0.054936327 0.07057208 -0.00955949 -8.7876324e-05 -0.0686425 -0.0161364 -0.00412999 0.107818075 -0.073296554 0.13605952 0.04277308 0.0916195 0.1386294 -0.20504643 -0.13247275 -0.15104406 -0.23618713 -0.06782644 0.07494339 -0.028488407 0.019779008 0.10892175 0.13276862 -0.0069137933 0.13253307 0.006387038 -0.083739825 -0.06518009 -0.10883579 0.035087217 0.09308725 0.08778268 0.06527204 -0.19197902 0.0025197074 -0.14081736 0.06562579 0.0050474084 -0.19056681 0.07204156 -0.021660801 0.024596453 -0.08609373 0.030022355 0.04624548 -0.024664534 0.030040583 0.03336657 0.12924065 -0.034278616 -0.14768578 0.10672224 -0.033148818 0.11145925 0.03833771 -0.013113753 0.032051973 0.19227575 0.20487253 0.0011980074 0.044295695 0.23568662 -0.047461875 -0.011346805 -0.21066146 -0.14647955 -0.15979329 -0.19038945 -0.18381192 -0.08825183 -0.121707715 0.035393752 0.2097644 0.11332792 -0.06653587 -0.0044137407 -0.06912234 -0.034176446 0.015706949 0.059091493 -0.03392585 0.10638516 -0.11419382 0.0006339062 0.25976738 0.022307973 0.14332145 0.0091520175 0.05525209 -0.008503968 -0.019866373 -0.08368827 0.071306735 -0.0047945413 0.10422211 0.06387492 -0.10853751 -0.1742191 0.016109787 -0.062299926 0.1170413 -0.15965419 -0.0032201249 -0.15478192 -0.10178157 0.23881525 0.053550027 -0.11134169 -0.25008875 -0.30219275 -0.057175167 0.23921598 0.043488428 -0.055957228 0.04650802 -0.15609583 -0.029732335 0.009947747 -0.008610065 0.07908061 0.034464523 0.064006925 -0.0716629 0.08404151 0.14082234 -0.05697857 -0.051106 0.13927257 -0.1285923 0.009750434 -0.12658466 0.1405329 0.06592176 0.10893678 0.18681253 0.024967967 -0.0220258 -0.03955094 0.027190609 -0.19596955 0.0014050178 -0.06244281 0.11195559 -0.24225155 -0.07865658 -0.16864681 -0.082622945 0.02476659 -0.017922662 -0.025337758 -0.015918488 0.020338824 -0.10085361 0.067859285 0.06344092 0.032763705 0.0030504437 0.051890105 0.24656114 0.045863867 -0.12237801 -0.19504324 -0.20390475 -0.17963736 0.02352095 0.07604585 0.06226831 0.05073949 -0.06409455 0.10789422 0.07483668 -0.083635055 -0.1276337 0.028795678 0.015971743 -0.14763825 -0.0067980257 0.026203582 -0.08996948 0.01898434 -0.14548224 0.13361861 0.124795 -0.025251733 0.036345433 -0.24381772 -0.11846045 -0.054274973 -0.15981638 0.059671123 0.24852332 -0.06308816 -0.13048536 -0.09614558 0.060432956 -0.13614772 0.1373044 0.29020303 -0.18502335 -0.14493474 0.03891411 0.0014288656 0.09006264 0.0036650985 -0.19266875 0.025493903 -0.060579505 0.12744471 -0.06275875 -0.06366153 0.05411316 0.07629265 0.044809937 -0.16855973 0.053803444 -0.10343081 0.023527611 -0.14519896 0.041806597 -0.10555694 -0.18086651 0.10616697 0.07410824 2.230608e-05 0.085842244 -0.1630049 -0.00043791425 0.012981046 -0.020957766 0.098385036 -0.0731925 -0.01745256 0.16329063 -0.061639287 -0.248927 0.15692404 0.23976015 -0.027927767 -0.19650932 -0.031048398 -0.028622296 -0.018992385 -0.1113388 0.057956114 0.05245074 -0.14944056 0.069919676 0.2052685 0.017196033 -0.033732515 -0.017025933 0.03547853 -0.24345809 0.05122398 0.040278748 0.22548145 -0.09689806 0.119386025 -0.1670141 -0.0081758145 0.03680314 -0.08417431 -0.008545655 0.099487886 -0.03398221 -0.18552122 -0.04342205 -0.093261756 -0.044309285 0.0044404203 -0.17339073 -0.16156584 0.048206683 -0.05227187 -0.25647444 0.0784844 0.027236976 -0.071387485 -0.13168302 0.08358079 0.03493506 0.23826022 0.039193243 0.012723146 -0.08708385 0.11646254 0.1543704 0.212425 -0.053532254 -0.068016104 -0.007405593 0.06289286 0.1776278 -0.0071522254 -0.06442574 0.0033530602 -0.06369918 0.13766284 -0.24046697 -0.066698544 -0.08831666 -0.21943644 -0.09918952 -0.09151561 -0.020110466 0.11129659 -0.024506066 -0.103081375 -0.0056954543 0.10491736 -0.09759588 -0.09105749 0.055854894 -0.022153612 0.061922837 -0.027411861 -0.003050257 -0.06872285 0.090653196 0.066183314 -0.08106596 -0.08936352 0.08413339 -0.002868577 -0.06812651 0.007637918 0.034135997 -0.26794875 -0.1895389 -0.14969152 0.13156168 0.014849315 0.0372752 -0.1307982 -0.11195359 0.044781372 0.005827433 0.054873884 -0.0187671 0.027814373 0.015811909 0.07777674 0.08070083 -0.1619872 -0.22472686 0.10017454 0.11594683 -0.12810938 -0.24141225 0.044688378 0.15848444 0.23016943 0.07943961 -0.054244053 -0.096682005 -0.0026295532 0.080845274 -0.06854796 0.178755 0.032555725 0.020688102 -0.16926995 0.009084337 0.056413468 0.0047980226 0.10818427 0.06353711 0.074001424 0.063690625 0.034079142 -0.17836112 0.008362108 -0.055619195 -0.12798409 0.16818166 0.17289953 0.13592206 0.025521342 0.13506252 -0.007360403 -0.03514879 -0.07456218 0.105099775 0.056448538 -0.15101452 -0.03475921 -0.041676 0.16058882 0.12667492 0.01569222 0.014929835 -0.013256888 -0.020464994 -0.16396938 -0.088602595 -0.13153806 -0.16448818 0.03434002 0.039126467 -0.17867075 -0.012268464 0.09957014 0.10592237 0.102583684 0.0038913207 -0.08450453 -0.10836988 0.03446049 0.037928004 0.12873311 0.109997965 -0.021788599 -0.22640248 -0.07014027 -0.0062924405 0.012413497 -0.080040604 -0.0043510175 -0.05008206 -0.08621232 0.06839881 -0.0302185 -0.0018697745 0.009642302 -0.1598978 -0.10667635 0.062357232 -0.19207415 -0.26891026 -0.22245617 0.0029109947 0.0030917278 -0.011761085 0.12141898 -0.26728344 0.039593387 0.15614381 -0.112778075 -0.03798065 -0.07528919 -0.0894346 -0.0326262 0.14274853 0.17517307 -0.11924438 0.15227634 -0.024457894 0.19317706 -0.036117136 0.015667511 0.0648241 0.32094064 0.14884323 -0.00026779846 0.15012501 -0.032982893 -0.09492981 0.06709696 -0.055996798 -0.04800884 -0.055846155 -0.020401357 0.042496588 -0.1936967 0.06665727 -0.098201945 -0.14422992 -0.0058411243 0.008398101 -0.069350615 0.08310319 -0.13421752 -0.040694375 -0.058487415 -0.004658727 0.0193207 -0.10935505 -0.009838268 -0.026042799 -0.24847127 -0.1977662 -0.015515891 0.006179938 0.026730197 0.060916375 0.103605874 0.10671031 -0.13618658 -0.1450991 -0.19598033 -0.04915194 0.01424423 -0.14304674 -0.2852909 -0.1703993 -0.083303675 -0.05577289 -0.040838864 0.0038581123 -0.031174634 0.10493396 -0.06760173 -0.0862318 0.047887553 -0.1535642 0.03896917 0.010255318 -0.020484366 0.12380078 -0.08192884 0.17368673 -0.055358745 -0.20386818 -0.05406121 -0.07934797 -0.038103435 0.09767792 0.13660821 -0.03394013 0.085428745 0.08784877 0.15045878 0.013351941 0.026092358 -0.33341208 -0.06691214 -0.08670053 0.011922586 -0.05714492 -0.016615784 0.18821749 -0.01697198 0.041379232 -0.023226934 0.007571329 0.000601668 0.04483241 0.11653075 0.1647394 0.025221912 0.02392786 -0.10543863 -0.036629364 0.061213367 0.011932245 -0.057977602 0.074621 0.06981749 0.19569066 0.09667398 -0.020605033 0.09355619 -0.24295262 0.032331537 -0.43381232 -0.31460094 -0.12233389 0.042012848 -0.11624288 -0.071210206 0.1370541 -0.048403013 0.22429202 -0.00019198532 0.04080362 0.16168743 0.013102711 -0.1002344 -0.010972745 -0.0035610737 -0.13647416 -0.03132329 -0.12759355 0.1020836 0.049784105 -0.04011564 0.035108574 0.06356507 0.12061961 -0.037977524 0.012754055 0.21643946 -0.016312186 -0.116762795 0.0826146 0.069980256 -0.2566528 -0.08709938 -0.004943813 0.0074441894 0.04686676 -0.1404269 0.033104014 -0.030261977 -0.048279017 0.087055564 0.14792745 0.17943701 0.13148078 -0.010973418 0.035272017 0.076682284 0.012117795 -0.03747238 0.031826474 0.0037195098 -0.026605753 -0.006730008 0.14197196 0.027852803 0.07527376 0.1453331 0.09575995 0.19792768 0.07913699 -0.08524787 0.110329814 -0.039631113 -0.22192131 -0.16883913 -0.18262292 -0.051238306 -0.035308126 -0.033683196 0.061970197 0.033987537 0.031604785 0.040982846 0.061613467 -0.21079533 -0.036443826 -0.218021 0.0036059928 -0.0004632972 0.10455323 0.11876344 0.020277506 -0.050036106 0.04851611 -0.052791763 -0.00013926515 0.098613635 -0.055777136 0.08056787 0.067740135 -0.09547918 0.097389415 0.069856636 0.010192589 -0.076232344 -0.0859206 -0.053766258 0.054259446 -0.09556252 0.043751225 -0.124175556 -0.020406859 0.010964775 0.24451302 -0.13773157 0.14720146 0.014984242 0.04111719 0.011834791 0.044472683 -0.01536851 0.14540502 -0.045647115 0.113223456 -0.06443671 -0.0060251844 -0.10719626 0.045502372 0.1445126 -0.007735618 -0.019688569 -0.1114617 -0.022929266 -0.15927942 -0.0912878 0.022678604 0.13190132 0.28092107 -0.058658507 0.14353001 0.024375249 -0.015124764 0.043259446 0.0061916485 0.011039573 -0.040833317 -0.13981096 -0.15436251 0.065324485 -0.027670009 -0.05960889 0.00085056265 0.079493225 0.018036393 -0.06560549 0.12262929 0.15791856 0.049455665 0.09736635 0.124196 0.11300993 0.061409917 0.059834704 0.051966056 -0.10973377 0.070072316 -0.1355814 -0.07945994 0.1303565 0.084022015 0.14873983 -0.027167438 -0.11522488 -0.02404372 0.01020313 0.007898872 0.11336805 -0.036127042 0.035203446 -0.098862715 0.045031726 0.00031085502 -0.07498133 -0.023582935 -0.018417574 -0.027015513 0.17713413 -0.0098446 -0.024389612 -0.2097451 -0.089420736 -0.026307343 -0.06858527 0.13817076 -0.016493777 0.12884443 0.0061704633 0.0037227836 -0.008879645 0.00037962515 0.1718795 -0.23196107 -0.20015457 -0.054317083 0.0014527882 0.069010444 0.04730872 -0.038424592 0.10190437 0.10301954 0.018405784 0.096265756 0.027264526 -0.0561483 0.06978168 0.011061313 0.00013398468 0.14729536 -0.2450872 -0.14176841 -0.118707046 -0.036326066 -0.025460817 -0.15073256 -0.0985158 -0.086084165 0.24574241 0.1801742 -0.04117494 -0.03635833 -0.1149204 -0.19081303 -0.011688018 -0.0997852 -0.008485053 -0.16002059 -0.076197445 0.01486271 0.03662096 0.041747198 -0.1320489 0.085468575 -0.08002117 0.06328579 -0.0010638677 -0.13763875 -0.031619772 0.036536373 0.061296538 -0.01409879 0.15317789 0.10075108 -0.025665412 0.075012185 0.19337934 0.19604845 -0.122799985 -0.09265331 0.14849187 -0.10582811 -0.13225411 -0.048619412 0.04202267 -0.010239671 -0.06505636 -0.06742124 -0.071233705 -0.08795096 0.22816329 0.029751107 0.08867591 -0.048907746 -0.018595668 -0.071355395 -0.26517084 -0.13780093 -0.18106186 -0.22497837 -0.1195359 0.13249557 -0.0044436166 0.12905638 0.04109826 0.078255884 -0.0900897 0.052395094 0.072871424 -0.05766473 0.055954035 0.056618776 -0.054955263 -0.112276845 -0.11841283 0.008650554 0.032700986 -0.079252586 0.002658534 0.057053704 0.061819073 0.15518801 0.12769808 -0.10012914 0.16835862 -0.05309765 0.10448728 0.0067986627 -0.04121494 -0.18076968 -0.017156452 -0.15593833 0.09672993 0.15167926 -0.0796911 0.030197075 -0.07253915 -0.06284847 0.07744947 -0.003853826 0.1739648 -0.04822325 0.09993363 0.009741342 0.0795778 -0.044715766 -0.0049558836 -0.011549888 -0.083605714 0.066208154 0.0650249 0.05935547 0.15369657 0.14493448 -0.03749447 0.037305232 -0.06236007 0.0023355316 -0.059974946 0.16200703 0.036369815 -0.021802913 0.119361855 -0.21706153 -0.20141026 0.07958387 0.0060468446 0.02504463 -0.13263962 -0.0023233711 0.20035094 0.08241996 0.016970655 -0.043905392 -0.039457284 -0.21291979 0.025764043 0.08454831 -0.15756193 -0.06614169 -0.11574646 -0.09653512 0.0053481627 -0.20844021 0.061427046 0.0753855 -0.02511026 -0.24807085 -0.09964186 0.123290196 -0.27779943 -0.034752343 -0.118000075 0.08045703 -0.067511395 0.0403954 0.056546044 0.18362258 -0.020294195 0.037604436 -0.14850555 0.11904135 -0.076050885 -0.056075417 -0.0022247795 -0.15628843 0.022877002 0.09674663 0.029293383 -0.15888976 -0.01238093 0.07420289 -0.18779887 -0.1074766 0.08765436 0.027009543 0.04119716 0.18594947 0.04685528 0.0657888 0.27107456 -0.021380456 -0.079788275 0.04277964 0.043899104 -0.05267154 -0.1032397 0.23098445 0.03268435 -0.07322854 0.09159303 -0.010914515 -0.025288144 0.056227285 -0.12918822 0.03526272 0.19129547 0.046617765 -0.03762121 -0.05071053 -0.041033998 -0.025396267 -0.037780654 0.091631144 -0.1733209 0.08620001 -0.037968654 0.03769478 -0.11269879 0.1328631 0.12456349 0.09595905 -0.15147547 0.08291211 0.04048551 -0.16052713 -0.0024297384 0.03645345 0.055607527 0.017726136 0.029123142 0.14736114 0.122603394 -0.2867055 -0.031743854 -0.016465103 -0.17520985 0.009418306 0.12487578 -0.10865679 0.033640094 -0.10992427 -0.08553313 0.12939745 -0.07259773 0.027879253 -0.20546372 0.18623176 0.060265243 -0.018249985 0.05755465 -0.14098194 0.118253075 -0.032398477 -0.020406952 -0.04916556 -0.05806514 0.06946706 0.025590684 0.06517481 -0.0008794689 0.051319983 -0.053300906 0.21155699 -0.16820924 0.12609373 0.20157155 -0.013114965 0.32760188 0.12044398 0.053046267 0.036940936 0.03528202 0.06748512 0.08461885 0.19277747 0.070790246 -0.070435785 0.11149079 0.014031524 0.00046904103 0.0062539615 -0.06701408 -0.09628456 -0.07194643 -0.17496252 0.01227879 -0.019760925 -0.04399877 -0.29556188 -0.12473175 0.11208407 -0.0664626 0.036059167 -0.13906854 0.13245435 -0.025818823 0.02900404 0.24745111 0.21642482 0.07401841 -0.028394548 -0.03888325 0.059642397 -2.797781e-05 0.024383392 0.21062604 0.059579853 0.30095986 0.04812475 0.23044601 0.054983716 0.12153527 -0.19517556 -0.14399946 0.04639389 0.11372824 -0.0073904064 -0.14005554 -0.14744203 -0.14271364 -0.17676221 0.010948536 0.11250439 -0.0013415787 -0.22604148 -0.019076046 -0.027695967 0.19818369 -0.15712999 -0.024194801 0.21383286 0.1139711 0.07225675 -0.042649116 -0.0818956 0.04206072 -0.15481156 0.12270286 -0.09531036 0.07482673 0.06559734 0.11988295 0.10060558 0.02510918 -0.07700823 -0.0942367 -0.14839004 0.047152657 -0.12642467 0.059781637 -0.11814791 -0.05662949 -0.06246034 0.13251467 0.033028994 -0.02117338 0.049871944 -0.21071923 -0.015729407 0.18833522 0.0018185977 0.021664293 0.09806043 0.23360978 -0.22258547 -0.22234014 -0.09838482 -0.071394585 0.15605986 0.0033795568 -0.15146309 -0.084811434 -0.28277293 -0.017549317 0.037699673 0.22392921 0.17977144 0.14106064 -0.19079459 -0.19859624 0.050312106 0.04411999 0.030939156 0.09814797 -0.11648281 0.20087554 -0.09594277 0.07492229 -0.16873477 -0.09302647 0.15163687 -0.037506014 0.072576135 0.038568463 -0.013964824 0.19162501 -0.046504647 -0.18546474 -0.14826553 0.075240485 0.06256622 -0.15808244 -0.05530157 -0.048844457 -0.044352 -0.11896593 -0.022678327 0.11255834 0.20035943 0.10212081 -0.074718446 -0.035747107 0.002576374 -0.09307364 -0.11468321 -0.09402212 -0.063481316 -0.11634738 0.016205955 0.07297157 -0.15870982 0.002512871 -0.02199358 0.022734802 -0.012709934 -0.1304868 -0.14477387 0.026738023 0.07684809 -0.2210637 -0.0019248226 0.16061695 0.015032792 0.063218065 -0.085836455 -0.0026089146 -0.14981417 -0.15800227 0.16709767 0.013866327 0.05688737 -0.16068324 -0.20113423 0.019941298 -0.08437384 0.026381044 0.045253843 0.032084964 0.023860078 0.15777682 -0.10675938 -0.0054934868 0.11326898 0.12645398 -0.14217636 -0.042651597 0.12439589 0.035922825 0.0009912557 -0.026347486 -0.0792831 0.029177064 -0.030939592 0.037396774 0.038195264 -0.08495165 0.03768336 0.28456128 -0.11122589 0.13007961 0.026243115 0.12570685 0.022821786 0.15286696 0.15613364 0.0565672 0.10178911 -0.23442979 0.15904523 0.037506215 0.10778434 -0.121987574 -0.08307699 0.014593829 -0.0017037889 0.028306859 0.108451515 -0.18793823 0.08596578 -0.014056871 -0.03891324 -0.17455631 -0.042808328 -0.23114486 0.11037774 -0.067975186 -0.011721135 -0.029061414 0.10690222 0.01934939 -0.0029409968 0.033211507 0.23152813 0.17456754 -0.0287833 0.07137868 -0.11813469 0.13758075 -0.18739776 0.075179644 0.012862159 0.23869517 -0.11001355 -0.010266209 0.17982876 0.11913896 -0.069621205 0.022396743 0.00019993565 0.028195586 -0.081284165 0.028393028 -0.20978443 -0.01393264 0.019165007 0.008924467 -0.18237948 0.10664303 0.008788002 -0.10034365 -0.035946894 -0.12662408 -0.06953153 -0.00964843 0.20010506 0.017795043 0.045426343 -0.011018391 0.07066394 0.084593736 0.075889535 -0.053481136 -0.15725282 -0.1381949 -0.05318775 -0.124905996 0.0410212 -0.046576817 0.23746066 -0.17377146 0.020363318 -0.1127953 -0.060756166 0.051467042 -0.28251603 -0.0037623649 0.11321304 -0.03654333 -0.02738822 0.042281836 -0.10612198 -0.11954272 -0.3034604 0.009745454 -0.07979725 -0.080555454 0.08634395 -0.047280002 -0.052567653 0.0691733 -0.08796895 0.20346469 -0.15118481 -0.06627014 0.19229461 0.11273547 0.009760399 -0.09405302 -0.05292723 0.0073275315 0.0037523233 -0.009087093 -0.0030832514 -0.02143751 -0.15561406 -0.014326003 0.03006713 -0.16427822 -0.096033245 -0.07317492 0.021334874 -0.06493683 0.18919921 0.077488594 -0.099099 0.086441725 -0.17550443 -0.024314728 0.06476687 -0.028919173 0.034500066 -0.13618313 -0.08330157 -0.03418 -0.056563877 0.10991915 0.06287963 0.1709944 0.22676443 -0.103071705 0.0070419125 -0.11762003 -0.07776059 -0.06300825 -0.10571549 -0.10518873 -0.025844494 -0.084346846 0.05426162 -0.119220406 0.24015222 -0.076128766 0.002360979 -0.03486311 0.28006896 0.21657683 0.108748816 -0.08892945 -0.010749919 -0.024815714 0.23540485 0.09750151 -0.09421702 -0.32719827 -0.119748496 0.10023324 0.12128837 0.11091698 -0.1592013 0.03015523 0.101551525 -0.16583356 -0.00079045154 0.02738424 -0.030076459 -0.18521619 -0.03256981 -0.032730542 -0.01480724 -0.052890304 -0.074252315 -0.03141562 0.0034411396 -0.061432905 -0.066114776 0.09862463 -0.12086311 0.13563213 0.07488309 0.030191207 0.14841051 -0.14185743 -0.13164802 0.092536345 -0.00092306716 -0.055093013 -0.067619614 0.09789249 0.09326389 0.04839823 -0.026082845 -0.21076894 0.07692362 0.12217287 0.064455844 -0.087964244 0.06737944 0.08605297 0.15588163 -0.08761099 -0.022645459 0.07818408 -0.0013441502 -0.08003839 -0.00988472 -0.0045682588 0.003728659 0.11134772 0.07373266 0.2305472 -0.01512982 -0.023668 0.035093404 0.14131944 -0.13956103 -0.07728979 -0.22268668 -0.04807527 -0.16468182 -0.038648084 0.06613782 -0.064154275 0.023128202 -0.029933792 0.067211434 0.047512807 -0.06919337 -0.016865175 0.10437434 0.039337687 -0.13969621 0.06556181 -0.10846106 0.14470834 0.11366667 0.06068285 -0.035623074 -0.050391857 0.029342322 0.001165009 0.06680467 0.13363941 -0.017514652 -0.034453824 -0.11987319 -0.07752024 -0.17266324 0.07667251 0.20504387 0.09118818 -0.21545966 0.04084824 0.14221063 -0.045681 0.010144743 -0.2007893 0.026673617 -0.10635597 0.019963501 -0.15612029 0.054285824 0.102451265 -0.078317985 -0.11369226 -0.21560231 -0.023184448 -0.054702554 -0.079334304 0.0026216742 -0.066685766 -0.21991526 -0.02997669 0.15037802 0.1351143 0.0256634 0.122290716 -0.091185525 -0.011083646 -0.011004475 -0.038769938 0.088464394 -0.11181699 0.040518187 0.0027826745 -0.29171598 0.11903057 -0.30476326 -0.061604902 0.1025348 -0.031728674 -0.1466186 -0.1093737 0.10269058 -0.19215046 0.11289911 -0.00551021 -0.11923953 -0.043438595 -0.061992176 0.2607706 0.030562608 -0.22987802 -0.13348486 -0.11511321 0.17259857 -0.060189273 0.21396182 0.057050902 -0.07294585 -0.0548638 -0.10589856 -0.06088061 0.017642863 -0.1565654 -0.36082083 -0.0903708 -0.18028562 -0.075216085 -0.090910286 -0.087121606 0.20009631 0.005641157 0.024537101 -0.17763983 -0.06539632 0.021530263 -0.10245289 0.09080628 -0.120269656 -0.013763684 -0.018874904 0.12282409 0.034378383 -0.085051514 -0.13682078 -0.118478864 -0.010152046 0.08031751 0.054710317 0.03019804 0.13576555 0.04302235 -0.047332507 -0.039241213 0.11054256 -0.24689409 -0.0050071427 -0.17444399 0.021727316 0.15750828 0.048866853 0.017062508 -0.056044947 0.00310472 -0.02520628 -0.07859766 -0.028987562 0.019838115 -0.076721705 -0.08062818 -0.13602434 0.053945415 0.10158261 0.12955816 0.08359495 0.0011965793 0.030888977 0.09023923 0.06073436 0.06325213 0.34484234 0.056698892 -0.025074104 0.08491462 0.053835556 -0.1504293 0.0056618284 -0.121625476 -0.15847205 0.096707076 0.044225592 -0.1264542 0.17771828 0.06587974 -0.0010196116 0.15902188 0.015929779 -0.0028083075 -0.06603001 0.058185045 0.047660295 0.001468014 -0.07899863 0.071459286 0.05148649 -0.026955353 -0.16010322 0.026059171 -0.25201675 0.11974683 0.012047339 0.26550087 0.09242255 0.18618448 0.02016425 0.04002492 -0.003618565 -0.036253564 0.09176993 -0.12595773 0.0077423034 0.10636608 0.047301497 0.19164449 -0.07634393 -0.13791493 -0.09943351 0.066044256 0.049792293 0.010225666 -0.1122957 0.07668673 -0.122470476 0.11589496 0.28574383 0.036645114 0.058310814 -0.049285978 -0.18102133 -0.060271937 -0.10928953 -0.14470045 0.172236 0.027286252 0.03796876 -0.030902237 -0.017287109 0.09645507 -0.003233712 0.053069394 -0.01960043 -0.03421529 -0.14069141 -0.1977749 -0.02615619 0.005649669 -0.12861301 -0.0034474866 0.0053752563 -0.2156008 -0.091512464 0.04072639 0.038705874 -0.115367495 0.015844805 0.10224072 0.0777073 -0.009528578 -0.046797633 -0.06293445 0.04678198 0.019510398 0.062940404 0.013187381 0.0818764 0.009459253 0.078468874 0.087082274 -0.080452666 -0.1808144 0.15434928 0.025665874 -0.17144859 -0.07138195 0.07718743 -0.027967684 -0.05120614 0.14008819 -0.10472871 -0.079815336 0.021138648 0.039045494 0.049634304 0.091123804 0.019857863 0.048938394 -0.025920926 0.0062698303 0.010753418 0.021509813 0.07725398 0.055514567 0.0044217003 -0.0809126 0.006767126 -0.0028017785 0.019318158 0.22065254 -0.052377276 0.042228904 0.106846206 0.009800191 0.23378451 -0.03780393 0.032408923 -0.07988057 -0.035152473 0.024893392 0.08463041 0.031909484 0.12591149 -0.009496531 -0.033216853 0.2703985 0.039423764 -0.071948156 -0.06942637 -0.094267994 0.093656935 -0.036437728 0.012736248 -0.0063508675 0.07314924 -0.08467441 -0.10755723 0.02242973 0.06009593 0.03325323 -0.08094537 0.06774849 -0.07438609 -0.052153863 -0.094395354 0.13011584 0.063342154 0.060499337 0.12472114 0.28126493 -0.1709226 -0.07383766 -0.06161751 -0.085081965 -0.10775833 -0.029965306 -0.121660374 0.033504236 0.005169832 0.048102867 0.050772846 0.060300685 -0.037340894 0.21211433 0.023443112 -0.18624848 -0.10023758 -0.1740503 0.0017334629 -0.012180522 -0.04684257 0.20109262 0.054898288 0.072609834 -0.09310735 -0.09991449 0.0036805498 0.017300714 -0.18563116 -0.018030703 0.0014072083 -0.021514917 -0.08133904 -0.053953517 -0.01768592 0.009080002 0.060479157 0.10808562 -0.029434772 -0.04561562 0.043765567 0.06108449 -0.043420043 0.07903935 0.097958535 0.12916864 0.1778321 -0.08664162 0.001389821 0.0011277697 -0.009807357 -0.06492629 -0.1485562 0.009267945 -0.076835565 0.008599348 -0.079404354 -0.10996583 0.023429835 0.015092153 0.057928197 0.21858637 0.027728952 0.04850818 -0.10775613 -0.12869075 0.15828295 -0.09234798 -0.104394406 -0.003909892 -0.009019242 -0.09025065 -0.030497322 0.122937575 -0.08059936 -0.13936725 0.09425936 0.049229693 -0.062051862 -0.1582167 -0.07446234 -0.0054704435 0.11656721 -0.1036582 -0.008451988 0.067514464 -0.23812674 0.103378616 -0.11824506 0.03319955 0.024668315 0.10845864 0.05509244 -0.23772904 -0.07847793 0.013820513 -0.019497989 0.04776107 0.07893666 0.060845174 -0.021427494 -0.1846337 -0.045548126 0.041636813 -0.10904472 0.06312747 0.09083933 0.012686698 -0.30637798 -0.12780884 0.18861891 -0.05465378 -0.19841433 0.12352474 0.0013355592 0.11049405 0.027695868 0.045855913 0.036300924 0.069748834 0.22774304 0.09710063 -0.15803394 0.044666152 0.11414808 0.12027008 -0.042660497 0.11649445 0.09277424 0.25725174 -0.075000174 -0.05074006 -0.030611904 -0.049022216 -0.08900207 -0.27626756 -0.043469947 0.036935806 -0.049322184 0.19353811 0.0013375813 0.1291029 0.026142042 0.08264073 0.027924156 0.13687846 0.005593935 0.04961207 0.036633294 -0.028828546 0.04049823 0.22343862 -0.027039694 0.04194649 0.1257779 0.114025325 0.0011716418 -0.23833887 0.051670283 -0.22194743 0.14699373 0.016947387 0.099967405 -0.090211116 -0.15525074 0.026075438 -0.003360344 -0.049154084 0.008466128 0.2767436 0.08345255 0.10494986 0.08439369 0.14794621 -0.019007167 -0.20547614 -0.018858613 0.08117357 -0.09698004 -0.017636595 -0.06917697 0.15020293 0.0749457 0.06515406 0.06216013 -0.0037249252 0.019755628 -0.11851846 -0.2186442 0.015008113 0.032399025 0.120926455 0.15713358 0.15699984 -0.09980236 -0.035226505 0.04803343 0.25319046 0.14800993 0.11193971 -0.038778797 -0.088319965 0.078890786 -0.11006612 -0.023843635 -0.0114777945 0.15929121 -0.03546973 -0.24392496 0.050444465 -0.06990218 0.0042631025 -0.00867047 -0.027370399 0.07903406 -0.15328649 -0.051701423 0.06840379 -0.06140848 -0.16088067 0.066855535 0.11230946 -0.0044995206 -0.19608456 0.07059698 -0.16598879 0.030879928 -0.088746384 -0.115983926 -0.044191003 -0.018329756 -0.06442083 0.058870327 -0.04460694 0.098019086 0.028117316 -0.06975572 -0.086593986 -0.16474964 0.029073318 -0.035458755 -0.23721956 -0.05357149 -0.0901034 0.15756775 -0.17027786 -0.14349088 0.11164106 0.1363205 -0.0738542 -0.062564485 0.062267598 -0.23270997 -0.18611936 -0.02807334 0.15498906 -0.043573007 0.010093679 0.11337893 0.21068847 -0.057684846 -0.0016836724 0.18220553 -0.15221992 0.10275811 -0.101831555 0.010247237 -0.014741905 -0.08628117 -0.08879021 0.027641436 0.10366992 0.0035545307 0.06848636 0.10512855 -0.08669879 0.057321537 0.009467038 0.1845346 -0.10655662 -0.06937823 0.05332652 0.0014875722 -0.017601572 -0.020774795 0.05943911 -0.118883744 -0.09399396 0.024783911 0.10765168 -0.05093986 -0.17471853 -0.18213983 -0.1259413 -0.13131677 -0.015461076 -0.11888801 -0.07027549 -0.07740859 -0.044050787 0.14177035 0.075714745 0.0016129415 -0.038044862 -0.039207246 0.094249584 0.09025691 -0.12806064 -0.10316597 -0.30084598 -0.048418723 0.0066247066 -0.052220944 0.15743859 -0.1691907 0.0018316756 -0.011822903 0.0628347 -0.021174455 -0.025563221 0.063663155 0.14583158 0.009294974 0.09105159 -0.060656745 0.076595545 -0.07619915 0.109065995 0.22106409 -0.012208389 -0.21925434 -0.054807294 0.13270742 0.064827695 0.034411367 0.10892465 0.03968804 0.18688148 0.095563844 0.15270735 -0.053993303 -0.016901428 -0.031292964 -0.06407144 0.21212755 0.06307111 0.03614527 0.08304692 -0.022400724 0.06753327 0.14822121 0.019983582 -0.16006285 -0.0134666655 0.1877493 -0.011859681 -0.18004787 0.18930489 0.06823925 -0.007001286 -0.037141774 0.108235195 -0.05419834 0.11482564 0.06373955 0.033988196 0.02407146 -0.009439016 0.09580676 -0.090404436 -0.17362165 0.061981395 0.028426403 0.033363525 0.052249584 -0.035979465 0.12019879 0.03689487 -0.02556273 0.053405393 0.26032662 -0.12107385 0.026088623 -0.1654693 0.0055149905 -0.035304982 -0.19898291 0.048423756 -0.038003806 -0.20992063 0.08395681 0.14350061 0.14901243 0.035895646 0.004605814 0.13281566 0.16823836 0.12287686 -0.084633775 0.028192269 0.052653443 -0.20712398 0.035507284 0.21037745 0.07280588 0.14483896 0.02063799 -0.013203951 0.06810119 -0.028460028 -0.073228985 0.17644757 0.19992495 -0.02333294 0.10358851 -0.00625423 0.015293331 0.06359973 0.10895503 0.017791798 0.1410162 0.030941283 0.062418427 -0.08332626 0.2158659 0.046982493 0.07129974 -0.16081858 -0.082270205 0.13330826 0.038209107 -0.18332 0.08995234 -0.08317877 0.116185606 -0.015538943 0.031921048 0.12826654 -0.07499065 -0.12381699 0.021996068 0.13583982 -0.13230424 -0.10215614 0.13339081 -9.93202e-05 -0.016636211 -0.17448184 -0.08658554 0.0043054065 0.10255777 -0.06760303 0.16573761 -0.0684556 -0.06830918 0.15373576 0.021146014 -0.055202473 -0.015513313 0.13530736 0.14662029 -0.07215933 0.0052766176 0.02723752 -0.112500675 -0.017553896 -0.03247168 0.10726557 0.13086762 -0.022550058 -0.006636656 0.06598102 -0.016872896 0.08766479 -0.0068057813 -0.034444507 -0.014442956 0.24785058 0.08462989 0.18729152 -0.05799418 0.03418264 0.2487876 -0.10573868 -0.18978146 0.12865901 -0.08268091 -0.0020706365 -0.05859182 0.026816279 -0.09505362 -0.017994009 0.04498153 -0.0913109 -0.060488436 -0.016516438 -0.15675797 0.0015779785 -0.007964638 -0.056945544 -0.08964709 -0.030250786 -0.028227093 0.068658054 0.18852575 -0.03882924 0.050504655 0.07751305 0.14165013 0.2976667 0.091688775 -0.15472962 0.03876901 0.10648225 -0.01263961 0.09956348 -0.069011554 -0.14855392 0.014116902 -0.17564768 -0.0239771 0.12868422 -0.19097629 -0.12794968 -0.10320322 -0.006331986 -0.027051697 0.1449757 0.07892001 0.09336136 0.004137615 0.016231272 -0.058378417 0.15040307 -0.03599381 0.12095274 0.16662805 0.12612127 0.07804631 0.21857442 -0.13875923 0.17888154 0.046302482 0.030708889 0.056875855 -0.024280908 -0.104500696 -0.014140267 0.0067555485 0.011493391 0.016191937 0.1039369 -0.108603455 0.017570045 0.12899297 -0.17346115 0.017964669 -0.058537852 -0.027551057 -0.08541867 -0.0334699 0.2279597 -0.06423378 -0.0842333 -0.11252108 0.22010292 -0.0011464397 -0.004373826 -0.009585487 -0.050876085 0.019420523 0.32959628 0.2609235 0.0727077 0.08390899 -0.10199179 -0.19141395 0.08514697 0.12552926 0.10460523 -0.046986524 -0.016677573 0.074976556 0.039149605 -0.039363746 -0.16190718 0.01138752 0.10790096 -0.11975883 0.063875936 0.042674173 0.08007692 0.080202736 -0.025612392 -0.099486694 -0.020624185 0.106666215 -0.03840354 -0.05021505 -0.23055317 0.16309252 0.10517653 0.05684843 0.16677877 0.12767716 0.028143972 0.028081058 -0.07101479 0.24027786 0.02936832 -0.046380043 0.046549678 -0.10108689 0.15045068 -0.06610691 0.050108545 0.10659777 0.038476855 0.009446999 0.0010802085 -0.0056441096 -0.05766985 -0.03542834 0.15302111 -0.01521041 -0.03474555 0.012536109 0.1691 0.09907577 0.055113785 0.010758255 0.07038667 0.0057423906 0.08645115 0.14031148 0.13090031 -0.04558832 -0.036932297 4.999099e-05 0.19639036 -0.21475264 0.0016104024 -0.13760433 -0.063433096 -0.036442842 -0.042050835 -0.053379595 0.000720706 -0.053525556 -0.14624573 0.07798696 0.075287215 0.08431743 -0.15407345 0.029891815 0.08517577 -0.107476935 0.044751406 0.052539222 0.243278 0.1743486 -0.2128625 0.23704219 -0.11445982 0.14287147 0.14393441 -0.09141572 0.14417718 0.06108545 0.13013904 0.023622576 0.0971116 -0.015656276 -0.043010294 0.10960642 0.0580396 0.07318134 -0.066458665 -0.10452628 -0.056772213 -0.062082138 0.07861993 0.0975984 -0.015513029 0.1430919 0.13684694 0.024339892 -0.0646113 0.09736137 -0.016130425 -0.000971611 0.022464247 -0.12944533 -0.1932908 0.034121063 -0.070854366 0.35075703 -0.07603267 -0.11694103 0.14586431 0.2565391 0.09068492 0.07444641 -0.22267485 -0.093585566 -0.12188229 -0.18950458 0.011698023 -0.22428276 -0.1322196 -0.05371938 -0.08312859 0.03964085 0.03055802 0.08937988 0.07523838 0.11408128 -0.00019184 0.03034669 0.06872927 -0.046654582 -0.049748164 -0.046832412 0.013458236 0.07706425 -0.06584288 -0.07507462 -0.060695473 -0.07819266 0.111687 0.023832537 -0.01892895 0.18446259 0.09895446 -0.14465009 0.063802086 -0.079544105 -0.05804873 0.004118002 0.11425892 0.002003729 -0.119911715 0.0543877 -0.048498973 0.1887924 -0.0001119722 -0.22350354 0.035736497 0.19445978 0.15759203 0.18309543 -0.084398136 0.108793125 -0.039935563 -0.0040043746 -0.11047926 -0.061671566 -0.08928891 0.08109828 0.06878584 0.070529275 -0.11382559 -0.03927723 0.0014967853 0.17259613 0.21764225 0.085840866 -0.095218524 -0.27029744 -0.17805715 0.1421627 -0.040125493 -0.07507246 0.16426603 0.126516 0.0024448722 -0.02934031 -0.013210122 0.02271628 0.16000473 0.042246744 0.072602905 0.11692701 -0.10890979 0.09502065 -0.02319547 -0.2780428 -0.19795753 -0.1869561 0.09437764 0.002622643 0.0071505853 0.24599957 -0.10569237 -0.011500645 0.091598034 0.01200108 -0.023014214 -0.14618875 0.12129405 -0.012812667 0.20177907 -0.0032474324 0.10280535 -0.005330287 -0.0030743831 -0.058402933 0.011912393 0.031799868 -0.078425854 -0.012504442 -0.061009888 0.2299664 -0.008973077 0.15452321 -0.011504447 0.045463227 -0.044483688 -0.02959317 0.035912808 0.09582142 -0.04507894 0.08470054 0.053430874 0.19747415 0.07646686 0.2914194 -0.043813728 -0.06353295 -0.17753267 0.2374897 0.14276077 0.017655544 0.13296023 0.06876922 0.19661275 -0.15478328 -0.02653601 -0.04625214 -0.19736826 0.10603272 -0.027039656 0.07396312 0.23597719 -0.03532437 -0.042115297 0.011866417 0.10678255 -0.024724707 0.024556553 0.18785541 0.0345078 -0.31163388 -0.23419873 0.02229308 -0.08210862 -0.15314488 -0.10683965 -0.1096918 -0.037442073 -0.3079963 -0.23179078 -0.006564105 -0.023894168 0.12934451 -0.09758209 0.036356945 0.10915836 0.048681855 0.013911174 -0.00958836 -0.08348511 -0.0071998592 0.12597059 -0.011902851 -0.0889804 -0.04922471 0.02008503 -0.0373514 0.07095693 0.07471095 0.17655092 0.22449245 0.15204915 -0.14992474 -0.20717214 -0.11923661 -0.16806313 -0.19140211 -0.13461193 -0.15911086 -0.2393549 -0.1341606 0.036840465 -0.0018789001 0.24204499 0.10097723 -0.0016812426 0.017080106 0.025649197 0.043525394 0.20767114 -0.084532045 0.085904606 0.02077506 -0.15710977 0.07706988 0.12676236 -0.08571764 -0.0008933868 -0.17253542 -0.12588064 0.10480296 -0.04664165 -0.1108803 0.022946037 -0.052241243 -0.047082167 0.0739326 -0.116173334 -0.09053652 0.015407999 0.09694098 0.12381603 -0.06650617 0.0937377 -0.07841423 0.18262093 -0.1133771 0.13284788 -0.06564861 0.20132464 0.059132073 -0.10160165 -0.052223846 0.07811812 0.10526444 -0.0070715593 0.004465828 0.0758353 0.013179842 -0.12935048 -0.081297405 0.023511995 0.12154824 0.16159824 0.077952944 0.028729076 0.07488139 -0.06667508 -0.015323096 -0.08241307 -0.124874264 0.0333549 0.018551331 0.068765245 0.054611184 0.024264427 0.055661667 -0.0042683096 0.04128914 -0.07261444 0.036970593 0.066841766 -0.06696814 0.00518321 -0.06236025 -0.05265067 -0.112492934 0.1265775 0.106568515 0.053743385 0.1972196 -0.01892457 0.30317625 -0.02275294 0.025519336 -0.039777793 0.037232555 0.083561495 -0.01139164 0.17767198 0.023914928 0.02704854 -0.09089977 0.041849907 -0.013402722 -0.060823973 -0.07764744 0.26717633 -0.026347725 -0.14569855 -0.06982215 -0.005156784 0.0546667 0.055479653 0.06766146 -0.064486034 0.034044046 -0.087605946 -0.0619643 -0.091770895 -0.118838884 0.10642095 0.06886117 0.09766654 0.003931307 0.07768077 -0.17612894 0.086308755 0.017711982 0.06271096 0.03800233 -0.098705515 -0.14980398 -0.071205415 0.05649173 0.06900914 -0.13679422 -0.09810994 -0.07232357 -0.035730507 -0.13620508 -0.14220518 -0.08218353 0.0086253835 -0.118059434 -0.011580351 0.10585528 -0.13017797 -0.020644575 0.10247567 -0.04182684 -0.05736697 0.11634958 -0.030620208 0.1104495 0.04289654 -0.034284465 0.047969054 0.03204495 0.10208828 -0.054834552 0.0041206065 -0.006151568 0.07041481 -0.10251792 0.101697706 0.04663288 -0.13169251 0.12082628 0.22340931 0.1001834 0.14269848 0.008537138 -0.1661505 -0.18441205 0.025508204 -0.05919788 -0.09145763 -0.0062746685 0.06155853 -0.14527576 -0.044887763 0.15098707 -0.107528836 0.08697612 -0.048473075 0.054579377 0.10973275 0.07412817 0.09091596 -0.115159355 0.111365974 -0.08526931 0.025954176 0.02582462 0.048512258 0.033695668 -0.084381 -0.13498674 0.08723487 0.018583458 0.114937685 -0.004473293 -0.14051643 0.09661297 -0.03703706 0.034200344 -0.06474594 0.16443017 -0.08765648 -0.033742975 0.010744871 -0.10921823 0.033051953 0.16119105 -0.049046215 0.03951428 -0.27494353 -0.00389292 -0.03130423 -0.08184976 0.10814504 -0.032624368 -0.017747749 -0.037719287 -0.1916816 -0.113198645 0.096109346 -0.21099506 -0.07663154 -0.039972007 0.17436218 0.076860376 -0.05571705 0.13045137 -0.07405158 0.10090998 -0.13588773 0.107325785 -0.040613364 -0.10285042 -0.021714361 0.027734417 -0.049474843 0.05539535 -0.05829939 0.06203724 0.044222206 -0.0060923053 -0.04413823 0.0151540795 0.055025373 0.20617992 0.09394204 0.09759899 0.3088512 0.051595848 0.04846435 0.070401505 -0.1008966 -0.044390164 -0.050616927 0.0647614 -0.017417457 0.013822342 0.10874546 0.08631507 -0.0161721 -0.06699951 0.11352748 0.07738912 -0.16062568 -0.031315394 0.016551547 0.077882975 0.091010146 0.0283906 0.058524754 0.00641368 -0.06738517 -0.026126439 0.0018991187 -0.003467925 -0.1885573 -0.039748333 0.0056205653 -0.028136998 -0.02468238 0.04879914 -0.10789572 -0.16280422 -0.03481698 0.07641144 0.16875531 0.07821283 -0.14682637 -0.023236724 0.025663437 0.01775911 0.053930454 -0.0917049 0.006494309 0.042032283 0.082567096 -0.080571815 -0.034515686 -0.27038178 -0.062146198 -0.05244149 -0.10195845 0.016561216 -0.005594543 -0.22592139 0.021550797 -0.09283242 0.048568897 -0.12818512 0.0030006538 -0.028316332 0.03031019 0.012469728 -0.025516417 -0.15362723 -0.1477208 -0.058388695 -0.0008279884 -0.060824797 0.06252119 -0.027922092 -0.096501276 -0.02780963 0.022585984 0.032488473 0.18783791 -0.06689093 -0.007347866 0.042612396 -0.0023422958 -0.050061814 -0.15492572 -0.051083457 -0.10737024 -0.17266066 -0.07956789 -0.10470917 0.058378655 0.060109183 -0.090387926 -0.026022863 -0.18582426 -0.049433995 0.03989819 0.08249379 -0.07130471 0.10518549 -0.15156919 -0.12476278 0.070966184 0.16711213 0.0493432 -0.004034239 -0.21951838 -0.2022447 0.0129409535 -0.03580627 -0.11058352 0.0065532583 0.011513136 0.094441585 0.013660228 0.122839436 0.00079940294 -0.0115335 0.106431216 -0.09784409 0.28144476 0.037525747 0.038082924 0.0525096 0.18771365 0.07925074 -0.1605056 0.14034703 -0.03408966 0.010715507 -0.1279254 0.052620202 -0.06513743 0.015948609 -0.022478228 0.19843295 0.20415771 0.0105829565 0.012329404 -0.037344296 0.11060063 -0.03289199 -0.042133726 0.097859286 -0.05382991 -0.0037755035 -0.15813108 0.070419036 0.1940867 0.07212254 0.14617991 -0.08461022 0.023632428 -0.09431599 -0.005485931 0.094511844 0.02747268 -0.1412641 -0.069795184 -0.11996641 0.100595266 0.24442358 0.13872996 -0.16275775 0.17724134 0.103609145 -0.12411964 -0.01750493 0.12236745 0.09625153 -0.12816599 0.05761033 -0.21062483 0.016367635 0.16857061 0.06492083 -0.043420896 0.10622532 0.114765875 0.14829446 0.08743424 0.10813748 0.073290855 0.026552865 0.0089509 -0.023725972 -0.12123683 -0.078240454 -0.010910807 0.024145216 0.15055415 0.057528093 0.15179756 0.16802226 -0.005894686 0.100065574 0.020956695 0.15669227 0.08806299 -0.11216473 0.023036027 0.20008807 -0.007086435 0.07112635 0.068201676 -0.039603606 0.10046911 -0.08717239 -0.05608955 0.12486299 0.052966263 -0.013157139 0.044646103 -0.006009225 0.0012578502 0.06568185 -0.07273678 0.0040336405 -0.03122682 -0.14126985 -0.07475488 0.17411113 0.04494519 -0.10976106 -0.07882646 0.0388272 0.19728926 -0.035370704 0.14855684 0.03569734 0.062057517 -0.13623457 0.091089614 -0.035997994 0.08338261 -0.11696438 0.021822754 0.07745983 0.0605527 0.050810218 -0.02016688 -0.047615323 0.17783883 0.104895286 -0.07608648 0.056844432 -0.07426789 -0.11846846 0.10338094 -0.17040996 0.09268559 -0.007981601 -0.0038640334 0.058265757 0.06459273 -0.060036525 0.15414801 0.10808894 -0.08443504 -0.04790716 0.06902057 0.15686144 0.0866675 -0.12169703 0.04639809 0.08960618 0.0141596 0.077339366 0.0511845 0.08176855 -0.029082136 -0.16758028 0.040437035 0.035895936 0.07304822 -0.13375437 0.064501666 0.20545451 0.007845013 -0.0061665317 0.030900236 0.2032337 -0.10236478 0.020320693 -0.062675044 -0.03740984 0.0015138219 0.14713678 0.23151603 0.14156601 0.013704307 0.25691187 -0.09772289 -0.07262451 -0.13447338 0.1477444 0.10948002 0.24630085 -0.19772899 0.1261502 0.010563681 0.11679199 -0.13302304 0.1650113 0.102415174 0.013399622 0.081801966 -0.07654953 -0.057944007 -0.046344463 -0.18527278 0.08617585 0.11915936 -0.070134416 0.034820303 -0.026554048 0.05011803 -0.045467086 -0.08186971 0.12463689 0.04818067 0.25392133 0.09252742 -0.0881203 0.10683652 0.004011324 0.09370481 0.1425133 -0.052624207 -0.052128285 -0.064900234 -0.16405909 0.023687663 0.16779599 0.032890603 -0.116403095 -0.12701543 0.1837681 0.008258717 -0.06474102 -0.027399177 -0.14773078 0.14230952 -0.039305292 0.13674015 0.0051651713 0.1429532 0.02566945 0.10261396 0.0892 0.09202413 0.054222938 0.015157727 0.2367809 -0.0027972006 0.025100358 -0.014368934 -0.018824626 -0.050169528 0.05492799 -0.020063275 -0.17380615 -0.04482743 -0.06866837 -0.17079532 0.042435307 0.046642896 0.059570782 0.08528553 -0.17596841 -0.1361017 0.19735214 -0.104720876 0.061084103 -0.068693765 0.007967274 -0.06332542 0.056154117 0.013677412 -0.044828977 -0.08772652 0.044068076 -0.091576844 0.062177595 0.29279816 0.18138121 0.11747064 0.04052704 -0.1902538 -0.108780675 0.12105708 -0.10379283 -0.10571284 -0.032176077 -0.09821232 -0.14812201 -0.0049774228 -0.07709518 -0.08217895 -0.071218215 0.07792123 -0.0059219436 -0.017857198 0.05969459 -0.014203961 -0.027825376 0.047045037 0.06681979 -0.01470735 0.008060778 -0.078179024 -0.0860683 0.07691475 0.06178484 0.07409827 0.050665505 0.0347699 0.107853666 0.10458542 0.13640888 0.07043706 0.18845786 0.04193464 0.06436577 0.04483563 0.027107237 -0.057417303 0.052490253 0.27680606 -0.041546624 0.00014902893 -0.015052555 -0.02311686 0.17173544 -0.0672971 -0.047408048 -0.15874928 -0.07576117 -0.17084 0.06318047 0.27996972 -0.03666788 -0.16667579 0.08999997 -0.0726925 0.14722519 0.0003655691 -0.040601496 0.012353824 0.089571886 -0.01996085 -0.0054603047 0.047314025 -0.059764463 0.08421858 -0.19086225 -0.01749181 0.14533211 0.024926156 0.05107985 -0.018424883 0.10189196 0.09346952 0.07418212 0.118439816 0.09233305 -0.04394635 -0.13438989 0.042036213 0.054608922 0.1090472 -0.093632124 -0.09064311 0.045990027 -0.0071166987 -0.18857616 0.037510816 -0.1679518 -0.0659572 0.17503895 0.21263741 -0.107771344 -0.030157931 0.019590098 0.22153917 -0.0635184 -0.019051043 0.16120219 -0.030784318 0.057111748 -0.15531528 -0.024724137 -0.20807254 -0.096880496 0.09307136 0.032729056 0.001926212 -0.07487496 -0.022065608 0.030111317 0.09829162 -0.26251468 -0.08317612 0.015909623 -0.009886311 0.040337626 0.02675403 -0.030486787 -0.05268532 -0.0072595226 0.1434428 -0.036480658 0.023868889 0.0040399046 0.15998206 -0.004783929 0.09337373 0.12228403 0.011968434 -0.0050051035 -0.026562724 -0.042208366 0.07083403 0.013224139 -0.008069084 -0.08197734 -0.07144888 0.25206423 0.016054202 -0.0774772 0.14310992 0.028180854 0.057815492 -0.013804708 -0.03186731 -0.016958637 -0.13827382 -0.008792741 0.029603308 0.18504633 0.008599906 -0.2334177 0.014364934 0.31067055 0.11678626 -0.09538314 0.06305756 -0.061699037 -0.18069328 -0.100375615 0.001981424 -0.16805896 -0.16782178 -0.03740987 -0.09751821 0.009260048 -0.16659294 0.06571615 -0.06749189 0.20199297 -0.13773903 -0.109255426 0.04173708 0.16642332 0.031504303 0.05628579 0.0017536902 -0.10263985 -0.049013834 -0.12119097 -0.12787099 0.04017489 -0.1123178 0.031955402 -0.106418766 0.074651696 -0.038514093 0.147617 0.039469425 0.09215774 -0.12087725 -0.043799475 -0.054884017 -0.022203838 -0.04023205 -0.105097525 -0.17825095 -0.22065054 -0.26181066 -0.1167063 0.11565734 -0.118979655 -0.12331445 0.17908986 -0.0636496 0.0321046 0.064231716 0.06625261 -0.15223143 -0.023105968 -0.16182272 0.24463178 -0.15948753 -0.10478402 -0.10406008 -0.14966604 0.15902282 0.28132614 -0.037220746 -0.12508689 -0.284758 -0.07403956 -0.055333417 -0.04253181 0.093450725 0.0867626 0.06250022 -0.031322654 -0.1447569 -0.012715369 -0.067830004 0.08081251 0.1319154 -0.10130598 -0.1267738 -0.07555407 -0.10562654 0.07552518 0.035130966 0.1099184 0.039648682 0.020864958 0.11997298 0.046972733 0.0068100966 0.1480453 0.011518088 -0.03043406 -0.060018804 0.094066046 0.14740334 -0.024735589 0.08504438 -0.23675226 -0.028876875 0.01858832 0.014738757 0.28563148 0.0241139 -0.012243637 -0.054596446 -0.24018355 -0.13084334 0.0923246 -0.04345164 -0.04874454 0.14557686 0.13402544 0.051699046 -0.045511734 -0.023947107 -0.080414996 -0.09947731 -0.10444165 -0.061805442 -0.1034721 -0.1563705 0.021940267 0.023459557 0.17007928 -0.060361013 0.025284952 0.040521268 -0.045060612 0.05677468 0.03579975 0.015752979 -0.0029661425 0.051685233 -0.08305736 -0.049858637 -0.03960295 -0.13663717 0.0040903953 0.09176357 -0.10775467 0.047787044 -0.07063466 -0.015867751 -0.06903296 0.060189564 -0.06787882 0.10116604 -0.024572078 -0.06496037 -0.12533052 0.025320452 0.08952184 0.027332125 0.22388317 0.14297874 -0.030752776 -0.025329916 0.04264453 -0.12527613 0.07892247 0.018501371 0.027845776 0.067821 0.18455912 0.11046545 0.064470716 0.15736523 0.09511303 -0.039915144 -0.008071898 0.036406126 0.02738453 -0.16087973 -0.16407008 -0.08226619 -0.09647384 -0.064382404 0.063471064 -0.016892916 0.01963946 -0.12243034 -0.046164222 0.058725767 0.059495244 -0.07245738 0.016166238 0.21988478 -0.0017597929 -0.062845886 -0.065259025 -0.03225652 -0.031901184 0.03603224 -0.15212321 -0.107115954 -0.003729687 0.06599027 0.008303043 0.008110676 0.0011803648 0.08402026 0.0093976855 0.043567214 -0.08608761 0.02268648 0.034917746 0.0936097 0.07727782 0.058873564 -0.009841741 0.024493923 0.10635089 -0.06520746 -0.062840775 0.01814314 0.041527968 -0.08241065 -0.007476256 -0.009399878 -0.22152801 -0.08713277 -0.080905154 -0.057503555 0.124807015 -0.09070533 -0.07933372 -0.25287247 -0.058944393 0.037021063 0.007992605 0.13064839 0.07520885 0.027104527 -0.03303866 0.11262998 -0.0452057 -0.13043347 -0.22376935 -0.06519193 0.07008786 0.22765388 0.0061610346 -0.07653555 -0.11849652 0.055195488 -0.1764616 0.05503451 0.08177116 0.043627944 -0.021966167 0.056494065 0.017093837 -0.07781238 0.18504123 -0.035167936 0.07757523 -0.24186143 0.12764709 0.14687638 0.0029833787 0.055877104 0.05585152 -0.06427836 0.054712232 -0.08086304 -0.06087569 0.112694316 0.09746577 -0.070637554 -0.073357634 -0.06455966 0.07326396 -0.09999848 0.035671264 0.07468468 -0.008824545 0.10100637 -0.030431017 -0.02138556 -0.097724624 0.10171773 -0.07665204 0.034977183 -0.007131607 -0.105278306 -0.060910314 0.13828723 0.020165754 -0.10091504 0.03053283 -0.014611403 0.34540465 0.028512385 -0.038062483 0.14200279 -0.18410362 0.009432016 0.19944285 -0.011619928 -0.1733301 -0.039591797 0.1454518 0.03760696 -0.08388561 -0.06852428 -0.055970028 0.03611979 0.13381961 0.105242305 0.04560122 -0.13316448 -0.13279325 0.053325202 -0.13454711 -0.022556702 0.030415045 -0.1137594 -0.10242623 -0.009412106 0.050365027 0.10615188 0.060705345 0.0073656593 -0.07461947 -0.1070907 -0.051087707 0.04099356 0.03366237 -0.2099902 -0.078567706 0.12045076 0.007921505 -0.1417009 0.23558211 -0.0028941731 0.038433395 0.039952476 -0.036759548 -0.07275737 0.2121675 0.100320585 0.08219372 0.05762892 -0.10033174 0.12775302 -0.084313266 0.02832868 -0.16393898 -0.20408589 0.03182912 -0.08090993 -0.19891676 0.05406095 0.21200807 0.13895603 -0.025731789 0.00088453066 0.08877063 0.1122128 -0.034353573 0.0034177715 0.030061482 0.05538763 -0.013307644 -0.0120085245 0.13798323 0.12095207 0.047741055 0.17191091 -0.038644575 0.16229734 0.054251544 0.3271026 -0.11924819 -0.06893452 0.041879784 0.039723404 0.1950139 -0.06683747 0.09049185 0.1162463 0.07046478 -0.09609964 0.14077587 0.12293249 0.05995845 0.020434769 0.0226108 -0.007873579 0.06407851 0.0031134854 -0.084852494 -0.104859166 -0.07520363 0.022213224 -0.0026955837 0.02153438 0.050081313 -0.06273209 0.14656602 -0.026771083 -0.0433427 0.048238624 -0.18365102 -0.07905345 0.09810728 -0.17374219 0.11175742 0.15111366 -0.036945533 0.029181277 0.11190871 -0.04667892 0.08677755 -0.06711488 -0.04776023 -0.07993364 0.03426472 0.11579691 -0.018411294 -0.12712492 -0.10827068 0.039459944 0.18441164 0.0393725 -0.038689654 0.076618396 -0.023949863 -0.03782852 -0.09584591 0.14084488 -0.2539208 0.07978592 -0.046374492 -0.041034073 0.16923152 -0.07141311 -0.06800692 -0.013039424 0.041384738 -0.04418558 -0.15738589 -0.086569816 0.12813339 0.007477679 0.045108728 -0.02614212 -0.06594977 0.16775694 -0.018819185 -0.04433699 0.10961424 -0.07223604 -0.059472736 0.0010246685 2.7010408e-05 0.025961135 0.20916691 0.033624824 -0.2378054 0.032629896 0.0037879995 0.0043450026 0.024594732 -0.0028678288 -0.0052612093 0.06130442 -0.05420808 -0.094768636 0.30237815 -0.071585745 0.010014291 -0.14956602 0.011646842 -0.09332255 -0.044247296 0.10450647 0.047200955 0.056840952 -0.17712048 0.18368952 -0.11918813 0.15285608 0.10215439 0.057733275 -0.085498475 0.015158985 -0.04709214 0.0029039572 -0.024987226 -0.20386106 0.112178415 -0.008110716 -0.04848004 -0.056032725 0.035845958 -0.08937564 -0.22551756 0.04071298 0.0519103 -0.019963183 -0.11479029 0.008893554 -0.14645323 -0.10272306 -0.07506979 0.0843939 -0.036261097 -0.04478664 0.19546925 0.03524625 0.033899453 -0.036970075 -0.059637167 -0.21864064 0.09687405 0.04483097 -0.0179166 -0.01372267 0.073614426 -0.15547101 -0.05898813 -0.11363029 0.17715093 0.087565556 -0.22026926 -0.15137616 -0.013234567 -0.04724402 -0.13243823 0.19447622 0.03125399 0.047481634 -0.06920149 0.07222742 -0.038043275 -0.028334318 0.061100196 -0.16289976 0.1597028 0.01823892 0.12809442 -0.10754198 -0.092316516 -0.11619002 0.025029767 0.00659833 -0.046441182 -0.10140692 -0.12665963 -0.00484839 -0.04655868 -0.0685607 0.15470895 -0.008232567 0.1270043 -0.053325217 0.024477629 -0.0055476017 -0.16976222 0.14283383 -0.013515361 0.074641824 -0.075202875 -0.016484438 -0.08668523 0.12359985 0.031140935 0.036705352 0.13581842 0.11563413 0.07653426 -0.14217274 -0.06956791 -0.10038881 0.07275337 0.017065194 -0.13905124 -0.018874422 -0.14941123 -0.005315649 -0.16553725 0.05288275 0.037796263 0.19079486 0.08478733 -0.042291425 0.08180701 -0.1397664 -0.09624726 0.033314254 -0.21582496 -0.0037160786 -0.10202633 0.010130705 -0.10777364 0.042424813 0.0019327424 0.1400366 0.0006734534 -0.07686428 -0.024688585 -0.13442364 0.040613726 0.058985025 0.2469196 -0.0621836 -0.026779458 -0.05757585 0.02121137 0.038169052 -0.03979649 0.07417371 -0.09615684 0.06415852 0.019390792 -0.03566199 -0.031493664 0.24266678 -0.08170086 0.029793318 -0.07502191 0.17856207 0.08868263 -0.06783499 0.0512595 0.025769573 -0.051662475 0.07581642 0.03893054 0.021569872 -0.004191971 0.042204063 0.022037398 0.005007949 -0.06410159 0.16375375 -0.07291209 0.109008804 0.007857164 0.18801646 -0.11585116 -0.14373218 -0.17757085 -0.038239338 -0.20798312 -0.11853097 -0.2701803 0.049236037 -0.031559993 -0.15029672 0.18414848 -0.072969615 0.0976722 -0.07487574 0.15925579 0.074053615 -0.10170622 -0.09170826 0.06055252 -0.026237814 -0.016934251 0.12722388 -0.07486889 0.009129377 0.09456134 0.08001031 -0.015961267 -0.033662222 -0.17950442 -0.0393793 0.01946747 -0.051201228 -0.008243809 0.067788355 -0.1548592 -0.05974489 -0.017347962 -0.10663506 0.12266294 0.07134977 -0.01482849 0.2349765 -0.13492168 0.053034864 0.024252122 -0.09622716 0.029170085 -0.11155969 0.06815429 0.10578348 0.02723334 -0.18527979 -0.09667935 0.056471 0.0021198643 -0.26940027 0.12338172 0.012764267 -0.082808904 0.0947239 -0.09031631 -0.06084848 0.049152844 0.23892362 0.18333225 0.0645445 0.0709523 0.04954428 -0.15539627 0.03471692 -0.1337523 -0.039756916 -0.049503684 0.0018546255 0.00936791 -0.32642248 0.037261877 0.059443638 0.04369145 -0.011159978 0.16421618 0.031137314 0.04376733 0.10444919 0.0362593 -0.08980177 -0.24383374 -0.04771209 0.075193115 -0.036211018 0.0792164 0.010101162 0.106244355 -0.07251462 0.033230633 0.111408174 0.25029567 -0.09753957 -0.061482903 0.05524599 0.12489174 -0.005690675 -0.069245346 0.12456675 0.039726987 -0.1087021 -0.062508434 0.118511744 0.21032603 0.06948884 0.003512507 -0.006308903 0.055739656 -0.011567284 0.01896405 -0.10578763 0.12970571 -0.11401847 -0.043211177 0.009759326 0.19909869 -0.043169685 -0.06750302 -0.05985331 0.12665899 -0.31171554 -0.11380468 0.3506165 0.14822705 -0.049280196 0.00056657026 -0.008119512 0.07055673 0.1299194 -0.0011197097 -0.03838481 0.111241765 -0.15993427 -0.17754352 -0.17553203 -0.09352683 -0.095317505 -0.11868042 0.030422274 -0.119940184 -0.31436664 -0.10439118 -0.047185965 -0.06054495 0.15195248 -0.061354257 0.08809235 -0.00189826 -0.0051318565 -0.084439464 -0.010649915 -0.09257589 -0.0025739546 -0.019636074 -0.07789216 0.1774236 0.120941564 -0.0022949018 0.02098614 -0.046770874 -0.14078984 -0.028433247 -0.04430856 -0.037627213 -0.21214159 -0.11468818 0.07971867 -0.006479875 0.20565204 0.08766713 0.12953165 0.0795243 0.18528649 -0.0787002 -0.25607374 -0.04461256 0.05582186 0.015151697 0.02754726 0.132091 0.03730437 0.078989856 -0.13408834 -0.12560566 0.1596257 0.01885068 -0.045752283 -0.05679937 0.013345164 -0.028384585 -0.108457856 -0.18843074 -0.054298487 -0.053503346 0.15193984 -0.009115275 0.0044305176 -0.1564296 -0.029437188 0.058730368 0.025200672 -0.010290564 0.10791238 0.0007989309 0.07928471 -0.04898522 -0.18125884 0.026835898 0.07253241 0.057534732 0.042218667 -0.034858696 -0.081576064 0.05427144 0.00251274 -0.07215624 0.15385956 -0.07323917 -0.06962547 0.10648898 0.09524075 0.014057498 0.048594985 0.03524401 -0.28412536 -0.084858164 -0.036587283 -0.072503015 -0.042127267 0.07057596 -0.0150289405 -0.083135255 0.034059223 -0.033563714 -0.01560635 -0.029177371 0.22418378 -0.22407043 -0.03883339 -0.00036890258 -0.07811425 0.089982584 0.08132577 -0.0047754617 -0.027067376 -0.012097067 -0.05689761 -0.012999011 0.024117272 0.010841069 0.054079052 -0.28952077 -0.2502705 -0.26119706 -0.02970691 -0.12466752 -0.013198066 -0.22866134 0.12372612 -0.15425394 -0.07555987 0.06085702 -0.07528652 -0.028913967 0.019491266 0.284846 0.030112475 0.16063611 0.120567314 0.036801003 -0.09891958 0.10597536 -0.14981103 0.16008751 0.02000053 -0.26502237 -0.03405061 0.06449334 -0.07012128 0.06633884 -0.04208522 -0.08250839 0.016316188 -0.107686795 -0.11095195 0.048222553 -0.14859861 -0.049292654 -0.056872953 -0.20674658 -0.20178579 -0.11342771 0.1486177 0.117319345 -0.100426085 -0.2853309 0.0748795 -0.010522732 0.1141266 -0.08807179 0.03502125 0.08461735 -0.044746365 -0.042608555 0.002526283 0.054267634 -0.0014334004 0.09739964 -0.046193518 -0.13374087 0.15127867 -0.066526406 -0.013927013 0.041509423 0.030178826 -0.058044367 -0.0063787354 0.03703778 -0.019731734 -0.2526539 0.20444307 0.027293075 0.0294217 -0.16645052 -0.04828722 -0.009371978 0.24856113 -0.0034116197 0.10683344 -0.06504205 -0.045261893 -0.024555016 0.12838452 -0.18898527 -0.13156636 -0.19473052 -0.10875021 -0.08116 -0.16144812 -0.07341477 -0.20147145 -0.10270031 0.07362321 0.023391165 0.061663974 -0.06692868 -0.11325851 -0.20850417 -0.049222037 0.058741063 0.052968215 0.0013676451 -0.08577753 -0.00078976183 -0.07848083 -0.086865984 0.17418121 -0.20228109 0.008688287 0.17634472 -0.11556376 -0.064374745 -0.05290385 -0.022328973 -0.15959571 0.059528608 0.06662873 0.05083753 -0.08703737 0.008651079 -0.08994403 -0.033259667 0.2153468 0.009569538 -0.12442566 0.0010658944 -0.0922624 -0.08655187 -0.06376227 -0.069950536 0.07969283 0.04281951 0.045026615 -0.12174965 -0.04910734 0.02371763 -0.03577064 -0.029824175 -0.018836169 -0.1051501 0.00915765 0.21444267 0.013839486 0.11793378 0.055937007 -0.1467242 -0.110213704 -0.08335959 -0.08548349 -0.009028975 0.061464407 0.12551585 0.030817509 -0.044567954 -0.20822412 0.0070589576 -0.0030960226 -0.043377634 0.19409758 0.10141125 0.12976076 -0.11723509 -0.0653036 -0.042295516 -0.094077334 0.03818929 -0.02756452 -0.1467723 0.14674291 0.059854746 -0.23678063 -0.07939671 0.019290032 0.16335344 -0.01535491 0.082793824 0.018714199 -0.13150546 -0.14151667 0.11225599 0.11959842 0.032290924 0.14957067 0.10566098 0.06836287 -0.09113115 0.17314288 0.053630143 -0.044256896 -0.094038635 0.009152025 -0.18975404 0.12668993 -0.048418444 0.04256905 -0.074724376 -0.028237876 -0.07280752 -0.082428314 0.14533678 0.15073998 0.08507167 0.0121205775 0.023691693 0.104166314 -0.016907543 0.021553399 -0.18219583 0.11231021 0.20650242 0.008008262 -0.21250102 0.06088905 -0.090408914 -0.06633494 0.06265764 0.025455413 -0.048810877 -0.06496056 0.012583606 -0.04661957 -0.116596706 -0.12185955 0.014901503 0.017373614 -0.057695758 0.13767563 -0.29644346 -0.06422321 -0.05913642 -0.021800287 -0.00085513556 0.14747287 -0.037345536 -0.0058536306 -0.03652896 -0.19871467 0.23031622 -0.119197756 0.041949727 0.038995996 0.027563678 -0.049457688 0.082725264 -0.15603675 -0.006582879 -0.05638747 -0.06772979 0.04287478 0.10774785 -0.034325577 0.07806811 0.00020241279 -0.10968687 -0.1426518 -0.049006395 -0.019741375 0.10586648 0.054151952 -0.18162727 -0.18473947 0.040580306 -0.11814665 0.0076417583 0.07906899 -0.09320023 -0.13912363 0.123851284 0.0075961915 -0.047357492 -0.06871437 -0.051044084 -0.11905723 0.088341214 -0.07767512 0.10935346 -0.040062893 -0.10433502 -0.04263016 -0.2624167 -0.0120768575 -0.01701192 0.08247428 -0.18863049 0.11141498 0.061646234 0.09709057 -0.09049775 0.15131432 -0.08859829 0.14072454 -0.03800717 -0.21918593 -0.16655186 -0.035089187 -0.10401636 0.06717064 -0.104673 -0.15159321 0.12309775 0.047651816 -0.16956611 -0.0050716186 0.101950705 0.041920062 0.01482231 0.109515406 -0.07307125 0.003117845 -0.0017848639 -0.027276205 -0.03898055 0.007286824 0.0034407496 -0.10484277 0.080179594 -0.102410175 -0.0044840546 -0.057641823 0.0163152 -0.29505482 0.24580823 0.09991191 0.23735768 0.065748855 0.10858883 0.2879127 0.105418235 0.25703707 0.13608071 0.20663734 0.078523025 0.10695917 -0.18697353 -0.141625 -0.098316506 0.0099710375 -0.022081878 0.07102749 0.13047317 -0.09758383 -0.07339488 -0.14362395 0.20303729 0.03046695 0.04798023 -0.13402084 -0.0001169989 0.06916543 -0.007035103 0.079456806 0.21168797 -0.13314743 -0.030563304 -0.049939312 0.3282307 0.2522599 0.1343794 0.13464902 0.08595665 0.22117873 0.071885504 0.042610817 0.09205031 0.008382241 -0.069704965 -0.056903362 0.075545974 0.16464931 0.05854862 0.08033142 -0.019985406 -0.070779786 0.065398626 0.017124083 -0.14226286 -0.032806963 -0.008289702 -0.051045787 0.14817356 0.047983903 0.1373175 0.026342526 0.008138783 -0.09365978 0.0011929533 0.0013053926 -0.13671139 -0.053952746 -0.03232826 0.041347954 0.046135012 -0.058131848 0.046886962 -0.018207893 -0.286962 -0.048470203 0.10789886 -0.16818057 0.0112691205 0.15852612 -0.07606129 0.00021490804 -0.13040163 0.16272311 -0.008333263 0.004662684 0.13543005 0.06614784 -0.087562874 -0.06472779 0.04949313 -0.062412106 -0.21172433 -0.0053240797 -0.14802127 0.16162817 0.017678764 -0.090517506 -0.069863245 -0.18893977 -0.10994619 0.10163232 0.22317861 0.07263965 -0.009204254 -0.043195937 -0.09564958 0.20597659 -0.01887487 0.21156298 0.13935195 -0.17407964 -0.06659524 -0.066904515 -0.007984636 -0.006031425 0.2996239 -0.10772279 0.022896994 0.061650775 -0.00015720044 0.011018057 -0.10448089 0.010648619 0.0511399 0.032760058 0.05702009 0.14126079 0.093696654 0.0071294615 -0.11717583 -0.060000528 -0.021963116 0.025234584 -0.047833275 -0.09357332 -0.11881987 -0.16511777 -0.02349507 -0.14696655 -0.100052565 -0.039390188 -0.13359173 0.03797522 0.07402231 -0.0549427 -0.04370273 0.05374298 -0.07139951 -0.07827339 0.11964985 0.088418774 0.060155 0.09256446 -0.19772787 0.13538356 0.03920621 0.10107814 0.03871618 0.0048924824 -0.027530922 0.03671444 -0.03117479 0.08678761 -0.15864566 -0.054157585 0.20448233 -0.06260805 -0.023868373 -0.088258095 0.03358457 -0.07362649 -0.018561093 0.084886655 -0.06987634 0.07886111 0.08222293 0.10549561 0.014054099 0.32412592 0.10545337 0.03248776 -0.08759244 -0.009705912 0.1426327 0.17095347 0.14783292 0.07851923 -0.12556602 0.04871618 -0.12414024 -0.14874712 0.023915868 0.052319944 0.09033771 0.049713623 0.0531586 -0.09846526 -0.010497669 -0.15071169 -0.20033692 0.07406427 -0.07531244 0.08724985 0.110834755 -0.061931733 0.05903111 -0.06611567 -0.18458788 0.01233094 -0.047087386 -0.0440089 0.19753431 -0.1525857 0.038287114 -0.099480726 0.09082614 0.029843124 0.037934434 -0.09448896 -0.07655879 0.09272505 0.17707977 0.048030782 -0.08974207 0.033893853 0.2427472 0.0102422815 0.14618409 -0.07403294 -0.0042086053 0.06195652 0.039732832 -0.07663887 -0.08095174 0.09882844 0.11915508 0.15121436 0.18039306 0.013461944 -0.031119924 0.1350991 0.07130693 -0.098245524 -0.103363566 0.04919302 -0.017727466 -0.0026429954 0.107253335 0.07590371 0.13298732 -0.1931536 0.025339792 0.069468856 -0.15265858 -0.06548957 -0.08404852 0.0021698172 0.1627854 0.20225894 -0.08142876 0.052655727 0.055879787 0.038762577 0.039897963 0.03037425 0.168757 0.11024665 -0.10601539 0.07957211 0.08923734 0.03149673 0.11314244 0.018807404 0.020046772 0.012124054 -0.20182441 -0.00803984 -0.066825055 -0.1186448 0.14340183 0.050420754 -0.0029831082 -0.056480337 0.02961696 0.09914361 -0.08269659 -0.00048283723 0.08680665 -0.19360012 -0.005756976 -0.042929135 -0.013382986 -0.050162856 0.01376246 0.19236273 -0.03239225 0.029171102 0.19947465 -0.055001557 0.18146753 0.0005323007 0.17818962 0.07502011 0.030710837 -0.0065630684 -0.062404145 0.007579155 0.08973615 -0.001311143 -0.03166228 -0.025078254 0.099247664 0.12251615 -0.066715054 -0.06685878 0.03793589 0.1527532 0.114599034 -0.12518522 -0.026407598 -0.09306035 -0.026751252 0.160441 -0.14226006 -0.16188653 -0.08285542 0.028731061 0.06207548 0.043744843 0.11756854 -0.17630856 0.11883365 -0.031209532 0.07314943 -0.13234255 0.0004956697 0.023627076 0.115575105 -0.15852547 0.0030752548 -0.10852353 0.050549604 0.077721655 0.12871702 -0.053502947 0.09272265 0.13609016 -0.1643247 0.061234493 0.09585112 -0.025872638 -0.12107736 0.094295576 -0.11995088 -0.017835144 -0.004012406 0.071553804 -0.06266315 -0.06845837 0.009891548 0.100639045 0.228745 -0.15074812 0.031534202 -0.1086535 0.101881124 -0.09385446 -0.06746482 -0.058927085 -0.0076198936 0.032319758 0.048370138 -0.0005767546 -0.13298911 0.07277861 -0.005295866 0.116173476 -0.07077388 -0.16022748 -0.0034026003 0.12959526 0.016094213 -0.01996698 -0.0870347 0.17577665 -0.10296026 -0.07253943 0.05700342 -0.18560207 0.12745906 0.06241931 0.089923106 0.0558117 -0.016112352 -0.10631487 -0.014007544 -0.09752363 0.04861553 0.080677986 0.14768086 0.037176766 0.09245753 -0.029714474 -0.047827713 0.04736719 -0.038647287 0.026918579 -0.106119215 -0.088162765 0.06354093 0.08866901 -0.098565616 0.06706143 -0.053273566 0.0016505176 0.14169444 0.08074872 0.09597891 0.20727079 -0.053996213 -0.08219579 -0.05582052 -0.009058443 -0.23545507 -0.020742824 -0.054457072 0.07837598 0.03524194 -0.06006966 0.058996085 0.0723263 -0.07685458 -0.049302425 -0.22253633 -0.109065995 -0.07424696 0.0074166176 -0.09453827 -0.048012197 -0.11919994 0.020444427 0.04257146 0.071423255 0.04135255 -0.12504517 -0.04664196 0.002532901 0.03825535 0.04328444 0.19982025 0.09844883 -0.06987177 0.09672029 0.0612964 -0.029227963 0.107857615 -0.022605667 -0.196118 0.008309955 0.03873205 -0.01703209 -0.00041228204 -0.06857542 0.06434615 -0.0043450636 0.016644884 0.035714194 -0.11545856 -0.089428306 -0.22099444 0.056474227 -0.11788788 0.016589994 0.03709882 0.06597099 -0.08921502 0.02254599 0.21668552 0.17763214 0.12871723 0.055808406 -0.09966312 0.07270968 -0.0033138401 0.06854107 -0.082409784 -0.0087131485 0.04643025 0.11391042 0.056894682 -0.11776317 -0.15519626 0.16821416 0.25225827 0.048075072 -0.12906614 -0.07731951 0.050911758 0.13411157 -0.12128907 -0.012433282 0.019593207 0.08645785 -0.0310271 -0.1530484 0.06545288 0.11821535 0.015388847 0.05587754 -0.039195646 -0.11280334 0.10129276 0.014942544 0.08974539 0.19135503 -0.052699953 -0.0024183213 -0.0070323823 -0.007834054 0.16364385 0.06788735 -0.030015046 -0.040823724 -0.04291683 0.09920396 0.042647094 0.04944764 0.032029167 -0.018822253 -0.07162191 0.028883835 -0.033312477 0.16898227 0.13421823 0.06328391 0.041179698 -0.0054628863 -0.12277928 -0.01588155 0.033787984 -0.038962178 0.0029172632 0.06390697 -0.044158164 -0.0533792 0.16505848 0.11824168 0.013707188 0.04206316 0.031136885 0.04483647 0.067590326 0.3492806 0.021885425 0.09052655 -0.21410444 -0.042754263 0.12621461 0.043564543 -0.43891147 0.06740232 0.19181643 -0.19959076 0.15193877 -0.27719557 0.0937999 -0.0008648626 -0.23499712 0.047946785 0.11841711 0.042124435 0.08061007 -0.0465184 -0.23017539 0.04248096 0.18367419 0.17457935 -0.17088886 -0.126986 -0.051785406 -0.085077874 0.04582723 0.0880883 -0.08673988 0.13048624 -0.032073516 -0.030549027 -0.041136403 -0.18591148 -0.029893182 0.004071522 0.01687476 0.037887692 0.024424175 -0.02643437 0.028619494 0.1002032 -0.009549808 0.03175949 -0.018617107 -0.06134282 0.05562097 -0.04978686 0.09037509 -0.04588545 -0.09836031 -0.09808243 0.001246676 -0.09541984 0.07511803 0.052251074 0.13921379 0.021073947 0.24694397 0.03495163 -0.052660964 -0.09283119 -0.18775325 0.15388153 0.11322245 0.051072255 -0.08627575 0.18445985 -0.035171915 -0.026902582 0.1437259 0.06589106 0.22011031 0.024872227 -0.03970308 -0.061180487 -0.18469962 -0.02452654 0.117792465 0.08534382 0.05379119 -0.16611654 -0.05101511 0.036013227 0.09491499 0.08583373 -0.042867288 0.1461798 -0.25894403 0.11186154 0.3005411 -0.0960144 0.03226662 0.041006193 -0.073856026 0.08352051 0.0026252847 0.006227721 0.083060384 0.001675071 0.31798646 0.015134693 0.01952821 -0.17104681 -0.054345034 0.11473777 -0.13354568 -0.21575572 0.003231547 0.14040753 0.0075711436 -0.0081520565 -0.1340883 0.021400835 0.0268878 -0.20761986 0.14040998 0.10074086 0.16239442 0.11781397 0.13647057 0.100880824 0.13035622 -0.12914717 -0.09166884 -0.0015647769 -0.053150658 0.0023052336 -0.012151656 0.15874347 0.11818266 -0.08723851 0.02385761 -0.08478315 -0.018824704 0.032179136 -0.3408712 0.2411244 0.056640867 -0.059570327 0.19273697 -0.034743115 0.01658496 -0.057713896 0.17359953 -0.034323085 -0.08838701 0.101835646 0.045513645 -0.004509253 0.08165178 0.23475994 0.03136102 0.040197935 0.02482031 0.13411705 -0.04406926 -0.027851045 -0.21182534 -0.12043248 -0.07043348 0.041439258 0.1802414 0.05359928 -0.091207854 -0.07279805 0.13747486 0.112661034 0.002814991 -0.044252645 0.112493284 -0.09933271 0.03920304 0.2272659 0.023868605 -0.08656325 0.04943704 -0.070825465 -0.21786115 0.09435978 0.039135408 -0.11411219 -0.17124675 -0.1845861 -0.09932089 -0.13302536 -0.25272864 0.081654586 -0.030674273 -0.0029940398 -0.028190771 0.06745243 -0.0599645 0.074288204 -0.023570012 0.04384636 0.03416909 -0.038266025 -0.13292988 0.014623705 -0.02042695 -0.18903722 0.050766177 0.096534215 0.25283566 -0.03911975 -0.050538186 -0.11994441 0.03259746 -0.003592773 -0.15957922 0.0067631667 -0.16172588 0.11213856 -0.101504445 -0.033830743 -0.15346788 -0.07610146 -0.018746518 0.028229695 0.07733217 0.16891848 0.050304648 0.15066105 0.19005267 0.16809928 -0.0036707195 0.10091119 0.10730093 0.06485658 -0.14546277 -0.084146015 -0.02748541 0.0779621 -0.0021346419 0.11368687 0.13152367 0.11991705 0.12388719 -0.1127017 0.103356935 -0.084577516 -0.22671567 -0.019070255 0.24396189 0.14408429 0.26129162 0.09266837 0.35280177 0.10399863 0.13015252 -0.03617584 0.19489364 0.0058736885 -0.10225883 0.20579465 0.16126461 0.2243337 -0.036219113 -0.0050975867 -0.0059854398 0.07825182 0.15535647 0.036814656 0.19748911 0.089719445 -0.023479939 0.08287114 0.17059402 0.1998289 0.118689135 0.011636173 0.033424065 0.03378232 0.10558813 0.053053826 0.1052672 0.08621798 0.0055838698 0.04513305 0.07053257 0.25955185 0.054607484 0.07585367 -0.05997191 0.041020334 0.051658127 0.20065568 0.0657787 0.16856392 -0.015355032 0.05280187 0.031396516 0.005826439 0.013775369 0.045192227 -0.029415244 -0.024249678 0.17073621 0.2710547 -0.1204367 -0.12594712 -0.095715284 -0.001260107 0.10187276 0.009141941 -0.041380044 0.01921033 0.006602787 0.056665897 0.054275796 -0.1073367 -0.05914105 -0.0463137 0.17138119 0.09512797 0.108050525 -0.21127516 -0.25599968 0.026704654 -0.27578506 0.15783168 -0.18233171 0.08433449 -0.08885846 0.10489037 0.3208161 -0.22731777 0.069537714 -0.18081628 0.042676892 -0.020677216 0.0129782325 -0.09116863 0.07805411 -0.13576715 0.120066695 -0.090908326 -0.19885212 0.16951346 0.04583888 0.24946603 0.14578365 -0.04536962 0.031851072 0.07921911 0.2230349 0.13339627 0.06457381 0.0337918 -0.040271938 0.09084229 0.002452656 -0.047491137 -0.056450717 -0.055376515 -0.1402096 -0.07503753 0.14984202 -0.020659925 0.070441164 -0.24787565 0.056831133 -0.01613527 -0.048144 0.018095996 -0.049582526 -0.20331885 0.10129346 0.052037153 -0.070647016 -0.09976436 -0.15240657 0.074024305 0.1849921 0.072673984 -0.09792616 0.078971095 0.034705363 0.15240104 0.13000299 -0.2712094 -0.058514867 -0.14595819 -0.12545675 0.050984044 0.041097112 -0.16407347 0.070457645 0.07633389 0.0046976195 -0.08676236 -0.0979378 0.10259321 -0.15112227 0.10644705 -0.016519915 -0.00958345 -0.17080878 -0.008935978 0.08706716 -0.17932528 0.010610824 -0.010884545 -0.08629509 0.09460573 -0.19657767 0.08702538 0.2080292 0.20045367 0.06262864 -0.0024624525 0.005749324 -0.023686776 -0.024960266 -0.12633479 0.04825257 0.28314757 -0.0061883237 -0.13443948 -0.13447447 0.07765655 -0.005974618 0.08768309 -0.053363424 0.08306236 -0.015829917 -0.073250405 -0.040099848 -0.11970544 0.19893596 -0.0039024742 0.09016001 -0.013180164 -0.15054704 -0.043173783 0.072202265 -0.087126 -0.09452387 0.08429535 0.1302921 0.24844979 0.086728714 0.081151195 0.108650446 -0.0819667 -0.11157859 -0.11268125 -0.08764568 0.085281745 0.02900501 0.0079496065 -0.25927165 0.20554769 -0.0894272 0.20518127 -0.14492415 -0.08124012 -0.22028494 0.036212496 -0.11012568 -0.10730001 -0.13725142 0.08347126 0.10578487 0.22170992 -0.05330357 0.010213541 -0.1717535 -0.07345995 -0.057536587 0.075237855 0.14213608 0.13200177 -0.10784574 0.07628228 -0.055678535 -0.04210575 -0.061027568 -0.009051508 0.17713977 0.030235171 0.03385284 -0.026224686 0.24459787 0.13050105 -0.07210621 -0.027361505 -0.021424454 0.014587197 -0.0701226 0.04388165 0.1452088 -0.13136281 -0.11281467 -0.017010523 -0.012374228 0.24035311 0.115438 0.12556243 0.006980694 -0.035148606 -0.18512678 0.09057528 0.07314748 0.14510313 -0.061039004 -0.065447934 0.011150956 0.06593361 -0.15793355 0.040060338 -0.0066029974 -0.08972978 -0.23109394 -0.013647371 0.1447713 0.16746847 0.035537623 0.19620056 -0.004294108 0.09533036 -0.04512309 -0.051459882 -0.06775091 -0.2060529 0.12870923 -0.064163245 -0.08014388 -0.11799717 -0.020435944 0.17634924 0.20937788 -0.16608669 -0.0354448 -0.10343578 0.09883378 0.028659355 -0.06365693 0.007257308 -0.047741864 0.1614246 0.054695953 0.066982344 -0.26669174 -0.006678868 0.2083211 0.13261291 -0.18470895 -0.031342585 -0.120151944 0.17111015 0.024427827 -0.07677956 0.0034157943 -0.26073655 -0.10849613 0.0036443726 0.08456754 -0.19413142 -0.03811553 0.10096858 -0.14514533 0.022918284 0.0065974505 0.17143804 -0.02301362 -0.01716006 0.08549598 -0.13263486 -0.02208832 -0.0455725 -0.013891181 0.08484065 0.05541615 -0.07486823 0.01366992 0.14904416 -0.08313657 0.014516678 -0.019316068 -0.0063005015 -0.16306576 0.14107628 -0.07743519 0.1026072 -0.06213766 -0.06255046 0.12131233 0.09938846 0.02086659 0.07611506 -0.028855277 -0.0008367628 -0.06616244 0.09040649 -0.06934133 0.14851564 -0.031583417 0.0020508564 0.0758728 0.0023864422 -0.029790832 -0.0030023449 0.08938184 -0.06628522 -0.0126237 0.0010286727 0.08645852 -0.009984537 0.18082991 -0.015653858 -0.023768364 -0.017103212 -0.13166414 -0.10367268 -0.05306669 0.11358298 -0.003312606 -0.048464417 0.12265348 0.15511772 0.12553824 -0.085309 -0.049524862 0.18137361 0.02411397 -0.026762707 0.071834795 0.100729905 -0.05714496 0.021943996 0.09265601 -0.11602871 0.0012345457 -0.11143897 -0.09835805 -0.05631001 0.047711954 -0.032202262 -0.064841814 0.0051554563 -0.11469627 0.042880323 0.113138676 -0.007920404 -0.0202649 0.037344035 -0.20284694 0.053681746 0.3101886 -0.012267622 -0.011912503 0.0743607 0.16453327 0.097496785 -0.21556069 0.056339882 0.25719303 0.062244106 -0.115460195 0.028182963 -0.12806873 0.12328037 -0.09558826 0.0074243634 -0.085778 -0.054644804 0.14861506 0.010345716 -0.055920247 -0.1145228 -0.18717015 -0.12512806 0.011195924 0.09802338 -0.05603515 0.15705436 -0.071750045 -0.023801172 -0.10795767 0.099076174 0.20975105 -0.17618169 -0.034616206 0.12647799 -0.14469455 0.05666839 0.12214722 0.007822881 0.055026308 0.17609024 0.19484265 -0.0061967215 -0.053237785 -0.09199801 0.097696416 -0.13717756 -0.025257403 0.010268977 -0.05030025 0.027982026 0.25645134 -0.012159859 -0.043540563 0.10153318 0.023958365 0.14393358 0.016468761 -0.02484232 -0.17837249 -0.16197348 -0.18356986 0.037933916 -0.13622496 0.12555774 0.0030246566 -0.024418691 -0.08438551 0.062225875 -0.08044978 -0.0985378 0.118834995 0.035462115 -0.023492943 0.0641433 0.0008931873 0.038301315 -0.08168479 0.20703986 -0.057961997 0.15560164 -0.018886885 0.08070971 0.07342235 0.11468518 -0.08406237 0.10756354 0.18464398 -0.025869299 0.0034706066 -0.052344665 -0.034643624 0.17114228 -0.100423455 -0.094211884 0.16109009 0.062454842 0.21203703 -0.045043863 0.012628114 -0.066067696 0.014330117 -0.17740966 0.06849545 0.032347407 -0.0057554664 -0.039036434 -0.0894754 0.07277129 -0.117109 0.05118959 0.20744514 0.14855215 -0.1505128 -0.053673808 0.042145073 -0.0070281923 -0.13994057 0.038531594 -0.0010016895 0.19143254 -0.02532287 0.11680034 -0.12670884 -0.10280093 0.0721662 0.108373076 -0.095739275 0.0024077406 -0.13815792 -0.018121982 0.083692275 -0.04349585 -0.02490347 -0.11297954 -0.06483584 0.1758111 0.007292489 -0.100230776 -0.031477194 -0.15974276 -0.10141597 0.13603397 -0.014248243 0.18907301 -0.009534784 -0.0035978695 0.06408942 -0.26725876 0.020493932 -0.0048986487 0.14860389 0.09646794 -0.11336917 0.12421386 -0.026231453 -0.090445325 0.019710325 -0.020276936 0.15384653 0.034062203 0.020565892 0.09006471 0.109287165 0.07836051 0.14194635 0.06086824 0.016765146 0.12391721 -0.009089614 0.0033246516 0.17215769 0.16219242 -0.0008175807 -0.045355156 0.14631735 0.08004183 0.031558126 -0.032187272 0.033169657 -0.002170846 -0.06643382 0.012904233 0.026542405 -0.03753951 0.09038257 0.12888324 0.096989766 -0.027624838 0.075582154 0.00779614 -0.1235746 0.06727294 0.014613164 0.2593548 0.14572708 0.07111502 0.02491705 0.016372226 -0.10036894 -0.17389873 -0.08725591 -0.004771702 -0.21055393 -0.05443218 -0.024761302 -0.021542655 -0.06617236 -0.034151383 0.17238939 0.06621453 -0.056030076 -0.006834779 -0.0028313335 -0.07679554 -0.07691302 0.1010524 -0.041978437 -0.10946964 -0.0043140342 0.011800976 -0.19727042 -0.004074636 0.08679799 0.04512294 0.22297952 0.12511095 0.14489341 0.28000858 0.075815625 0.01630702 0.09737403 -0.055923644 0.010768632 -0.06477276 0.05715829 -0.047831126 -0.051333092 0.058707163 0.0035886378 -0.1753923 -0.14555569 -0.11472665 -0.08829719 0.041442335 0.021893885 0.10652794 0.07528018 0.107190296 0.06083962 0.02096793 0.10993517 0.09194128 0.037609536 0.12710719 -0.23457882 -0.05601358 -0.057546314 0.08830101 0.1571395 -0.14322673 0.152709 -0.18742114 -0.14139126 -0.008508732 -0.028628994 -0.16687736 0.054322395 0.056739353 0.1305162 -0.018233396 0.017866436 0.04108011 0.27097023 -0.23320256 -0.031316306 0.090135574 -0.06821114 -0.0068244217 -0.039574843 -0.092735894 -0.020520378 0.06281493 -0.023626644 -0.045319475 -0.016576491 -0.00074363465 -0.17403196 0.046155393 -0.07206739 0.09918621 0.059105348 0.13601436 -0.099309124 -0.107415356 -0.10895248 -0.050818898 0.21424955 0.17199123 -0.14337379 -0.07438843 0.00013279053 0.06631293 -0.17151605 -0.13040416 0.053791765 -0.20846596 0.06293977 0.07958601 0.13959745 0.0048358208 -0.06354294 0.05748983 0.0015533215 -0.06470166 0.0037722897 0.0383169 0.17182373 0.07863237 0.121455684 -0.061060738 -0.07938557 -0.050505284 -0.041324552 -0.08179488 0.1708043 -0.0012092338 -0.100543335 -0.0031583935 0.1528646 0.15924788 -0.11801203 -0.020765234 0.024310013 0.09247811 -0.11009655 -0.36182472 -0.108695425 -0.057894785 0.0503474 0.2746543 0.10427572 0.027160656 -0.030206395 0.083451055 -0.059011046 -0.014028379 -0.10892581 0.1418906 0.039249893 -0.07075233 -0.011445501 0.05096508 -0.052039165 -0.08041435 -0.09239465 0.052903865 0.00840559 -0.16431354 -0.18695132 -0.059565406 0.10931994 0.065224215 -0.013148482 0.068600975 0.100270435 0.08538675 -0.08215896 -0.0638942 -0.13455956 -0.10749383 0.028573852 -0.029046131 0.09620602 -0.07753805 -0.19306657 0.054973345 -0.04744146 -0.08370337 -0.109384716 0.042303596 0.13749076 -0.040307388 -0.021556338 0.10716318 -0.18104456 0.16971949 0.21744265 -0.2516264 0.026617074 -0.1254005 -0.07982202 -0.101324365 0.17736012 0.032732937 -0.05831962 -0.017359369 0.11461772 -0.11332461 -0.22271538 0.24414149 -0.061795246 0.0028128738 -0.06318465 0.10439104 0.22421916 0.050033756 -0.17880389 -0.16537972 -0.039896477 -0.02682332 -0.17219512 0.081934094 -0.10863206 0.14933015 0.18206327 -0.024825353 0.043897264 -0.15016207 0.035400365 -0.03081157 -0.064509936 -0.056007456 -0.07485978 -0.10964916 0.16472009 -0.07696072 0.21607466 -0.039882775 0.19961603 -0.09660354 0.0036694205 -0.05263049 -0.0068591125 0.057382565 0.11531184 0.124423884 0.0064546377 0.012659538 -0.10517507 -0.12612233 -0.11463009 -0.04375733 0.024960563 -0.19118151 -0.0046353703 0.1516025 0.1121911 -0.058518406 -0.13968728 0.01901578 -0.2587101 0.12041559 0.022854865 0.13085268 -0.21998881 0.014681356 -0.021954797 -0.031534836 -0.09441221 0.13693286 0.10568679 0.25148115 0.08722252 -0.06490125 -0.056850772 -0.10295523 0.15137295 -0.12189014 0.14551918 0.046741247 0.006023014 -0.030686831 0.06606729 -0.0015470763 -0.03692133 0.06960048 -0.014397211 -0.07983348 0.059982676 -0.0063985656 0.048891 -0.07235325 -0.14787948 0.18290757 0.19887471 0.05032843 -0.070907414 -0.09117707 0.13730489 -0.094829075 -0.08211105 0.26458126 0.10890318 0.30184457 -0.15342192 0.018117493 0.23494372 0.014307591 -0.02296958 -0.17820776 0.10573042 -0.107272595 -0.036448132 -0.12345023 0.15568946 0.11548853 -0.0031584748 -0.115414895 0.15359071 -0.036593173 -0.11052048 -0.1762118 -0.06459651 -0.14546381 -0.08924936 0.06867492 0.0331054 -0.0024807237 -0.12747222 -0.07969429 0.20480204 -0.13097477 0.0035475087 -0.09523463 0.3017035 0.098845705 0.08965814 -0.08150509 0.10556891 0.08719263 -0.06701645 0.06292427 -0.07916496 0.047533542 -0.06598777 0.034955796 -0.0461993 0.0049975975 -0.10746937 0.024755698 0.0044187834 -0.054015357 -0.0055027967 0.013400448 -0.061635707 -0.012875858 -0.1275226 0.22880717 0.17655724 -0.010740666 0.05109645 -0.26990893 -0.3133016 -0.16508576 -0.25041288 0.018268704 0.14122786 0.17028384 -0.22828393 0.014148934 -0.046936363 0.014620755 -0.09272429 0.14081301 -0.013617349 0.14715827 -0.106006145 0.074282736 -0.005966848 -0.032774244 0.063231535 -0.029917348 -0.26619652 -0.3062868 0.12724222 0.12302585 0.1887341 -0.0017528249 -0.15623085 -0.047724344 0.044820584 -0.13875377 0.09874245 0.15196629 -0.016226936 -0.059083074 -0.14263764 0.11002734 0.06512427 -0.02348431 0.028874924 -0.10050962 -0.027250988 -0.17722426 0.098790504 0.015070719 0.13562612 -0.027361194 -0.0136199705 -0.12123174 0.075975694 -0.087584 -0.048642237 0.00010471861 0.012122419 -0.1706097 -0.023080587 0.07952302 -0.037833802 -0.022473175 -0.010726661 -0.018362006 -0.08580525 -0.04168467 0.027234152 -0.22927225 -0.07533144 -0.08020037 0.1100276 0.014472271 -0.050065197 0.03171182 -0.070378795 -0.058277387 -0.16673796 -0.11426848 0.1531241 -0.048828244 0.06636839 -0.09087773 0.07595337 -0.1026082 0.0039227926 0.005285131 0.23278053 0.06304253 -0.0592904 0.0685049 0.21381745 -0.16296361 -0.08424821 -0.023689756 -0.041708823 -0.041235298 -0.11317687 0.1023455 -0.21443401 -0.14417607 0.11432738 0.09841449 -0.023127448 -0.094656594 -0.008338498 0.031909667 0.109207414 -0.09656206 0.05534754 -0.04525253 0.007303422 0.12739688 -0.02403369 -0.079829246 -0.054776363 -0.019252656 -0.009096489 -0.08306977 -0.20230852 -0.0560929 0.035982568 0.01362583 0.11995545 0.19554865 0.075933374 0.13825206 0.07667743 0.16303009 0.18810438 0.036780942 0.00944353 -0.118246004 0.06747312 0.06764929 0.16214041 -0.074678764 -0.0044491985 -0.16107604 0.27835277 0.021535642 0.04493022 0.06200388 -0.0078555085 0.13898906 -0.07799616 0.26659152 0.10871102 0.020920249 0.14250794 -0.11686349 -0.028861487 0.14442503 -0.18670602 0.056045778 0.053217616 0.19692259 -0.15829554 0.1609631 -0.055947073 -0.052660577 -0.1365412 -0.16712083 -0.020842211 -0.12166264 0.13456112 0.022187052 -0.077092394 -0.049366597 0.054390434 0.077967234 0.049726598 0.18979377 0.10761423 -0.05002551 -0.14944124 0.0021641052 0.0932426 -0.09278689 -0.08906083 -0.07191869 -0.02078222 -0.07610339 0.07070407 -0.16051333 -0.15797187 -0.033388883 -0.01756528 -0.14546439 -0.060674883 -0.04010438 -0.039329793 0.007228511 -0.07411744 0.09142766 0.022521375 -0.09752195 0.058396686 0.04882368 0.16568308 -0.03142054 0.09745347 0.11153589 0.21072738 0.20505112 0.06869271 -0.042111695 0.01690729 -0.055753246 0.25222746 0.04986698 -0.040564265 -0.04596151 -0.12130356 0.05565591 -0.08200112 0.10981482 -0.1292935 0.012724145 0.115022376 -0.21522471 0.20182656 -0.04252852 0.014109538 0.07615256 0.058594976 -0.017278142 0.07343949 0.04115479 0.2456199 0.105512746 0.2406745 0.11872558 -0.14084753 0.36846018 -0.013223386 0.17498519 0.051674154 -0.012884001 -0.14483368 0.02486618 0.07233293 0.19992024 0.043866817 0.09359426 -0.21640769 -0.008557268 0.041055165 0.02236149 0.09611572 -0.036590423 0.0048787105 0.118122675 -0.2278689 0.05893505 -0.033388484 -0.07222419 0.01963653 0.11727327 0.06619014 -0.024263605 0.09524322 0.078327134 0.021734973 -0.023330562 0.018767066 0.21656635 0.06542703 -0.19167571 -0.2634981 0.04589712 -0.10765132 0.09255332 0.23345953 -0.111884736 -0.004513738 -0.017069414 0.037974287 0.123916 -0.13294518 0.056979794 0.10315238 -0.018637706 -0.013744699 0.041844938 0.034481708 0.05823526 0.05612805 -0.079189606 0.09480981 0.11120643 0.0163357 -0.17429875 -0.030960456 -0.016194066 -0.10753151 -0.025670998 -0.0942811 0.14980465 -0.0016793421 -0.18285324 -0.008558983 -0.025792181 0.16967142 0.043600053 -0.018737642 -0.06692166 -0.03645719 0.0018825097 0.014795846 -0.019071987 -0.042331956 -0.035140328 0.25077248 -0.077072516 -0.0557972 0.3293854 0.04210133 -0.13799806 0.08426872 -0.06825352 0.11365652 -0.026568271 -0.046252165 0.15026055 0.06441149 0.07469417 0.007857314 -0.051461417 0.09043148 0.19263725 -0.022160858 0.13645872 0.16899729 0.02873548 0.093734555 0.056104884 -0.07127219 -0.0049027214 -0.0040859906 -0.041608512 0.0337677 0.002130749 0.07736919 0.06631124 0.01671533 -0.13672128 0.17907228 -0.0141891 -0.0080886455 -0.034252085 -0.048841167 0.1544058 0.13860443 0.044439342 -0.010750015 0.0619118 0.007379698 -0.019022292 0.033810593 -0.044115774 0.025226427 0.020422092 0.060293604 -0.061913695 0.07101364 -0.09063115 -0.057256665 -0.052892506 -0.107205175 0.101566225 -0.09690525 -0.06989163 0.12554078 -0.05705827 -0.018814268 -0.1012029 0.08329512 0.08467362 0.07389459 0.05375298 0.007358911 -0.052437667 -0.08149693 0.12899055 0.076480426 -0.069330424 0.003983177 -0.030011509 -0.11282107 0.017765138 -0.041549265 -0.09525367 -0.14791326 -0.15638036 -0.037142612 -0.008509497 -0.087530084 0.065073945 -0.0065546543 0.05768853 -0.018291079 -0.07871176 0.011411757 -0.12626745 0.053943854 -0.09371492 0.09182325 -0.033845574 0.10625335 -0.112262316 -0.06777697 0.038093496 0.11704971 0.16666089 0.0041366164 0.18377456 -0.028966455 0.10987676 -0.0942181 0.04202005 -0.2341693 -0.1121591 0.04666768 -0.13124388 0.04269496 0.09064581 -0.050132018 -0.09689529 -0.04741866 -0.096581236 -0.010121356 0.010209062 -0.030601012 0.16743593 -0.071940385 0.13914332 -0.10412392 0.007277757 0.11831054 0.11313572 -0.04202579 0.05550697 0.04211791 -0.053993918 0.061594993 0.18624921 0.047170065 0.056635637 0.067215495 -0.14609766 0.046022467 -0.10167596 -0.058988694 0.21619418 -0.02532616 -0.07401741 0.11525826 -0.0947677 -0.044741914 0.12490521 0.0042767567 -0.1561597 0.05439896 -0.03964659 0.15398514 -0.060618695 0.105122596 0.1775698 -0.085094325 -0.019321302 0.038862526 -0.085734576 0.027029494 -0.022492029 -0.024506757 0.0048938394 0.0071264715 0.016388077 -0.059882633 -0.05551717 -0.0118587585 -0.004475764 -0.043884933 0.032393966 -0.18147618 -0.073046625 -0.027992783 -0.08561152 0.1629198 0.0018861847 0.017676968 -0.048323072 -0.001577892 -0.12152535 -0.016981704 -0.09370084 -0.02774036 -0.25599167 -0.11280032 0.14639264 0.083039775 0.13190393 0.13877213 0.06729874 -0.045286868 -0.1037251 0.114674464 0.0064567975 0.24940228 -0.036509797 0.19728959 -0.015679179 0.13360485 0.16966918 -0.102295 -0.048499808 -0.10329792 -0.122994445 0.06670669 -0.019662837 0.005236632 0.055623915 -0.18573868 0.1286766 -0.034909416 0.05324013 0.062071282 0.13707966 -0.0104857385 -0.21236375 0.0057127615 0.020070685 -0.103426084 0.014749065 -0.036101844 -0.13427539 0.06714849 -0.056372516 -0.04063792 -0.046257883 0.12354786 -0.0040916163 0.007909982 -0.044063617 0.046286684 0.1349318 0.064786084 0.068686694 0.06062302 -0.13802427 -0.087611884 -0.02049874 -0.0725864 -0.1064537 -0.18721758 -0.13465293 -0.025652556 -0.006942637 -0.07930538 0.007892521 -0.043383364 0.10905736 -0.016162576 0.06963309 0.020321377 -0.1402071 -0.009065817 -0.12356241 -0.010812084 -0.074513085 0.038196303 -0.13423543 0.0014701826 0.05724156 0.09075956 -0.076416776 0.0017750972 0.018414697 0.15471263 -0.14813301 -0.09111025 0.28044626 -0.027309729 -0.18909939 -0.058255013 -0.27688733 0.02409207 0.080978476 -0.091166236 -0.047072392 0.092365414 -0.17502154 -0.13215712 -0.022811519 -0.07523348 -0.02938669 -0.12637503 0.02143135 -0.014923309 0.05491905 0.02003995 0.020669008 -0.14463073 0.049259156 -0.03308664 -0.016659832 0.104826435 -0.07194356 0.13511844 0.14444754 0.075278446 -0.09806208 -0.21862933 0.10788349 0.011138506 -0.074519746 0.11735623 -0.08615589 -0.042415526 0.052489035 -0.11136028 -0.010948091 0.10891372 0.021111075 0.124742635 0.11336023 0.0007738334 -0.23367414 -0.11057723 0.07633341 -0.15502514 -0.032669257 0.033848062 0.14695707 -0.057501968 -0.06434877 -0.005244577 0.035091296 -0.015424683 0.10492683 -0.07991438 0.012016093 0.044521272 -0.040023282 0.083970994 0.0148958545 0.07888457 0.01941041 0.037640456 -0.06323917 -0.063077174 0.122439645 0.063551046 -0.10229652 0.018086342 -0.2373776 -0.057394017 0.09610277 -0.012514559 0.0117912665 -0.30163813 -0.039225362 0.033827223 0.046528988 0.09623557 -0.021025775 -0.016565582 -0.13321175 -0.020452155 -0.1261575 -0.184787 -0.10851794 0.15086849 -0.02705612 0.021987736 -0.051349625 -0.1790551 0.093611315 -0.21721981 -0.05547927 -0.005461488 0.023048965 -0.07264696 -0.18379615 -0.08010933 -0.0748758 -0.07730935 0.09700586 -0.12136028 0.030097928 0.015829703 0.09604551 -0.013313187 0.079113096 -0.017222013 0.043439254 -0.15029411 -0.2638278 0.037754685 0.043118313 0.047550235 -0.05249325 0.14897223 -0.04598778 0.0420879 0.059463624 0.17187402 -0.03170296 -0.06531929 -0.14981453 0.19526012 0.082164384 0.08532938 0.35169357 0.072527766 -0.09020883 -0.019590357 -0.09747824 -0.03958684 -0.04025896 -0.05870244 -0.13932826 0.15925017 0.029884804 -0.022547204 0.075763784 0.047106728 0.027569074 0.06849981 0.013393475 0.067022145 0.106245 0.04720572 0.008894363 0.15303978 -0.045379467 -0.012117452 -0.09481292 -0.18754166 -0.15716463 -0.14676835 -0.08991384 -0.2649993 -0.118542224 0.053692233 0.15366426 0.013437934 -0.33386117 0.16416787 -0.00083253015 -0.0066980533 -0.03754805 -0.026451016 -0.03160459 0.028691357 0.1653744 0.028967772 0.10855361 0.09399059 0.06670456 -0.17866188 0.11166327 -0.04579013 0.07157273 -0.0663195 -0.087573625 0.19763887 -0.11707936 0.11702144 -0.12436173 -0.11270306 -0.03155529 -0.19631207 -0.046657268 -0.2016902 -0.13296051 0.07957654 0.012465679 -0.23024163 0.08193175 0.05216639 -0.11777249 0.17333235 -0.05922752 -0.13410242 0.16339996 0.029205047 0.022795284 -0.009576716 0.11799657 -0.05248785 -0.15449798 -0.06786776 0.13267747 0.08321322 -0.025501566 0.16825941 0.10572801 0.004274873 -0.037972 0.027422301 -0.0811158 -0.02210002 0.02400802 -0.14263876 0.022967847 0.029837256 0.04682157 -0.15997243 -0.013673176 0.011124031 0.11724403 0.062452257 0.28798756 0.15695268 0.050711915 0.03515181 -0.056787882 0.11687339 -0.102285944 -0.082369596 0.04556899 0.12257565 -0.22019686 0.13744712 -0.014013513 -0.1883875 -0.30017278 -0.122004665 0.028963305 0.024343994 0.041939046 -0.060458206 -0.11416418 0.024659747 -0.0034822924 -0.061579112 -0.16424339 0.078753166 -0.118124954 -0.0624943 -0.029761722 0.15218578 0.02793841 0.013302151 0.0902941 0.30849272 0.07365037 0.23975569 0.08222674 -0.029630158 0.03359725 -0.12825446 -0.020494226 -0.06261904 -0.040288597 -0.074989505 -0.028709682 0.053223267 -0.011949191 -0.18643732 -0.043678243 -0.121006034 0.0030250014 0.068974026 0.051049333 -0.012771991 -0.006309723 -0.105679534 -0.2030749 0.041880734 0.06814288 0.13075858 0.019735953 0.1626381 0.019555012 0.14218353 -0.00032676646 -0.04049427 -0.18943557 -0.022994474 0.018661799 -0.010071161 0.20655271 -0.11624661 -0.056358125 -0.090487264 -0.056377698 0.10314131 0.14780317 -0.07007926 -0.072300754 -0.115712866 0.16156244 0.1430342 -0.03197919 -0.16041689 -0.07041232 0.035087742 0.11704738 -0.300142 -0.11346321 0.07585782 -0.087265424 0.24092585 0.14547546 -0.089690454 0.0052409885 0.007870668 -0.048136164 -0.073818214 0.20886841 -0.09053924 0.08129567 -0.012714652 0.028369859 0.05618444 -0.059855867 0.05679043 -0.20464297 0.043970738 -0.24685301 -0.022684673 0.0854243 0.06222953 -0.09890724 -0.086032666 -0.019291084 -0.0021852045 -0.15881093 0.038083516 0.093256526 -0.089576185 -0.028800104 -0.06359936 -0.11724606 -0.10165669 0.11027299 -0.12474308 -0.04848568 0.052031677 0.11023727 -0.018277857 0.04206378 -0.20878533 -0.0019955586 0.024943203 0.122922756 -0.05404585 -0.024163762 0.105881445 -0.009203379 -0.11088414 0.25516334 -0.107859276 -0.0064700083 0.034668814 0.057695586 0.011959443 0.031100098 -0.044299982 -0.13790192 0.33055162 -0.0026651784 0.08498303 -0.044566788 -0.015109296 -0.10862498 -0.13760279 -0.0061575472 -0.07013631 0.115389675 -0.19349144 -0.05959706 -0.018163973 0.09088702 -0.15127839 -0.0033684256 0.1279499 -0.014612291 -0.1376811 -0.13641539 0.08597641 -0.1260594 0.03920266 0.011434911 0.03771325 0.04715848 -0.09336708 -0.09755282 0.10242649 -0.08948237 -0.2609617 0.038566984 -0.024771243 0.04510326 0.19014683 0.10288853 0.19319569 0.025551 0.27707213 -0.10674561 -0.02769613 0.10519017 -0.025530742 0.23906998 0.012604558 0.22969513 0.18518832 -0.0313912 0.08619393 0.11916714 -0.11871974 -0.1312 0.1256419 0.027398847 -0.022650525 0.0011123302 -0.23860414 -0.01905623 -0.07530467 0.091807164 0.13043684 0.03112007 0.05359846 -0.176043 0.051356796 -0.009361559 0.17066325 0.25001347 -0.09501025 -0.056080785 -0.018917242 0.0804803 0.05042646 0.008707318 0.1644897 -0.08633059 -0.10274534 -0.10290595 -0.06306428 -0.18245745 0.026076654 -0.01654902 -0.07865151 0.087376624 -0.0059500528 0.10626473 -0.019504985 -0.0024194887 -0.05627824 -0.000704654 0.07122313 -0.041133422 0.082775004 -0.10782261 0.12089145 -0.084299244 0.077460356 -0.066203624 0.15460129 -0.070575655 -0.22044885 -0.030881187 -0.048178665 -0.07568628 0.148562 0.030654525 -0.016895702 -0.026675967 -0.08008049 0.20122822 -0.0639071 -0.15513678 0.079605065 -0.021575563 0.20387737 -0.052620564 0.084598415 0.108219735 -0.052133583 -0.07429208 0.07413665 0.05748919 -0.14106101 -0.112843566 -0.22270922 0.0329907 -0.0160557 -0.042523585 -0.2191771 -0.16704932 0.03690487 -0.041439414 0.0019722204 0.025322735 0.3304935 0.046542045 0.16884127 0.04857269 -0.015003896 0.0038238224 -0.084610105 0.0129112275 -0.06840194 -0.21835051 0.17360252 -0.05375617 -0.16376193 0.08981718 -0.07286143 0.109016605 -0.07333943 -0.05408977 0.034483172 0.059321936 0.07684837 -0.0089741135 0.052861672 0.0841156 0.030183922 -0.040574357 -0.19456218 0.0026783613 0.003211019 -0.11844134 0.038105898 -0.24774657 0.1658676 -0.027170653 -0.03456991 -0.042480364 -0.12981519 -0.017954202 0.02963623 0.18069105 -0.01015981 -0.24217738 -0.15416613 0.20520197 -0.1092536 0.14270495 -0.093408674 -0.01824559 0.062520824 -0.08201945 0.15922152 0.007572836 0.046085086 -0.026760701 0.06587203 0.16743208 0.067689374 0.17502825 -0.039927226 0.054029915 0.021940686 -0.18393806 -0.052418206 -0.0996433 -0.08385532 0.06936724 -0.011669424 -0.010234621 -0.004324196 0.017939571 -0.046980407 0.08578748 -0.019888483 0.20485088 -0.14093332 -0.05847361 -0.05057421 0.20404935 -0.13201347 0.04259223 0.024839407 0.03336023 0.123634316 0.12158293 -0.045095682 0.019401746 -0.1864102 0.019462105 -0.03860427 -0.01658113 -0.14730483 0.07095077 -0.1313895 0.0014550204 -0.12816021 -0.14301868 0.15926231 0.15055563 0.15186793 0.2107839 -0.07475037 0.08765988 -0.1497881 0.14641401 -0.0048308503 -0.11900062 0.061446987 0.094495155 0.091526836 0.021485988 0.01319573 0.052686658 0.030376408 0.054135583 0.020399947 0.08427838 -0.16272078 -0.013127347 -0.13838466 0.03722304 0.17374583 -0.035432808 0.03892699 0.13735405 -0.10746628 -0.09327977 0.030942086 -0.33188245 -0.053891715 0.14044516 0.1348136 0.09775241 0.17947441 0.06998745 0.011037216 -0.008458889 0.029904924 -0.047943093 0.12634833 0.15215594 0.13799128 -0.040810876 -0.0953774 0.12769736 0.05439072 0.032858435 -0.06336321 0.04256638 -0.10852781 0.06340624 0.13788867 0.14172354 0.03807991 -0.17522958 0.04593485 0.3179985 0.012752791 0.10446818 0.13584277 0.019530397 0.27042386 -0.04292751 -0.10448504 0.20122021 -0.028333345 -0.13300264 -0.017699318 0.12670541 0.18255295 0.061000437 -0.04024309 0.1215004 0.4025824 0.06912821 0.009967221 -0.1297863 -0.06374814 -0.021371024 -0.053460024 -0.0016077835 0.17780161 0.12471669 -0.015883273 -0.14220904 0.10096424 -0.09015933 -0.24416181 0.17527393 0.22814688 -0.114806786 0.14060496 -0.013205094 0.15175417 0.057592344 -0.009916083 0.110550106 0.019778758 0.061111514 -0.08561114 -0.0687185 0.12855776 0.0038709678 0.09224557 -0.053259302 -0.07951053 0.13607189 -0.15229587 0.12514608 0.13205047 0.08600895 -0.06878075 -0.08165238 -0.021005576 -0.12950397 -0.0961694 0.04309244 -0.02149708 -0.19021155 0.043858863 0.1427468 0.11197604 0.020106532 0.1249459 0.008740962 0.13948877 -0.09513599 -0.008958201 -0.0006820363 -0.099966355 -0.018755786 0.1423988 0.1169781 0.054754805 -0.06130296 0.14974195 0.034973282 -0.10186139 -0.019368755 -0.17432997 0.0035370614 -0.019837994 -0.057446696 0.15846002 -0.11561541 0.0706393 0.21867082 0.10772679 -0.12051975 -0.23077276 -0.22146027 -0.064908534 -0.042074554 -0.20200895 -0.0897889 -0.047031827 -0.03046894 -0.122306965 -0.07467202 -0.052774318 -0.0951399 0.22514962 0.024131337 -0.15393269 0.042872164 0.033332683 -0.042568035 -0.12771192 0.17580546 -0.10698839 0.06607722 0.020005053 0.060081054 0.1706858 0.05616389 -0.055866424 0.11059923 -0.06310994 0.016355801 -0.12930836 -0.10332812 0.005138667 0.03680867 -0.17023906 0.049728736 -0.0819429 0.1279688 -0.035196442 -0.11236223 0.007580456 -0.0916235 0.12689452 5.3020754e-05 -0.015167662 0.059180103 -0.10049474 -0.12891537 0.040835157 -0.10996707 -0.11000101 0.0836756 0.05250641 -0.12538296 -0.061913606 -0.09037316 0.17763193 0.09060104 -0.042084485 0.057619467 -0.13561861 -0.06726462 0.010486326 0.045223076 -0.009745913 0.024801351 0.007833646 -0.01635774 -0.029614558 -0.04262649 0.02319375 0.04108156 0.019835917 -0.11785971 -0.09989279 0.03988818 0.14716733 0.015241547 -0.041166842 0.022434045 -0.11368214 0.13089432 0.018659415 -0.066945724 -0.016679546 -0.052703623 0.131167 -0.020224009 0.015536575 0.057372645 -0.07407666 0.019370947 0.027443556 -0.15540788 0.025269648 -0.0045762067 0.012996629 0.0035629713 0.025916988 0.13373432 -0.117950745 -0.034215234 0.066661865 0.048092585 0.045940556 0.27535772 0.061413553 0.11309378 -0.030707207 -0.099291235 -0.031431742 0.07119602 0.040682785 0.04032514 -0.02143444 -0.037380263 -0.017985724 0.072447546 0.08407275 -0.10062417 0.07623426 -0.06507213 0.046892166 -0.019196574 0.15657885 -0.04180746 0.017861184 0.060659315 -0.087395884 -0.007285706 -0.026658488 -0.05138135 -0.0439723 0.11120146 -0.059855074 0.05664079 0.0314595 -0.13969801 0.051916942 -0.14135133 0.062809184 -0.050719164 0.00083672535 -0.129428 0.012238232 0.09269504 -0.080696546 -0.060716707 0.0454621 0.04796183 -0.24341793 0.20154063 0.05285535 0.06969187 -0.014354045 -0.18553536 0.067472205 -0.056518804 0.05439317 -0.021880107 0.023803938 -0.077499636 0.086438894 -0.1188379 0.22455694 0.22379486 0.16326995 0.1275479 -0.008454836 0.11665467 -0.00961765 -0.15535176 0.15032014 0.11288244 -0.0031339107 -0.12251843 -0.05862007 -0.18211456 0.09450808 -0.16033089 0.028683087 -0.08436933 -0.14267035 0.02383551 -0.03337994 0.08381891 -0.12676053 -0.075731464 -0.23876423 -0.21843466 0.17981924 0.20835982 0.00927262 -0.08238288 -0.029844893 0.08735742 -0.0514389 0.023763387 -0.001275605 -0.056881268 -0.052619275 0.029332086 -0.09768882 0.045172933 -0.047157895 0.01273673 0.13839626 -0.016819205 0.091980435 -0.17920329 -0.0470363 0.002768862 0.19233307 -0.19599521 -0.009620986 0.14566888 -0.078502044 -0.021283882 0.0331739 0.018450856 0.15657705 0.04484738 0.13277729 -0.036000837 -0.07405254 -0.02257232 -0.11591031 0.04835117 -0.038587812 -0.06717889 0.049865842 -0.114371575 0.077050224 -0.04783374 0.11590964 -0.039273757 0.06319097 0.017956238 0.07439019 0.01099469 -0.16633974 